{
    "epochs": 50,
    "layers": [
        {
            "bias": [
                [
                    -1.206512925964062
                ],
                [
                    -1.023837313578328
                ],
                [
                    0.32432618995348295
                ],
                [
                    0.1761157318461639
                ],
                [
                    -0.05521548420192612
                ],
                [
                    0.9366188208210793
                ],
                [
                    0.5207106613964615
                ],
                [
                    1.4439619125551002
                ],
                [
                    1.1411592471849037
                ],
                [
                    1.0972159516137
                ],
                [
                    -1.0832665124710075
                ],
                [
                    1.4089845093422484
                ],
                [
                    0.199420844349139
                ],
                [
                    -0.4880668961482417
                ],
                [
                    0.2062151871689407
                ],
                [
                    1.1798582195201757
                ],
                [
                    -1.2282672103584495
                ],
                [
                    -0.16395799393381758
                ],
                [
                    0.6475308188984163
                ],
                [
                    -0.006114122236615593
                ],
                [
                    1.1262298591166549
                ],
                [
                    0.8998978956780687
                ],
                [
                    -0.3548355688730839
                ],
                [
                    -0.8852996696211832
                ],
                [
                    -1.1095222520707608
                ],
                [
                    2.899551106079266
                ],
                [
                    -0.16205038093579624
                ],
                [
                    0.3187991965708759
                ],
                [
                    1.3018819977175824
                ],
                [
                    1.627332099428594
                ],
                [
                    -1.3752384727787523
                ],
                [
                    1.206340247857959
                ],
                [
                    1.4730690955200951
                ],
                [
                    1.1204588220581866
                ],
                [
                    -0.3989646542152865
                ],
                [
                    -0.04085581566964115
                ],
                [
                    1.3577447797701918
                ],
                [
                    -0.5080595649505139
                ],
                [
                    -0.5476505868514464
                ],
                [
                    1.3254230788579924
                ]
            ],
            "type": "Dense",
            "weights": [
                [
                    2.552485939206843,
                    -0.12985973272871748,
                    -0.492276163304761,
                    -0.9745115063085581,
                    1.3809863344342956,
                    0.5233285945760372,
                    1.924657872245176,
                    0.46750533775972164,
                    0.5808099220693475,
                    -0.6879477218274939,
                    1.2131555750217884,
                    -1.3076268363641317,
                    -0.4084708821765408,
                    0.0824821268678335,
                    0.2926625460108577,
                    -1.7802536987249054,
                    0.9284026765587272,
                    -2.121823234205793,
                    -0.08949086914069905,
                    0.7314432882486757,
                    -0.557200714359046,
                    1.7047116814035832,
                    -1.778435906559651,
                    -0.671664290013248,
                    0.08329983065323635,
                    -0.5901771088304019,
                    -1.2102816492487518,
                    0.9415322808391525,
                    1.000161314381405,
                    -0.06530747060305547,
                    0.34378859421519803,
                    0.4561257402944274,
                    -0.6536215139227965,
                    0.6740994593978559,
                    1.1694896104161665,
                    -1.3660540508286543,
                    1.6881611629554865,
                    -0.32565537151705803,
                    0.4377770189640875,
                    0.5896874551673413,
                    0.7926274823547889,
                    3.0925542469874157,
                    -0.652012192077239,
                    0.057777274872407296,
                    -0.2910114448253099,
                    -0.5306484568328503,
                    -1.5142408514147516,
                    -0.6803504205253502,
                    1.218466990650765,
                    0.7144104434209392,
                    0.4115506103468942,
                    -0.07141771873501965,
                    -0.93231343439762,
                    0.991302759339631,
                    2.047931517154846,
                    1.1568037123516532,
                    1.0498044135301825,
                    -0.10237444750011389,
                    -0.5745922791275498,
                    -0.92046712504979,
                    0.7073412556518538,
                    1.3490463674641526,
                    -0.47477936512802443,
                    -0.49944458079254217,
                    -0.021571229413228223,
                    0.5108261769772711,
                    0.09515891659583287,
                    1.9178299120437383,
                    0.35399106528433855,
                    -1.5806394534254342,
                    -1.3510059781461523,
                    0.6964883392192651,
                    -0.948125977066219,
                    0.4535424793033737,
                    -0.42179472211879127,
                    0.35239023985945916,
                    0.25838182977301616,
                    0.7060567488503031,
                    -0.6162798520940027,
                    0.25493723185899214,
                    0.9333569732991136,
                    -0.6854657600503034,
                    0.22146368118050924,
                    0.47596528954881256,
                    -0.8907670556438188,
                    -0.04907339042203327,
                    1.3163601466318877,
                    -1.3665653617295006,
                    0.30545875341439466,
                    1.1913205142513001,
                    -1.3269515104600471,
                    1.11799677563009,
                    -0.49434399093656667,
                    1.0936972698894336,
                    -1.662428122521357,
                    0.5564984161573364,
                    0.36985346116722667,
                    0.6159739028276267,
                    -0.5879087056951675,
                    -0.0996292255934221,
                    0.2584296831257116,
                    -1.2199207434593493,
                    0.08916106308248879,
                    -0.15462273920946074,
                    1.7268223370055524,
                    2.328186771879364,
                    -0.1597517559842083,
                    -0.8357019677921871,
                    -0.5603026329324666,
                    -0.25819375920164667,
                    -0.2292006572989445,
                    -0.1425435464158078,
                    1.0475561832710114,
                    -0.26189186947308746,
                    0.5477196186769064,
                    -0.0263809841994211,
                    -1.5894188968578986,
                    0.2696319360916038,
                    0.9055765411391402,
                    0.5682855714849222,
                    -1.0083999136648618,
                    0.8130322543282004,
                    -0.7551780725442974,
                    0.979081215817544,
                    0.502605338202697,
                    0.3916383852439077,
                    1.1615187738114272,
                    1.1321890351511035,
                    0.13256778440196773,
                    0.29063996580274043,
                    -0.19166186494111362,
                    0.3338357238484702,
                    -1.0303928592329958,
                    0.18663513108623095,
                    -1.2615082817957468,
                    -0.14311353085183712,
                    1.2243633454627447,
                    1.5325350649666365,
                    1.116373772418683,
                    1.501870336276215,
                    -1.037015546407236,
                    0.3272531987346726,
                    1.810095478115527,
                    0.2807320344119566,
                    1.8042388623552645,
                    0.0943876030258487,
                    -0.2817888596294811,
                    -2.8600925722003443,
                    0.7561167312056944,
                    -0.5819676265189441,
                    1.1942265025385437,
                    -1.3246701584503047,
                    0.6953076355509048,
                    1.910624002780055,
                    0.42209406263707466,
                    0.6410214758152413,
                    1.781536408451554,
                    -0.36487123279986705,
                    1.73409786071563,
                    0.21127006205497542,
                    -0.02734306339813152,
                    -1.9119108358541752,
                    -1.296457864947149,
                    -0.48719317427604303,
                    -0.8625267923230151,
                    -0.8583598864009292,
                    0.5068209606016499,
                    0.6024698007546557,
                    -0.6248030800543947,
                    0.5181115897103179,
                    1.5310973452909467,
                    -1.5989762329732982,
                    0.4697172878129462,
                    0.2829317068314361,
                    -1.570437240227611,
                    1.2827058831871079,
                    -1.6269952395878118,
                    0.5141413007952437,
                    1.5020629228806441,
                    0.2087414675024535,
                    -1.3329913239159632,
                    0.4628602442618917,
                    -1.7768414892013786,
                    -0.3061771416977341,
                    -0.5362458739169674,
                    0.5684129559017997,
                    0.7149819682680705,
                    0.9621732048754656,
                    1.3747597175895374,
                    -0.4943423682321827,
                    -0.5416280684940074,
                    0.057781036767811364,
                    0.39665292133370433,
                    0.7932389268433322,
                    0.7990447438635738,
                    -0.48541781969711423,
                    -1.3941675103243139,
                    0.14259059264834764,
                    -1.7491618355880278,
                    0.7994717052439405,
                    0.5241157841324099,
                    0.43965440750644114,
                    -0.7469893040597152,
                    1.3393411750220738,
                    -0.2851815469647333,
                    -0.9338362188852818,
                    -0.49441164598074827,
                    0.058237586478171434,
                    -1.8274046657982057,
                    -0.7171519727754635,
                    0.38443133222924014,
                    1.4226168339928282,
                    0.5714211127638917,
                    0.2837398237281301,
                    -1.2105889050110805,
                    0.43746060226000844,
                    -0.20248611337692476,
                    -0.7625216736163166,
                    0.572412537822519,
                    1.6939931567396822,
                    -0.3079433490724416,
                    -1.2670200190301042,
                    0.7734021818763045,
                    -0.8267284722740479,
                    0.7067952759045237,
                    1.741836173971071,
                    0.7533867300437488,
                    1.9205419842167286,
                    -0.3474723569506821,
                    -0.6244004755311666,
                    -1.4813633529767798,
                    1.455500071019474,
                    0.4718104982393172,
                    1.1407519623243811,
                    0.24400852585551208,
                    0.4131845751536655,
                    0.24775701680396522,
                    0.46724179881794903,
                    2.511133632182287,
                    -0.7548847941584524,
                    -1.5325449096074486,
                    -0.2042926344531802,
                    -0.40494626880831897,
                    -1.9043030218894623,
                    2.697547877893048,
                    -1.3117276814656718,
                    1.1573607297958546,
                    0.4151320051340153,
                    -0.7404194633875115,
                    -0.5078383700669127,
                    0.37119341915218945,
                    -0.8691678712616302,
                    -1.4400324629637085,
                    0.020262842364352204,
                    0.8841951393622374,
                    -0.45433902224065115,
                    0.9124040726590718,
                    -0.5725258203643844,
                    1.197563760686634,
                    -0.28128263884301885,
                    0.1713250034433012,
                    1.40388901260507,
                    0.790116577710332,
                    -2.105279784925869,
                    0.30014504976477835,
                    -1.0829974091489598,
                    0.3885112782992751,
                    1.4977666259745996,
                    -0.2991588835975584,
                    -0.247927991517563,
                    1.552761810516466,
                    -0.38571958795278355,
                    -1.1091083995419666,
                    0.197779809861746,
                    0.7510431930393646,
                    -1.1538865768374085,
                    -1.578873252936513,
                    -0.09303360982157842,
                    0.271252258452507,
                    -0.30478127958023615,
                    -0.054616124734287314,
                    -0.09793189676072159,
                    0.5070591852429891,
                    1.0151913081589667,
                    -0.6112410053372322,
                    -0.6099065291226149,
                    0.973707864756713,
                    -0.6897380382122474,
                    2.220502837450165,
                    -1.0680651859950265,
                    -0.03154958413836608,
                    0.08688962765015318,
                    -0.39711015809114153,
                    -1.0119972535111295,
                    -0.7619200058579864,
                    -0.7592276991136608,
                    1.3853389692189337,
                    0.8778936288834231,
                    -0.2512789573726236,
                    -0.1031639991115129,
                    0.7053861982106179,
                    -0.0045319343509788255,
                    1.6164064317125901,
                    -0.2473863035313501,
                    -0.2898073534556002,
                    0.2123035750316376,
                    -0.3554197765684915,
                    -2.3227563643245333,
                    3.2936544138497332,
                    -1.4700474171748181,
                    -0.8674550084358699,
                    -0.5893212786219432,
                    1.334433194264619,
                    -0.39371065288855506,
                    0.4518640498777852,
                    1.7950958199826856,
                    -1.051330006702063,
                    0.9541126744219143,
                    -0.39672227256385106,
                    -0.23565045170993879,
                    -1.1635696653861112,
                    -0.5699405624296279,
                    -2.333076078233717,
                    -0.22677281341101596,
                    1.5657612445262186,
                    -0.23357133779666256,
                    1.6647756036809944,
                    -0.6993145762085481,
                    -0.5018314050540464,
                    0.5638486669395089,
                    -0.5863405840325957,
                    -0.44311596287264854,
                    0.5800932108690529,
                    -0.26986528096402085,
                    0.39656668286098345,
                    0.8862943075441989,
                    2.286903348139471,
                    0.48009923799808263,
                    1.0687564803157426,
                    -0.7965484221905347,
                    -1.2938722874516146,
                    0.6704987948710155,
                    -0.005445696213251292,
                    1.051980008158058,
                    -1.0227487520614267,
                    -0.7575159159085363,
                    1.2668273069212292,
                    -0.3727532889142308,
                    0.6487520998388528,
                    -2.066959655907318,
                    -0.06511379791667248,
                    -0.13593059100218274,
                    1.1638974753748546,
                    -0.19449802766399638,
                    1.4889368352255758,
                    -1.1571802401734066,
                    -0.9659075081784391,
                    0.2064701353872291,
                    0.9781855497380887,
                    -0.3674688527795359,
                    -0.8904599666513692,
                    -0.5810004081617645,
                    -1.5751416616335707,
                    0.8434783848501117,
                    1.7794045699550716,
                    -1.403916514598312,
                    -0.7550996470308146,
                    0.16475642696323908,
                    -0.9597294323559428,
                    0.47810304146729476,
                    -0.9415406512244379,
                    -1.170971233566365,
                    0.40130015191890733,
                    -0.04688390248538649,
                    0.4248013201513153,
                    0.3742252306853373,
                    0.3928079135809461,
                    -0.4144912420774282,
                    -1.2367056510938932,
                    -0.21567321734741535,
                    1.0537481503143777,
                    0.6421314764603774,
                    -0.8707862775117671,
                    -0.08892409450545281,
                    -0.41184411325076653,
                    -0.15361288536151194,
                    -1.1271678023271863,
                    0.22050397436221414,
                    0.2709086505072132,
                    0.9966165277126283,
                    -0.8074854053998474,
                    0.7904143201262349,
                    0.6889453025780149,
                    0.8075888774110047,
                    0.06003136904142047,
                    -0.869231747380304,
                    -1.1824554714392204,
                    -0.04282067509290667,
                    0.23596296777372097,
                    0.5172752440480827,
                    -1.1315183923801502,
                    0.3132125928884798,
                    0.03397818215666939,
                    -0.08031811197668781,
                    1.6530315692276079,
                    0.8871680867558154,
                    -0.06273501323013968,
                    0.03786797686670453,
                    1.4493903228996756,
                    -1.539682452791953,
                    1.2106326863536452,
                    1.6691620463507182,
                    -0.6908143344647937,
                    1.6134976182811671,
                    -0.4782901093849798,
                    0.3377936683969427,
                    -1.9136440589162929,
                    0.4647363199884939,
                    -1.4036577914899442,
                    0.14038622518237184,
                    -0.1924115625532292,
                    -0.4659764402316079,
                    0.760352483234783,
                    0.0020220734511620306,
                    0.047155829894838824,
                    -1.2474744044126511,
                    1.1759066911661007,
                    -1.2004812557486753,
                    -0.10388050152502001,
                    -0.056467990317208956,
                    1.2031458514692028,
                    1.3401548457786159,
                    0.6477216449976738,
                    0.33562954357849994,
                    0.5108103295725287,
                    -0.8656398398154004,
                    -0.5685434967481073,
                    -2.2487956166083896,
                    -0.7233220930850774,
                    0.206699527984849,
                    -0.6718024443231899,
                    1.2937735082436876,
                    0.2606708137982319,
                    0.7601497601413622,
                    -0.8621724042854646,
                    1.3790021665316352,
                    0.8703419338969305,
                    -0.380376553871703,
                    -0.6115701062024742,
                    1.4409192857762534,
                    0.2574470795054977,
                    0.7091315775662921,
                    0.20791541266079336,
                    0.36347343277349903,
                    1.1706030817066613,
                    2.052682202394315,
                    0.6827913631202386,
                    0.16786495170917698,
                    1.1625217257452607,
                    -0.20100845665925166,
                    1.8665231350641958,
                    -0.18826920631800306,
                    1.0556923161076979,
                    0.41506905805352445,
                    -2.111360950023672,
                    -1.1537000361932201,
                    -0.07082887783221575,
                    0.8210471641820964,
                    -1.2572955150457503,
                    -1.1072635072479269,
                    -0.8606826995079798,
                    -0.9333452807614386,
                    -0.21602144973054213,
                    0.3684479817599398,
                    -0.8040713096495241,
                    1.0021092480055338,
                    -0.0496597542248414,
                    -0.7545880725687681,
                    1.755310559977884,
                    -1.802065692947305,
                    0.531517884319342,
                    -0.0049126336523204845,
                    2.011841955001806,
                    -0.5306569608741937,
                    -1.8050721681737085,
                    0.45970496009641765,
                    1.4646797624388266,
                    2.124327763957202,
                    -0.5542706659941515,
                    0.6808182578800588,
                    -1.4764595645586192,
                    0.011318394244230527,
                    -1.4616877091580402,
                    0.046030889812247795,
                    -0.2176117309066481,
                    -0.7752827151850524,
                    0.5012684342781768,
                    -0.04196192225718993,
                    0.34333435836348997,
                    -3.0194303541411087,
                    0.13388702976649586,
                    0.20029315683245325,
                    -0.46145516316720164,
                    1.9068752713472694,
                    0.7560176279396514,
                    1.2191311660305213,
                    2.4027909861087786,
                    1.9382767769480524,
                    -0.4393687517447672,
                    -0.7793695836952392,
                    0.19212076402181336,
                    2.0896254260974394,
                    -0.4968718546243291,
                    -0.49040865350586765,
                    -0.6481033321744275,
                    -1.1818366103605769,
                    -0.42397040984137163,
                    1.09520828475222,
                    -1.1184697466930902,
                    -1.685344505866604,
                    -1.4744694219842678,
                    0.1776271125606129,
                    0.6905234454493266,
                    -0.5052522285493685,
                    1.0939212260206748,
                    0.16757894724030326,
                    -1.6865714803539589,
                    0.6350951100663659,
                    -1.093857695353491,
                    -0.1535128239356114,
                    -0.45579064372183004,
                    0.9152214699610569,
                    -0.9212464605972527,
                    0.46888440020838673,
                    0.7391949208149565,
                    0.14588144415944404,
                    -0.5231524375960418,
                    -0.30952220803237507,
                    -0.44141708094865634,
                    -0.7089947247561995,
                    0.19781189083739936,
                    -1.377423703715776,
                    -0.32872949453518596,
                    0.8217501691963913,
                    -0.12481719193835464,
                    0.70209977717602,
                    0.45016265355450197,
                    -0.909237534941347,
                    0.5554201917535312,
                    -0.36230619768728206,
                    0.9087615609828394,
                    -0.2343946293634991,
                    0.9595706122916668,
                    -0.2845913742129855,
                    0.311163992479304,
                    0.17285838418426416,
                    -0.254010550711922,
                    0.9877542926886475,
                    -0.6059049106240924,
                    0.49896006455205233,
                    -1.2045659015387264,
                    0.23488597594936744,
                    2.308238074710805,
                    0.5334552726136678,
                    1.0593440619472698,
                    -1.132899743321905,
                    -0.4850717619792477,
                    -1.4825082662749667,
                    0.491108324028267,
                    1.5709100595884957,
                    -1.196303991207069,
                    0.6243172467446149,
                    1.0235905708552024,
                    1.705316217963169,
                    1.898310316119023,
                    -0.23589736579447804,
                    0.5302647069760965,
                    0.5036090280322588,
                    -0.3423945010047802,
                    2.1230291510317953,
                    0.9703232059824975,
                    0.7237824400168518,
                    1.191289853766964,
                    -0.07775701406375872,
                    -1.868763556098196,
                    -0.9742883685565725,
                    1.7543128270385386,
                    0.09331475651575533,
                    -1.691224523792413,
                    -3.299318806501867,
                    -0.6620137011389146,
                    -0.31878191009650925,
                    -1.2519945038512277,
                    -1.4045232408132615,
                    -0.5858426955754403,
                    -0.3142393205238572,
                    -0.16368604993440228,
                    0.47237809782194046,
                    -0.7551336424994095,
                    2.0705710230747125,
                    0.812937764335913,
                    -1.197739742383813,
                    -1.9963576035461819,
                    1.1638245882517249,
                    0.20940284831535902,
                    0.3047415714985988,
                    -1.4213726496849324,
                    0.9845845091015635,
                    -0.06320808879012599,
                    -0.7725320930036634,
                    -0.8794083882342928,
                    0.08668872430110669,
                    -2.3863002235275754,
                    -0.04614431606903767,
                    0.7419846263455276,
                    1.2402495108283775,
                    -0.52136417631709,
                    -0.05082230612623615,
                    -0.27386683947518264,
                    -0.48629387232466637,
                    0.5779469094942173,
                    0.08008993390825306,
                    0.18536024815622779,
                    0.27497123587472694,
                    0.05021125911899812,
                    1.0999206283122345,
                    -0.18734743461940137,
                    -1.1861446381007388,
                    -1.8190033293641865,
                    1.2659961273672744,
                    -0.7443007638832978,
                    -0.7128071834413389,
                    -1.9986574834143729,
                    0.160356303068721,
                    -0.039776960807277086,
                    0.33742433620935613,
                    -0.5542823646584684,
                    -0.12435875005345944,
                    -1.780419057313443,
                    -1.4624793923168309,
                    1.7494465266589037,
                    0.25031085506113737,
                    1.3054162065984303,
                    -0.7931909502957682,
                    0.3447755857559611,
                    -1.092779571776506,
                    1.7651943252070663,
                    0.3562109857151781,
                    2.0196713118039007,
                    -0.1064340978035181,
                    0.9057004219381681,
                    2.5693352202118027,
                    -0.8204753057949808,
                    -0.6467266936031125,
                    0.5227591858945476,
                    0.023948437343327238,
                    0.5104545292967265,
                    -2.46592583910107,
                    0.5967167305670806,
                    0.9640154626700486,
                    -0.30085474406587004,
                    -0.641351523555649,
                    0.7186161920390889,
                    0.6201006702624863,
                    -1.4427994121315775,
                    -0.11701015702115565,
                    -0.09344051359570252,
                    1.4713259215230765,
                    -0.8257096482936868,
                    1.8244850529887136,
                    -0.07910391549011594,
                    0.5543453106401112,
                    -0.18115366266568197,
                    -0.4671795715213869,
                    -0.36749550461058905,
                    -1.835609310706778,
                    0.33203250318884014,
                    -0.31103016340098866,
                    0.25974895686389887,
                    -0.37999975353632504,
                    0.749356408374131,
                    0.24429989463843768,
                    -1.317806258881453,
                    -0.6350122446747056,
                    -0.2437387885585887,
                    -0.7815087998227772,
                    1.1894584866918474,
                    0.552419299293775,
                    1.0541795410177717,
                    0.4573588586490504,
                    1.4530953169191634,
                    1.0026957949311148,
                    0.9550006107610695,
                    -1.4244780302877083,
                    1.2960135849194838,
                    -2.2076968201691063,
                    -1.6931841765754414,
                    -0.10571187645565033,
                    -0.13698053402458432,
                    -0.7493545751145779,
                    -1.157352595846489,
                    -0.321067464609598,
                    -1.2497594261404927,
                    2.138739368072305,
                    -0.7743299708233445,
                    -1.9316392692736537,
                    0.5623039207581647,
                    0.4003666929376126,
                    -0.18575896980119883,
                    -0.1302042518420314,
                    0.0697837610187934,
                    -0.488699035292975,
                    -1.2327139893496002,
                    -0.7487323039508241,
                    -1.1870701060203555,
                    -1.0822917317931058,
                    -0.07373161153642124,
                    0.18633828205645775,
                    -0.18473832738860615,
                    0.10412798999816039,
                    0.030935589928711472,
                    -0.7014374683947759,
                    0.7009477132102298,
                    0.12704466731154626,
                    -0.2792555502222529,
                    -0.05716120152439233,
                    0.9185984663458995,
                    1.0575061518247857,
                    -1.4278261469038578,
                    0.765127873490635,
                    0.8407514440963135,
                    -1.2844234333940159,
                    0.23381718966991402,
                    1.093145191056418,
                    0.727101395832143,
                    0.4800164856045468,
                    -1.0411215921754178,
                    -0.04139938348376767,
                    -0.24983586492469442,
                    0.10452604882704569,
                    -0.1923667373919032,
                    -0.7929423355728306,
                    1.2884048170316065,
                    1.4257478985014644,
                    -1.9507563826339533,
                    0.7009461529066319,
                    -2.064473106113833,
                    0.31670640115972276,
                    -0.5618576026463908,
                    -0.16255746198678236,
                    -0.05938981721297997,
                    -0.7894539000065115,
                    -0.5588078564122725,
                    -0.1025469083286121,
                    1.1150395781207336,
                    0.12590973703349503,
                    -0.20965347078244922,
                    -0.32363490853780963,
                    -0.6350205432836616,
                    0.7951805512844001,
                    -0.3386827136661029,
                    -1.0754361384898141,
                    -1.8412505513402326,
                    0.3356451010431444,
                    -0.9484143318036199,
                    1.1619555574258473,
                    -0.009103760729561438,
                    -2.384710797837935,
                    0.8490054353542464,
                    0.6064055235159075,
                    1.271117689523787,
                    0.9193006213601805,
                    0.23199702860619245,
                    0.09953139847172308,
                    -1.598761348550025,
                    2.1250880793068463,
                    1.1380342435481001,
                    -1.4762278105619366,
                    -1.2687188167677323,
                    -0.9950217958901159,
                    -0.5366298002236297,
                    -0.08065250840514628,
                    -1.2122101092867703,
                    0.4641558771923643
                ],
                [
                    1.014139496505307,
                    -1.0835459824615512,
                    -0.11465930897471693,
                    0.30161695122359766,
                    -0.03749623844119321,
                    -0.07025436558314413,
                    0.8238941115209215,
                    -1.0012350467098707,
                    -0.32334904261559,
                    -0.6926414186475655,
                    -0.1192803674183876,
                    0.012142101969840714,
                    1.2706874959115841,
                    0.6390128419876756,
                    -1.4746354456897555,
                    -0.9625355892571806,
                    0.8270586997398579,
                    1.353454369425379,
                    1.0013565821360244,
                    -0.5301063164775939,
                    -1.5416824908961146,
                    -0.2210042270503388,
                    -0.6661062621389399,
                    -1.934328694934708,
                    -1.3051638085100143,
                    1.3940182611439302,
                    -0.608140696337334,
                    -0.5188244159556459,
                    -0.4046167056228373,
                    -1.4426103379064477,
                    0.2136348020392962,
                    -1.1904845614008959,
                    1.039393430422091,
                    0.7008521254852261,
                    -0.057425358463129385,
                    0.22172273480085739,
                    1.6540047996400937,
                    1.0439752644620977,
                    0.4916451661556324,
                    0.5739557440479932,
                    0.950478913792117,
                    -0.633399341664599,
                    -0.8445976265965278,
                    0.029759136338094915,
                    -0.16836447413407457,
                    2.0389493657934508,
                    1.5615239003642705,
                    1.2515515455097659,
                    0.5560969546931271,
                    -0.6776852102794272,
                    -2.5070764462084396,
                    -0.953332495216502,
                    0.28530152146636384,
                    0.17763922670409502,
                    1.9229343595668311,
                    0.8168130720801476,
                    1.1538707401132258,
                    0.03852137390777897,
                    -0.022106076932342202,
                    0.7711188188752386,
                    -0.5875271019525421,
                    -0.45145576491130013,
                    -1.211096694844156,
                    1.9058923706323403,
                    -0.3883146447117999,
                    0.06736953747133173,
                    0.8354761971026557,
                    0.7513119697941161,
                    -0.8551204882862337,
                    1.129168339046038,
                    0.022915933191564982,
                    0.5259586297640686,
                    -0.27561205308945974,
                    -0.032760915807998475,
                    1.747893054012069,
                    -0.40662774764488435,
                    -0.22027928060457566,
                    -1.463899744999003,
                    0.7419542808362807,
                    0.8179647349463889,
                    0.9335403334175675,
                    -0.14702772867765154,
                    -0.22025712052714413,
                    -1.766306894007718,
                    0.31253789613144484,
                    1.775713022480451,
                    0.5864666167935826,
                    1.0872192268219159,
                    -1.3992826585529474,
                    -0.02712790623617353,
                    -0.307864866676576,
                    -0.07787177248046341,
                    -0.6435258087774466,
                    1.9267694849950427,
                    -0.5807121903503734,
                    0.43503802024148747,
                    1.6256259989375768,
                    1.280267735266997,
                    0.8862498137602894,
                    -1.2570038765589637,
                    -0.2107915937395785,
                    -0.9675618671255887,
                    0.3588762020706455,
                    -1.2479878209454573,
                    0.4516438170485707,
                    2.2098655460425496,
                    -1.5192677236481276,
                    0.32773449477693134,
                    -1.2157324601281463,
                    2.0504322798047685,
                    0.07628944799421755,
                    0.8683570340730538,
                    1.4481284951713396,
                    0.5139732907593655,
                    -0.009752797098335092,
                    -0.6709055117888763,
                    0.524852586851278,
                    -0.9876048148373404,
                    0.2968360731853372,
                    -0.31231798950551876,
                    1.0390725343449192,
                    1.4588643652789721,
                    -0.18904199215692613,
                    -1.6316191866887513,
                    -0.1279321151430391,
                    -0.8737656854762308,
                    -0.17312472539020055,
                    0.22677826305596743,
                    0.521101043550208,
                    0.1912996797158648,
                    -0.10503773857012211,
                    0.1491951171338823,
                    -0.1872257785633843,
                    0.19611470607151119,
                    0.15029045472217376,
                    1.4534136475091757,
                    1.1982959270389393,
                    0.4109726948301865,
                    0.47758828159505656,
                    -0.953157387331313,
                    -0.3755626310129265,
                    -0.3732853741463034,
                    1.2318334745075015,
                    0.4609345214872593,
                    -2.288781370037249,
                    -0.15198240378986405,
                    -2.0657576927100636,
                    0.2954707046517206,
                    0.3723919612642746,
                    0.4557351392848387,
                    -0.18346145707789815,
                    0.27297918270022714,
                    1.2373675486933622,
                    -0.9494482183108006,
                    0.08825974957384743,
                    -1.0565315001688316,
                    -0.1777477710111989,
                    1.250419069765191,
                    0.15780605826662542,
                    1.6879346658300325,
                    1.2907235454568464,
                    0.5547422002654955,
                    -0.4760041186569487,
                    -0.37032992792543146,
                    0.04989398690697206,
                    -2.7336516200047956,
                    0.7492507812622191,
                    0.7733274945652018,
                    -1.4821670389619621,
                    0.15078761219950107,
                    -0.180360441694862,
                    -0.1978783512391318,
                    0.8885742464560084,
                    -0.49457562840605174,
                    -0.8163306176056878,
                    -2.2677560702456425,
                    0.09995033258381895,
                    0.8433272612327891,
                    -0.014271367583975493,
                    -0.23041794897579157,
                    -0.38027361897161227,
                    0.8254037955107342,
                    -0.22899064217395745,
                    1.9403863237198278,
                    -1.7692104716883896,
                    -0.4294522968175734,
                    -0.12251074808183146,
                    -0.22565497882279598,
                    -1.1051150552418136,
                    -1.026441921839354,
                    -0.6711236364241756,
                    0.9580719537999749,
                    -0.09076833439582829,
                    0.5383513807806365,
                    0.4187736279986738,
                    0.6980718415098662,
                    -0.38588884457196343,
                    0.038462820369261,
                    -0.17365475464069216,
                    0.742461668549106,
                    0.019079286779150217,
                    2.049614353977923,
                    -1.0266646538853887,
                    0.10144986831772769,
                    2.060100468242129,
                    0.6941816090051232,
                    0.7781932695255742,
                    0.9791757973428127,
                    1.299174270223346,
                    -0.04374021503123331,
                    0.9114568513727596,
                    -0.14194318719277516,
                    0.02118584784789226,
                    -0.4861842906457602,
                    -0.08841239387210718,
                    0.9275668119404338,
                    0.5994137765086063,
                    -0.061268854109970176,
                    1.6728791971396635,
                    -0.6797050321119921,
                    0.54200362951579,
                    -1.2814826345908081,
                    -0.8888148704718236,
                    -0.7062429335856302,
                    1.105925681470926,
                    1.3052903160079086,
                    -0.023080062874046525,
                    -0.31778843812851193,
                    -0.5204556088712632,
                    0.6475017244175595,
                    -0.3252407459640714,
                    0.5086488123477123,
                    0.8304212537061705,
                    -0.8685304128895924,
                    0.07300361658185878,
                    1.5951222328493708,
                    -0.36588027619576613,
                    0.18124536695184995,
                    1.34130048202877,
                    -0.07902836121558982,
                    -0.8262991290886428,
                    1.3840578138506812,
                    -1.7927610459808474,
                    -0.6447413392835101,
                    -2.434118161108731,
                    -1.0973995372596947,
                    0.7904505380622618,
                    -0.23829859484369015,
                    0.13508872046352569,
                    0.691223812268498,
                    0.14432913071013923,
                    0.09543581924971367,
                    -0.36746401388040156,
                    1.3679430275245736,
                    -0.18036999035213372,
                    -0.28749885929114,
                    -0.3329452034721505,
                    1.100088127332744,
                    -0.09533625858942454,
                    -0.8040399041422007,
                    -0.1590936344862866,
                    0.738957737191865,
                    -0.9802615989496059,
                    0.189853339635868,
                    -0.2856092976515169,
                    0.9747080633090283,
                    -0.6897807147631081,
                    0.3029696110870336,
                    0.42695960560230795,
                    -0.24072304785279605,
                    0.19962085481004738,
                    -2.0339688462830003,
                    0.44394526621898595,
                    -0.8076318380572488,
                    0.4980563317104687,
                    1.037470046124036,
                    0.6989329824954231,
                    1.2408886109138388,
                    -1.539714860732969,
                    -0.7738235539329855,
                    0.46338960091270054,
                    0.3571564776180656,
                    0.0021156931470510103,
                    -0.8204363400290349,
                    -0.7738264455138578,
                    0.8341072496134793,
                    1.0869296057297293,
                    0.17176385326569893,
                    0.38165707598814996,
                    -0.7086398738464554,
                    -1.5775361132937704,
                    -0.4198912646651521,
                    -1.2518959114907056,
                    -0.9769203637342739,
                    0.04101577710245711,
                    -0.9215818165599385,
                    0.7019431701328793,
                    0.9156662398308385,
                    -0.48255679452458383,
                    0.597368527186132,
                    -0.5135733015128943,
                    -1.2358802514270084,
                    0.5512966773391341,
                    -1.5104704896587349,
                    -0.5640101396837925,
                    -0.09865558216275033,
                    1.2580677437818335,
                    0.8733869360130802,
                    0.6966157693746968,
                    1.9717369361133725,
                    -1.9090865016816787,
                    1.3181817353110852,
                    -0.821623994709062,
                    0.4847169489536893,
                    -0.5401777662756128,
                    1.323966353597525,
                    0.35938523275046613,
                    -1.32464806743889,
                    1.504182302164721,
                    -2.1585766551996857,
                    0.06983510678179566,
                    0.5578098974747436,
                    0.36863198026454386,
                    0.3977925547859596,
                    0.4900377722632952,
                    1.0073003581983893,
                    0.5136064206357294,
                    1.2361635626882814,
                    0.09572271987911156,
                    0.4150574129381228,
                    -1.0636373157029417,
                    0.9941617379549372,
                    -0.11385860581290037,
                    0.8298971741269912,
                    0.21191711209024708,
                    -1.47901729504517,
                    0.8575771784090653,
                    0.5534043525731343,
                    0.0033122228453327657,
                    -0.02749714101805854,
                    1.4660572246453454,
                    -0.2893090514509644,
                    -1.4764910347258018,
                    0.3719307607935635,
                    0.411455319935532,
                    1.1299022483388694,
                    0.5863359554688652,
                    0.9200580967581538,
                    0.28747311571405976,
                    -0.8000867652335678,
                    0.0806279180850155,
                    0.01630053826417826,
                    0.03010367352149736,
                    -0.16482740491655604,
                    -0.9458407309017715,
                    1.6610523212132473,
                    -0.22088634834778517,
                    -0.027141880107945215,
                    -0.9879647324329891,
                    -0.07640163256557915,
                    0.2628032245533436,
                    1.75032281128182,
                    -0.4451668113037304,
                    1.0626246599739924,
                    0.07765405868965167,
                    0.018364553107916747,
                    -1.412510569836429,
                    -0.7250994962646665,
                    0.20474703484013482,
                    -0.4560116257838095,
                    -0.44699661205936764,
                    0.9976156016177697,
                    -0.6886481197086814,
                    -0.6672911253334012,
                    0.6042802285977579,
                    -0.2511945903716844,
                    -0.3823073546993511,
                    -0.22617061834876523,
                    -0.3226683335090322,
                    0.32900445278847956,
                    0.14125846664760894,
                    -0.12316300543329377,
                    -2.405079453039067,
                    1.8465992737631665,
                    -1.7546758313595445,
                    0.14221395441441734,
                    -0.3508771131795078,
                    -3.367377296487082,
                    2.3202896779981845,
                    0.3416397552124143,
                    1.2105779114710014,
                    -1.5174500665420934,
                    -0.14586553071202324,
                    -0.946012114933084,
                    -1.185808650633565,
                    0.26985041979099533,
                    1.1356840276349807,
                    0.051658290612563246,
                    -0.46427628688671474,
                    -0.11885687093046199,
                    1.6777555736419254,
                    0.9483891985995893,
                    -0.7291710611686674,
                    -1.042250537922553,
                    0.4370350392219424,
                    0.31852907298805144,
                    -0.7651735878683464,
                    0.292677006964866,
                    -0.17460313014428253,
                    0.693898077406479,
                    -1.7963464403758196,
                    -1.6472658067603578,
                    1.330233220946592,
                    0.42565981497582556,
                    -0.09775674527775852,
                    -0.2642781470380313,
                    -0.4116215006782089,
                    0.3410035686356108,
                    -1.1010913518357814,
                    -0.2989399042395997,
                    -1.2208492189664681,
                    -0.6043566128851893,
                    -1.1457219523014857,
                    0.2983851199271509,
                    -0.06069379529897807,
                    0.37974747987672663,
                    -0.893701128836702,
                    0.7079326302358361,
                    0.3409747058537132,
                    1.1912068573046053,
                    -0.3085855266693978,
                    -0.7255403975797917,
                    -0.7665497036165435,
                    1.8777179633563787,
                    -0.14242677606588944,
                    0.40892270803117314,
                    -0.34686444606985134,
                    -2.2067364516382884,
                    -1.6387471769002595,
                    1.1638903927596729,
                    -1.8634345343942862,
                    -1.861948805958152,
                    0.6879185236042524,
                    -0.4347409615161151,
                    1.1244550985059898,
                    -0.3417014324949603,
                    1.0394916507418077,
                    -1.5440129479215312,
                    -0.1270720826153223,
                    0.2646281318873504,
                    -0.629750493674272,
                    -0.02702565150494003,
                    -0.0005810957643136485,
                    -0.0934895309904684,
                    1.4245850263171607,
                    0.39861667482641894,
                    -0.8206604501628919,
                    -1.4281167938533654,
                    -1.1752374869849194,
                    -1.736142059877641,
                    0.7153486470137188,
                    0.3835927655615271,
                    2.3836635101730104,
                    0.21149657425803306,
                    -0.4579513606581325,
                    -0.1539203723851119,
                    -0.5263306266831702,
                    -1.0561192885183008,
                    -0.6203664542669901,
                    -1.4428147654284018,
                    -0.3403303433372342,
                    0.8327084828915375,
                    0.44540716267169495,
                    -1.2571637246703633,
                    -0.48589997664765294,
                    0.8973018657729879,
                    0.23519077452605971,
                    -0.005026245802201046,
                    0.18765026668564466,
                    0.15001802240052015,
                    0.29611537122200143,
                    1.1599280736240074,
                    -0.4512381859473132,
                    -1.529538403055896,
                    -0.19810737096729375,
                    0.4612430194049282,
                    0.6865705148268194,
                    -0.7104518440879042,
                    -0.28130417423531184,
                    -0.37624873789998414,
                    -2.423717541088906,
                    1.3009704088853757,
                    -0.7329625637841772,
                    0.4514775588557814,
                    -0.791965210306676,
                    -0.5247370249913642,
                    1.1336185848709937,
                    -0.5532607451645434,
                    -0.5005477480605866,
                    -2.530794559444839,
                    -0.15457183492283366,
                    -0.22799252354696417,
                    0.05416934591089323,
                    -0.4207861567815194,
                    1.0594745762869353,
                    2.79355675492215,
                    -0.7234489409890059,
                    0.21837151658977902,
                    0.06170799660557905,
                    -0.05186446081537349,
                    1.0471660290068585,
                    -0.6194253168069064,
                    -0.4648694448178225,
                    1.2136532436311551,
                    1.7454838766205782,
                    -0.035203246726238535,
                    -0.035747090755438166,
                    -0.034803364844883264,
                    0.3325386393601548,
                    -1.567365167987868,
                    1.4096799011505978,
                    1.7879553199739828,
                    0.1497113827847856,
                    -0.5661519328494645,
                    -0.5472346741985821,
                    0.505460984165342,
                    -0.8306902762173066,
                    1.3881261995661969,
                    0.1319777480288723,
                    -0.6299495787861307,
                    -0.6650768820997119,
                    0.4844140849506796,
                    -0.30312567473030066,
                    1.2292456098390259,
                    -0.6142744640845587,
                    0.46384146224502265,
                    -0.4217453727120123,
                    1.0401896268878732,
                    0.6208157384690366,
                    0.2785274892864575,
                    0.011696359548033787,
                    -0.24109869627278374,
                    -0.10198565925929158,
                    -0.4537079426303863,
                    -0.17581297191943526,
                    -0.935173600115736,
                    0.8429422936296302,
                    -0.5635014197465521,
                    -0.23607215793323433,
                    -1.0829289127455757,
                    0.6574946348687245,
                    -0.914994961379876,
                    -0.0434850745110177,
                    -2.952189294500741,
                    -0.451439474673849,
                    2.108214411170314,
                    0.9296024042871996,
                    -0.3496438913119517,
                    1.146337284283487,
                    -0.4390992275254498,
                    1.3855768176508398,
                    1.8120996115521357,
                    0.5861843651415432,
                    0.6818379322476642,
                    0.8434320931823784,
                    1.281007142718426,
                    0.48525733980560204,
                    -0.10019631169833333,
                    0.026945545872819103,
                    0.650370501552486,
                    -2.1989532603810544,
                    1.8076601702300816,
                    -0.45795375971229435,
                    -1.367786522444081,
                    0.35809256089617786,
                    -1.9242322866103176,
                    -0.20705045140174316,
                    0.5243172164296838,
                    -0.746507168393228,
                    -0.7646589235069216,
                    -0.07383737869843357,
                    -1.2220064363964853,
                    -0.7722846390795677,
                    -2.4941680180970063,
                    -0.7912717207517177,
                    2.029049436733637,
                    -0.01795195251163032,
                    0.2697672768529448,
                    0.3602945075200418,
                    0.22272061449348854,
                    -0.22087050337984224,
                    -0.8563762092336811,
                    -0.9649685453649367,
                    0.19705986996314448,
                    -1.313815988434018,
                    0.7014573707746277,
                    1.3305265369615462,
                    1.0588387729966289,
                    -1.4011551474202941,
                    -0.5493203886898428,
                    -0.03190369593884325,
                    0.15283054388925105,
                    -0.4478365118448046,
                    -0.47073063116902963,
                    -1.2740609653867276,
                    -0.33357738983493124,
                    -0.8045237984504643,
                    0.7236291324880174,
                    0.6538200540532642,
                    0.42413148626364583,
                    0.4394883981492686,
                    0.6927644809658823,
                    1.481426350999135,
                    -1.2394064081181633,
                    0.3035056903860212,
                    -1.1535296451024664,
                    -0.15402833821619916,
                    2.965436669481293,
                    0.6102448125229564,
                    0.7266321141103534,
                    0.869784580515033,
                    0.39369349795600395,
                    1.5959776648387693,
                    -0.129766819925182,
                    -1.7972246240619554,
                    0.5821738755148435,
                    -0.7691347223024285,
                    2.514688474387112,
                    0.5149655488448888,
                    -0.374012489841708,
                    -0.3838117110705318,
                    0.8264426083430334,
                    -0.2664692475331737,
                    2.1062092068529576,
                    0.6866197920073399,
                    0.42818496482922946,
                    -0.22672881517767973,
                    1.0733484585157327,
                    -0.993940536721103,
                    -2.1689463221398526,
                    -0.9891146263719738,
                    0.7127927830352946,
                    -0.44948909642003143,
                    -0.7628743745805693,
                    1.4994550986651611,
                    -0.3620652680543381,
                    0.20435348165619235,
                    -1.4913383270510916,
                    -0.4919676033945993,
                    -1.2192851766562094,
                    -0.21133279503257216,
                    1.931070434749103,
                    1.357085682923352,
                    1.0015761624667383,
                    -0.8683872587542553,
                    -0.3935093829808747,
                    -0.5897369521684354,
                    1.259545653799255,
                    -0.4741906140396743,
                    -2.101081247708227,
                    1.910247311252878,
                    0.7918339735117907,
                    -3.0939260640790245,
                    -0.911776927390377,
                    -0.9717255250888587,
                    0.9861995085832065,
                    -0.9663179319648386,
                    -0.24207537840361049,
                    0.14002245151043818,
                    -0.30343880615211605,
                    -1.7178359956893576,
                    0.5945861219981764,
                    1.3178203375518753,
                    1.7139150813390625,
                    0.2868646286147242,
                    -0.3201875589256584,
                    1.4868729787910127,
                    -1.2012850386771161,
                    0.4453265093923397,
                    2.2405969208981196,
                    -2.8866933480977237,
                    0.3969733461111184,
                    -0.08991839940805073,
                    0.2543960158503377,
                    1.5448577176160507,
                    -1.2596592383145762,
                    -0.8093828693780035,
                    0.2692583504670608,
                    0.1906330569963945,
                    -1.7524059529648968,
                    -0.7706948240938452,
                    1.2157451709709632,
                    1.2099765704506653,
                    0.21908374770677916,
                    -0.38462634184459826,
                    1.0451112546100756,
                    -0.1944025266062045,
                    -0.2729575405447957,
                    -1.1804793906523605,
                    -1.0933381721529938,
                    0.04639008064041965,
                    0.1421196448863766,
                    -0.6314248077265725,
                    -0.9467917230598376,
                    -0.7823862351728142,
                    -1.4935238634341184,
                    -1.0145123526931892,
                    0.43784693714312894,
                    0.7323360460632936,
                    -0.9431975166059338,
                    -0.7615005204844718,
                    -1.0360940039607367,
                    -2.619571183349757,
                    0.6219983872027297,
                    0.1966178429838607,
                    -0.7442068708414475,
                    1.361088167242924,
                    0.043348391388985115,
                    1.2046677844904812,
                    0.40438912167949603,
                    0.9508269642505188,
                    -0.23887832109481327,
                    0.1770266693828944,
                    -0.2077375011817027,
                    -1.2523469945815144,
                    0.08166984939391078,
                    -0.3160821653787754,
                    0.294361983176327,
                    -1.0048434865003895,
                    -0.9431267368443709,
                    -1.087213967119578,
                    0.24927561715938468,
                    -0.7148392039919327,
                    -0.2870291686630938,
                    0.060703055155790664,
                    -1.0452103613434194,
                    1.5526801559670944,
                    1.717034890552001,
                    -0.8369305241089218,
                    1.6134742861180902,
                    -1.5950082961214982,
                    -1.2814398068226893,
                    0.45258686108515245,
                    -1.455362866122146,
                    -0.007599201956418523,
                    0.43586704420968664,
                    2.0471621369440545,
                    -1.4287427482954722,
                    0.3474799830335027,
                    -1.4620929647948813,
                    0.8985056501108708,
                    1.0853851336917675,
                    -2.0218946371128106,
                    0.6379114396458855,
                    -1.586537564916874,
                    -2.377996154218444,
                    0.6619244837858499,
                    0.7130498008505247,
                    -1.0742111230577684,
                    -0.7772049141629397,
                    -0.39330681835937703,
                    -0.2585983553999688,
                    0.8689576819281175,
                    0.36092937445493467,
                    -0.40914445701173563,
                    -0.13535715650643565,
                    1.309474338089097,
                    0.5043819181071324,
                    -1.9026449497300435,
                    -1.0713184866102723,
                    0.03712650786073124,
                    0.4431913194913588,
                    1.1247044934073906,
                    1.0562361866128167,
                    0.3029368828698695,
                    -1.0211117857980594,
                    -2.2963332995855312,
                    -0.028395893435648134,
                    -0.31515303473485823,
                    -0.8116128014955325,
                    -0.8343744596556381,
                    -0.327122777219612,
                    0.525855491626457,
                    -0.3541397983671824
                ],
                [
                    -0.22708291505693068,
                    -2.628445087208015,
                    0.488788441953414,
                    1.1549229582401315,
                    0.9220542786737855,
                    0.3595664580327614,
                    0.2809697828365409,
                    -0.05039045139605304,
                    0.06312680208494234,
                    0.7438954010061273,
                    2.6079855195649193,
                    -0.07297817183427201,
                    0.13289491093698258,
                    -0.92579255988375,
                    1.5393335204119456,
                    0.8742763921124556,
                    1.04889837973493,
                    -0.4253435561985981,
                    1.2264038382031366,
                    1.0072914162537907,
                    -1.8604384071030848,
                    -0.0815508366963474,
                    -0.7642633874595964,
                    2.0635412043351296,
                    0.5706538096424619,
                    -0.2754022032682315,
                    -2.425717466978473,
                    -0.5092568641952447,
                    -1.6062323256677429,
                    0.517637070162605,
                    -0.9929006185651436,
                    -0.29103306627775755,
                    0.8586539872020889,
                    -1.1745844021299343,
                    0.12859425625631749,
                    -0.1492636774574318,
                    -1.3004398834067903,
                    1.3677578696320547,
                    -2.386957081842452,
                    -0.1255173430514094,
                    -1.9735436602888594,
                    -1.3156957285655926,
                    -0.16934850730522047,
                    1.6840805602794715,
                    -0.7442078433073873,
                    -0.2533487026799112,
                    -0.10794424085671817,
                    -0.3356572934913436,
                    2.014587972870643,
                    0.0164038487870523,
                    -1.5026123603461319,
                    1.321630888087868,
                    0.9111155071279423,
                    -1.1790064160708418,
                    0.7845266488223551,
                    -0.6272899028225938,
                    -0.2795368041930621,
                    -0.7069914611470601,
                    -0.5259212502785227,
                    -1.3246882382616545,
                    -0.5039213539716705,
                    -2.5520506263232177,
                    0.13133206160108854,
                    0.441262280799725,
                    -0.7403560815752434,
                    1.273571245106232,
                    -0.010125251733596496,
                    -1.171797015265111,
                    0.23229837928917568,
                    -0.8835558441010861,
                    -0.10472879349832052,
                    2.465410180235741,
                    0.823057449049635,
                    -0.65259347740734,
                    0.2623361164092721,
                    -1.68773462939058,
                    -0.3160572297663652,
                    1.0708498446185304,
                    0.519555563140406,
                    1.5034421851652329,
                    -0.6082215935438273,
                    -1.9631862874612414,
                    -1.9683843234721663,
                    -0.18005953296776733,
                    0.6816252516434153,
                    -0.22720964445515252,
                    0.15875992040218354,
                    1.3310461650601404,
                    0.6513576263037836,
                    -0.09982472880737206,
                    -0.49287885164285256,
                    -1.3741807726675994,
                    1.031369172944075,
                    -0.5153747472665379,
                    0.23757520169111102,
                    1.1026602626068998,
                    0.32434349485218844,
                    -0.15595909077998021,
                    0.48393907782494894,
                    1.9009848750772094,
                    1.2580194957825501,
                    0.794534261060171,
                    0.1780162877894673,
                    -0.5413817651849255,
                    -0.7117195395579524,
                    -0.9487663142813005,
                    -0.240117225043517,
                    0.7671158808667725,
                    -0.36997730572131154,
                    1.3375443679011343,
                    -0.4425934855039798,
                    -0.5868411415002607,
                    -0.7782277578682403,
                    0.6203592722067484,
                    -2.0705836571536995,
                    0.3699104895846347,
                    0.7522957967665799,
                    0.18071065559041458,
                    0.19095502314668927,
                    -0.01011622487339189,
                    -0.31820338986728974,
                    1.4512835447510084,
                    -0.9307122824941043,
                    -1.5664039180213107,
                    0.6562635551145503,
                    0.8004152841694461,
                    1.429720231322534,
                    -0.7076724535924844,
                    1.844516397381634,
                    -0.09859398309370769,
                    1.0791932221167435,
                    1.0841443712888656,
                    0.29089870686700897,
                    -0.023645678400162764,
                    -0.6406086168316318,
                    0.19540431471225236,
                    0.7386566139224391,
                    -0.8156412310308225,
                    1.254457860477476,
                    1.0288871364704213,
                    1.2925894448140576,
                    1.3131426120105585,
                    -0.5641036318550996,
                    -1.3378260608364798,
                    -0.5777306121984581,
                    -1.654068184850654,
                    -0.9148542347993672,
                    -2.3027939052163675,
                    -0.9343125701916557,
                    -0.24608690207851594,
                    0.7362091425472275,
                    0.2704075686878299,
                    0.24665043829156913,
                    0.6216208879706917,
                    1.452259516260236,
                    0.24038555280132143,
                    -1.8130716091251813,
                    0.48419408298528427,
                    1.776638280527679,
                    0.5301990504928192,
                    -0.7790160588009002,
                    -0.6741530289238596,
                    -0.5623697832192005,
                    0.167567867413655,
                    -1.119755291966397,
                    0.14856262819232305,
                    1.327723225002227,
                    -0.8881125150958097,
                    0.7635439988908466,
                    0.7920632694020093,
                    0.6900958960155759,
                    1.2067593243531218,
                    -2.4590372320490146,
                    -0.05219487996093038,
                    0.17008415622359457,
                    -0.6474884473071966,
                    1.843853192689254,
                    0.44079200809079333,
                    -0.2275189811021423,
                    1.0105863144068181,
                    -1.1393401044053528,
                    -0.08285573676625572,
                    -1.8062791602916395,
                    -0.932903244764743,
                    1.2804165944308281,
                    0.46226762673637706,
                    0.12104206080460111,
                    -1.5817340614190327,
                    -0.5631205917392572,
                    -0.3361690616007556,
                    1.4600457496571875,
                    -0.3027820033698408,
                    1.0544365566813465,
                    -0.10853220450216973,
                    0.08550165371195799,
                    1.2529217631150271,
                    0.5875558334996497,
                    -0.43914476123009116,
                    0.6309464677135034,
                    0.9401245959786284,
                    -0.3823658779519296,
                    -1.5163735458000607,
                    -1.9099160816095777,
                    -0.6958899826378884,
                    1.144951019553432,
                    -0.23110837435012996,
                    0.34330697649731107,
                    -0.774574505382885,
                    -0.30595360095178326,
                    0.8055604265322888,
                    -0.4176715360657944,
                    -1.3672937391364233,
                    1.8760946887883312,
                    -0.42905390207994926,
                    0.5783259526703086,
                    0.049459057769978054,
                    -0.7428197198015031,
                    -1.7492693348662154,
                    -0.6968489371652532,
                    0.16199414695247513,
                    -0.3391138870431974,
                    2.1515418961715826,
                    1.6080975464952783,
                    0.13614374240693308,
                    -1.0276857843850762,
                    0.758804777089798,
                    -0.19084053496362002,
                    -0.10334132679226332,
                    -0.5296117072856953,
                    -0.017407459445191988,
                    0.755697293417562,
                    0.467749898236102,
                    -0.16700029888560228,
                    0.3901670293316176,
                    -1.1896275221382024,
                    -1.1778951708040144,
                    1.6712674352302428,
                    0.48236181209626056,
                    -0.35547102132847597,
                    0.10174723560389957,
                    0.17254265261788213,
                    0.43985778993288793,
                    0.30364920042620963,
                    0.5649927118836313,
                    -0.16949641592458337,
                    -0.41160565146252237,
                    0.41241977409620934,
                    -1.5710374635065771,
                    -1.4031546097344676,
                    -0.15840665987087654,
                    0.9154645861580064,
                    -0.4649130829364729,
                    -0.2618455924260004,
                    -0.56162967430054,
                    -0.8221389839269189,
                    -1.2425908647815722,
                    0.29620547044278484,
                    0.018118308821040315,
                    0.46296224278953196,
                    1.3017589757858439,
                    -1.2736326396159026,
                    0.21137262740234322,
                    0.5069137369965108,
                    0.3042359158916272,
                    0.6840431712219911,
                    -0.3079882396614093,
                    -1.7027204211921096,
                    -0.0658084415118671,
                    1.7725972745344591,
                    -2.017627062987616,
                    -0.8354382158138929,
                    -0.9219495198802644,
                    0.11180641462313666,
                    -0.5373202114566517,
                    1.8781367055739357,
                    -1.1604938563732545,
                    -0.3412020893129486,
                    -2.017488850031658,
                    0.8993068432341565,
                    0.5388412953555364,
                    0.09277701641747112,
                    0.34665791188471234,
                    0.06957579700313922,
                    1.3990260801356418,
                    -0.11236617937188433,
                    -0.6332129130383187,
                    0.5096381878644088,
                    0.38041852027705814,
                    -0.29173593227757255,
                    -0.5467654932573642,
                    0.21098430117555791,
                    0.43268606985233526,
                    0.8524261530789798,
                    -0.2437544408718267,
                    -0.3102890159858564,
                    -1.0663771629367575,
                    -0.36209798308669877,
                    0.06331401899066902,
                    1.0150653242825696,
                    0.44343724823511527,
                    -0.34906490152792724,
                    1.133449463973125,
                    -0.2012361192461761,
                    -0.1594549836812854,
                    1.5405354104473457,
                    0.894159732720477,
                    1.0785184624881086,
                    0.2609661822395019,
                    1.833308438733825,
                    -2.0559726583581326,
                    2.912601209204486,
                    0.43232558039512,
                    0.7253764113375857,
                    2.019726446149598,
                    -2.390790085527353,
                    -1.5209901356102185,
                    1.088088728440666,
                    -0.12518560413061333,
                    -0.11906104949269178,
                    0.6162120776931882,
                    -0.8202687196240723,
                    -0.8301566690439729,
                    0.8435124633174975,
                    0.28125394869997755,
                    0.774275059686071,
                    -1.341498972803957,
                    -0.15593965785066183,
                    -0.446258303266749,
                    -0.04519875468368409,
                    -0.416735515126987,
                    0.7261168354479905,
                    -1.5541689836240535,
                    -0.17724564475895138,
                    -0.15191294794995538,
                    0.2734355253225826,
                    -0.7345196599941097,
                    0.7578412479222982,
                    0.08490773634117262,
                    -0.11283964522226417,
                    1.0014873310041672,
                    0.8623979627598642,
                    1.5009928555725343,
                    -0.058603995327693684,
                    0.7384451546930542,
                    -1.3516198356793387,
                    -0.7390742021219235,
                    0.12829223404606627,
                    0.2661812353172608,
                    1.0642999937596682,
                    1.6460650587308892,
                    0.4312145545660357,
                    0.9785708592893849,
                    0.4191081664707135,
                    -1.704549117473956,
                    -0.46615108333381733,
                    -0.5353634703915264,
                    1.217344642922024,
                    -0.33536430284766233,
                    1.190852449023094,
                    -1.351241745954222,
                    -0.5300656316551352,
                    -0.6861432483911252,
                    -0.5264422017885201,
                    0.16577896322019772,
                    -0.6113363148425601,
                    -1.1919926664806373,
                    0.7641714686500125,
                    -1.1385352601870957,
                    -0.10718006183635573,
                    0.448080862807619,
                    2.111771707781665,
                    -0.9270323801815378,
                    0.6035389177867461,
                    -0.14186495676110192,
                    -0.6739615260247351,
                    -1.2155982697585697,
                    0.22415001527516937,
                    0.6576604428183255,
                    0.05312175606095001,
                    -0.537540809389859,
                    0.013972876776949838,
                    0.27015216697078454,
                    0.2142039037291574,
                    -0.5508611495673503,
                    0.5843693250516738,
                    -0.3751672995831502,
                    0.15549509020081823,
                    -1.8092920600553994,
                    -0.9321982747026257,
                    1.8052401077356561,
                    -0.5165354408249944,
                    0.8280728892637574,
                    -1.851271359605426,
                    -1.8981394976376187,
                    0.039314630553423754,
                    0.7803892041290633,
                    1.1751137803804972,
                    0.5278343307061946,
                    -1.1115700411252545,
                    -0.16394312764967447,
                    -0.9474468205227439,
                    0.9218912626446959,
                    0.20978851051099182,
                    -0.9178247678127822,
                    -1.3649853821899898,
                    0.551487986194133,
                    -0.9511763641360363,
                    0.38833897262724576,
                    0.5023277638932242,
                    -0.4133704416422883,
                    1.2988597061773295,
                    0.20300947900736782,
                    -0.4158426863538918,
                    1.867144127051927,
                    -1.3375880335963173,
                    -0.14272378342867872,
                    0.5707817944811869,
                    0.807082784721721,
                    0.6142461811115932,
                    1.0611569545561115,
                    0.21626635867029645,
                    0.4124276857899376,
                    0.35903866210862323,
                    1.0808403665313926,
                    -2.0930890554225368,
                    -0.7701907621379203,
                    0.5136426264982952,
                    1.7717101992298616,
                    0.378379177806748,
                    -0.5892909803995942,
                    -0.10733597287180598,
                    0.11743004036246399,
                    0.10202126331933194,
                    -0.4021576946081782,
                    0.5856906169765258,
                    -0.2862093489812548,
                    0.773801270912079,
                    0.4743590309334643,
                    -0.828717835634067,
                    0.21338742277759304,
                    -1.2494125850408222,
                    -0.35512006005958185,
                    -0.6567046202210827,
                    1.277215033116631,
                    -0.6073615233809184,
                    -0.1421639290229039,
                    0.9719064616100908,
                    -0.1579987556808842,
                    -1.3322400524244553,
                    -1.3337069928485599,
                    1.1212505712348795,
                    -1.1656659618856011,
                    1.4013347633136906,
                    0.7923349742154415,
                    0.22657102411395585,
                    -1.7577133469328956,
                    0.02178499404896392,
                    -1.8004139141256805,
                    0.28423273011622024,
                    0.3551223993129264,
                    0.4201020851807448,
                    0.8612011683283202,
                    1.637939412657412,
                    -0.06489225526574259,
                    -0.19436967117479476,
                    -1.5011037973077686,
                    0.7374536120153372,
                    -1.0277274169433421,
                    1.3986892354399596,
                    -0.42930509051182725,
                    -0.8993973523339243,
                    -0.7315363004471158,
                    1.1268914743368734,
                    0.5055890029961071,
                    -0.49389104521809946,
                    0.05029630829340569,
                    -0.7771790258900301,
                    -1.3657469547589631,
                    -1.69490933918706,
                    -2.7599499960842344,
                    -0.8580278409059152,
                    -1.5250716633554224,
                    -0.8257745049926708,
                    0.3989167772958422,
                    -1.8311228758662759,
                    0.3192587569123765,
                    1.7054506783707466,
                    0.2375157895312475,
                    1.9352101311760617,
                    -0.6211303546444548,
                    0.007145863132956603,
                    -0.6987657296872806,
                    -0.5014776387020796,
                    -0.18031961273305908,
                    0.0693460119634332,
                    -0.4396243602712764,
                    0.487755405555405,
                    1.1334323417900396,
                    -1.1733778020881158,
                    -0.2642555795688384,
                    1.8738814774951549,
                    -0.08516139286975763,
                    -1.0110507561161994,
                    1.1215109133444494,
                    0.3780930426236192,
                    -0.037727871819117936,
                    -0.5726621757069957,
                    0.06430364544666031,
                    -0.8681799976515939,
                    -0.8729745002748364,
                    -0.8478661122608216,
                    -1.0713849744543447,
                    -0.9547651910169622,
                    0.6769349283930213,
                    0.7357112815946861,
                    1.0305248545572083,
                    -2.1200574052565897,
                    2.035931547770229,
                    -2.219836105153077,
                    -0.41922205725990613,
                    -0.9810557363708374,
                    -0.6109847466437379,
                    0.917456317142069,
                    0.2070823597742711,
                    1.883335225796975,
                    -1.936329064176352,
                    -1.3564708913265187,
                    2.465205158000951,
                    -0.6195331684319383,
                    0.13302375042959777,
                    -1.0494040717623225,
                    -1.066315532330447,
                    0.14732896208161883,
                    -1.5228390323369811,
                    -0.8482561757138779,
                    1.7472316508593104,
                    1.4084995466960124,
                    0.6751263776165832,
                    0.11055999637955485,
                    0.9399378740647153,
                    0.10265807462719438,
                    -0.06154012999776117,
                    1.4761842246235917,
                    0.95179069469595,
                    -0.176203201941887,
                    -2.344021779205311,
                    -0.32652656594250595,
                    0.5298768792194852,
                    -1.5337048471108172,
                    -0.4721142999729601,
                    0.031156613503764332,
                    -0.04211433756681199,
                    0.7956464345228444,
                    2.442001689672097,
                    -1.2315046624337578,
                    1.5989253232028307,
                    0.5893048155967355,
                    -0.18066394899770544,
                    -1.029855091580728,
                    0.3124051830488646,
                    -0.7564831965354467,
                    1.1035007502911616,
                    -0.02139983494273038,
                    0.7705409021044733,
                    1.5349924674713638,
                    -1.4167773467393145,
                    1.557780995422465,
                    -1.3239761316025784,
                    0.680337330897783,
                    1.3882764110729644,
                    0.301802933117267,
                    -0.8270102077048894,
                    -0.5625655805851683,
                    1.2995954173295658,
                    -0.2351772815407355,
                    -0.5887768267293051,
                    1.5636980668830125,
                    0.21984185995400649,
                    -0.08723232752126771,
                    -0.8769745849756259,
                    0.5409599472733472,
                    0.6760372104568036,
                    -1.1883951662124617,
                    0.1732199475474402,
                    0.10953150106038168,
                    0.08463215720307303,
                    0.6027083405761371,
                    -0.6582882978199717,
                    0.47217141095937915,
                    0.7559324379457405,
                    0.36684023266536075,
                    -1.426495643249724,
                    0.45661081522852626,
                    0.922610710390542,
                    0.28922764292495007,
                    0.32281446917884876,
                    0.31593365353677744,
                    0.40321165596059816,
                    -1.2770096850151735,
                    -0.2535528907684336,
                    -0.722833463680057,
                    1.285702520397826,
                    1.3865720368658128,
                    -0.50637335803238,
                    -0.0701825491357362,
                    -0.45392485234156466,
                    -1.6753257948975135,
                    -0.2940063118337384,
                    -0.5703782150633762,
                    -0.21211094368596958,
                    0.4741962074052884,
                    -0.7808661874534503,
                    -0.5306732804759545,
                    1.8056055004359854,
                    -1.5310936904519494,
                    0.1503031214975989,
                    1.193763281341472,
                    0.11547100361028331,
                    0.8642960209419579,
                    1.1555667021668685,
                    1.2800801164249742,
                    0.6638646210070256,
                    0.7207335729768314,
                    0.376943798477697,
                    0.04718675313622677,
                    1.5856837297008233,
                    0.38263725169952756,
                    0.7095165932773888,
                    0.19916361197997803,
                    -0.4957795440841965,
                    0.06782545010183376,
                    0.6402448364697356,
                    0.5421703920242678,
                    -1.560095459773147,
                    0.4918725663331277,
                    -0.2469615441821715,
                    0.8553350796547077,
                    1.0838909015982854,
                    0.570248651005909,
                    0.42301486831643426,
                    0.2308207782258705,
                    0.844694912056211,
                    1.1760429290136643,
                    1.1007539651978584,
                    0.3549858156754375,
                    0.03117583451909169,
                    0.5176865134860196,
                    -0.6313918388694318,
                    0.7985222583438948,
                    -0.27778716297597084,
                    -0.1286262423282035,
                    0.42842715133835246,
                    -0.7502191187897669,
                    0.771187298565546,
                    -1.737593769180135,
                    0.57339199122304,
                    -0.49997780136860087,
                    -0.4509335466072322,
                    0.028873650687633246,
                    1.927228733446339,
                    0.4519010516824349,
                    1.5568859133469857,
                    1.3957992654756182,
                    0.9541782479164203,
                    -0.651678664819353,
                    -1.1280049643131358,
                    -0.9381245823494894,
                    -0.8023953393660601,
                    0.5509021164673922,
                    0.9656991274033389,
                    -0.9300695032650643,
                    0.418797490474205,
                    -0.9084823955519091,
                    1.074435376925023,
                    0.3398097505746895,
                    -0.21006393731522963,
                    -2.317737975138169,
                    -1.263107183131128,
                    0.574387000527251,
                    -0.47987893427898676,
                    -0.8529386480097769,
                    0.6948897402583084,
                    -0.30957735703058864,
                    -1.1891136931472333,
                    1.3287980513814641,
                    0.2892306491500204,
                    0.9332541264074811,
                    -0.09664022311070213,
                    -0.8915532950009324,
                    0.35433731031539406,
                    -1.9063583226943728,
                    0.8741670082655856,
                    -0.12959847839347677,
                    -0.18218733237951548,
                    -0.1576361075955735,
                    -0.8322049893011607,
                    -0.42207614998547704,
                    -0.12551539475560727,
                    0.5434700692490547,
                    1.5727802524248073,
                    1.7267716139908054,
                    -0.18768407205035026,
                    -0.05508394867077212,
                    0.7425543356065216,
                    2.355040992008244,
                    1.8181193720588944,
                    -0.20549389013697883,
                    -0.804984651411017,
                    -1.3260651303443909,
                    -1.7459217821754454,
                    1.2019508034081563,
                    0.3784106785581226,
                    -1.551234945822266,
                    3.4694360115755436,
                    1.4434502965843068,
                    1.6464338791230966,
                    -0.11103684156564449,
                    -2.3523220610299793,
                    -1.2511323685231404,
                    -0.08734777321565991,
                    1.0273055634459778,
                    -1.0385740008773117,
                    -0.4856762775745176,
                    -0.8111107233651988,
                    0.6193217529728773,
                    -1.9619436933257293,
                    -0.4692067037906949,
                    -0.6471040616482325,
                    0.015560359465491773,
                    -1.346773085428001,
                    -1.074233989516885,
                    0.7524171344981941,
                    -0.8685784872633338,
                    -0.8209048732389544,
                    0.9281368725275454,
                    0.18472983754677294,
                    -0.9230577044612439,
                    1.4513522086531117,
                    -1.449680066845825,
                    0.022196435060706288,
                    0.47526374641518515,
                    0.26556397417565336,
                    0.9085635469523324,
                    0.1676248552534762,
                    -0.5974713942247734,
                    0.31209886439092943,
                    0.2287652165745839,
                    1.0978954130404786,
                    0.7320024978951792,
                    1.4486956066279246,
                    -1.6145953954201997,
                    -0.36867240458717,
                    1.05991099642288,
                    0.2686754067781166,
                    1.7056003076431148,
                    0.7100930764998313,
                    1.3429684248242961,
                    1.571212548325406,
                    0.7020073667431969,
                    1.317365116573707,
                    -0.9596016239763491,
                    -0.7012503628583646,
                    0.28866722911432463,
                    0.6365180608215489,
                    -1.3710967639573164,
                    0.21542796033474565,
                    -0.3251680386798347,
                    0.7427403445578684,
                    -0.03963861245418243,
                    -0.9845382010724242,
                    -0.18270110099056647,
                    0.5067454308477009,
                    0.3170905711501138,
                    1.2698579880686696,
                    1.0681895635240564,
                    -1.1835343572383186,
                    -0.43149530329991026,
                    -0.6130751992729049,
                    1.1847745498843825,
                    -0.6978545794925125,
                    -1.617154363683404,
                    0.31441863831820843,
                    0.3184083511363138,
                    -0.01773248773542992
                ],
                [
                    0.11554538724350916,
                    1.4030822944281407,
                    0.6453706678258115,
                    -0.24438764502514793,
                    -0.8173697947861513,
                    -0.8968064436657679,
                    -0.525510490272961,
                    -0.2123318506998579,
                    -0.37065373551628317,
                    -1.9055292847843663,
                    0.9189693507518484,
                    -1.398713050452623,
                    -0.2550836730404967,
                    -0.08355752394217437,
                    1.554491121000763,
                    0.6374050450656898,
                    -0.4978436719397032,
                    -2.1962383286308924,
                    2.1644043063827914,
                    0.5994243549183268,
                    -0.11593266711188997,
                    -0.24770163085085936,
                    0.021439181640419795,
                    0.9999299175046268,
                    1.2749830277220544,
                    -0.37572123233960303,
                    -0.08560844450624705,
