{
    "epochs": 10,
    "layers": [
        {
            "bias": [
                [
                    -1.251524984009724
                ],
                [
                    0.44595066680041756
                ],
                [
                    -0.299463613852713
                ],
                [
                    -1.2475619555882067
                ],
                [
                    -1.6577921950449201
                ],
                [
                    -0.37481714740914507
                ],
                [
                    0.5117330399879321
                ],
                [
                    -0.6593009230472522
                ],
                [
                    0.2190798449686673
                ],
                [
                    0.028883766200311477
                ],
                [
                    1.8877611113431596
                ],
                [
                    2.2677367249949394
                ],
                [
                    1.0953434331839333
                ],
                [
                    0.13428904454691504
                ],
                [
                    -0.7613183117709149
                ],
                [
                    0.6860512820436154
                ],
                [
                    0.5298356055315366
                ],
                [
                    -0.1029005918385727
                ],
                [
                    0.15234903077022965
                ],
                [
                    0.8588806553932467
                ],
                [
                    -0.6743313412439961
                ],
                [
                    1.0832773477009627
                ],
                [
                    1.9078099027990292
                ],
                [
                    0.06709289840301683
                ],
                [
                    -1.7471582671236006
                ],
                [
                    -1.1135816142257196
                ],
                [
                    -0.14619322191055156
                ],
                [
                    -0.33258955206866553
                ],
                [
                    -0.9364167031138113
                ],
                [
                    -1.6609729867728418
                ],
                [
                    0.862915627529129
                ],
                [
                    -0.8693559729425001
                ],
                [
                    -0.17833887995302716
                ],
                [
                    -0.8049597738555467
                ],
                [
                    0.5416340518629184
                ],
                [
                    -0.6515035112099679
                ],
                [
                    1.5253636518177214
                ],
                [
                    1.1387479196822121
                ],
                [
                    -0.4202301447350647
                ],
                [
                    0.12108357287287752
                ]
            ],
            "type": "Dense",
            "weights": [
                [
                    -0.5639664914684542,
                    -1.020472285944185,
                    0.634631443560659,
                    -0.2979943637901584,
                    0.7509399383923766,
                    0.15043449122435137,
                    -1.041882410084626,
                    -2.621724937413829,
                    -0.2710458608707722,
                    0.1939142784544122,
                    0.046784200496942555,
                    -0.34261120547286505,
                    0.12077645624664629,
                    0.649676815966695,
                    -0.3163737473357672,
                    -0.5651587256296323,
                    -2.4443046659677243,
                    -0.591468095253835,
                    0.7349499415664819,
                    0.6809418186966333,
                    -0.63106335331631,
                    1.20848887024871,
                    1.421253042989863,
                    -0.055637998970516724,
                    0.34772873643665325,
                    -0.9287652579411527,
                    0.12673059905662865,
                    1.3555509358699498,
                    -1.747750530260291,
                    -0.17221760975727274,
                    1.21659518465394,
                    0.12398995810299002,
                    -0.5682588106754953,
                    0.2564039591425014,
                    -0.11757645739593327,
                    0.704112057861982,
                    0.3282008148607595,
                    0.06883679489401562,
                    -0.10416770880367072,
                    -0.6669336099583316,
                    -1.1177490215188488,
                    0.44059766566952185,
                    1.6467684622488015,
                    -0.35484605338812747,
                    0.4951133807043974,
                    -0.9721817921259414,
                    0.4649176191189852,
                    0.7098191169617113,
                    1.5926999420068717,
                    0.23571984081828354,
                    0.8301708922543827,
                    -1.5493852981039615,
                    1.2474211139890667,
                    1.1534201313492667,
                    1.9168930160174857,
                    -1.3850753355633891,
                    0.876673482363062,
                    1.1621078022310594,
                    0.25554562102836376,
                    -1.3961217042508873,
                    -2.477353926514473,
                    -0.3235696585637715,
                    -2.434770890957276,
                    1.5836033372241052,
                    0.27516733776767394,
                    1.5593793370957654,
                    -0.2707952304367052,
                    0.17872582679343757,
                    0.044912228232655664,
                    -0.7240355813756914,
                    -0.37404764498733095,
                    0.3627446572938995,
                    -1.292861511615159,
                    1.0637276668771394,
                    0.34728531654321315,
                    2.0810336581302593,
                    0.7611122931357863,
                    -0.03488711101562933,
                    1.1434039978805313,
                    -0.9667159376128037,
                    -1.2666909369955128,
                    -1.0407416542585126,
                    -0.5711994654136324,
                    0.1545542757256767,
                    -0.3467550670362271,
                    1.6530462967031216,
                    0.9626172713402112,
                    1.1340434811402451,
                    0.34933961056257246,
                    0.3315620726577434,
                    -1.152314627722733,
                    -0.5665737130353198,
                    0.15519742303291292,
                    -0.7865259243698601,
                    -0.876982887414099,
                    -0.46032683566097754,
                    -0.31238834370941493,
                    -0.19246153700495633,
                    -0.11393928064068344,
                    1.572621552073444,
                    0.09781529187347893,
                    1.6959493636097802,
                    0.7624692918967257,
                    -0.3070081247507438,
                    0.7408062986865409,
                    -0.22601602548298697,
                    -0.19085495189295607,
                    1.33519740330182,
                    -0.15483185482695055,
                    -1.5479437529624454,
                    0.7675943489145645,
                    -1.6903474826500433,
                    0.5525285017838182,
                    1.0491457980724574,
                    0.11657750753959498,
                    -1.9131715551003794,
                    -3.748142589934695,
                    0.38616493451724954,
                    0.3415398782636986,
                    0.46887716940815216,
                    -0.3180935892132792,
                    0.7504100138580326,
                    -1.876233332046802,
                    -0.8467761669921081,
                    -1.47300679110391,
                    -0.5186157295500123,
                    -0.1583672175123671,
                    -0.4876920579147687,
                    -0.36981679458949795,
                    -0.23324033380944562,
                    0.7491530695247608,
                    -0.5663003207748794,
                    -1.0333098651942128,
                    -0.5051152415378527,
                    0.17195779028119482,
                    0.0619764726200922,
                    -0.6115250598728996,
                    0.7504363514298203,
                    0.6176758634436786,
                    0.13607405881455772,
                    0.08950028121381196,
                    -0.34316694305801654,
                    -0.010435938725522453,
                    -1.4482742423042274,
                    0.851283612308435,
                    -0.2261550378418379,
                    0.6187831391487955,
                    -0.9006103649897949,
                    0.46124206495795234,
                    -1.8405009218359467,
                    0.2530006009047107,
                    -0.7116149201446546,
                    -0.2374588668810656,
                    0.7169461151982018,
                    0.08232690393509186,
                    -0.22568925333986106,
                    0.41794658067157864,
                    0.9078076849015544,
                    0.8985966859103892,
                    -2.4243314444071657,
                    0.6603774396105311,
                    -0.09791719373828295,
                    -0.8008821993063873,
                    0.9090750059520131,
                    0.3527845407889246,
                    -1.0651341152597507,
                    0.04219190709845299,
                    -1.1370265078200625,
                    0.5822618436459028,
                    0.05246845158717557,
                    1.2953543804596808,
                    -1.455349346187597,
                    0.5415542641283039,
                    -0.39953325923298283,
                    -1.5826230566057542,
                    2.154153555805601,
                    -1.6354082621827108,
                    -1.3380272694785187,
                    0.8383109108541347,
                    0.08095213469622368,
                    0.34970545704331746,
                    -1.0718808263182193,
                    -3.438915910277199,
                    -0.3771184107458087,
                    -1.5015151001141323,
                    -0.36504610155817085,
                    -0.7465070102984305,
                    -0.3478342304134826,
                    0.22464645576665992,
                    -1.0063254612002432,
                    -1.5969762699955588,
                    -0.2223088391344509,
                    0.8202129974872017,
                    0.49389253073159484,
                    -0.41833156256203713,
                    0.9258754669825918,
                    0.6191407447377533,
                    0.301506321161039,
                    -0.04824925346533524,
                    1.206423615778403,
                    0.6051167667145695,
                    0.486383504809659,
                    -0.030573535418308463,
                    -0.4122524887944822,
                    0.07462383685569571,
                    1.18583246965585,
                    -1.0625128214127528,
                    1.2202103180176067,
                    0.20895961711608488,
                    -1.6459820084941836,
                    -1.8678006174917416,
                    -0.4588041421059357,
                    -0.40867397109211007,
                    -0.011730524983257891,
                    1.2041267294988531,
                    0.575120165734441,
                    -0.7057145197058503,
                    -0.67087882446797,
                    1.0712341820577567,
                    -0.9934181019924961,
                    -0.1269796834119647,
                    -0.13407887584305914,
                    -1.0509953713817664,
                    0.6670686589926819,
                    -0.18531404125171508,
                    -1.3812453496115795,
                    -0.21889622819675306,
                    1.491926503408419,
                    0.36260916999877196,
                    0.19787263451399292,
                    -0.4867231555653368,
                    1.2054860238162413,
                    0.5326931054324354,
                    -0.21784400992360844,
                    -0.3765146882331257,
                    -2.0261525959890734,
                    0.005587308429776166,
                    0.17950970487521217,
                    -1.9435455161680648,
                    0.713281292587422,
                    -1.3995164711485575,
                    1.181513082798978,
                    0.36420719611631047,
                    -0.05817980550846966,
                    0.10216092914641066,
                    -2.644102322178118,
                    -0.20556492956304384,
                    0.42685963837090324,
                    -0.3228017163849314,
                    -0.5526625397923435,
                    0.3990654571516399,
                    -0.5820841358808723,
                    0.5095322249981133,
                    1.1555847689567444,
                    1.1418216563883687,
                    0.08530935537091121,
                    1.5845081909743617,
                    -0.4498028449375891,
                    -1.13095209479715,
                    0.34663007402144164,
                    -0.2959503355692908,
                    0.6551156990075578,
                    -0.25267947238431504,
                    -1.3149833663696975,
                    -0.9727670022094439,
                    -0.635197100613498,
                    1.7408729836991408,
                    -1.1099011127102683,
                    -0.12647625811166047,
                    -1.0052345784515897,
                    0.38936781929932335,
                    0.6234689828150585,
                    -1.9320527554808373,
                    0.2633901321612995,
                    -0.6883749971826911,
                    0.45675578574915154,
                    -0.3540647059625608,
                    -0.6980769702424268,
                    -1.6257536183504182,
                    2.232892589647115,
                    0.8327772727890596,
                    0.580250848555738,
                    -0.850218822691017,
                    1.1968620641932899,
                    0.2687068998295928,
                    0.39706767898966294,
                    0.026070493984169097,
                    -0.6494190305697002,
                    -0.16352216755026247,
                    -0.8838848622232288,
                    0.36560129006067016,
                    2.049288277784364,
                    -0.07131931699511641,
                    0.4345924558630103,
                    1.4011456508039162,
                    -0.12814630231835733,
                    0.8147707272329493,
                    0.27284599618820227,
                    -0.3219831518019128,
                    0.22750930204009628,
                    0.1608012448600629,
                    -1.0780712774482726,
                    0.21950842523717848,
                    1.148085728296865,
                    -0.4642067228605236,
                    0.48368191531925736,
                    0.4519667576781807,
                    -0.33497473469602296,
                    -0.13836730543093276,
                    -0.15413750577039803,
                    -1.3990095044914836,
                    1.4492365585295655,
                    0.07202007917599315,
                    1.4308546968047922,
                    1.8840084979079195,
                    -0.9529476727254191,
                    0.305973100995395,
                    -0.3167388892828466,
                    0.7809744772914676,
                    0.6260134369974966,
                    -0.9627397822475041,
                    -1.46461345009708,
                    -0.780102673034042,
                    -0.7694257650551906,
                    -0.7473270272399027,
                    0.46553893920771555,
                    -0.560584607108188,
                    1.0909005637547224,
                    -0.7288248018121296,
                    0.4345148499178367,
                    -0.5899000557423909,
                    0.984951175228207,
                    2.8362582327293695,
                    2.0686851742756236,
                    -0.5076980846077886,
                    -0.03579310847517418,
                    0.3722328614786052,
                    1.3550597427487314,
                    0.8058508872794553,
                    0.4232092721766845,
                    -0.5614060977415252,
                    1.691506964183409,
                    -1.0214646386486388,
                    0.19870849175228497,
                    -0.17678152936657285,
                    -1.0387458709269601,
                    0.2440279618662209,
                    -1.2344811498883352,
                    1.3948374892825979,
                    0.004139612826580165,
                    -0.5926735219873689,
                    0.46322417367245333,
                    0.7178993019755652,
                    -0.11471549001444,
                    1.1536605604429195,
                    0.6639690508412637,
                    0.8909987212334165,
                    -0.11852405780660985,
                    -0.6693586824032902,
                    -0.9816347361710235,
                    1.0949062915102985,
                    -0.7667509443736293,
                    -0.001035919415924441,
                    -0.4655749742237472,
                    0.9537901874700556,
                    1.0051874864470236,
                    -0.4116404570038757,
                    -0.91347524350882,
                    -1.9609869380445706,
                    -0.0815685536583622,
                    -1.5542589884113303,
                    0.5515479147894653,
                    0.7611080120905617,
                    0.0828579897894895,
                    -0.9994446930043872,
                    0.2142461441908689,
                    -0.42489653691567253,
                    -1.535651299152634,
                    0.47022181792578904,
                    0.6255625106338153,
                    0.17110227786234425,
                    -0.5020290126901651,
                    0.2776856237590469,
                    0.4732480945923964,
                    0.9326437500153626,
                    -1.0858717632104162,
                    1.4354277171096397,
                    -0.3049117652448828,
                    1.3042578694651261,
                    1.9120280575674085,
                    0.26915647520720004,
                    -0.7363207946729095,
                    -0.936650638255652,
                    -1.061427985311179,
                    0.31376239197913597,
                    -0.10180192591266918,
                    -0.6095142068274124,
                    2.277941486521049,
                    -1.0120016316769154,
                    1.2381530910925516,
                    0.8302604606379604,
                    -1.300803416148085,
                    -1.1011660580151954,
                    -0.5700805160882912,
                    -1.2853563842135043,
                    0.012870985281999349,
                    -1.370570720633671,
                    0.3087752136936051,
                    -1.0990973512050317,
                    -0.5120082473609228,
                    0.46881578337709523,
                    -0.6036665569467254,
                    0.033640467213237,
                    -0.4016793651073998,
                    1.6062475083269554,
                    -0.8196960615426324,
                    -0.7051972037187832,
                    -1.7537022490623517,
                    -0.023728665593823133,
                    -0.8071593653045004,
                    -1.0344429998971643,
                    0.7878330732333982,
                    -0.7530456437327642,
                    1.5055711652647092,
                    0.3858443408601399,
                    0.4340104339910944,
                    -1.012554228870283,
                    -1.15110952589535,
                    -0.18976452372050998,
                    1.282194165796665,
                    -0.49767546226889153,
                    -0.923989790152921,
                    0.8315590788684325,
                    0.8125532775176452,
                    0.3326916252075884,
                    -0.12257933462973422,
                    1.6040655843349703,
                    -2.2755722490910895,
                    0.18506841470636595,
                    -1.4090029287597796,
                    -0.13854016715140474,
                    -0.9858028480052492,
                    0.6303233697863564,
                    0.05541793403827104,
                    -1.195168976514042,
                    -0.949870897705741,
                    0.6941250797379076,
                    0.1144359293980957,
                    -0.30644197632486136,
                    0.42786085606392427,
                    2.0160722559106454,
                    -0.6500343624218771,
                    0.46537541550084666,
                    0.6184358333805293,
                    -0.23463386543196132,
                    0.5116735314161835,
                    0.5234960738030764,
                    2.3016630531116773,
                    -2.6844076691515135,
                    -0.3308104136057963,
                    -0.4779041664501975,
                    0.32513655011799475,
                    -0.5041531763402621,
                    0.545915790878104,
                    -0.6765907291855374,
                    0.8889946534128682,
                    -0.24328058587645843,
                    0.7323141981991174,
                    0.4959839911525058,
                    -0.33657156582426434,
                    -1.4190242967393696,
                    1.2757208541983744,
                    0.7097513587924424,
                    -1.01981377675413,
                    1.4892522307892295,
                    0.27337908639189756,
                    -0.48367144230442977,
                    -3.1587160730384944,
                    -0.5277389856199209,
                    -0.6765301620025814,
                    0.895536113262993,
                    0.23182532045638704,
                    1.0157398729186264,
                    -0.5015040523086658,
                    -0.7445538017631997,
                    -0.6141347625777721,
                    0.6789060748762435,
                    -0.8069774582577428,
                    0.04850187154118027,
                    -1.4854288284334114,
                    -0.7560220450285678,
                    0.10790948022584357,
                    -1.7183419446001305,
                    -1.3285014471026324,
                    -0.5842808595031751,
                    -0.6222842125210726,
                    -0.23681969285568852,
                    2.265094045383203,
                    0.9534502255232714,
                    0.8735698881217662,
                    0.741898740426422,
                    0.2826991480729882,
                    -0.1598149963458587,
                    -1.3546755252967424,
                    -0.5350644787676472,
                    2.180085132096579,
                    -1.3285083794129724,
                    0.5688912298262657,
                    0.9060135875509138,
                    -0.7195869882754419,
                    0.11434011397941218,
                    0.8087648480246856,
                    0.540775178047595,
                    0.20041603795685292,
                    -0.8257168391525208,
                    -1.5789698922820596,
                    0.316603497321418,
                    -0.17804187005940086,
                    -0.3646683534237022,
                    -2.203571866726225,
                    -1.221003903189312,
                    -0.47008390815638823,
                    -1.8414834412800751,
                    -1.5206594187588975,
                    -0.39263562375121636,
                    -1.5957124282258932,
                    -0.7663574820644494,
                    -1.4878589072162447,
                    1.058845366678387,
                    -0.6189169624185831,
                    0.07843504765921601,
                    1.538590733881114,
                    -0.6491733556929938,
                    -0.5481836523627899,
                    1.2609568586118411,
                    0.05444165755675214,
                    0.23220929480208663,
                    1.0851231031812885,
                    -0.8771828902936238,
                    -1.9304867653170381,
                    0.39654776129527286,
                    0.2700878382500207,
                    1.0355035454127752,
                    -0.10273393868630634,
                    1.3595296294173942,
                    -0.8906408388717365,
                    -0.8646248620846335,
                    0.733920746215774,
                    -1.0876738060273905,
                    -0.2362361556693336,
                    0.40633010282818816,
                    1.294699391495064,
                    -0.09392990152099392,
                    -0.17555316282676192,
                    0.09725838388851818,
                    0.6295956019815966,
                    1.0367945226039226,
                    0.3509399222325909,
                    -1.513169845794421,
                    0.6122007550745823,
                    0.41005790610728965,
                    0.430373905073928,
                    -1.0768103617988707,
                    0.28100573747902313,
                    0.9744703572928222,
                    1.1141330487949581,
                    1.2452365392415277,
                    0.09421457161440036,
                    -0.5029225839930886,
                    -0.6236873056681924,
                    -0.25853577657352167,
                    -0.15603750501129562,
                    -0.13393131544576278,
                    -0.4403809801027568,
                    0.6554389427759247,
                    2.5071773927715535,
                    -0.18003244166628238,
                    0.9367815913620058,
                    -1.3405754037804016,
                    0.20702611554499106,
                    1.3461836023527087,
                    1.3290788274803869,
                    1.1650844767268451,
                    0.7937106972197362,
                    0.43847297863350504,
                    -1.4475225013945725,
                    -0.8866680768794934,
                    -0.5188290476683864,
                    1.1698731276989542,
                    0.861626793714541,
                    -0.5723297528249484,
                    -1.1059259563668453,
                    -0.7496064404673984,
                    -0.03373865393990696,
                    0.5228976940286011,
                    -0.89801266617694,
                    -0.6936252260163364,
                    -1.3178020228587037,
                    1.0657635923254996,
                    -0.8785836866927935,
                    -0.4584079563776268,
                    -1.3280652466677916,
                    0.1409430180941335,
                    0.8320417068130275,
                    1.2011609265328085,
                    -2.446926702834078,
                    1.1224721325930036,
                    -0.014037167362788712,
                    0.8394619409193501,
                    0.5831186126504293,
                    -1.823151103558733,
                    1.7540170974484133,
                    0.5290528674912911,
                    0.12197230046268437,
                    -0.4756899638851697,
                    0.9824145035995883,
                    -1.001718994310345,
                    1.8562270574685826,
                    -0.35997334899410016,
                    0.4524206019950881,
                    -0.5547898100724938,
                    0.36004263386323854,
                    1.7272023177251077,
                    1.8391877189207309,
                    0.3218527452283205,
                    -0.2929438549869238,
                    -1.3579277424005343,
                    0.04810379959079054,
                    0.653066051910603,
                    -1.4563588181023406,
                    -0.11657470690687491,
                    0.12861812577965445,
                    0.22643102736290976,
                    -0.14125301346375577,
                    -1.7468167770996164,
                    -1.1765436152880338,
                    -0.5965308661172404,
                    -1.6657458206279843,
                    1.353372911770248,
                    0.30193229349100875,
                    0.6899293372585291,
                    -1.1000688883968173,
                    0.7352009276771166,
                    0.839001264780463,
                    -0.018270816830802294,
                    -0.600861850486623,
                    -0.25060826714109485,
                    -0.8369396796049869,
                    1.178880725999013,
                    -0.4923742738145519,
                    0.03723938081503545,
                    -0.9715469854636098,
                    -0.4002096702521072,
                    -1.859156604107378,
                    0.7751144413820079,
                    2.2730845096929975,
                    0.2035009308609132,
                    -0.13806855969745918,
                    -0.341716601431341,
                    0.8431002025368232,
                    0.2723594625834841,
                    0.15707041788491424,
                    1.371177917468744,
                    -0.7397934389920429,
                    0.9350378965299438,
                    -0.3300856921203149,
                    0.2946792983699741,
                    0.3164827565228919,
                    -0.7103847751753233,
                    0.17283050419157361,
                    1.5871490688682364,
                    0.36913092984715,
                    -0.0026802168850089815,
                    0.4743040304982202,
                    0.5675535232640875,
                    1.3451282690991004,
                    0.03748739563513938,
                    -1.4489060241388265,
                    -2.092306232481107,
                    -1.9318960220634087,
                    -0.34963594869881737,
                    -2.1786428555010287,
                    -0.2156247160130438,
                    1.242681703404797,
                    0.1132485783289403,
                    -0.6093837169157484,
                    0.4857931506076014,
                    0.059604136527747126,
                    1.1784982150462089,
                    -0.7490357435600484,
                    0.16334399352629533,
                    -1.2553441347967902,
                    -1.3351586120927783,
                    -0.3761930856069595,
                    -0.828304330449905,
                    -1.646029549579182,
                    0.6701993117554929,
                    0.8748088655932411,
                    -2.4359727713594688,
                    0.9922780064318316,
                    0.6062252646367742,
                    -0.104726922730489,
                    1.0668123588806755,
                    1.8661660783112788,
                    -0.7445240806442348,
                    0.8194983986883592,
                    -0.5943871297112413,
                    1.7892643539180295,
                    -0.4444567692250505,
                    -0.1135794756227758,
                    -0.8362659745101484,
                    -0.26301725982047125,
                    0.462650824603864,
                    -1.0175589059268484,
                    1.7449709884657887,
                    -1.2066640448216,
                    -0.14124293251144268,
                    -0.24067720103091586,
                    0.1737624073678606,
                    -0.4482662610548072,
                    -0.01971478657085816,
                    -0.5324210512484908,
                    -1.0939536006544257,
                    -0.17433051210596248,
                    1.1050045260908241,
                    -1.2315052465452088,
                    1.0279746575556035,
                    0.8173124852170075,
                    0.11644717642466572,
                    1.8252250386931215,
                    0.480593459139823,
                    2.884756252295506,
                    1.4898476283029294,
                    0.6676991038917469,
                    0.33515207517066614,
                    1.6940660095119473,
                    0.9587127001480243,
                    0.3494757163302568,
                    2.7385704477564583,
                    -0.05336762931158844,
                    0.8822665228182556,
                    0.8214866653528069,
                    -0.770224336453655,
                    -1.037927252858207,
                    0.8405124021836732,
                    -0.2719982393426867,
                    -1.4735393450967593,
                    0.6299673215346865,
                    0.16163559918220013,
                    0.08790821201360186,
                    -0.29817255180987345,
                    -0.6356217153639222,
                    -0.575960616236315,
                    0.4708317774169904,
                    -1.2894378541695735,
                    -0.38181127310045665,
                    -1.4760415341150581,
                    0.8309509916991796,
                    0.5653525275141676,
                    -0.2801265314523979,
                    -0.26295301284464295,
                    0.8914008194204032,
                    -0.1126958564221991,
                    0.28328871355360463,
                    0.8989641829214808,
                    -0.04953300562848654,
                    -1.024937676796671,
                    -0.6269785157943261,
                    1.4843552262021134,
                    0.606823630079321,
                    -1.9004529980197924,
                    0.7598248898806353,
                    1.271904094789863,
                    0.6287472321296533,
                    0.3777918341640567,
                    0.5204330443818702,
                    0.43806471354135734,
                    -0.8354052179928109,
                    -0.29158413532829236,
                    0.30226268150024627,
                    0.4750685237704272,
                    0.44030687749168224,
                    -0.23028162554742643,
                    -1.291337686136561
                ],
                [
                    2.3244701382008324,
                    0.6126685674542286,
                    1.2026760874565647,
                    0.1926246250566612,
                    -0.6238779888883099,
                    2.653830497271587,
                    0.47928043819037097,
                    0.1790660361938062,
                    1.3155126578733205,
                    0.10199908003686231,
                    1.1541696193871342,
                    -0.5394791992664738,
                    1.2057702796861827,
                    -1.5939477611608996,
                    -0.7239160205379104,
                    -1.2253211303293414,
                    -0.4022310464912864,
                    -0.5367248145905559,
                    0.17020499239958506,
                    -1.0124970756631348,
                    -0.016453489281851006,
                    0.24133644005813648,
                    -0.22252316323087376,
                    0.8092255620435366,
                    0.12593232364542103,
                    1.5771007667760963,
                    0.5803880894109266,
                    0.2739729276639008,
                    -1.3471441443753325,
                    0.26160870659742885,
                    0.815663707242123,
                    1.4385920097384848,
                    0.3761300060356576,
                    -1.1977149337196171,
                    0.17213862620875145,
                    -0.06068030617706746,
                    0.40393490773712604,
                    -0.17371042260237785,
                    0.2575881467909362,
                    0.23039522351901734,
                    0.8498144991133508,
                    -0.6145162724017038,
                    -1.1573464060551242,
                    0.4450287697021094,
                    -0.6255960603633238,
                    -0.1464789126180199,
                    -0.4834164339930782,
                    -1.0137839144781855,
                    -0.340740065548318,
                    -1.5466082709346074,
                    -1.3677641376860827,
                    -0.7290882801523894,
                    0.44358090290816565,
                    -0.4791128014984004,
                    1.1869812807822364,
                    0.8433468401014973,
                    -0.8545412873996082,
                    -1.0583595207432697,
                    -0.45718566741379224,
                    -0.7223822242338995,
                    0.27623730608072844,
                    1.967404166161682,
                    1.2871161613674789,
                    -0.8503758909758881,
                    -1.1093162770571465,
                    1.7376194550099424,
                    1.38315942830734,
                    -0.22824365619911458,
                    1.4914539795334596,
                    0.971239969297722,
                    1.9744449889648985,
                    -1.2808799819185395,
                    -0.7186217120686793,
                    -0.7403516114243981,
                    -1.0636974135910355,
                    -0.025742974319171545,
                    -0.1990014413504291,
                    0.28685428553216424,
                    -2.203017646089743,
                    0.40478368233194006,
                    -0.22996267944437218,
                    0.15601161576964404,
                    -0.5290473611895512,
                    0.9775299575319426,
                    -1.063005932364498,
                    0.4420618249676121,
                    -1.2579135912733634,
                    -0.42548757827212236,
                    -0.2328532718221205,
                    -1.5248303476847307,
                    0.9880420524291524,
                    1.0449443717037115,
                    0.8540789721401345,
                    2.4368447102485753,
                    -0.2318244914508265,
                    -0.37516681605275737,
                    0.5909164847513046,
                    -0.6503614110334425,
                    -0.527850068109658,
                    1.2862112917846387,
                    -0.46241387192418815,
                    -0.4380751694051091,
                    0.45629438733773836,
                    -1.0794557727616692,
                    -0.8601725190339615,
                    -1.9711496012328087,
                    -0.3966430491468098,
                    -1.8608129689812314,
                    -1.2530904878044207,
                    1.047553690611116,
                    0.0034233105489649297,
                    -1.2323508792753717,
                    0.49911286757984313,
                    -0.09605295090888324,
                    0.4953052306424788,
                    -1.39692253127855,
                    -0.3542007752892779,
                    0.35035890008825,
                    -0.5879496361020115,
                    -1.0864380810228735,
                    0.340243427630897,
                    1.0198057130313394,
                    0.3679113495617466,
                    1.2038574036133085,
                    1.269507112667518,
                    -1.8788899279658888,
                    -0.5675632742156369,
                    -0.19073736507444908,
                    -0.0027300181259851727,
                    -0.8325516653470614,
                    0.12416180479406833,
                    0.824768847297156,
                    1.2959960080256812,
                    -0.8339195042658966,
                    -0.9402560221015146,
                    1.8607359263752983,
                    0.22822493440078961,
                    -1.45270152121216,
                    0.7321560180596229,
                    -1.0038657749247302,
                    -1.7318794116631926,
                    0.7674891133292444,
                    -0.3506197242552582,
                    -1.251862892515309,
                    0.9541729205041483,
                    0.07651954054233219,
                    0.10737092167952476,
                    0.9769530265623139,
                    -0.670589613141371,
                    -0.10466574572521894,
                    -0.5728201159150568,
                    0.5707684109565716,
                    -0.7419380268935007,
                    -0.8091619052091225,
                    1.4262678785873097,
                    -0.41172253365287514,
                    2.4703632878509607,
                    -1.1222000175220428,
                    0.6423213277358845,
                    0.3741170122154337,
                    -0.8614205843273088,
                    -0.3799839378193603,
                    0.8897169304280673,
                    -0.899195952524503,
                    0.7094721117038575,
                    0.04938937198116388,
                    0.9891027219659475,
                    -1.6433071251301954,
                    -0.9268672218448317,
                    1.9482198131677242,
                    -1.011637977868441,
                    1.0095543725627039,
                    -0.4708017686821738,
                    1.384434239047555,
                    -1.3374776917369062,
                    -0.14784642670718973,
                    -0.9627556083114501,
                    -1.165542877764058,
                    1.1282255779195003,
                    -0.266337876141683,
                    0.38856859576402875,
                    1.8506658904726088,
                    1.1987825741336828,
                    0.28936616622814015,
                    -0.7953702957973452,
                    -0.35274516549991924,
                    -0.7171197571473612,
                    0.1136473496188215,
                    -0.6482258440723261,
                    0.12012215964494354,
                    -1.2803970333352914,
                    0.33497527086424145,
                    0.7265606164502252,
                    0.32209974529464047,
                    -0.06605810482930102,
                    0.4847303677076293,
                    -0.882116732592264,
                    -0.4168575811777733,
                    -0.09169818414164506,
                    0.9530591073608885,
                    -1.124661929479634,
                    -0.2329093572242041,
                    1.3617484744387154,
                    0.05248943080169549,
                    0.19731392319696978,
                    1.4990339239514443,
                    -0.06970143574862954,
                    1.1852214948037596,
                    -1.9315262657156425,
                    0.49696433312079047,
                    -0.263884844833541,
                    -0.4393734605836433,
                    0.49764317708014044,
                    0.10543622451886105,
                    0.6705089924730189,
                    0.5470039638475931,
                    0.3242229840324989,
                    -1.664862616673559,
                    1.3897603351848191,
                    1.503815352281128,
                    1.2278859018072128,
                    -0.9345674304018746,
                    -2.2093255099117846,
                    0.9895564538977301,
                    0.5888548681840073,
                    -0.6262240420886278,
                    3.144080392190902,
                    -0.496383455205195,
                    2.012403604601067,
                    0.8490125032338864,
                    -1.0572975044409312,
                    1.959950144792854,
                    1.0761882864308354,
                    -0.1350165048216709,
                    -0.3289335246261566,
                    0.08240920275302589,
                    0.24101695565765144,
                    0.76536649831559,
                    1.2151360743828405,
                    1.8760724592887943,
                    -0.027275516668481613,
                    1.0352155230435107,
                    0.6397466495987282,
                    0.2689638211214347,
                    1.633370138739263,
                    0.33624403481317483,
                    -0.26933634976714005,
                    0.012973638865863276,
                    1.3887924386074335,
                    1.1849050310638578,
                    2.1166651344605882,
                    -1.115697923623018,
                    -1.2764860700251892,
                    -0.8095447677331418,
                    0.24841218873233425,
                    0.4371489449248149,
                    -1.1684615860580418,
                    0.3230526575383075,
                    -0.3447650846054917,
                    -0.3716440289960079,
                    -1.3475763821354534,
                    0.8515107286586462,
                    -0.12813437889465232,
                    -1.563956362927537,
                    -0.09343511872375662,
                    0.8801920311020967,
                    1.1781386279509767,
                    0.6933191501491169,
                    -1.3901677266522907,
                    -0.1935555064748546,
                    -1.0385015858642175,
                    0.3604924289161003,
                    -1.7989155876446674,
                    1.8683529678060222,
                    0.5672400619181532,
                    0.8145641586171898,
                    0.6539160378596477,
                    -0.8811909899658079,
                    -0.8602291343630413,
                    0.37333655306010977,
                    2.688892561431543,
                    1.4383961157757692,
                    -0.8984590072821131,
                    0.6545018683993887,
                    -1.4549138401632784,
                    -0.33004494241198984,
                    0.9570232451768832,
                    -0.0683703552972384,
                    -0.2198944720745208,
                    3.2601344258237694,
                    -0.054352575749665226,
                    1.2622435974431168,
                    0.21571201160569448,
                    -0.07171357810557559,
                    0.5192448674085728,
                    0.9010001350964415,
                    0.8359675654368582,
                    0.3257565625133935,
                    1.4158081351950487,
                    -2.0389381328105567,
                    1.3097126274125093,
                    -0.1310526651729141,
                    1.0009832416206652,
                    -1.803663011188221,
                    -0.803016826609715,
                    0.8190131394992829,
                    0.10559590496296956,
                    -0.4100977907462263,
                    0.20040536050948657,
                    1.0422606704214474,
                    -1.1300573757718961,
                    0.028241478846341067,
                    1.1253530344966982,
                    0.07246301950601294,
                    1.6899620302157206,
                    -1.6257896123451505,
                    -0.36747708419692465,
                    -0.47810050791195763,
                    -0.24751566721713159,
                    1.2028890592085946,
                    -0.24407255713673712,
                    2.2803859921726026,
                    -1.1899095872913117,
                    -2.0222977967515527,
                    0.7031166511959598,
                    -0.03021606039870656,
                    0.7272117868222561,
                    1.832348680048759,
                    -0.33048586225081494,
                    -0.7049781409109636,
                    -1.6800779641202244,
                    -1.1398893931592058,
                    -0.6544163975358619,
                    0.28145771329769786,
                    -1.2398907141573674,
                    -1.5981346219340535,
                    2.0860440341996815,
                    0.14452225651911535,
                    -0.5998486423566195,
                    -0.27648501821317234,
                    0.29094778871525456,
                    1.0401644003934825,
                    0.15596913693542963,
                    -0.4910555083237928,
                    -0.9833177699944046,
                    1.2914240002140256,
                    -1.3631105321886587,
                    2.2081190011223026,
                    0.17510546500235186,
                    -0.9001835672074864,
                    0.38208222019855503,
                    0.8818686778287906,
                    1.1290801972019677,
                    0.26023397290603484,
                    -0.056806167001674165,
                    0.7826738040100343,
                    0.06438539223927259,
                    -0.3333142242130114,
                    -0.443348569344712,
                    -1.0318194506395555,
                    1.6042803104971968,
                    -1.180493969178911,
                    -0.43311430398911216,
                    0.2429396624966007,
                    1.7538623592614258,
                    1.8924828182142515,
                    0.6094238042225197,
                    -0.6310419546091699,
                    -0.13425851686421703,
                    -0.2207563448190733,
                    -0.5068726747478097,
                    0.8943005113185549,
                    -0.40984177416806833,
                    -0.6441241514695742,
                    0.9592686331108117,
                    1.1091285091719836,
                    0.9137003512613474,
                    0.5734299938266592,
                    -0.47857750978562985,
                    0.6423256812209737,
                    -0.6176927878248898,
                    0.014754435346096348,
                    -0.3652273203299674,
                    0.47020903392312136,
                    2.9755991931553405,
                    1.4357332114837182,
                    -0.3900034744267925,
                    0.9001250870742472,
                    1.322844887257963,
                    0.005107826057016702,
                    0.5781820861193689,
                    -0.632071891048468,
                    -0.7260108633876377,
                    0.8575569937173219,
                    2.061055489718412,
                    -1.1610692156490112,
                    0.4200712879302004,
                    1.0566307854941863,
                    -1.704103920795889,
                    -0.10084484194956614,
                    0.39147320497916366,
                    0.3947700321230258,
                    -0.7917020459958978,
                    1.3497391329083488,
                    0.14811295444713202,
                    0.8973381013531186,
                    -0.07661271493135931,
                    0.8115775940943075,
                    -0.13473683269807113,
                    0.7603186439119505,
                    -0.617959781327271,
                    -1.1838362216501226,
                    0.11977498963744782,
                    0.5327094303145501,
                    2.0844888717251875,
                    -0.19589766684986887,
                    0.23434597013460676,
                    0.708404294266899,
                    1.812251224619183,
                    0.6765733616075267,
                    -1.383832384704248,
                    -0.15388996604914126,
                    -0.2289125225922955,
                    0.800852818662078,
                    -0.8578283531180672,
                    0.3736437975842498,
                    1.0532336486694747,
                    -0.6931584070825886,
                    0.6272120315399049,
                    -0.4539363271318902,
                    -1.0247987523668738,
                    0.5306525218900575,
                    1.9191050050854612,
                    -1.3090699252456524,
                    2.803695361930377,
                    -0.2062128421424129,
                    -0.4762655172875884,
                    0.18402514415391552,
                    -0.9027700821635207,
                    0.46120435275796984,
                    -0.5308951842258649,
                    -1.1323786115131822,
                    0.30430691901433504,
                    -1.2834543477160705,
                    0.6544284133087683,
                    -0.3445203635496187,
                    -1.258947704387912,
                    -0.2962726669490561,
                    0.6303958090804305,
                    -0.07307806383482979,
                    0.12946090703213306,
                    -1.081819496148034,
                    -0.4677103243629363,
                    -2.191318847218873,
                    0.7307416641319838,
                    1.1870161248573128,
                    -0.13908204674348076,
                    -1.844557699334711,
                    -0.663060069394967,
                    1.1153514648172747,
                    1.8397044017171411,
                    1.2524356893046362,
                    1.9387619438331158,
                    0.1398901212565216,
                    -1.465192929291562,
                    1.0345666895160595,
                    -0.963134489974899,
                    0.5836032209038189,
                    -0.8670843879073301,
                    -0.6028041861533635,
                    2.04346359189917,
                    0.08935984913166259,
                    0.4271192738052254,
                    -0.8366419398450852,
                    0.6119717299739756,
                    1.321624165006248,
                    -0.025328236814118606,
                    -0.1762477360327866,
                    1.0000617889305803,
                    -0.348602830239658,
                    -0.7638868501012797,
                    0.4945054544751768,
                    0.32333186105335326,
                    1.492752290090189,
                    -1.6300546432858334,
                    1.1732715931809095,
                    0.23942234475436672,
                    0.7614038989668627,
                    -0.17533724370176373,
                    0.6790591285178206,
                    0.4124274101365907,
                    1.6895077077055283,
                    -0.8484740498579513,
                    -1.632008376839103,
                    0.9182592094762484,
                    1.0064521712567396,
                    0.35321919264687124,
                    1.7114404554412435,
                    -0.9685057164448673,
                    1.3718059363630795,
                    -0.5682243304815052,
                    0.4970685219439837,
                    -0.9119159099846904,
                    0.37520872881793205,
                    -0.09306589680467375,
                    2.1801219400376874,
                    0.34201453616759325,
                    0.5813899829007634,
                    0.07823423990060221,
                    -0.11972545768423537,
                    1.0352857156316124,
                    0.10451232711007323,
                    -1.3085773063242025,
                    0.7311159309207989,
                    0.5281599179582009,
                    0.3552195497749485,
                    -0.941942497105487,
                    -1.1774853087823647,
                    -0.3001393759199764,
                    1.212009350114792,
                    -0.4349824960887031,
                    0.2883858304390467,
                    0.1632922220551037,
                    0.698995557629238,
                    0.8266359673246537,
                    -0.7788334828951642,
                    -1.0251080260616825,
                    0.4234103261533333,
                    0.7718779960378046,
                    -0.26033459510093815,
                    -0.34100588085731104,
                    -1.0717581146676172,
                    2.231011605226009,
                    -0.7744161616401416,
                    0.2831536587204132,
                    1.3317189951539163,
                    0.5712455200482303,
                    -0.3205315850507315,
                    0.4315061808327122,
                    0.9573748854545759,
                    -1.0265431555924187,
                    0.6579748642703586,
                    0.35615095926510115,
                    0.6517636204361654,
                    -1.5372160404938215,
                    -0.57854746995208,
                    0.7741531803434005,
                    0.4419027295836132,
                    -0.5542819419801412,
                    1.0173816104407412,
                    -1.5005613696617797,
                    -0.40061334272477006,
                    -0.5422094045211256,
                    -0.09098811086074582,
                    0.163118720880621,
                    -1.4902509140564446,
                    -0.13557818124821405,
                    -0.5506045631705342,
                    2.6753783453166764,
                    0.5591500676113667,
                    -0.2017357832905311,
                    -0.5007004034490555,
                    -0.644033570490216,
                    0.9647649498448918,
                    1.2930792809830398,
                    0.42682982269734626,
                    -0.12362879592455522,
                    1.4202767156912695,
                    -0.7261942804625667,
                    0.8480021005224461,
                    2.1966633839979384,
                    -0.48380163749508975,
                    -0.8279509172350593,
                    -0.09790101126507227,
                    -0.009026913694695743,
                    -2.024908128613175,
                    0.24420262706618903,
                    -0.591386619353648,
                    -0.28091691190028756,
                    -0.79725413336196,
                    -1.1697152705001255,
                    0.36118405176132734,
                    1.2479508633753456,
                    0.6362644153333732,
                    0.856967620784741,
                    0.6291731805755656,
                    -0.3377652015212107,
                    -2.0577190252609627,
                    0.8782320293077062,
                    -0.2527288249787384,
                    0.257487534536973,
                    0.0031654269875530244,
                    -0.3143142269680582,
                    -0.5734480352164293,
                    -0.9810841334153476,
                    -0.2693679523719584,
                    -0.857831882421088,
                    1.2106141393685286,
                    0.7359958088299452,
                    0.40283836766670145,
                    0.36805243705731194,
                    0.8849878885100342,
                    2.000900417882933,
                    0.2228170543038801,
                    0.4467790284966098,
                    -0.7089151797520192,
                    0.5017040612472016,
                    -1.402099537407981,
                    -0.2188414791477928,
                    0.37298662167416136,
                    -0.11645683997384916,
                    -0.9841248417368963,
                    0.2941163498107367,
                    1.047616654531636,
                    1.3747198273218753,
                    0.8567520425292436,
                    -0.7546334659739687,
                    -0.2981881798498178,
                    0.7025154044937415,
                    -1.2419635104147135,
                    1.1522167013223095,
                    -0.7497704922389208,
                    -1.7375684316014097,
                    0.2191892283305991,
                    -1.0972382118375106,
                    -0.022402447894893675,
                    -0.4671510111759846,
                    -0.07773028174987386,
                    -0.060420878228413945,
                    -0.5536827625366967,
                    -1.0866130765648814,
                    1.390995525375107,
                    -0.7020641656393465,
                    -0.04452379609700266,
                    -0.24855764710646486,
                    -1.6257235390906475,
                    1.733281031136176,
                    0.2579951381803622,
                    0.22913679660666228,
                    -0.6203992174909977,
                    0.33416433466699896,
                    -0.8123100248090542,
                    0.17697847609884698,
                    0.6440394608124105,
                    -0.014399359076774804,
                    0.7532985741602616,
                    -0.4072055816154219,
                    1.285707947543463,
                    0.7174913454253907,
                    0.7618670465098573,
                    -1.2901526953599174,
                    0.10750269394697047,
                    0.09289267935637927,
                    -0.14064479271424762,
                    -0.5779468408450302,
                    -1.6580589793993505,
                    -0.5225397232240482,
                    0.2079498664532283,
                    0.24264969595940433,
                    1.3954394427874588,
                    0.025495150029824252,
                    -0.9428785932663001,
                    0.14283082650606224,
                    1.1438888178839672,
                    -0.10454317860890654,
                    1.6968786198798038,
                    0.3921034741079142,
                    -0.014378719792320903,
                    -0.7785330034614294,
                    -0.43550545014058034,
                    0.271368184139945,
                    0.5545865703538341,
                    -0.7914096407920129,
                    0.30069739221184477,
                    0.1874625348392819,
                    -1.2419980692241368,
                    -0.5520365641582216,
                    1.584539161673259,
                    -0.4284895569456587,
                    -0.11137628982580344,
                    -0.2562141492732001,
                    0.5091672231079694,
                    -0.42385164974542383,
                    0.8097563382219514,
                    1.1640792930079271,
                    0.24105944121358264,
                    -1.3408001406450225,
                    0.8991219488155753,
                    -0.2599003622798918,
                    2.0386979844415136,
                    0.28750491032225706,
                    1.3143677169102717,
                    1.2021172527076789,
                    -2.276035914165559,
                    -0.4679598237171152,
                    0.3614729466142775,
                    0.21751634641184617,
                    -2.036362178330841,
                    -0.15617647446290767,
                    -1.5302953100835948,
                    -1.1722283505791458,
                    -1.692139351109042,
                    0.7014214150989921,
                    1.5815741402172974,
                    -1.4036588322743428,
                    1.1287974019036386,
                    0.2824071162097442,
                    1.1264320317066885,
                    -1.2687119897510533,
                    -0.6138441319230223,
                    0.6253614147905019,
                    1.70365923639948,
                    0.36529819509012923,
                    0.7783249897664725,
                    -1.6853920767940886,
                    -0.42179703857214906,
                    -0.43214265742959385,
                    2.066706059669978,
                    1.0201225174566626,
                    -0.949850191180057,
                    0.45284331286306495,
                    -0.5261039259670022,
                    0.29767524898033987,
                    0.9437205272044437,
                    -1.4239283315345226,
                    0.24554594637931587,
                    0.33423721580496335,
                    -2.435446592729436,
                    -0.2627304180776828,
                    0.2349384050841695,
                    1.459211644337604,
                    -0.5791890035611379,
                    0.3112121680765075,
                    -0.07803570795304021,
                    0.5078217992050598,
                    2.0714857166415768,
                    0.15239642465644807,
                    1.1171066106686505,
                    2.160186230276894,
                    0.37060356572821457,
                    -0.464417301894427,
                    0.26593634384793086,
                    0.3808328112878329,
                    -0.337212517085847,
                    0.47897608799825536,
                    1.2515532270832592,
                    -0.41694871751224544,
                    0.201227583719177,
                    -0.09563528337616839,
                    0.7456401341591692,
                    -0.7013933954897944,
                    0.6408028941687801,
                    0.595961063098408,
                    -0.5788409285825428,
                    0.14297128738403364,
                    0.766936457834312,
                    0.6164812076757057,
                    -1.139481781642873,
                    -1.3682128382929397,
                    -0.6089111798442975,
                    -0.9736814972014467,
                    -1.2008883570550786,
                    -1.0228681850734511,
                    -0.806441064073419,
                    -1.2812078553592157,
                    0.9265807536844065,
                    2.060548003651773,
                    -0.22224028988845038,
                    0.4251825847263143,
                    1.2845082076097196,
                    -1.1646197747224218,
                    1.273093579578939,
                    -0.5753385397312406,
                    0.3742114908285142,
                    0.16391804674313643,
                    0.6086242364625284,
                    -0.9071856672225124,
                    0.3948636423266713,
                    -1.0950397974016954,
                    0.5601627526759395,
                    0.8980348758695652,
                    -0.705416298033576,
                    1.366660161121701,
                    1.3285575872155306
                ],
                [
                    0.8220319532457546,
                    0.022681840652993907,
                    -1.7162945158963823,
                    -0.459896963430636,
                    -0.7532536475517753,
                    -1.0441070951821478,
                    1.3682194173058693,
                    -1.1291155833198847,
                    -0.1664320412340083,
                    0.7634483856859247,
                    -0.5345730436814307,
                    -0.18981626855476824,
                    0.17025589025300553,
                    -1.425608974522055,
                    -1.2565364579939642,
                    1.31429324388863,
                    -0.5141158550844039,
                    0.2702788013537483,
                    -1.0877117393914573,
                    -0.6912089891420276,
                    -2.283428840565261,
                    -0.8733350613447607,
                    0.8954531290789688,
                    0.7822219224535011,
                    0.34488957143160387,
                    -0.5619262694632122,
                    0.05406471901020814,
                    -0.07875931875628327,
                    -1.9146264285721504,
                    -0.05043068666184499,
                    -1.2772587436380967,
                    -0.02283234065306818,
                    -0.7855917874185316,
                    0.06288368216428192,
                    0.6545492762915212,
                    -0.42451087079942434,
                    1.1097077382126008,
                    2.1487538467051612,
                    -1.4815159035616323,
                    -0.8183492219806613,
                    1.1100729297191936,
                    -1.1598052383920618,
                    0.7873547757865671,
                    -0.9310222160696539,
                    0.6688863649765917,
                    1.4199169155174605,
                    -0.9542690441065054,
                    2.30994504148884,
                    -0.7689275463461416,
                    -0.12164082754328774,
                    1.4615559689259585,
                    0.6656795706076974,
                    0.48536590932186935,
                    1.0541032036610813,
                    -0.2915429469322687,
                    0.38272431738776114,
                    -0.36557994317757625,
                    0.9989899297488505,
                    -0.1825540482537514,
                    -1.505824505086377,
                    -0.7243146621456296,
                    -0.2829033679294665,
                    -1.3300117412016357,
                    -0.7260721731745128,
                    -0.5580058421481547,
                    0.3187743572715134,
                    -0.5689822999164493,
                    0.36277443271163157,
                    0.9698998996220881,
                    0.8069296624643926,
                    1.420493165531311,
                    2.4281263526919146,
                    -0.9240248651606329,
                    1.2896357289349274,
                    0.37441173255082244,
                    0.6390078630236853,
                    0.8629678624761508,
                    -0.2937146884096728,
                    0.7492919335881326,
                    -1.62152091290084,
                    -0.24560490349993824,
                    1.1683092621960611,
                    -0.2660150320029842,
                    1.2038174951466392,
                    -1.319833809535839,
                    1.030075908362494,
                    -0.17000274138671778,
                    0.7881521069106279,
                    0.40519480782829753,
                    0.6406518609974144,
                    0.609203865456184,
                    1.2840382399675792,
                    1.9011866769960735,
                    1.4621651484327685,
                    -0.3122660048991164,
                    0.3198175989256689,
                    0.40705220313745255,
                    -0.3126661265422774,
                    -0.5386702968541968,
                    -0.4774789065058757,
                    1.1362151486252412,
                    0.035339074619059226,
                    0.22114347764091036,
                    1.6995009696966064,
                    -0.8140377392274601,
                    -1.5094991447482828,
                    0.6406004333866522,
                    -0.30314108956783387,
                    0.09980588535857865,
                    -1.3206305953341788,
                    0.037786434163059074,
                    2.1466640583565417,
                    0.2611453403371404,
                    1.2131172545027578,
                    0.2869581219847386,
                    -0.5494154261778046,
                    -2.095152140142195,
                    1.782702405978171,
                    -0.36294109299048555,
                    1.2665581749580497,
                    0.4007224789114262,
                    0.6359690711861643,
                    -0.3064125698446859,
                    -0.5601243014055531,
                    0.01759264456268924,
                    0.9607382933569298,
                    1.490622861453991,
                    -0.6135932728761371,
                    -0.7436960588318778,
                    0.038927968380631194,
                    0.22914197170924952,
                    -0.38483488439352387,
                    0.47553040523531975,
                    -0.37363711438156083,
                    0.9266364886405335,
                    0.07715446974393111,
                    0.1357994930317732,
                    -0.4902663356479176,
                    0.038152078890409176,
                    1.685652913906737,
                    -1.489275682444401,
                    -0.22061719447860662,
                    -0.05613707432347485,
                    -2.080895642491255,
                    0.016858273727975243,
                    1.170732353174588,
                    -0.3440766588275483,
                    -0.443267538505995,
                    0.09291002422452257,
                    1.516405315745159,
                    1.3193248580529133,
                    -1.9294479585813773,
                    0.7028088065648981,
                    -0.6061555089057274,
                    1.0074006269122704,
                    -0.3124612795943682,
                    0.9439800491349466,
                    -0.6624541017047041,
                    -2.9305406346986747,
                    -0.9992598849508584,
                    -0.5741292536061081,
                    0.10305063152283252,
                    0.1997761603505394,
                    -0.3870205409251691,
                    0.13565006846065278,
                    0.42485468793785974,
                    0.2449906867090652,
                    0.3387154143892359,
                    -1.9035990219655354,
                    -0.6373028487718051,
                    -0.3218129194994378,
                    1.7979328439720232,
                    0.8782299334350578,
                    -0.7792890509183336,
                    -0.08656068820377742,
                    1.2553926869160048,
                    -1.058028553052981,
                    0.6767112043464147,
                    0.7121439744530697,
                    0.4910155010920871,
                    1.378436680006151,
                    -2.1965868832473796,
                    -0.9559719311942657,
                    -0.5787937340727822,
                    0.48378294796267507,
                    -1.7491817110972272,
                    0.03868221346781509,
                    -1.1543130957001388,
                    -1.006511313237985,
                    -2.415581683087259,
                    -1.8509438074504037,
                    -1.3918566403011514,
                    -0.0058844486561730955,
                    0.09935140143374224,
                    0.7255712420170738,
                    1.0281251385185515,
                    -2.141758703919581,
                    0.41482014158686686,
                    -1.2770240030884712,
                    0.8521048791442418,
                    0.7319265472374743,
                    0.8824623476322169,
                    -0.665273335892508,
                    0.051711448063678,
                    1.456401389080186,
                    -0.4488221340508075,
                    1.0645340728433061,
                    2.2101261724264396,
                    -1.2058162665553516,
                    -1.845171191208348,
                    0.752892324355608,
                    -0.7701170182729234,
                    -0.6310206983293418,
                    -0.5120722578186776,
                    -0.3617823576933087,
                    -1.054488721868892,
                    -0.16706318334981773,
                    -0.03360918982676985,
                    -1.2524727713127353,
                    -0.08396355235073931,
                    0.16784376213680982,
                    2.3104902030943917,
                    1.3239751763406127,
                    1.5186189930608338,
                    -1.3462734636307616,
                    -1.413104750007295,
                    -1.3334084289947097,
                    0.6732590148558095,
                    -0.9502361301656864,
                    -0.9609585445595918,
                    0.30302113355877053,
                    0.7155006836744204,
                    0.287948866481118,
                    0.5755180041854115,
                    -0.6571809262907198,
                    -0.41133062034385776,
                    -0.1882662596370878,
                    0.02272275097717534,
                    -0.38845301652695813,
                    -0.3544156974473069,
                    0.5405071342325187,
                    -0.5357093938824184,
                    -2.0688412892266004,
                    -0.3066447291840359,
                    2.6505917464918696,
                    0.3174939595086483,
                    0.3669196065580308,
                    0.18926336935880805,
                    -0.9340236343448932,
                    -0.037781888167406394,
                    -0.42144644086614835,
                    -2.5254647219404647,
                    -3.0478521715564773,
                    1.7393371662202821,
                    -0.5010294588988,
                    0.12850551751849745,
                    -1.7367901569775661,
                    -0.21443848075522037,
                    -0.11652060364261561,
                    -0.7837735227471136,
                    2.0382946276614557,
                    0.26866240606232,
                    -0.2890413532088611,
                    0.020434240724660963,
                    0.019696106086130684,
                    -1.590142979157057,
                    0.8007422143573631,
                    -0.8926006332933512,
                    -0.4481357945987178,
                    -0.43178051401239653,
                    0.07400065373415796,
                    1.347454242864016,
                    -0.5108286641395021,
                    -0.2733868389875836,
                    1.8233649743802507,
                    -0.5540455704464778,
                    -0.7680686724854903,
                    -0.800234527991949,
                    0.5446835602535942,
                    -2.586448732137102,
                    0.2597607497618076,
                    -0.24021726077380331,
                    -1.4856539249595773,
                    -1.4391765503310374,
                    -1.0279734710023694,
                    -1.6187006297507514,
                    0.4816288690559778,
                    1.6864012973906561,
                    -0.19670267803525934,
                    0.10037319722679115,
                    -0.3108311249334413,
                    -0.044520524184364925,
                    1.0298876916779287,
                    -0.25150568334274226,
                    0.5675975922178128,
                    0.2655772936818452,
                    0.6998805344982767,
                    -0.8021584120228679,
                    0.05764975705576683,
                    0.8957097133228146,
                    0.5301470609988521,
                    0.15607606627266998,
                    0.25000560680176587,
                    -0.7926634624020265,
                    1.3365319240468365,
                    -0.25799285609266354,
                    0.11366174482075281,
                    0.6482987823622474,
                    0.14218544904075545,
                    1.0238949378536766,
                    -1.1328086757745441,
                    -1.2256221708122694,
                    0.6356217019703778,
                    -0.2283920032667865,
                    1.183065805899635,
                    0.06771874619510276,
                    -1.2490365634010867,
                    -1.279456277171293,
                    -1.140191687174141,
                    0.9770897363258598,
                    -0.08472349308054197,
                    0.6135197983770015,
                    0.7930238530161636,
                    -1.0544435942440722,
                    -0.09331534517004159,
                    -0.9252421279295032,
                    1.2518047315283176,
                    0.5211951470447264,
                    -0.6960283588219552,
                    -1.9514154499561172,
                    -1.4770905652612238,
                    -0.753364660755128,
                    1.248589313472487,
                    -0.2102262901923534,
                    0.692739662278853,
                    -0.5443579357585238,
                    -1.0326669425627628,
                    -0.033561686452916226,
                    -2.172894981490283,
                    1.5449342561363053,
                    0.865125701820864,
                    1.2907967651276697,
                    -1.5984880943184991,
                    0.961168770801517,
                    0.2929799108912363,
                    0.5509523215838693,
                    -1.3392352670806922,
                    -1.3885330359556785,
                    -0.25563378519602553,
                    1.5539142361837859,
                    -1.1723320304934461,
                    0.34045871066724653,
                    -0.37931376755542634,
                    0.3050950086634361,
                    0.6499948229592745,
                    -0.8687900873622482,
                    1.0720101385298584,
                    -2.4309727618101755,
                    -1.315471126507067,
                    -0.6252076855404242,
                    0.8140353034600891,
                    -1.8172375783087258,
                    -1.8202005965300525,
                    0.5945432996356049,
                    1.7081344322193939,
                    0.522388444546206,
                    0.6093341850769772,
                    0.01529663149918551,
                    1.3387160820369857,
                    0.579870335255422,
                    -0.6028925967618679,
                    0.17215832636621012,
                    0.4679069487244097,
                    -2.059970049874566,
                    -0.6445796202535836,
                    -0.9255027307544736,
                    -0.8467001485995393,
                    -1.2953357904812748,
                    0.675983930548583,
                    -0.6327427355192621,
                    2.0129446644857953,
                    -0.7171929839624909,
                    -1.3120797341901493,
                    -1.390547755756538,
                    -0.5470457444262097,
                    -0.813139403888412,
                    -0.1740757438543616,
                    1.5881663683213607,
                    0.9536736102256628,
                    -0.8370372019208399,
                    -0.2580162812403206,
                    -0.8864683226032835,
                    1.0346671643490797,
                    -0.9013414473937104,
                    -0.42489220857742127,
                    0.6964802844895674,
                    0.7097028301508101,
                    0.28007838806695656,
                    0.9435775372991939,
                    0.45037627442216505,
                    -1.352645588160432,
                    -0.4289541084250527,
                    -1.6789026594733272,
                    -0.5186298621341371,
                    -2.2283271490437206,
                    -1.3290040639898535,
                    0.789759694869493,
                    1.8902158161420914,
                    -0.08260431438832556,
                    0.9291791384490091,
                    0.02370835080439413,
                    -0.24579756476345185,
                    0.37997971129055597,
                    -0.13984430781892856,
                    -1.0018277505921673,
                    -0.22744524233371566,
                    0.404650490943378,
                    0.833820957675257,
                    0.2603359766801993,
                    1.864054332199192,
                    -0.007944248196163652,
                    -1.2560957566015674,
                    -2.4617259205963213,
                    -1.269683649000465,
                    -0.04036774767616096,
                    0.5398755812830747,
                    1.8289106297887887,
                    1.6100183163523072,
                    -0.1257032958490719,
                    -0.7054789567638753,
                    0.3107130167505593,
                    -0.5153135398750119,
                    -0.02981285579522874,
                    -0.5465659037193825,
                    2.307724504476458,
                    -1.0120008008715298,
                    -1.800937516345731,
                    0.20850097716061577,
                    0.6525143978219574,
                    -1.0309993586438917,
                    -0.026389501694488796,
                    -1.1568676506062034,
                    -2.119325492889138,
                    -1.6458071155025051,
                    -1.7089731524040837,
                    -0.08976129335892981,
                    0.6406598039042234,
                    0.5016585155330106,
                    -0.6809101718168977,
                    0.3221005697082788,
                    -1.571548557371,
                    0.45938620635855565,
                    0.38047560982446615,
                    -0.3287181499641779,
                    0.4315047201242684,
                    -1.2752858855895202,
                    2.039019002839307,
                    1.319444340506922,
                    -0.64708427621874,
                    0.2548617567514391,
                    -0.35948822891785587,
                    -0.16173141635798866,
                    0.30065388677073546,
                    -0.40178116799636343,
                    -2.1098549218752276,
                    1.1712173445589107,
                    0.4936188552255927,
                    0.32821470375655515,
                    0.8626304916999408,
                    -0.6596872925459675,
                    -1.9009492440199822,
                    0.6747448625573352,
                    0.984337858790895,
                    -0.4764679352173514,
                    0.4073983533389538,
                    -1.678727228691044,
                    -0.32150240302637034,
                    1.2795133250895179,
                    0.21556968564544488,
                    -2.0181378601794955,
                    0.9528891938890035,
                    -1.2501918292643919,
                    1.0055297266312468,
                    2.218950464577516,
                    0.19623493476576384,
                    -1.5181534085699813,
                    -1.240209205400934,
                    -1.5673582991223125,
                    0.36415511504243236,
                    -0.5139698717177418,
                    0.6281758644252049,
                    -1.2248664753538907,
                    -0.8075968177055738,
                    -0.2553196627167563,
                    2.0468202172564784,
                    1.2291181000869658,
                    0.09667571888904758,
                    -0.5271211261685463,
                    -0.9101930250745326,
                    -1.0064004266861055,
                    0.11461712834233422,
                    -2.268246296383789,
                    0.3256598844335847,
                    -0.9922645811383917,
                    1.303639880264493,
                    0.7504051687792993,
                    -1.0896590511492905,
                    0.7869167280403845,
                    -1.0212689175903553,
                    -0.3868871861990654,
                    0.21577522433314078,
                    1.5049134223224636,
                    -0.027909996677631017,
                    -0.8736790257574839,
                    0.4683418120213139,
                    1.028897425851796,
                    -0.5538275311023775,
                    -0.019602927515912787,
                    0.6674563541607623,
                    -0.4557758588842809,
                    0.33393202388794524,
                    0.7191467893416525,
                    -2.4488577966076552,
                    -0.8144378336663315,
                    -1.6022612767391056,
                    -0.20716491530144768,
                    1.4661342977740928,
                    0.6266801692393889,
                    1.0419845497095583,
                    1.6458429699136485,
                    -0.046340553291607876,
                    -0.1299459625488779,
                    0.4410190401976314,
                    0.7157833886254822,
                    -0.5140233067008785,
                    -0.2427750560114045,
                    -0.45220559549146894,
                    -0.617767243709371,
                    -0.027607432158967604,
                    -1.0003209405225437,
                    -1.5633828165177939,
                    -0.7290811615881824,
                    -0.03714910680456222,
                    -0.5640734788320289,
                    -0.14876459710936,
                    -0.6687340165043737,
                    0.01972991538191943,
                    0.4377972477910701,
                    -0.6856970371813135,
                    0.2730358507379396,
                    -0.2635190445977776,
                    -0.3098554265868707,
                    -0.04754631858521461,
                    1.0966490224608867,
                    -0.9169258386931535,
                    -0.16946102983468128,
                    -1.268769500370615,
                    -2.2604141555998116,
                    0.7122376310132683,
                    -0.16152737969692868,
                    1.158913294246668,
                    -1.467729610192739,
                    -0.9591541547619294,
                    -0.25806464529938233,
                    -2.1029522254592523,
                    -1.6036693543225122,
                    -1.8362317003824324,
                    1.1255438919677008,
                    -0.17892871935834884,
                    -0.4191524602788133,
                    -1.947722046021879,
                    -1.661783344001732,
                    1.1345007552010198,
                    1.807475412560052,
                    -1.2191548169268975,
                    -1.1782530517363348,
                    -1.0089594167197424,
                    0.34683024548506014,
                    0.4981353884769289,
                    -0.670737729393401,
                    -0.21253056970452522,
                    1.2415391939408267,
                    -2.263523085374039,
                    -0.22173422011628752,
                    1.4772972473454844,
                    -0.47178736157263895,
                    0.6081586830572667,
                    0.7128607201511186,
                    0.3629773598981711,
                    0.6885423483582634,
                    -0.12554201881362892,
                    0.20616361678551298,
                    0.41273178333026606,
                    0.33703249060319174,
                    -1.6352608492965137,
                    0.009454233903189526,
                    1.5586260488495371,
                    0.9246170364977547,
                    0.8843463444225544,
                    -0.0070578153031290005,
                    1.568895300159264,
                    -1.2177834528633176,
                    0.4514150846319867,
                    0.3406585981965701,
                    -0.12438763270061778,
                    0.4247397994627823,
                    -0.16045468767589643,
                    -0.7640180685972228,
                    -0.6283902575189625,
                    -0.573091432283082,
                    0.15415736456692986,
                    -0.48179268729316543,
                    1.2928246759554485,
                    -0.275648685648042,
                    -0.8272561877851967,
                    -0.709495806555669,
                    -1.1567533699960373,
                    0.49055175692360825,
                    -0.41660304631768436,
                    1.1093778219293662,
                    1.3988096300623165,
                    1.9158030048005104,
                    -1.503117062032073,
                    -1.0558679815923069,
                    0.9602271157573344,
                    1.4754025416831549,
                    0.17322126221487286,
                    -0.706031511275135,
                    2.2357911474210104,
                    -0.7642388992497411,
                    -0.617456444988909,
                    -1.4278254853994496,
                    -0.7366119227756899,
                    -0.4052879085927847,
                    1.3998522882858655,
                    0.40025546423681463,
                    1.6995195472980977,
                    0.5195782791304442,
                    -0.028679618476830565,
                    1.1817051471352056,
                    0.9778894863158943,
                    -1.7586459230551783,
                    0.8351400286677682,
                    0.3258528390922315,
                    -0.09979843043295954,
                    -1.017316132114557,
                    0.9077680797485144,
                    -0.9516101691538221,
                    0.32775802432730144,
                    -1.9401703998280186,
                    -0.09959681731558491,
                    -0.35284439472029105,
                    0.3793398255051211,
                    1.0953386238740406,
                    -0.0925813522957008,
                    -0.22103337436040554,
                    1.1365015060931505,
                    0.5808244068975188,
                    0.46599253494079185,
                    -0.25210796501085125,
                    1.1716260549357438,
                    0.6667313593598135,
                    -1.165243458675952,
                    0.007716810401211098,
                    0.04086873536380945,
                    0.04870626693666814,
                    0.21743832931295978,
                    0.31771540443670754,
                    -1.6782506572095857,
                    -1.0078374837076114,
                    -0.46708445962552886,
                    0.34720712718531366,
                    1.5802485670944821,
                    -0.07318813431025863,
                    1.5705106136194036,
                    1.5310867621267168,
                    0.28872722784110155,
                    0.8497684502332008,
                    0.8785042160524849,
                    0.17798510608349788,
                    0.5101139579879992,
                    1.067124017263982,
                    -1.2366975212095512,
                    0.8857953344172999,
                    0.22375485822092334,
                    0.6212483240184448,
                    -0.5015448139061247,
                    -0.6016958839142478,
                    -1.3913918431422665,
                    -0.24883153128507776,
                    -0.40536089077864945,
                    -1.4607377215616961,
                    -0.6258526454445744,
                    1.3710914455638914,
                    0.37010149292842826,
                    0.4711617753864515,
                    1.2233404851901226,
                    -0.22392723439892806,
                    0.9750140667919404,
                    0.9165687705230984,
                    1.1462445568224209,
                    0.038625430760537316,
                    1.1482274174419917,
                    -0.34350974968827563,
                    0.6388497206226766,
                    1.2416427712611824,
                    0.17542760452550335,
                    -1.4601509278238634,
                    0.7339767236068224,
                    1.1612656777636632,
                    0.981039640311988,
                    0.6879705969593247,
                    1.1280135728732894,
                    -0.6719041069393232,
                    0.11311659901998218,
                    0.2285737786771107,
                    -0.21152960491148612,
                    0.17671930638505853,
                    0.46819164598758767,
                    1.4861028772441074,
                    2.241140830892757,
                    1.8980131548470764,
                    -0.5775450787162509,
                    -1.832694036926846,
                    0.2808707462600125,
                    -0.6495327400833503,
                    0.22553145318802292,
                    -1.1943938209368574,
                    0.9532452232973969,
                    -0.2507603079851241,
                    0.5422483027145177,
                    -0.44072896827438096,
                    -0.10446389122824987,
                    -2.027438336060592,
                    1.2335047826824943,
                    1.6904860176160983,
                    1.1001609489512056,
                    -0.13896436490369182,
                    -0.16273442862666943,
                    0.5562413660110344,
                    -1.257422706640663,
                    -1.774428767917941,
                    -0.9936599785391045,
                    -0.32652132041720217,
                    -0.06346419651465557,
                    -1.2089834242068593,
                    -2.4934347234813794,
                    1.1361052113807153,
                    -1.1038864982813785,
                    -2.2576119731758513,
                    1.1650121332011607,
                    -0.2114726024429836,
                    -0.21681690120064162,
                    -0.916076162453695,
                    1.8054139317778999,
                    -0.05694306196938569,
                    0.7642672181239101,
                    0.3188988591772476,
                    -0.22462172029886235,
                    0.9354867030619048,
                    -0.13338907208679904,
                    -0.6040272375864514,
                    0.7698019169927627,
                    1.9128172408595165,
                    0.17808201510204041,
                    -1.3125184024314354,
                    1.2778838145086115,
                    -1.7777291637626569,
                    -0.9452056889265039,
                    0.8460171129782006,
                    1.0015813848528692,
                    -0.4435191789189069,
                    2.3203041390147114,
                    -0.8780428970151066,
                    -2.0015145641495473,
                    -1.4422700071556083,
                    0.4169585666026937,
                    -0.042795799604328374,
                    1.2256802805153775,
                    0.2779089311004586,
                    1.1871258345562212,
                    0.8589624425124126,
                    2.126447450234208,
                    0.28133827394900146
                ],
                [
                    -1.7210608891481218,
                    1.0916110192210229,
                    -0.7006009778507988,
                    0.4566654275043651,
                    0.24013583983871198,
                    -0.7477585418549669,
                    0.3497621141707727,
                    -0.21821117053355507,
                    0.8015736880049934,
                    -1.493825324284401,
                    -0.5289876833301884,
                    -0.1843086681695705,
                    -0.1790314553179982,
                    0.07666256836752566,
                    0.17909320844151988,
                    0.681867728043687,
                    -1.3118284285867376,
                    0.9110387393763064,
                    0.6090819120660633,
                    0.9635385487400454,
                    0.8342346393749615,
                    -1.043603618839013,
                    0.3108644514812889,
                    -1.2330318569473138,
                    -1.5994365997053515,
                    1.4189013172562641,
                    -0.718858812615921,
                    0.6229325443216621,
