{
    "epochs": 100,
    "layers": [
        {
            "bias": [
                [
                    1.474570103323467
                ],
                [
                    2.667096612814714
                ],
                [
                    -0.7495186735215716
                ],
                [
                    -3.0473792097118593
                ],
                [
                    2.8657657468025763
                ],
                [
                    -2.0271380235458696
                ],
                [
                    -2.126390428013727
                ],
                [
                    -0.08527500853460486
                ],
                [
                    0.36831382013220487
                ],
                [
                    1.6944483554198793
                ],
                [
                    7.139223672400201
                ],
                [
                    -0.0394550788354699
                ],
                [
                    1.7180606697570706
                ],
                [
                    1.5317949103030741
                ],
                [
                    -1.5777783390030178
                ],
                [
                    0.021105726819129377
                ],
                [
                    -2.337827191127665
                ],
                [
                    -1.6216859510416552
                ],
                [
                    4.142353543156202
                ],
                [
                    -0.2049170201553267
                ],
                [
                    4.681435442503423
                ],
                [
                    1.607076280088287
                ],
                [
                    0.43967219626204196
                ],
                [
                    -1.0538342799247875
                ],
                [
                    -1.0872129620657824
                ],
                [
                    -0.3279988430770504
                ],
                [
                    -2.9695429083843115
                ],
                [
                    -3.4222312558102104
                ],
                [
                    1.099740348356168
                ],
                [
                    1.2153933641575039
                ],
                [
                    1.6483411343721073
                ],
                [
                    -1.9114640699493493
                ],
                [
                    3.6030790360477276
                ],
                [
                    1.2022671020575575
                ],
                [
                    -1.5379694264792547
                ],
                [
                    -0.86552863977219
                ],
                [
                    1.9316107289161808
                ],
                [
                    -3.023318733685806
                ],
                [
                    -0.3477220147988377
                ],
                [
                    1.6572866773663206
                ]
            ],
            "type": "Dense",
            "weights": [
                [
                    -1.218840602186008,
                    -0.16448769645742112,
                    -1.3430985583404302,
                    0.150653444501411,
                    -0.6875289320685796,
                    -1.0226396869272463,
                    -0.7082653653072266,
                    -1.2576489207329868,
                    -0.3710608418418268,
                    0.4400700249875749,
                    0.5000742696311644,
                    -1.5363634991872532,
                    1.4198039272000975,
                    -0.9437638241783809,
                    0.46251849995646976,
                    0.6771704564910287,
                    -0.8441417725952273,
                    -0.6521910198713362,
                    1.096426219174384,
                    -0.38023517667010404,
                    -0.2389039568569484,
                    -1.2009494336052817,
                    -0.014142721121027303,
                    0.1317995784550665,
                    -1.7722015893700602,
                    -0.8693268331772082,
                    -0.6156207730333867,
                    -0.48464159790903777,
                    1.4245484335159802,
                    1.3296629171025875,
                    0.2623467835308887,
                    0.07372141398153693,
                    -0.4707198412674507,
                    -1.2289241095834518,
                    -0.262593968636847,
                    1.139969617683319,
                    -0.1311559305627446,
                    -1.5766032296772658,
                    0.45990679552291686,
                    0.5102028226158625,
                    0.5685304520963396,
                    -0.2720850229882465,
                    0.1365301297454303,
                    -0.8234571634078445,
                    -0.033061594902742304,
                    -0.250950785373713,
                    -0.003783502777724055,
                    1.1379382142064545,
                    0.9208086140248972,
                    2.101037219206356,
                    1.2511501505406948,
                    -1.582361201794377,
                    1.4089428716831816,
                    -0.6877730832481028,
                    -0.1427010468514916,
                    -0.6598567746772888,
                    -1.2543158903869136,
                    -3.8956793521906583,
                    -0.7948128510793646,
                    0.5314363509664567,
                    -0.5443842735798777,
                    0.10744117377974689,
                    -1.305843418643626,
                    0.17921933056942557,
                    2.013028167464141,
                    1.745191164101178,
                    1.2889509400551624,
                    -1.7237623390962808,
                    1.6290797435730826,
                    -0.43240052552008185,
                    1.2416051914337345,
                    0.29586233600248124,
                    -1.7599137508135771,
                    -1.103963317845808,
                    0.2276606269242198,
                    -0.8693853661980094,
                    -0.5331034343982719,
                    1.3056537489018987,
                    1.3174636022499993,
                    -1.203213103189022,
                    1.9985831722920762,
                    -1.488970216763744,
                    -1.6371911550958558,
                    -1.8563533110553654,
                    -0.6467137876436004,
                    1.036330861751949,
                    -0.22591350725696954,
                    -0.3280828225997739,
                    0.01642366551009504,
                    0.3477187500562173,
                    -1.6013981357104135,
                    0.061558969085380555,
                    0.6438453366157605,
                    0.015954408310992138,
                    -1.4254178208823989,
                    1.5028762016263122,
                    0.048063656731086764,
                    -0.5536412328667198,
                    -1.5296953538637108,
                    -0.07404481995288269,
                    0.3444915330607534,
                    0.23114899413992837,
                    -0.745105208024079,
                    1.1325149016450602,
                    -0.7089661394587035,
                    -2.356393739267153,
                    -1.3895296057550868,
                    -0.8213927029392843,
                    -1.675101541219576,
                    -0.17736788946230245,
                    0.7760635594978823,
                    -0.34595813853771146,
                    -0.616825554344622,
                    0.08159424042138995,
                    -1.2756112607765777,
                    1.0397503659727616,
                    0.49318840480456305,
                    -0.6373754638807035,
                    1.9216449026925067,
                    -0.4827673356409608,
                    0.04498812131591264,
                    -0.3793876081461426,
                    0.4334506492477045,
                    1.2501468813655892,
                    0.40869867400639287,
                    2.357804309747477,
                    -0.46309453233732495,
                    0.8259335992609633,
                    -0.5818697230391495,
                    -0.28237495400187174,
                    -0.393326562399875,
                    0.9542156616629008,
                    0.4587577082371432,
                    1.1456624929945496,
                    0.11567192138595148,
                    -1.2282433048438761,
                    1.841792044771687,
                    0.2870577049855763,
                    -0.6632246164916044,
                    1.1673935738032806,
                    1.1464864539423283,
                    0.8324942604988588,
                    1.5404876958223037,
                    -0.28282098038385034,
                    -0.4517264545576862,
                    0.32698642907062364,
                    -0.19056979630068213,
                    -0.09364639298744389,
                    -0.8422135212808355,
                    -2.4413465080628884,
                    1.189479812772156,
                    -0.6299434890197937,
                    -0.2830184668871843,
                    0.22411371354318785,
                    -0.5204165834228333,
                    0.5820785384651138,
                    0.16421771383873168,
                    1.4531923952366856,
                    0.7207413454998247,
                    0.6598663367301634,
                    -0.6240140501601502,
                    1.5966415012381439,
                    1.0956581909568839,
                    0.3507066846331482,
                    1.3170971864892178,
                    0.1731203310074118,
                    0.06163181478584999,
                    -1.0413585782022476,
                    -0.36515950364704186,
                    -1.3763229847886347,
                    -0.07602944499665443,
                    -0.05903458019263173,
                    -1.908748558732602,
                    0.41081984840031066,
                    -0.24928502529695815,
                    1.546843114160073,
                    0.12753171037488664,
                    0.9169912630718039,
                    -1.3279954728541363,
                    -0.03911854501176428,
                    0.4571982351017975,
                    1.0066622509225756,
                    1.0396630059840928,
                    -1.0608432410802333,
                    0.8013907161298204,
                    1.457369933950677,
                    -0.06436705997849984,
                    0.9021833813522321,
                    -1.653276093235371,
                    0.1704825242475118,
                    -0.5399787308137255,
                    1.3413249056213215,
                    -0.13597241299425175,
                    -1.1012052595979582,
                    1.129681371703372,
                    -0.7158715745998392,
                    -1.0670230056847343,
                    0.2494631113523988,
                    1.4209359541111362,
                    -0.8860030454015654,
                    -1.0835806304840012,
                    -0.808694512781736,
                    -0.008987964739011688,
                    -1.2243461904173516,
                    0.2202366119911409,
                    0.9553795772517587,
                    -1.2087488959388109,
                    1.0825091861114446,
                    1.3756192028653458,
                    0.4277414303568381,
                    -0.46569454213287487,
                    0.4051759149154487,
                    1.5289917707246263,
                    1.0774503312947328,
                    0.19311199214875094,
                    0.6919012655851948,
                    -0.15104571130221975,
                    -0.6563157511878631,
                    0.8357668935332835,
                    -0.6779577213947592,
                    0.5761374360154342,
                    1.0965994570833995,
                    0.4322073910821508,
                    -0.858691659359583,
                    -0.04870681923781812,
                    0.0886067842912099,
                    1.0221615225812322,
                    -0.7961741890050917,
                    -1.0347961781279322,
                    -1.35042229913181,
                    2.0435391359700636,
                    0.5145800808531324,
                    -0.32447119336749475,
                    0.6324468039038229,
                    1.5052639428123424,
                    -0.44033829952992226,
                    0.7863278092148591,
                    -0.30759805433410137,
                    1.5919093825295207,
                    1.0164547878550985,
                    0.2743138557741456,
                    0.7664740659264186,
                    0.6806189819316716,
                    -0.67315206762369,
                    -1.2881730769613797,
                    -1.1226227532981252,
                    -0.7338061440812089,
                    1.0295254738630513,
                    -1.9012935445470653,
                    -0.7461517639241356,
                    0.6000796953019815,
                    -0.04834560609865842,
                    -0.11583008677776253,
                    -1.267506598287911,
                    0.1739767218606676,
                    0.359602256730039,
                    1.5021147255504765,
                    -1.519958478647946,
                    -1.0845551214349194,
                    -0.3948448753544788,
                    -1.3920938741197426,
                    -0.7528525006643795,
                    -0.7619959228080011,
                    1.0963125815613612,
                    0.892636393160074,
                    0.5149098946783228,
                    1.7186441135478199,
                    -1.333432355022616,
                    -0.110556743685046,
                    0.08183364295034598,
                    0.26254054858794856,
                    -0.24849469373017988,
                    1.81340699499712,
                    0.09667132917657363,
                    1.0730621807433296,
                    0.35720352654271503,
                    0.2534583142253925,
                    -1.196654891063863,
                    0.768704070387847,
                    -0.6808132193045542,
                    -1.2062050378689473,
                    0.1557608884643634,
                    -0.8353741480753998,
                    -0.8585648336939821,
                    -0.7330402946174869,
                    -0.8052637238093636,
                    -0.4793463771023292,
                    -0.0757613517930878,
                    -0.41542556344386783,
                    0.25798127795897946,
                    0.8700659516119552,
                    -1.5178710252915428,
                    1.5623600341419575,
                    1.2675042014341786,
                    -1.2504031402258988,
                    -0.016616562840904833,
                    0.9385979047910102,
                    -2.4075254875742207,
                    0.7653714478314187,
                    -0.4247596268131094,
                    -0.6039883298688236,
                    0.44439962769593905,
                    -1.7315226101755732,
                    0.6307461458885114,
                    -0.5159723511350037,
                    1.0396616937674026,
                    0.9669023003877818,
                    1.2237409703551196,
                    0.0812748167621942,
                    -1.9367218416221534,
                    1.2239333093932294,
                    -1.1614704649926921,
                    1.1964436353893888,
                    1.7400486333814114,
                    -1.0656794454364908,
                    0.11331847177633654,
                    0.4412869591012463,
                    -1.5883702645864293,
                    0.7432279299962401,
                    -0.03910148840204427,
                    0.5195290870498688,
                    0.26064365082589047,
                    -0.4230971988193556,
                    -0.41185700380983936,
                    0.31635595583479176,
                    0.11507628123486564,
                    0.7331351544588405,
                    1.646180880132427,
                    -0.6164415425861107,
                    0.5450862368219728,
                    0.255399809802643,
                    0.22193231176075043,
                    0.04477699070984125,
                    1.0380339665839913,
                    1.5366118827839303,
                    -0.0949657462062598,
                    -1.9890394634447846,
                    0.5944964466243501,
                    1.5020082127642183,
                    -0.796706913486735,
                    -2.207808760738347,
                    0.3806607907266091,
                    0.015087895675994684,
                    2.0899310918770393,
                    -0.44392318725642116,
                    -0.2284633631002157,
                    -0.4651396368468725,
                    0.3249333495537612,
                    -0.4608428139811885,
                    -0.3367949017786378,
                    0.5853333877820998,
                    -0.9839606912369672,
                    0.8386980089615241,
                    -1.1449855409121485,
                    1.0803629739778344,
                    -1.4797858755323328,
                    -0.42595172141228616,
                    -0.1846274295215141,
                    0.32751887187388923,
                    -0.672660503598462,
                    0.7862410513060969,
                    0.9853978478908149,
                    -0.036204482615945284,
                    -0.12693676106197657,
                    -1.3035269318380311,
                    0.3295668111151953,
                    -1.2021205008360112,
                    1.4730204285871786,
                    -1.378551671559272,
                    0.32294913076727305,
                    -1.2312638156872375,
                    -0.07951672355286653,
                    1.354655715161842,
                    -0.29643680478273915,
                    -0.15313464094646834,
                    0.5361296783342085,
                    0.06599077248842991,
                    0.8823780227141028,
                    -0.006069948342678716,
                    0.4353066866879049,
                    1.4014041410905314,
                    0.8898967515453554,
                    0.23317923982423605,
                    0.3808247576708352,
                    -0.9214585296529721,
                    -0.1294796723060522,
                    0.5546779297284027,
                    0.8937775183742275,
                    -0.9033924347604158,
                    0.031536325880141096,
                    -0.4445259290586526,
                    0.8624283671955619,
                    1.1314769776151534,
                    1.487190145849047,
                    0.03419530972354279,
                    -0.6786733723704261,
                    1.0899570731958355,
                    0.1998769670338896,
                    -0.994055951574278,
                    -1.2101971972234347,
                    0.5260042220919898,
                    0.5055425440959106,
                    -0.7324687434107919,
                    -0.06388567634519672,
                    0.06561836069569911,
                    -1.113066453557403,
                    -1.2029180069555756,
                    -1.6714052231508136,
                    -0.465604842835294,
                    0.3555347601714942,
                    0.5012963881577867,
                    1.7530698212489142,
                    0.5765497361747004,
                    1.2916350444996105,
                    -1.0987725723816322,
                    1.8545548566603354,
                    0.9511124849231682,
                    -0.37568589314003836,
                    -0.20201233909134453,
                    -0.19478777909175152,
                    0.9052096388724544,
                    -0.1657978184952822,
                    0.16222653053930666,
                    3.0239192965434594,
                    -0.7474412751980312,
                    1.4569408341714103,
                    0.08211127041101961,
                    1.5083918952148812,
                    -0.8784878534213266,
                    2.914993937473986,
                    0.8750239586909648,
                    2.205293679375999,
                    1.6132224322779685,
                    -0.5320777458327993,
                    1.0949977312813792,
                    1.8480695606796402,
                    0.199436858718901,
                    0.6281944351068071,
                    1.9065698642130717,
                    -0.020095978087146,
                    0.1302473240246278,
                    -0.5599655267524514,
                    0.5427128447267894,
                    0.15144119916577164,
                    0.3550623886202559,
                    -0.9082287111050702,
                    0.2906594746336657,
                    0.023721385328545463,
                    1.90888956633927,
                    -0.019758941158204965,
                    -2.0451514672582487,
                    -0.9582774895787141,
                    0.32901438384715886,
                    -0.516514527383631,
                    1.1784883582398378,
                    -0.08203559716761653,
                    -0.07252288972536507,
                    0.1620178073278826,
                    -0.27753979200898826,
                    -0.23987315581116442,
                    0.12996156910222648,
                    -0.5310356414861692,
                    1.6347843375683249,
                    0.07268687793656704,
                    -2.5095991331801737,
                    0.3700238716881419,
                    0.39053968267119543,
                    0.3748421472692337,
                    1.7236574117148016,
                    0.0831032443586088,
                    -0.3544011059890386,
                    0.009731170611508655,
                    1.4719830674868881,
                    -0.44426790032404345,
                    0.8096866206783149,
                    2.049582777828147,
                    -0.727597745075406,
                    0.7207630623311332,
                    0.30183141942580266,
                    -0.9506990782375208,
                    0.13566744244681803,
                    -0.22637067272778919,
                    -0.4948183979309851,
                    2.085364828940858,
                    0.33301918115873713,
                    0.0327985633831883,
                    0.2516530212477285,
                    1.8082906663310427,
                    0.10045013714916279,
                    1.0182276923868003,
                    -1.1126519572685594,
                    0.3775500316623582,
                    1.5003147859061936,
                    1.489344953007487,
                    -1.6901712000871942,
                    2.4101716691248223,
                    0.24077748815106767,
                    1.0549809137860273,
                    -0.8225472064536568,
                    -0.7394694716611137,
                    -0.15604068935601617,
                    0.5359515259993762,
                    -1.7979697264821266,
                    1.022995708369401,
                    1.413663392680494,
                    -0.49748314404193417,
                    -1.163236036552507,
                    -1.3166808146456237,
                    -0.5287887441109522,
                    0.5661810275278633,
                    1.0887853946941375,
                    -0.24581520633565798,
                    0.9451453871960501,
                    -0.8965210340222459,
                    -0.6673331627297248,
                    -0.9760935099849997,
                    1.5871844948060747,
                    1.2562148582103105,
                    0.4677408979801304,
                    1.672524585723495,
                    0.9741474625084057,
                    0.7699285698243802,
                    -0.06070765514760286,
                    -0.5471445433282031,
                    -1.3410816052881795,
                    0.9292111674962779,
                    0.9231110742718603,
                    0.34634531969340215,
                    -0.2551164656187388,
                    -1.1294607678345396,
                    -0.4311310284540521,
                    0.3286366702884097,
                    -0.6319683936618967,
                    0.22592999842879227,
                    0.7784879669140483,
                    0.425574857825716,
                    -0.028139511506951785,
                    0.4962225032946568,
                    0.046913267618235555,
                    -0.26217337643188815,
                    0.45751540050250844,
                    -0.5793698884609794,
                    1.0105518847688482,
                    1.4603284908581913,
                    1.4213287490176605,
                    0.6208392036260885,
                    -0.5475218665398591,
                    0.39412007619343564,
                    -0.24813482986850777,
                    0.9591646511332419,
                    -0.8968088799239735,
                    1.707735466610755,
                    0.814076780555024,
                    1.1626969440297676,
                    0.5831060746036263,
                    0.47678605712930416,
                    -0.22636291849514925,
                    -1.228253967770137,
                    1.3170739320227833,
                    1.5483686466113118,
                    -1.2416996091720025,
                    -1.9103695575939783,
                    -0.957607167671326,
                    -0.36170469474971695,
                    -1.1172875083986766,
                    -1.7133043093425648,
                    -0.9105127334542924,
                    -0.48359294221932786,
                    -0.19856038552420557,
                    0.4276354339751391,
                    0.44718153243864334,
                    -0.1214720056595197,
                    1.3062139126753702,
                    1.7148848436422532,
                    1.1249818826900386,
                    0.5802413010204452,
                    1.0386552853243385,
                    1.0045050294607332,
                    2.131821413355613,
                    0.5420943907299438,
                    -1.583024402953548,
                    0.6813551360400081,
                    0.05547256519536233,
                    1.5810481182410203,
                    1.9354942604749181,
                    1.0592129198283822,
                    0.35174749177215275,
                    0.892807955164158,
                    0.2764514843154683,
                    -0.5415681016322178,
                    -0.045505605107459386,
                    0.02272851483793913,
                    -0.9462992648600831,
                    1.9238897609624073,
                    0.13017910891444198,
                    1.2272608028244942,
                    0.8538560512150595,
                    1.4662547825050687,
                    3.025306737930662,
                    -0.229848866428533,
                    -1.986456576122139,
                    -0.3314652030226267,
                    -0.4859923734747986,
                    0.5275395691523199,
                    -0.18454234395471986,
                    0.04028218164522672,
                    -0.05872339725749554,
                    0.7948633932456287,
                    1.1560724311658737,
                    0.3432611358721087,
                    1.723216418880797,
                    -1.2034640233523575,
                    0.622245682816561,
                    1.2546699414334361,
                    -0.2720198616906573,
                    -1.063366124482995,
                    -0.3613491735733048,
                    0.8587306455043974,
                    0.5061420809068727,
                    0.3685244192740327,
                    1.01718697236474,
                    -1.6768190139939814,
                    1.478968684731309,
                    0.27928419306321806,
                    -0.22404092176258483,
                    -0.04276387860615808,
                    1.1096480316882333,
                    0.9575307071567857,
                    -0.6342881606879498,
                    0.6315829973856409,
                    0.7580902838538394,
                    0.9047841267766634,
                    1.0396273339957747,
                    1.6691610975198492,
                    -1.3237425198231407,
                    -0.05135076944570718,
                    -0.006587585428618938,
                    -0.21727327041201017,
                    -1.0665998549658324,
                    1.2963410309058208,
                    -0.15980055281101618,
                    0.884853499226865,
                    0.4407360028905392,
                    -1.1218144785249597,
                    -0.4511298626696466,
                    -0.46180466846952506,
                    0.4261003120853353,
                    1.2173143498037602,
                    -0.53362054769508,
                    -1.0231783091562192,
                    -0.748475577867409,
                    -1.6966799690219956,
                    -1.4440283020658506,
                    0.3117618716396444,
                    -0.4844625571039921,
                    0.5110535545382554,
                    -1.4212092821554152,
                    0.04143968431930135,
                    -1.744931205368625,
                    -1.4232318654139895,
                    1.4267537870096207,
                    -1.5695301969397095,
                    1.1634593413248044,
                    0.43372525951578217,
                    -0.5275939778242806,
                    -0.054883447254299896,
                    0.6827404142756127,
                    -0.7664279159053474,
                    0.05446777244251975,
                    -0.041183542677869465,
                    -0.37554868828402893,
                    1.5190329170426404,
                    -0.4909563693139928,
                    -0.38472614627501456,
                    1.2381810656612435,
                    0.47788941105712207,
                    -0.4927829413112496,
                    1.1028243330757812,
                    -0.05684816139877783,
                    0.5488308225682115,
                    1.5515672900071888,
                    -1.5130209883713053,
                    1.444677795401309,
                    1.7273019449797178,
                    -0.16867636803644007,
                    0.5335993664372702,
                    0.41124042016048296,
                    0.3782417006939947,
                    1.0334832225660673,
                    1.295794859037702,
                    -0.6599239198162318,
                    0.5143371269534687,
                    0.10597088617826009,
                    -0.7606870045007945,
                    -0.5790139855837348,
                    0.6013429383883285,
                    1.083441874805865,
                    0.5610824283262669,
                    -0.828242898679826,
                    -0.5487587937647599,
                    -0.08431513596949798,
                    -0.7153449283562302,
                    -0.13846769614330162,
                    -0.7074818878152506,
                    -1.336107530962346,
                    -2.127620505972265,
                    -3.176540113951559,
                    -0.19871477993763836,
                    -0.6727135403086915,
                    0.86373008760027,
                    1.5967594740220636,
                    -1.1079583019833033,
                    1.0499690526934196,
                    1.9475610560070002,
                    0.591070660304112,
                    1.7026850708461732,
                    -0.9645010918920542,
                    0.021626067468705497,
                    0.08636979246538982,
                    1.1735184335898563,
                    0.379765996414589,
                    -0.7277320697770749,
                    -1.3288512644688328,
                    -0.7158712188712766,
                    0.24435452944179234,
                    0.7477789388307118,
                    -1.2748765023955757,
                    1.3884259429461117,
                    -0.8757905810193664,
                    0.6929831983795377,
                    -0.21622666801827037,
                    0.2045349240294087,
                    -1.0521277508033007,
                    -0.35354141104253267,
                    0.24610946868348266,
                    1.2325201917620159,
                    0.8773192161505285,
                    -0.44001466814695345,
                    -1.0172371269208762,
                    -0.749221173318337,
                    -0.8237151089161259,
                    0.6494873292743023,
                    0.8824670978847567,
                    0.4981957666067072,
                    -1.1934783379816185,
                    -0.7649523169773446,
                    0.6630847783345867,
                    -1.9074504105836856,
                    1.1874109384804694,
                    -0.009257902882687867,
                    0.5543431747236928,
                    0.4117000841210464,
                    -0.3285968110782844,
                    -0.13092251041028682,
                    0.620834328402535,
                    -0.06523247293201126,
                    -0.5764004988280028,
                    0.7468585853100271,
                    0.6813811827845334,
                    1.6129661452304123,
                    -0.03767911684555337,
                    -0.5993506488751862,
                    -0.46536699174315954,
                    -0.6851814403786661,
                    -0.36461283984153303,
                    0.22883691849293328,
                    -0.2604888301996329,
                    -1.1840645509089687,
                    -0.5214541871854099,
                    -0.563232430381872,
                    -0.3807503978649483,
                    1.1136898784131002,
                    -0.3069278236396146,
                    -0.5259947502120857,
                    -0.15918871012874503,
                    0.5333512522043524,
                    0.7334642551411974,
                    0.16390660999583642,
                    -1.776682664062567,
                    -0.09169890360472474,
                    -1.0670126836702898,
                    0.1814868226297717,
                    -0.15669771031300833,
                    0.30169019070488556
                ],
                [
                    -0.8043542127798815,
                    -1.5927738447368247,
                    -0.3383401809718855,
                    -0.7853328131520242,
                    -0.6023720804143784,
                    -0.7316676198340337,
                    2.4740188166545796,
                    0.2951763444182966,
                    -0.10327910197375398,
                    -2.436612547387001,
                    -0.238518126204438,
                    1.722413340451595,
                    0.5948176421788416,
                    -1.3252842381680792,
                    0.5743323685935975,
                    0.7237340044868178,
                    1.5981472497046705,
                    -1.0061914710756776,
                    0.08208566710311305,
                    -1.4524341631569073,
                    -0.34154041431944837,
                    1.449609634433408,
                    0.17392100130334928,
                    0.6447560780608435,
                    0.8431170053928163,
                    -0.09035286754275011,
                    0.5178494216447428,
                    1.5487271318382323,
                    1.0475618015550414,
                    1.5629152523051713,
                    -0.40821686474512503,
                    0.43700975308455947,
                    0.25674495329642816,
                    -1.0311177912583442,
                    0.9102751848455106,
                    -0.140676554181287,
                    -1.0156290532601646,
                    0.17132982341019837,
                    0.5425423163402406,
                    0.9471029872521775,
                    0.6117937489410354,
                    0.14130447996471335,
                    1.3164310380562247,
                    0.6234047911785152,
                    0.12149221364992285,
                    -1.3642672170078076,
                    0.037477164016930256,
                    1.1923041787747948,
                    -0.08086465243425205,
                    0.3640976883576265,
                    -0.7394704914942496,
                    -0.9040791656997109,
                    0.9578418240613712,
                    -1.053242442570766,
                    0.8013873806223434,
                    0.42041745143981546,
                    -0.3108905324637112,
                    -0.8364461512464243,
                    -1.693193281783953,
                    -0.8236705799554747,
                    0.3901998387590525,
                    1.3059258361963206,
                    -0.4540571046629675,
                    0.8452762413157933,
                    -0.21566500771889952,
                    -0.9118640338641049,
                    -0.7734530636925709,
                    0.07089917755551631,
                    0.4081718957355268,
                    0.5814273563696655,
                    1.304636408406409,
                    -1.123583263034629,
                    -0.626876137761231,
                    -0.1408049687843874,
                    -1.216308706620166,
                    -0.3283914973230891,
                    -0.755216493563937,
                    0.23781425119456995,
                    0.4939244482351535,
                    -0.14277297137179534,
                    -0.5855101201446341,
                    -0.4648667822368328,
                    1.1512126394067739,
                    1.244808160863819,
                    1.170049824846045,
                    -1.446792317671557,
                    2.1180455846519672,
                    1.419585900214168,
                    -0.09393800401890762,
                    -0.03170238415453345,
                    -2.906689094658849,
                    0.0822530740106204,
                    0.3968340941990904,
                    -0.6916726970451246,
                    0.13907508073842906,
                    1.252683234374026,
                    0.11868017777928828,
                    -0.7641697560242242,
                    -1.1913241195634938,
                    -0.38237999958269686,
                    0.9910116879618537,
                    -0.37466096513194924,
                    0.7163628873319785,
                    -0.12880071600439552,
                    -1.848563575851538,
                    -0.7140239065987246,
                    -0.25920967550156426,
                    1.742887519890208,
                    0.23956416183837798,
                    1.159037894869769,
                    -0.780151676865366,
                    0.9259551320639363,
                    -0.39921185521824804,
                    0.144766558395299,
                    1.1518923896447626,
                    0.3841991001750178,
                    0.7277791506506956,
                    -0.16957721998401207,
                    0.938696796320181,
                    -0.6310117226624271,
                    -0.19153407436338094,
                    -0.6891492173319455,
                    -1.0194607233415092,
                    0.8760756092780235,
                    -1.773969118436542,
                    -2.040861479016138,
                    -1.737916019287421,
                    1.4123402869744344,
                    -0.45103423304531937,
                    -2.429372353291781,
                    0.398298982263612,
                    1.678014432431568,
                    1.3854309103055957,
                    0.5477968462641469,
                    0.4278706301830679,
                    -1.1773604207353994,
                    -0.7319541424470895,
                    1.8361595607724377,
                    0.3230191004416321,
                    0.4125612663912234,
                    -1.1445248025534276,
                    1.0638362954996559,
                    -0.5016461756216779,
                    0.4850024715810429,
                    -0.33932790014266495,
                    1.4043754174767662,
                    -1.0429302590655292,
                    -0.4881783339994446,
                    -0.25374988750422117,
                    0.33588614130443817,
                    0.8544235944712576,
                    1.9551985679780002,
                    -0.31816374562131056,
                    0.3895190381899355,
                    1.5270171968337771,
                    1.776777375299762,
                    0.20906813692396586,
                    0.28572438084793256,
                    0.6094207597769882,
                    0.412087206617861,
                    0.8996355231306945,
                    0.8077145957626655,
                    0.34228155476776456,
                    0.9439007338330132,
                    -0.8220673527239293,
                    1.3525240121962525,
                    -0.10029170100144019,
                    -1.499285634026424,
                    0.9335336398089904,
                    0.7842801568294152,
                    -0.7285382706054909,
                    -0.18739208690402986,
                    0.045798926430560896,
                    1.074405892105114,
                    -1.0288034332921863,
                    1.096311193147723,
                    1.4014805760773792,
                    1.2637819644646717,
                    1.8712271981054747,
                    -0.5429473723243546,
                    1.8439261721760254,
                    0.21736012455075798,
                    0.9994841133730173,
                    0.756642274392151,
                    -0.00814627928582214,
                    0.6645396421417405,
                    -1.5212132693602423,
                    1.1084557113361475,
                    0.5909807246824607,
                    0.055451540682210546,
                    -1.2747300971567472,
                    0.8866729599741584,
                    0.831795414284118,
                    -0.9890047980103288,
                    0.168417078037941,
                    2.9119335062794227,
                    0.3643572039147172,
                    0.1868765575027337,
                    2.2992744959589526,
                    0.8625355784506298,
                    -0.06743249377815537,
                    -1.1398947181130887,
                    -1.339538299106108,
                    -0.34914473340559526,
                    1.9964423190301992,
                    -0.6869133295288502,
                    0.7118624855822572,
                    0.5074754038364828,
                    1.143940144263681,
                    -0.5723381686271747,
                    0.28472080152012114,
                    -0.08172124906687118,
                    1.0012333388081718,
                    -0.12290744094842264,
                    1.1510340289117937,
                    0.9383013418971107,
                    -0.7232385353654867,
                    -0.3249070013281461,
                    -0.26615502282968617,
                    -0.2577765086235603,
                    0.38652780129456016,
                    0.5458847072297193,
                    0.908129679940852,
                    -0.021298360898025018,
                    0.7588277935366716,
                    -0.3110823603940525,
                    1.896025609866323,
                    0.8617935712861693,
                    0.11092491974705326,
                    -0.5661632145898414,
                    -1.5581334642132905,
                    0.6153188466389949,
                    0.1015641136509132,
                    0.46730497594131676,
                    0.4205737150262775,
                    0.3004500927952291,
                    0.9160096368848138,
                    0.25988802003282097,
                    1.2746556331417234,
                    0.17978350092984055,
                    -1.283232757176951,
                    0.8732849300425768,
                    1.0396301971205162,
                    -0.9554252539288562,
                    1.0158334527557118,
                    0.47179626112085055,
                    0.044539340382366004,
                    -2.3479419190808484,
                    0.7108472632805748,
                    -0.03535912682009432,
                    -0.4544737143389236,
                    1.0520762459693995,
                    -0.9263928058398831,
                    2.3519457711431384,
                    -1.2166391834631431,
                    -0.025140147302885333,
                    -1.8827410898041215,
                    -0.1972622903478855,
                    0.5661752910200418,
                    0.6887815411533122,
                    0.9926889746184961,
                    -0.40997013023116197,
                    -0.6338398787754121,
                    -0.14739260041503538,
                    -0.868808119057545,
                    -1.131748112946704,
                    -0.006327036438525339,
                    0.9754789778340328,
                    0.2746547530381573,
                    0.35659311051732845,
                    1.8657806874412406,
                    0.2654087253517444,
                    -0.9008149106034443,
                    1.2344997855216742,
                    0.36024917101884496,
                    1.8739481558532756,
                    -0.1541132838538888,
                    -0.14703624944666738,
                    0.9563898936721433,
                    1.4903346832872957,
                    0.6944009384855759,
                    -0.10457634483465574,
                    1.9401323451265466,
                    1.3061390073213646,
                    -0.8590756848511584,
                    0.3287304155429714,
                    0.3513687968280411,
                    1.419790922944325,
                    0.3023926896099609,
                    0.3872830338897125,
                    0.9023028659866622,
                    -0.5556215511914101,
                    1.9169244550526918,
                    0.7213037199991663,
                    -0.5612223038235763,
                    0.447849039038949,
                    0.30350137606951544,
                    0.07927634133217647,
                    -1.0345048461122546,
                    2.3496050180989374,
                    1.050038384982047,
                    0.5444438304467636,
                    0.652718357140104,
                    0.26572146198585433,
                    0.6076112371757543,
                    -0.44033936502223425,
                    -0.8198083323516822,
                    0.43338697728124853,
                    0.32998030745532153,
                    0.017828678133559886,
                    1.727768900386549,
                    0.054753669562400346,
                    0.7551540520105363,
                    0.7728336803781705,
                    -0.1573642092428993,
                    1.0203094006494347,
                    -0.8014836556787823,
                    0.5494164835218451,
                    1.363115121979413,
                    -0.1556552600099521,
                    -0.48813463001465685,
                    -0.022143714256766565,
                    1.4129666899690287,
                    1.4028603291315511,
                    -0.7436071318661606,
                    -0.4744379890959096,
                    0.2565058698513802,
                    0.6380011620745513,
                    -1.0647228123400359,
                    1.4615978293464533,
                    0.31256883893881704,
                    -1.2944734211430062,
                    -0.4725076448728451,
                    -0.7784256767790847,
                    -0.6668235851092668,
                    -0.46803257901521916,
                    -0.12241693928528691,
                    -0.1256399089635897,
                    -0.9640068790429444,
                    0.05919031394911662,
                    -1.6759298398264013,
                    -1.0361917675372099,
                    1.0332069206527201,
                    -0.49998772909873557,
                    0.5840805673056356,
                    0.784433572881016,
                    0.7128624436981122,
                    -1.373145252320656,
                    0.9175467078864199,
                    -0.239736198361336,
                    0.2799944009182191,
                    0.10553703209490335,
                    -0.6119154755824975,
                    0.9776573243744745,
                    -0.2830538014073285,
                    0.12241966012824143,
                    -1.4809593925810507,
                    0.7878289081326645,
                    -0.5802760661220199,
                    0.6548167393147094,
                    -1.0070002861180603,
                    -0.3257962966149691,
                    -0.048344674149686524,
                    -0.6755705328431195,
                    1.265833349303586,
                    -0.2889568301426345,
                    -0.7676417343348968,
                    -0.8150859499045503,
                    -1.5093755615530546,
                    0.6658803335138421,
                    -1.9591649706262597,
                    -0.07052958586111352,
                    -0.1669707527928456,
                    -0.12410003533680597,
                    -0.09737040771103012,
                    1.5179740079312511,
                    -0.4248353423237546,
                    1.5358703178906592,
                    0.25961445386304494,
                    -0.8793783030472072,
                    0.5567746354303416,
                    0.6510550339304132,
                    -1.029841056478323,
                    0.12306301559129364,
                    1.0432678351413176,
                    0.15959556608813402,
                    -0.8249056749935738,
                    -1.2352177037358012,
                    -0.7017024511242427,
                    -0.4204044499713756,
                    0.43123794138807664,
                    -1.0008861834671043,
                    -2.1109676259479633,
                    -0.9024301404141991,
                    -0.5858452764859658,
                    -1.0432375860208616,
                    -0.32413567968955204,
                    1.2341881391402272,
                    0.8362606442712569,
                    0.490080049897661,
                    -0.3337321501849781,
                    -0.4918753903492774,
                    0.34173502064433,
                    0.5084227734104939,
                    1.3077228067858844,
                    1.667969172498063,
                    -1.4895251976774657,
                    0.48256701122468243,
                    0.14801525983980232,
                    -0.21942930171166417,
                    0.24782001362977288,
                    0.9219798891583149,
                    0.7791440949231045,
                    1.37264072367662,
                    0.8188152952362624,
                    0.5168795026461757,
                    -0.14132672099053323,
                    -1.0712516804583738,
                    0.02682457966274188,
                    0.2756284933129243,
                    -0.8244431359547933,
                    -0.8479080946429172,
                    0.12038591847749454,
                    1.6549403473918403,
                    -0.28352999602311346,
                    2.470529859280546,
                    -2.1777311098578327,
                    -0.3422168713870704,
                    -1.6146976288956159,
                    -0.09431684774297197,
                    -0.7743756851395212,
                    -0.5112948817761664,
                    -0.019594322580338386,
                    0.20305396717267993,
                    0.9348596762821343,
                    1.9621704415428605,
                    0.3123352511851876,
                    -0.41082673191784524,
                    -0.44831004454158474,
                    1.2695748542657106,
                    1.2160320818683272,
                    0.7237000866673348,
                    0.44630437725851846,
                    0.9028933059975951,
                    -0.642690519966355,
                    -0.6692803084976633,
                    0.482071555673182,
                    -1.587550911149054,
                    0.8557576235565222,
                    0.3263427611241644,
                    0.30229375182968365,
                    0.11250352534197278,
                    -1.1219456633300409,
                    -0.09753644493481667,
                    -0.040433479606819187,
                    0.4347177822853913,
                    2.93693535154623,
                    -0.8378338549543133,
                    1.0221954971008511,
                    0.7397175276874391,
                    -0.11538334396800808,
                    -0.928036410378035,
                    -2.0090350526218135,
                    0.7914688869499502,
                    1.6000628085932662,
                    0.4869701089129987,
                    0.7280480899506235,
                    -0.43285111352189065,
                    0.8270423714716246,
                    0.6734403009976466,
                    0.4474092657320407,
                    1.377929802867121,
                    1.1904502296977593,
                    -0.7567940210510596,
                    -1.6058740963586102,
                    0.4695659722260657,
                    -0.15399022522894984,
                    -0.5629657491908269,
                    0.7817912251904312,
                    -0.8907388389348333,
                    -0.2286344934874954,
                    -0.2773415863892816,
                    -1.0521794076883704,
                    -0.8390866404843423,
                    1.781219301870137,
                    0.24367936709972812,
                    0.2381425348718388,
                    -0.6843295551947429,
                    0.5966850658667481,
                    1.9576457727154466,
                    0.8249743776808086,
                    1.482932056441752,
                    1.7167817431305383,
                    -0.36938246886584,
                    0.34326060588917756,
                    -0.454911786195855,
                    -0.007583460244426121,
                    0.3058920225115531,
                    -2.1514334884395145,
                    0.9413993213120985,
                    -0.0670220498334344,
                    -0.04171602460955146,
                    -0.6416658189895266,
                    -0.5472713158159138,
                    0.3135185688801523,
                    -0.25228643583999416,
                    0.9184545571014454,
                    -0.7021950479982612,
                    0.8793474176867849,
                    0.36532953185001377,
                    -0.22168150803179212,
                    0.2523538192067968,
                    0.028833512023634926,
                    0.12496632975601657,
                    -1.3391567739507282,
                    0.10779002535864911,
                    -0.2728469496593774,
                    -0.23621041750431412,
                    0.011257608933161078,
                    0.012414860955764363,
                    0.28149262259749,
                    -0.5718497940579469,
                    0.4916622804585373,
                    -1.0769056215089252,
                    0.3663698922120527,
                    0.676192160514848,
                    0.7806195827803095,
                    1.0824694748789352,
                    0.3949792770776085,
                    -1.3067490971172528,
                    2.228369164954002,
                    0.5108099457073608,
                    -2.0686537013422863,
                    1.3689627380444482,
                    1.569931085197286,
                    0.16878316318319334,
                    1.7500412196155937,
                    -0.48712129611539956,
                    1.2805558696937576,
                    0.3793889033716021,
                    1.41563691638814,
                    0.9483757343299438,
                    0.8851448967061634,
                    0.6669882552284415,
                    -2.5087547436152806,
                    1.062781432654069,
                    -1.6528377675968227,
                    0.05506261047432334,
                    -1.8343455392572827,
                    0.6861845635852285,
                    1.3388759823236411,
                    1.8337855140371342,
                    -0.31663271003828836,
                    0.9709642797097897,
                    -0.5242384854537994,
                    0.37826365061562967,
                    -0.16201127602776394,
                    -0.017633723186461052,
                    0.1676443908581147,
                    0.9980657629573563,
                    0.3601517026689431,
                    -0.5084361996853983,
                    0.9140401939767874,
                    -0.7094266192358909,
                    -2.0484176380013666,
                    1.794063705141576,
                    0.2231162774512994,
                    1.1501030959814766,
                    -0.03744834430982608,
                    0.03147841912744616,
                    0.5806776892572958,
                    1.3407965097198937,
                    0.054078342866454486,
                    1.0358067494144148,
                    0.07349364943498556,
                    -0.14303509121647126,
                    -0.022136116433022074,
                    -0.1579928888050278,
                    0.005305720924916439,
                    1.1843114432060449,
                    1.137107862238974,
                    -0.28433718533308866,
                    1.23266316509528,
                    -1.5529054156746223,
                    -1.4318869927791233,
                    -1.0327159393122645,
                    -1.458899346051731,
                    0.052156172853526674,
                    -1.4200017470145763,
                    0.1077773746159652,
                    -2.6475086362664673,
                    0.6061367513402854,
                    -0.7842605096618738,
                    -0.5244280474103867,
                    -0.21912719885285836,
                    -1.407037499444005,
                    -1.774882141551551,
                    0.9045109451713124,
                    0.7026197827898686,
                    -0.6540405174873807,
                    1.038606278038125,
                    -0.07451238288930892,
                    0.5631750260531335,
                    1.358242385451549,
                    1.06031328067948,
                    -0.08598225258036156,
                    0.3232645244048637,
                    0.393080899803347,
                    0.6079863922584056,
                    0.4466479590906561,
                    0.789684039204117,
                    -0.14567616697563285,
                    -0.6741534014414718,
                    -0.08181628048747551,
                    -2.160340189749209,
                    0.6965945444693361,
                    0.14026050281484032,
                    1.3324881027348292,
                    0.5504895014869968,
                    -1.097312372322251,
                    0.7296688248685891,
                    0.31599373695161703,
                    -1.95133623665233,
                    0.47967671193967315,
                    0.9556793182770106,
                    0.8901497079430984,
                    0.3211061805847741,
                    2.2022796570140057,
                    0.5657087331778922,
                    -0.28771240314932717,
                    0.3556092711609075,
                    0.2891687341422626,
                    0.8161562406285872,
                    0.5572112310865895,
                    -0.5243105203772023,
                    -0.23826908401103356,
                    -0.05124866301994588,
                    -0.47124993733940146,
                    0.001786357983436874,
                    -0.1729587449124635,
                    0.11817286495362696,
                    0.28968594994681135,
                    -0.1537493525981835,
                    -0.8795449171391259,
                    0.23893141585453012,
                    2.007342947201701,
                    1.1436758849343838,
                    -2.947198922662934,
                    0.5885601189917137,
                    0.4244301706727448,
                    0.41401486763246653,
                    -0.6987391111187817,
                    0.6292189663024474,
                    0.5916769971473093,
                    -1.5877095408140274,
                    0.5254974851190007,
                    0.07394592402367424,
                    -0.8541346313294346,
                    -0.5431689526138138,
                    -0.9652772784871438,
                    0.2577836079253678,
                    0.2548789127244927,
                    -0.3730654322974424,
                    -0.11718662314587155,
                    -0.7955570499332058,
                    1.2633841297044255,
                    0.3384324558003266,
                    -0.632965218885008,
                    -0.4285087248182752,
                    1.212611368728793,
                    -0.9867738499268891,
                    0.3353458900491816,
                    0.0027331327800808668,
                    -0.9371156075209534,
                    0.46544300290777896,
                    -2.086574437377409,
                    -0.7456784108862542,
                    0.005964584040177999,
                    -1.830166116566634,
                    0.12192545096427058,
                    0.40267994906419463,
                    0.05041652678102301,
                    -0.015186627201729528,
                    0.22019083083355082,
                    0.07730872847444648,
                    0.49001324226306703,
                    -1.025336682275496,
                    -0.05119506464404824,
                    -0.6629294680893892,
                    -0.9428272964232739,
                    -0.7490842830033251,
                    0.0694375013292511,
                    0.588902327395191,
                    -0.42253539269594953,
                    0.6201890976486889,
                    -0.1949300084262473,
                    1.477639883982001,
                    0.468782701402356,
                    -1.0944007845177444,
                    -2.2109116474046764,
                    2.3282664931543797,
                    0.5539582528770727,
                    -0.679662172200299,
                    -0.9691658008765434,
                    0.6461876132668722,
                    0.19516228958029555,
                    -0.06090594623031688,
                    0.6723296146556985,
                    1.4224369760203472,
                    1.776060404776044,
                    -0.645792066305806,
                    -1.2472702442557473,
                    -1.2427621699432458,
                    2.167809816182893,
                    -1.4667886354968842,
                    1.0503351303895438,
                    -0.5669530603587027,
                    -1.7339857146549134,
                    2.0245294872730666,
                    -0.49755436511014894,
                    -0.6554020181265756,
                    0.6591587326665439,
                    -1.4741127287264757,
                    1.0441372919679632,
                    -0.43509679291172737,
                    0.6617058237871932,
                    -1.1045720701711321,
                    1.4063685059462843,
                    0.8593477117744384,
                    0.5106016860385878,
                    -0.7865401596912777,
                    -0.09674065776686962,
                    0.1903382516807795,
                    0.10074571984428855,
                    0.7712507954182702,
                    -1.0982166350426474,
                    -0.9074298036552814,
                    0.579673907224603,
                    -0.33265814335878346,
                    -0.28225824175135195,
                    1.0357244485006947,
                    0.12020673759738136,
                    -0.6841684749196237,
                    -0.5269988636913726,
                    0.5461144900987948,
                    0.9928013432436993,
                    0.7166709418324892,
                    -0.949386298742539,
                    1.5495222826795416,
                    0.8171333256551024,
                    0.3787447537572909,
                    0.3021613831569586,
                    -0.7766398395181031,
                    -0.6594411299446843,
                    1.9616226464194049,
                    0.8057798591371729,
                    -0.4086236795233192,
                    0.9067764602897654,
                    -0.3992678288014213,
                    0.9433406574751254,
                    0.43992232065110914,
                    -1.5851949805739778,
                    -0.4912741757048847,
                    0.14389150481409604,
                    0.6101427845841875,
                    -0.6246107121611015,
                    0.26110401047587917,
                    0.3218962663091332,
                    -0.20452553442045648,
                    -0.5266744320265468,
                    -0.3618921126368608,
                    1.1359638582952645,
                    -0.6264372958956815,
                    -1.010210938766648,
                    0.4889411904016199,
                    -1.1547768616677923,
                    0.0822180004808219,
                    0.6352676611292488,
                    -1.6873402734379814,
                    -0.7730225993498181,
                    0.6800022156718005,
                    -1.382404045677463,
                    -0.4380600673186084,
                    0.6522072036343561
                ],
                [
                    2.119618905332201,
                    -0.8539655965734404,
                    1.6276756405728332,
                    -0.04257429245205439,
                    0.6593177995828123,
                    0.8448116915433377,
                    -1.12074869105176,
                    1.554863090082012,
                    -0.8178453204182127,
                    -1.8917476508866076,
                    -0.05403900566772411,
                    -0.633172085863159,
                    0.046172508697626416,
                    0.07990835780177824,
                    -0.315333582417007,
                    0.04557675217178381,
                    0.6935150753305586,
                    0.12106223966314358,
                    1.274514947178541,
                    -0.29471210304936973,
                    -0.538272270843923,
                    0.44880538475770637,
                    0.11454886631766299,
                    -0.12810485733269233,
                    -0.6578696907755237,
                    0.3588838095786956,
                    1.4199289800976023,
                    -0.7680959052953372,
                    -2.580178879412152,
                    -2.8220477496435357,
                    -0.2037329121645281,
                    -1.0952068502597894,
                    0.9452628090918298,
                    0.8441151173204289,
                    0.6084510697197298,
                    -0.049199038912340225,
                    0.10405443903055714,
                    -2.760870461126176,
                    0.459682921202039,
                    -0.642029024947313,
                    -0.23204904569339505,
                    -0.6542727183095474,
                    1.5846585134331734,
                    -0.14109556192302108,
                    -0.13913156029567103,
                    1.284691388811544,
                    1.8445520882864557,
                    -0.6450313984015282,
                    0.7523561795459399,
                    0.28603310899722934,
                    0.6135277757816361,
                    0.1802054932497612,
                    0.3184840879516055,
                    0.33756428367601043,
                    0.12458271319714592,
                    -0.4249318323985641,
                    2.2471564367463412,
                    -1.3482274329332733,
                    -0.4116570804962059,
                    -1.798296697662621,
                    0.505986005509132,
                    -0.7354938725467906,
                    -0.1544263167728149,
                    -0.17691712561770548,
                    -0.03086624488742734,
                    1.6287019400808032,
                    0.579768494429522,
                    -0.8535367097045293,
                    1.2415505129744475,
                    -1.3995190611963875,
                    1.731475575371217,
                    1.4406735822264147,
                    -0.9832712280416499,
                    0.9533060146135727,
                    1.0245479346828823,
                    -0.8341603037492047,
                    0.224744844618753,
                    -0.4835118831626678,
                    1.0110221515935238,
                    2.0737294137476825,
                    0.5697241459670082,
                    0.7974580199855689,
                    0.5093823795043393,
                    1.0443655603136772,
                    0.5314293683933305,
                    -1.1924538202661794,
                    0.4789522688379193,
                    0.7234718349305034,
                    -0.45145794469351325,
                    0.17176570546853934,
                    0.39526466320749265,
                    -2.5567323349912057,
                    0.8775492337377194,
                    -0.32416579774185533,
                    -1.4349009147373522,
                    -1.37819276017964,
                    1.4362138430867595,
                    1.2561767883165091,
                    1.7725073006712966,
                    1.031476871813627,
                    1.0427535419169802,
                    -0.23841099563007634,
                    1.3110825786016755,
                    -0.12526300427149495,
                    1.0816478457272767,
                    0.5615801212441094,
                    0.18149273033055321,
                    1.1822805106425367,
                    -0.09078203250411841,
                    -1.3130282336303576,
                    0.1752257671009003,
                    -1.7831306910607039,
                    1.2243395876813803,
                    -0.8828177732477412,
                    -1.8679294271288234,
                    1.7804774980363929,
                    1.04561458033967,
                    -1.1029546016549805,
                    0.529857823628826,
                    -0.7130234047590623,
                    -0.9793729532873303,
                    -0.2026201959170839,
                    -0.13061696820880345,
                    -0.5464961992368572,
                    -2.273047590240632,
                    -1.1336295247309398,
                    0.7988772526016678,
                    -1.1833147672292461,
                    -0.42833788516019644,
                    1.1155348963324616,
                    -0.5049102059220439,
                    0.07162977798680302,
                    0.0250547113649996,
                    0.22617186590069097,
                    -0.6713380581038468,
                    -0.14440923807875838,
                    1.4150038224677837,
                    0.719536949462376,
                    -0.6887589291146476,
                    -2.054775243753709,
                    0.4400734026761435,
                    -0.9002007917615301,
                    -1.094933154549391,
                    0.2525417697418058,
                    -0.3913240799476274,
                    0.0930461407846901,
                    -2.0449605644589295,
                    -1.245162561493244,
                    -1.4300681772370245,
                    0.5047225833986771,
                    1.5919446067348966,
                    1.5080018119895189,
                    -2.291372690206966,
                    -1.1775192366578309,
                    -0.6265314431018169,
                    0.34622764110680787,
                    0.08183385467536308,
                    0.1834743778392069,
                    -1.4397450353412142,
                    0.7296975373339755,
                    1.9058523410545154,
                    0.4956306383539026,
                    -1.4869479238295324,
                    -1.034368360570456,
                    0.06730862342993671,
                    0.021323040524779693,
                    0.8805801693451039,
                    0.20329356498327325,
                    0.7180706954259432,
                    -0.05944547763356583,
                    0.5266962094092877,
                    -2.6891199442558005,
                    0.1450382510830081,
                    -0.05931581565558114,
                    0.49948332143476987,
                    0.07812700669270706,
                    1.2052098071087034,
                    0.8315743120584381,
                    -3.05230011332563,
                    -1.0710463491251698,
                    0.7054066457173362,
                    1.169720380210308,
                    -0.13903663790937335,
                    -1.0062345828329686,
                    0.4801763483144593,
                    -0.5261558186540599,
                    0.36551779707528487,
                    -0.243305160979979,
                    0.4634116388822431,
                    -0.006791678999695482,
                    1.6051807006175411,
                    -1.2028995983714044,
                    -0.67438635837385,
                    -0.07277106597000688,
                    -1.5921157694223067,
                    0.1575581822103929,
                    1.3921246948260886,
                    -0.5900010514760886,
                    -0.4154258430362097,
                    -0.4320695249274763,
                    -1.0281035089970108,
                    0.18126549424478158,
                    -0.5273945274200383,
                    -1.2918369750006924,
                    -1.5255892802462714,
                    0.6083415211582216,
                    -1.0938389987981383,
                    0.47940344235197396,
                    -0.5025864924705271,
                    -0.05470587333096352,
                    -0.8192073386581672,
                    -0.31717059709649825,
                    -0.8378204755863117,
                    -0.573362975032889,
                    -0.44154929718912456,
                    -0.9304751304832132,
                    1.2171460842439652,
                    -1.251631251052939,
                    -1.222636876543981,
                    0.737269539176715,
                    -0.4845875566107591,
                    1.3310491235689972,
                    -0.8553389766380739,
                    1.2219588573065019,
                    -1.2500116578030236,
                    -1.323478809699961,
                    0.6068055664364371,
                    2.077032150938707,
                    -0.256283633291353,
                    -0.6346292906226951,
                    0.1678092286450291,
                    -0.9226671654411763,
                    -0.24022258883357755,
                    0.7735128063290377,
                    0.5877769896520699,
                    -1.0330142400416422,
                    -1.2769845149680548,
                    -1.8244233315991076,
                    -0.8707141001609514,
                    0.581891529030365,
                    1.0764322717996142,
                    -2.23492415213697,
                    0.6874064956603253,
                    -1.8184657584795176,
                    1.7395961780887825,
                    -1.5987757145251498,
                    -0.7122668132337417,
                    -1.7931609954196142,
                    -0.6039353060806102,
                    2.17347071087099,
                    -1.8285822956628313,
                    -0.014874949964457543,
                    -0.05197568955359216,
                    0.31512545891157745,
                    0.8293859618317079,
                    3.740203168410102,
                    -1.8688547314807054,
                    -0.9524436308363097,
                    -1.7273982635661727,
                    1.033127581995506,
                    -1.0846726954496655,
                    -0.8007949925900649,
                    -0.19184114757029713,
                    -0.5241731119534163,
                    -0.05008450782730466,
                    0.9956678459264084,
                    0.2637376189600773,
                    -0.8208774388362121,
                    -0.48209099497407565,
                    1.6592906157541754,
                    -2.441082870605373,
                    -0.3185718568100326,
                    -1.5859514113167943,
                    -1.206760078040442,
                    0.22491496345817089,
                    -1.245557229683811,
                    -0.2675245260396366,
                    0.6025599613109147,
                    0.10727489275998316,
                    0.7412619588256292,
                    -1.0339790669316342,
                    0.693341814698953,
                    0.7139454109792375,
                    2.54936129564716,
                    0.9437820891954728,
                    0.6788780209669895,
                    -0.33113390315782243,
                    -0.09018645942681215,
                    -0.47369349810244415,
                    0.2647012370253639,
                    0.11226366722928188,
                    0.08970282206692917,
                    -0.9948756348460684,
                    -0.8328754884042575,
                    1.499868752268544,
                    -2.3183750987673606,
                    1.4767061393464576,
                    -0.621737227378757,
                    -1.9847232842879794,
                    -0.17205899384104834,
                    -0.7664738117822371,
                    -0.7230496316092654,
                    1.0856982890624496,
                    1.0761217112065098,
                    0.6284242121228638,
                    -1.1449323208684785,
                    0.05796582233425515,
                    -0.8110304639847723,
                    -0.3214651954689254,
                    -0.5615672429971286,
                    -0.3470211975126857,
                    -1.4504622767209459,
                    -0.24020103012103444,
                    -0.35917851921446325,
                    -0.682748636612512,
                    0.9569376917861183,
                    -1.268094643166127,
                    0.4804709533294771,
                    -1.2871863608433858,
                    0.4717431298287554,
                    -1.3838866236384866,
                    -0.8793623968213058,
                    0.9047460989798448,
                    -0.4759117623610775,
                    -1.7619598796231695,
                    -0.45998316713603243,
                    0.2594343882763976,
                    0.3537964346361569,
                    1.777502523948896,
                    0.6328119779080719,
                    -0.8999383176124439,
                    0.22722425693844353,
                    -0.33765117234916103,
                    0.3255739767334777,
                    -1.1111951319578768,
                    0.47443390755859366,
                    0.023355629243472252,
                    -0.19908391991445243,
                    -0.868116471029161,
                    1.079555163602314,
                    0.8602931921239327,
                    -0.22169251683012023,
                    0.0883052643285543,
                    0.8224257398131469,
                    -0.22558598551566714,
                    -1.6488880503872916,
                    -0.3796886523496312,
                    -0.5689261779458881,
                    -0.7900777622352033,
                    1.3851042023203033,
                    -0.17045212300795654,
                    -0.5645615032434147,
                    0.14118564934087477,
                    0.6445650754685042,
                    -0.14717197482321337,
                    0.5073304177847832,
                    -0.09970424097196552,
                    0.20471781509680995,
                    -0.049652027022116754,
                    0.8228117479945759,
                    -0.012752384682927368,
                    -0.02902338422415199,
                    -1.487881438871493,
                    0.1682166717130436,
                    -0.5199035813909895,
                    -0.2749712097247402,
                    -1.6512161550049982,
                    0.816308165261861,
                    -0.2875789638126632,
                    -1.1124129224377066,
                    -1.600178662362425,
                    -1.610125155531642,
                    -0.17904626435118057,
                    0.8153397658928226,
                    0.3616605704621314,
                    -0.22491422462139904,
                    0.8623665556675536,
                    -1.1630324776748753,
                    -0.7522059040976715,
                    -0.03019123336640888,
                    0.3439472344656207,
                    -0.9649817234422807,
                    -1.308869788437862,
                    0.99206789266751,
                    -0.004303443233367428,
                    0.39823129570762394,
                    -0.935168240876745,
                    -1.2219445128574589,
                    1.518950651663858,
                    0.6841655558609238,
                    -0.032985649778738156,
                    -0.3660981025056141,
                    1.1460098802631842,
                    0.4559368650959793,
                    1.1468278074540827,
                    -0.8320396615837701,
                    0.24754603720302215,
                    -0.44317131577638635,
                    0.2447793415281042,
                    -0.03686646597768934,
                    -0.5136063373480403,
                    0.7035081597852668,
                    -0.8172940891828194,
                    0.7226730006115916,
                    -1.06449165555061,
                    -1.1262548921247522e-05,
                    -0.08030514150966545,
                    -0.7591284717122265,
                    0.37983140290735745,
                    -0.5704573305944126,
                    -0.10372619110301383,
                    -0.16685668377705762,
                    -0.04643828004046312,
                    0.08471195424083132,
                    -0.8108651529313963,
                    0.2604737037666386,
                    1.868715038457862,
                    -0.8930706843733441,
                    1.391755859422333,
                    0.9817768178888419,
                    0.27466461709470413,
                    0.6441759010303321,
                    1.7533516394642332,
                    1.2297260944275425,
                    -0.9637345298619815,
                    0.07965794433851137,
                    0.6391784104136315,
                    -1.0596974449801417,
                    0.18453844293683358,
                    0.36538520096463456,
                    -1.1965602141535576,
                    -0.7432247455592376,
                    1.5615715916564386,
                    -0.7752699241836787,
                    -0.5218807248048425,
                    -0.11832250499460069,
                    -1.0782999820400019,
                    -0.7885258172807326,
                    0.25182384290113385,
                    -0.1606488343550789,
                    -2.15978099911398,
                    -1.4492574971399483,
                    -0.2933571764573554,
                    -1.3582620302428237,
                    0.8619266047903443,
                    -0.18618040440054384,
                    1.485921708641717,
                    -2.5148811893060152,
                    3.6249509390107937,
                    1.5366306053735166,
                    1.8756888000934582,
                    -1.643398733769166,
                    0.5057306935340818,
                    0.3615666425238459,
                    -0.5095496571488538,
                    0.7419020188445257,
                    -0.18162690096767814,
                    -0.17613804394351304,
                    -0.05783280991547825,
                    0.024041765467467818,
                    0.4702520650343516,
                    -1.2219599545924156,
                    0.03644017059213958,
                    0.6237377658531164,
                    0.5723839263185946,
                    -1.0984993293191094,
                    -0.38957049035262553,
                    -0.5225466511224441,
                    0.04162289076405546,
                    0.2222960698121346,
                    0.9483591640920815,
                    0.9424362503147484,
                    -0.3977229670416846,
                    -1.4240235563191825,
                    -1.5708624416500485,
                    -0.6360316436616911,
                    -0.10620927504370885,
                    1.428369397301066,
                    1.0377378909583708,
                    -0.01166203528020399,
                    0.05548851162992805,
                    2.1572324307735085,
                    -0.06195954604748728,
                    -0.7403949413601695,
                    1.2418182952626877,
                    0.35970343611423555,
                    0.583952431540869,
                    1.2095636715960079,
                    -0.8385733705419942,
                    -0.30892855619289666,
                    -1.7088901883848333,
                    0.19378428196466138,
                    0.304364090635077,
                    -0.23309062049751625,
                    0.004713138097288138,
                    -1.2418283039921811,
                    0.808835988026093,
                    -1.6866019423983236,
                    0.13026628109858884,
                    -1.016906086020172,
                    -1.7738553022859602,
                    -0.6683225585022691,
                    0.14773393873776922,
                    -0.5754193912600508,
                    -0.4619571570982503,
                    -3.337788079004019,
                    0.17033083216363312,
                    0.6469892401442742,
                    -1.5972674463710919,
                    0.7858159846541073,
                    -0.8904530761140707,
                    0.10952743695857868,
                    1.8674912146447564,
                    0.038480919326822544,
                    -0.771023212760188,
                    -0.2626285372512524,
                    0.10457953271877705,
                    0.5658983713275324,
                    -0.5154172756333454,
                    -0.2535914651953677,
                    -0.26703596746695996,
                    -1.098656619403594,
                    -1.02506575211374,
                    -1.2869382592407608,
                    1.413004497933209,
                    -1.1395031573345211,
                    -0.8357876462669727,
                    0.482838073287222,
                    0.616117505118485,
                    -0.6639182396212473,
                    0.6670833958912755,
                    0.20413526503324617,
                    0.19802660901785935,
                    -1.559551467904154,
                    -1.4328744505043085,
                    -0.3045800549099414,
                    0.9511359021342273,
                    0.22181892068761325,
                    -0.3743938827043253,
                    -0.9658261104742977,
                    -1.575424367756251,
                    0.30679395738482035,
                    0.20206390732265922,
                    -0.4875382984487128,
                    0.4962925786052356,
                    -0.9007321291768013,
                    -0.6969880388932757,
                    0.37843861486365665,
                    0.5304532966483773,
                    0.9218771381228663,
                    2.604749671697618,
                    1.5679231625165098,
                    1.6341260855849045,
                    -2.0890565585601264,
                    0.02280136529460348,
                    -0.8839190287558281,
                    0.4667443317646409,
                    0.06765757581141382,
                    1.432166060841477,
                    -0.455463172040465,
                    0.3290748483170143,
                    0.1627753156901539,
                    0.19676346524022292,
                    0.07465590461844154,
                    -1.737356779768684,
                    -0.7649808618029028,
                    -1.8286395957611286,
                    1.2262406754510957,
                    -1.6666485326105083,
                    -0.236953928467043,
                    0.8897897786730363,
                    1.2986052661960557,
                    -0.36434089083979376,
                    -0.9808526231892566,
                    -0.2009675246889677,
                    0.11707048806435881,
                    0.9547553363689955,
                    -1.6621791251995308,
                    1.0777895391974073,
                    -1.7224387587631547,
                    -1.5459702810624085,
                    1.3877377000430833,
                    -1.1526053793724031,
                    -0.7607189612345304,
                    -0.030663890828427565,
                    0.6813619138203508,
                    1.5857257786601147,
                    0.6168186577610789,
                    -1.3678334638534415,
                    -0.1721178265298251,
                    -2.5924712855909955,
                    1.3706316254760904,
                    -1.6406950721181552,
                    -0.14593031455375224,
                    -1.5289450898934749,
                    -0.16342319439111297,
                    -0.22475257132070967,
                    -0.9656915100968847,
                    0.21065048437911854,
                    -0.9974748331199652,
                    -3.4181717036979187,
                    -0.19798644463907314,
                    0.04695942655551836,
                    -0.022550035873505046,
                    0.42127161640459926,
                    -0.3847167221772502,
                    -1.5642563336456756,
                    0.24386570641412594,
                    0.7037142610361401,
                    1.6320822434089983,
                    0.9646164625251499,
                    -0.11874439256228973,
                    -1.145882533815686,
                    -0.6412502481964527,
                    3.2048675478436133,
                    0.7295251291559766,
                    -0.9733959509292401,
                    -0.7740654730838691,
                    0.8393436890529866,
                    -0.16444145436995727,
                    -0.8157576862437828,
                    -0.7380880608557517,
                    -2.285485595661195,
                    -0.5257102831337703,
                    -0.011775091227059201,
                    -0.017711231287015357,
                    0.04732757669461082,
                    -0.07963777934911162,
                    -1.9174623908640789,
                    -0.675552446515817,
                    0.49381400893697364,
                    -1.8242657392082835,
                    0.04424829879644562,
                    0.7479453566430305,
                    -0.4502515506076561,
                    -0.4301269676295645,
                    1.7863715117102774,
                    0.19297554193105673,
                    -0.2623753961668164,
                    -0.2549764492260142,
                    -0.24601645869414873,
                    -0.264799256280327,
                    0.8579884870531349,
                    0.3475199722510569,
                    0.5131085139401109,
                    0.34050021624471183,
                    -0.31237600954523626,
                    0.9526789340706314,
                    -1.1379565472169872,
                    0.04536916004297951,
                    -0.6698769470508703,
                    -1.069307511221172,
                    -0.6405244424760442,
                    -0.3654456903517064,
                    -0.47982679812930007,
                    0.29878437830921956,
                    -0.5279238359344,
                    -1.5785435486955428,
                    1.6653441214900426,
                    -0.43336125886133475,
                    -0.5066318299164779,
                    -0.27286616754841386,
                    -0.3061500961514179,
                    0.3609491672856663,
                    -1.0615164930316225,
                    0.025621493295502257,
                    0.5687238309114222,
                    0.1364776854175151,
                    0.23763781044790558,
                    -1.327686911347856,
                    0.5950742344903489,
                    -0.34969558224074004,
                    -0.20548529199335042,
                    -0.18629179352788866,
                    1.0251323488270299,
                    0.04233817660786466,
                    -1.2535632698877548,
                    -1.3056205795703515,
                    0.254219682641324,
                    -0.10716525044478571,
                    -0.25008918033634076,
                    0.7887784281755498,
                    -0.04429897974921867,
                    0.13974081513604228,
                    -0.8787670828926102,
                    0.6808274734687617,
                    0.003762882447080197,
                    1.1066021775820425,
                    -0.761758041235722,
                    0.7153027510851677,
                    -1.2459417925980165,
                    -0.1634112151823541,
                    0.6261078104532718,
                    -0.16790527805072616,
                    1.460298663472539,
                    0.882731266061213,
                    -1.0126094110574462,
                    -1.4330422135853507,
                    -0.7535706249360223,
                    0.36733052493116114,
                    0.3883084015185973,
                    -0.35286582067461025,
                    2.406301558500361,
                    0.14535942240510677,
                    -1.4664117378454407,
                    0.3304602178180354,
                    1.945273494649023,
                    1.2213027344682579,
                    1.2638159979191284,
                    0.37575904204568433,
                    -0.5073663630944718,
                    -1.2245019935721349,
                    -0.44408076792917933,
                    -1.362548609550536,
                    -1.3896687516812336,
                    0.361690106998768,
                    -0.0006414712285873117,
                    -0.4872833454619789,
                    -1.5013765679493558,
                    0.13111713183568519,
                    -0.11445626277026115,
                    1.1321026208616083,
                    -0.525479761802858,
                    0.5289374817425048,
                    -1.6609323653890444,
                    0.31208786891209367,
                    0.019089959399431203,
                    -1.1961545116332515,
                    -0.651359373047562,
                    0.2618349573419367,
                    0.23708699535862557,
                    -0.3811093489900085,
                    0.7714305216754201,
                    1.2555258696145453,
                    -0.40582550510265086,
                    1.3584375563235207,
                    -0.7886859031214252,
                    -1.9634487681995245,
                    -1.9931163600126462,
                    -0.10593928245239485,
                    0.5814749102991096,
                    0.7470082185885106,
                    -0.24455372313897308,
                    0.11706669649866736,
                    -1.5171774126432152,
                    -0.2863650882756938,
                    1.3741774870629466,
                    -1.0218672247785332,
                    1.071301906924335,
                    -0.1314653567011022,
                    0.7966938093514893,
                    -0.7109250521080999,
                    -2.9516473621405463,
                    -1.6422142630241205,
                    0.8531265872369096,
                    1.6762694252906762,
                    -0.5447789720917305,
                    1.0664645168475981,
                    0.24170584491655353,
                    0.23589488281969911,
                    -0.6298801974600537,
                    1.0609778921170656,
                    0.617338870924868,
                    1.906149081350685,
                    -1.0136282805001073,
                    0.5625951135205531,
                    -0.6411814677953923,
                    -0.6322313318015315,
                    -0.45449559788010374,
                    -0.638171460729211,
                    0.25570628141274543,
                    1.0844191815250341,
                    0.2548084438117533,
                    0.039965006017380074,
                    -0.25610915162532577,
                    0.6111546245373368,
                    0.6712555672629645,
                    0.5238170272865464,
                    0.46092704641375776,
                    0.0932579940590808,
                    -1.6629157486098554,
                    0.17068201272446312,
                    -0.6296751901277938,
                    -0.1693492162273694
                ],
                [
                    -1.1946700707368052,
                    0.5826874142269125,
                    -0.5168461479597373,
                    1.124329279356028,
                    1.3371086805639751,
                    -0.7272230025743915,
                    0.06397918480134601,
                    -0.5448726366174149,
                    -1.4606965961102862,
                    1.3089550522471711,
                    0.02280925444434319,
                    1.1216674759169192,
                    1.2727286114257075,
                    0.5391645079705991,
                    -1.1028229480677803,
                    -1.1595274339746484,
                    0.8746319042965469,
                    -1.3854660267504881,
                    -0.14247474010063876,
                    -0.3387851581943336,
                    0.5152225255947377,
                    -1.4141259426470323,
                    -0.6092995761558482,
                    1.2050495839692248,
                    1.7386212462693402,
                    -1.3678842367374864,
                    1.2302990909975882,
                    -0.3042895875098554,
