{
    "epochs": 50,
    "layers": [
        {
            "bias": [
                [
                    -2.158739596581368
                ],
                [
                    -0.3240974679903781
                ],
                [
                    -2.895378174787421
                ],
                [
                    -1.4404865558573507
                ],
                [
                    1.5964168824043945
                ],
                [
                    0.061696266232727726
                ],
                [
                    -0.5653275317349428
                ],
                [
                    0.3096860981158993
                ],
                [
                    1.4553104722575032
                ],
                [
                    0.6277089279017464
                ],
                [
                    2.2854883021939916
                ],
                [
                    0.6972511563711898
                ],
                [
                    1.9672423917007917
                ],
                [
                    -0.24093171992306958
                ],
                [
                    -0.8539870063881686
                ],
                [
                    0.9674172136130594
                ],
                [
                    -0.740808523080806
                ],
                [
                    -0.7824578184618007
                ],
                [
                    -0.05976874485677496
                ],
                [
                    1.6430313396027068
                ],
                [
                    1.768072050964191
                ],
                [
                    0.3898937006972498
                ],
                [
                    0.5891700246558534
                ],
                [
                    -0.4673001944902587
                ],
                [
                    -0.7183723278814379
                ],
                [
                    2.103774763500031
                ],
                [
                    0.9724030956281507
                ],
                [
                    0.47377839475655176
                ],
                [
                    -0.29588570387357316
                ],
                [
                    0.8525742317346587
                ],
                [
                    -0.5784001292635865
                ],
                [
                    -0.8512590483512955
                ],
                [
                    1.5550869887104997
                ],
                [
                    -0.007349521461296799
                ],
                [
                    1.3406104172712907
                ],
                [
                    0.6775422468909009
                ],
                [
                    0.02875251674509984
                ],
                [
                    0.22222639867011104
                ],
                [
                    1.1166220829857951
                ],
                [
                    0.141153849833465
                ]
            ],
            "type": "Dense",
            "weights": [
                [
                    0.7241541529018601,
                    -1.0544488817051523,
                    0.534064522875278,
                    0.862505168024121,
                    -1.1545975194909945,
                    1.4129370334545406,
                    0.13968910045582159,
                    -1.7515129918292935,
                    0.11124414817246993,
                    0.06864964225231888,
                    0.728774094671646,
                    -0.42056341194231167,
                    0.643152534498584,
                    -0.06515128348654727,
                    1.045485847446466,
                    -0.3380868533992637,
                    1.700138696975474,
                    1.0010301116651825,
                    1.5512491575479805,
                    -0.6438041061085482,
                    -1.8205626289705938,
                    0.5735454438648527,
                    -1.1261297923404812,
                    -2.105982837900795,
                    0.013811910805000018,
                    1.3207728175071183,
                    -0.8796297418959567,
                    0.8728442878810972,
                    -0.5044632668266097,
                    0.40182373333251803,
                    0.21360484939795998,
                    0.3627359739879406,
                    0.10698088480794173,
                    1.090360265137736,
                    -1.1387372906054256,
                    -0.2097110471797452,
                    0.710085725729979,
                    -0.15287038702074154,
                    1.2112595911576571,
                    -1.1627158119288956,
                    -1.9457055416075564,
                    -1.7016870312621983,
                    1.8055349032770347,
                    0.644234576815897,
                    0.005454928981362797,
                    -1.5805678405251113,
                    -1.812689881879691,
                    0.025379373208766334,
                    -0.043126564740067354,
                    0.2285618068449823,
                    0.6167367717725086,
                    0.14801325886937644,
                    -1.444456384637881,
                    -0.8983221038312594,
                    0.3539629554382303,
                    -2.487409252251605,
                    -0.8875321731842379,
                    -0.09504759598710351,
                    -0.7287469939820064,
                    -0.3273953055241844,
                    0.04188220851317347,
                    1.3116951461589963,
                    0.7501697254860638,
                    -0.5391138031166929,
                    -0.5730746508766921,
                    1.2385537175031467,
                    -0.0563491400117781,
                    0.6368503764051202,
                    0.6822116644417834,
                    -0.9023015838043489,
                    2.2490723578874032,
                    -0.5668778375666889,
                    0.7690083933184667,
                    -0.26743820351662007,
                    0.7731362267184304,
                    0.12155571297724786,
                    -0.9055043272929134,
                    0.47632043164950616,
                    -1.37201016469138,
                    -0.4731839870893888,
                    -0.16784387768961198,
                    -0.02128788161900497,
                    0.3562078230438741,
                    1.1407676124099615,
                    -0.042094161861734404,
                    -1.0601190190754035,
                    -0.5377434351350682,
                    -0.25308873843877794,
                    0.9311180458197524,
                    0.7170589259053318,
                    1.775334668981603,
                    -0.32251352111485415,
                    -0.008097542772768166,
                    -1.453724268900504,
                    0.1470690270572548,
                    0.5740967809354341,
                    -0.807016230097569,
                    -1.841803642681547,
                    0.7107177421976105,
                    -0.566248767538803,
                    0.6592908420322393,
                    -0.9507931946310697,
                    0.7450017637122403,
                    -0.9390584193161067,
                    -0.14554923129900363,
                    -0.41263232438624253,
                    0.21945624644981324,
                    0.4925349682416155,
                    0.385822911328154,
                    0.02833930396087635,
                    0.7157149910453778,
                    0.5267945429440902,
                    0.14713478912179742,
                    1.3425359834658281,
                    -0.9657910363099478,
                    -1.702721512064037,
                    -0.17539973397795303,
                    -0.653951629320344,
                    -1.6468700793053597,
                    -0.024620838023443527,
                    -1.723409169755799,
                    -1.2274488335950968,
                    -0.0127153519697115,
                    -1.0450702194342552,
                    -0.4173705353889908,
                    -1.0939824495127515,
                    0.06744310192121931,
                    0.1677242723146891,
                    0.0473637368353119,
                    -1.2198248128943925,
                    -1.2534265531658144,
                    -0.34521368597487073,
                    0.3744315045256535,
                    0.7163396532482459,
                    -0.3244826534134945,
                    -2.2904895829313876,
                    -1.340070274953975,
                    0.9662720176494046,
                    -0.47907146073087203,
                    0.21845572378883904,
                    -1.796671536804607,
                    -0.10126946317536757,
                    -0.24829970793411849,
                    0.0637257686472952,
                    -2.253645042292673,
                    -0.033380693699988986,
                    -1.6207220187161944,
                    -1.6838729769267209,
                    -0.864630602478098,
                    0.6806025492375373,
                    1.8207901972015232,
                    0.870367949202314,
                    -0.6611427704396544,
                    0.42865900372983595,
                    -0.5953930268542091,
                    -1.0263178831754347,
                    -1.2145725739632434,
                    -0.6398348907860866,
                    0.10092298767535914,
                    -0.4577845900911365,
                    -0.19269365770811533,
                    0.4524232125119621,
                    -0.25390372347331197,
                    -0.7863429023436525,
                    -2.026529466119208,
                    -0.9783912723634147,
                    -1.326291414789533,
                    1.910674601018329,
                    0.2483593687112519,
                    -0.21756694888796174,
                    1.9709839507945437,
                    0.8477743404835806,
                    0.5289620302275,
                    -0.47802401163786595,
                    1.5994708731701877,
                    -1.3529139996077064,
                    1.0179429107105697,
                    0.698815842321092,
                    0.9441038742401482,
                    -1.099133722234912,
                    -2.0461046845505417,
                    1.1178140654015505,
                    -1.708785540696107,
                    0.42474474434255405,
                    -0.09271162168433227,
                    -1.5017616168184016,
                    -0.12484034894386085,
                    -0.45921866853970433,
                    0.3082501248228143,
                    0.23423741289241343,
                    -0.6485319643989635,
                    -0.407623775882757,
                    0.4477838844623693,
                    0.9626430523890751,
                    -0.566990583372464,
                    0.2361999083163238,
                    2.991130270814608,
                    0.6516758172493687,
                    -1.5808642279437006,
                    -0.9767538495159616,
                    0.3643613170828108,
                    -0.4717645429136914,
                    -0.14553343390362575,
                    0.2872526317764067,
                    -0.26211227405221366,
                    -0.9018694244662893,
                    0.6273375444681822,
                    -0.6520896463591415,
                    0.64903389288897,
                    0.5895954661263739,
                    1.0119041978549392,
                    -1.8676896039545392,
                    -1.033336878666238,
                    -1.0387892470482891,
                    0.7284124940320464,
                    0.42981592386610107,
                    -0.4635616702833718,
                    -1.3369781203865998,
                    1.4280009684240835,
                    0.8635979703134012,
                    0.1954085982102043,
                    -1.3312743869880839,
                    1.0670554331444952,
                    2.2038515621888015,
                    -1.3806436744436041,
                    1.4560472411300212,
                    -1.0081769321877085,
                    -1.3475276951245108,
                    0.32865192290388745,
                    0.23427742960570047,
                    0.22746237060025581,
                    1.3431491585379296,
                    0.6506156231456901,
                    -0.8807108058871078,
                    0.11748164464043498,
                    -0.8818629651501886,
                    -0.4183502445948205,
                    0.5108833070124938,
                    0.3718301670555186,
                    0.622659042189754,
                    -0.7617014068757691,
                    -1.1124211062809943,
                    0.7381599821124794,
                    0.5671905598351153,
                    -1.6814973730923308,
                    -0.00046184151557436293,
                    -0.8393905226941364,
                    -0.12385077788226363,
                    -0.907023222958457,
                    -0.2790442671485012,
                    -0.535062013564508,
                    -0.578450335487633,
                    -0.13011436003611054,
                    -0.258873715665976,
                    0.8925311445006862,
                    1.1038190453796475,
                    -1.2432656929377173,
                    0.8418832654983591,
                    1.203406934370605,
                    0.5479476557717848,
                    -0.18221246566855803,
                    -0.8924932026261925,
                    1.253416535084262,
                    0.1010836911599423,
                    -1.0201231474484465,
                    -0.09567867417813251,
                    -0.42426343764298413,
                    -0.455703996718649,
                    -1.9991163777933585,
                    0.3682586615022971,
                    -1.335154601540736,
                    -0.8096562050132988,
                    1.1781115496694736,
                    0.9813540226187754,
                    -1.2247901285229392,
                    0.5704309428186839,
                    0.693507939826877,
                    -0.6176207266037228,
                    -2.2607078704281154,
                    -0.17565917716446827,
                    -2.6695223419825873,
                    0.8736695832407785,
                    0.6589760286605745,
                    -1.0909275171673647,
                    -1.6521351289638169,
                    -0.41251476458678954,
                    0.32003581966188516,
                    -0.5098548131677914,
                    -2.2823318816116185,
                    -0.8220183981776962,
                    -0.79268042472528,
                    0.6889532977599112,
                    0.8327658108789717,
                    -1.0136365515172023,
                    -1.1201904680776973,
                    -0.5911411072287306,
                    -1.1123918263146177,
                    -1.2676468710105837,
                    -2.6736719389874235,
                    -0.6084022098776697,
                    1.2280177697474182,
                    -1.8340872591730255,
                    0.9197328103269453,
                    -0.6687681120300031,
                    -1.9781079758060982,
                    -0.013802983478861873,
                    -0.5471237254500658,
                    0.7888684106939733,
                    1.3672610777224743,
                    1.7606625185783935,
                    0.10215282452657823,
                    0.0632750848991123,
                    -1.4758365132044815,
                    0.6311553399347359,
                    -1.8245334301279084,
                    0.3439481183520959,
                    -0.4342815493422008,
                    -0.48463897098035585,
                    0.5348024864557203,
                    -1.193338632153725,
                    0.09029909380870461,
                    -0.17629374079173163,
                    1.5376132984501814,
                    -0.566386090435788,
                    0.7562026141810879,
                    -0.05699806125056142,
                    -1.1914629526576046,
                    1.109527925448269,
                    0.7262437915752736,
                    0.03982196868261261,
                    -1.8592521846602128,
                    -0.22588823590660445,
                    -0.28526907073488694,
                    2.3655349593519484,
                    0.7435142874978498,
                    -0.8790444987063152,
                    1.2751010200615633,
                    2.2154703197776247,
                    -0.28711830674620903,
                    0.9790201960683382,
                    -0.8376769440734628,
                    -0.008179656604648769,
                    0.3391851558318222,
                    0.5401079094358101,
                    -1.4072917282179238,
                    -0.6595781156882711,
                    -0.2342899093068024,
                    -0.5919603056697536,
                    -0.020385419093295273,
                    1.3032758578186725,
                    1.7261704765454888,
                    1.172846827548674,
                    -0.786977328876529,
                    -0.3037834750908472,
                    0.035088851418453124,
                    -0.22472678141009667,
                    1.6735235702353353,
                    0.41912332120017454,
                    0.4556649099699606,
                    0.6142652016058974,
                    0.14891794765853034,
                    0.9028207264889728,
                    -0.20084954124951226,
                    -0.5389510763448195,
                    1.3723794259036017,
                    -1.6442191482054256,
                    0.011328270708171108,
                    0.35058882022067667,
                    0.21714441467531165,
                    0.5166816065363483,
                    -0.5062015605125474,
                    0.09423448712146065,
                    -1.1486457714709382,
                    -0.7989756817557898,
                    -0.4068865393988795,
                    0.044722266190603266,
                    1.1599996266165382,
                    1.0041271936589977,
                    -0.024434265919836884,
                    -0.9095552262339823,
                    1.6715522247475754,
                    -0.8646458969195089,
                    -1.9136983145979072,
                    -1.346448225579548,
                    0.7754313503028885,
                    1.460015840731326,
                    -1.5512504054248701,
                    0.8964076954604113,
                    -1.5612003310391485,
                    0.5619911643608817,
                    -0.826726926920437,
                    -0.697570103243451,
                    -0.2508922542888658,
                    0.23529308841846958,
                    -0.56161282329137,
                    -1.4320786443891098,
                    0.39000899581620946,
                    -0.7007954889826498,
                    0.7344205375843567,
                    0.6445087869969437,
                    -0.8958283336828665,
                    -0.23993475833436975,
                    -0.040273525586326936,
                    0.6943573975211876,
                    0.43005453365144075,
                    -0.6000540105600892,
                    -0.6704079724607899,
                    -1.735648377376063,
                    0.42561199371554015,
                    0.5535852611673642,
                    -0.010127294867726771,
                    -0.7477121804436876,
                    0.9301081610646147,
                    0.675431162722739,
                    -2.137570806360414,
                    1.7860001752219352,
                    -0.11650577021449512,
                    0.13800966526056785,
                    -1.0323928330584708,
                    1.1220982722657944,
                    0.1922695010749004,
                    0.5226533434624059,
                    0.07703517207138626,
                    0.7772895327284078,
                    -0.18170845368245112,
                    -0.5383526934233852,
                    -0.6603545498781256,
                    0.10416868160740034,
                    0.7383551928179043,
                    -0.07378266698181811,
                    -1.4144233491547733,
                    -1.3483378490231033,
                    -0.027787395198507356,
                    0.7086676132330575,
                    1.370950703047714,
                    -0.4773310033597847,
                    -0.9738465112180241,
                    1.1948153202821346,
                    0.7627644952140459,
                    -1.367716426985676,
                    0.7000148811265647,
                    0.6100861476952082,
                    0.2698859020461349,
                    0.09843642416355515,
                    1.5099873859874424,
                    0.786333328068642,
                    0.3854490202946466,
                    0.32882652208304747,
                    0.13194908084962373,
                    0.8618350898570992,
                    0.05434064406951095,
                    0.7069141526556608,
                    0.41737885755095616,
                    0.8235035776158356,
                    -0.12094041913193197,
                    0.5232829971471855,
                    0.6429560454171571,
                    -1.3382017269353554,
                    -0.07291698908165453,
                    -0.5459127514514049,
                    0.5857827332480889,
                    -0.9387739931268534,
                    -2.879664364034683,
                    0.2506044881222636,
                    -0.3424911447361411,
                    0.37874498050822913,
                    0.2971311617524707,
                    0.993607709402434,
                    -0.6181799021427203,
                    0.6062736946175301,
                    -0.08098625787416498,
                    -1.6907819586050037,
                    0.6819505887304116,
                    0.22207503817194757,
                    0.7512654357167027,
                    2.1246544323613117,
                    -0.5517905943778261,
                    1.6453229094622694,
                    -0.0067953729160611515,
                    1.6347094006506249,
                    -0.5486540077287534,
                    1.6235402633028362,
                    -1.6850804843823946,
                    0.6889343363769247,
                    -0.04438544373471031,
                    -1.4395159429760631,
                    0.12203291210974654,
                    -2.0210446638355055,
                    -0.4679244904815609,
                    -0.9441333970205096,
                    0.5817914211925473,
                    1.6741579692588524,
                    0.12999596572620215,
                    -0.06882333983341649,
                    1.750723979772003,
                    1.2966119937376583,
                    -2.5722912397118884,
                    -1.1499620021681247,
                    -0.34322073432233097,
                    -0.36432542956654923,
                    -0.6707999954777617,
                    1.8428103249152028,
                    -0.5699857339702499,
                    -0.9518850621304267,
                    1.5704419380569483,
                    0.15509623011347146,
                    1.3325247250142394,
                    0.5851213670554164,
                    -1.5831499940770817,
                    0.16941349371537898,
                    1.6345352280588539,
                    1.2300079918973,
                    -0.5787832205896343,
                    -0.6034185348224758,
                    0.09912790560074591,
                    -0.02926137156430185,
                    1.2560587481567873,
                    1.0555638660066327,
                    2.289861326703632,
                    0.5516713850954634,
                    -1.0162483407196725,
                    1.026631623497678,
                    1.4090770610031231,
                    0.6321618969170437,
                    0.04404476428769728,
                    -0.9365197311854665,
                    -0.8842448767635134,
                    -2.06688032838621,
                    -0.26954346389113004,
                    1.3033911194234418,
                    1.5339770322667579,
                    0.1849592306280194,
                    -0.18925020206481732,
                    -2.3803328831484074,
                    0.4027999256290965,
                    -0.20251051327872086,
                    0.5405249429964113,
                    -1.4976767356023444,
                    -1.300820826942854,
                    -0.4044293787807499,
                    -1.0982606635717291,
                    -0.030789364600351532,
                    1.2543777125915743,
                    0.03988443107473187,
                    0.2044605917477487,
                    -0.42136351511071063,
                    -1.504832899104491,
                    -1.5218095515576826,
                    0.14759886512377915,
                    -1.2671677797690866,
                    -0.7165565158755962,
                    0.7344519634792498,
                    2.076965050854631,
                    -1.574052743224661,
                    0.8140179542362745,
                    -1.3303850754224864,
                    -0.7346542941491228,
                    1.0770303503419638,
                    -0.378310942265717,
                    -0.4912299895561317,
                    -0.3529480754614188,
                    1.6652293748755622,
                    -0.2394661808405729,
                    1.2061121587821808,
                    0.7524742822641943,
                    -0.19994000071877152,
                    2.0921223946981233,
                    -0.32385445284289954,
                    -0.5200262713290444,
                    1.0014622755684373,
                    1.3889174384507534,
                    0.24258086432178722,
                    -0.6813583928035372,
                    -1.1743204386312367,
                    0.009299780443138065,
                    -0.23426952818397448,
                    -0.2332434812276728,
                    1.1819707128391463,
                    -0.06596782041076603,
                    0.9416312723205592,
                    -0.2898546626565511,
                    1.3587656158414434,
                    -1.1785093582812902,
                    -2.2300858939207746,
                    -0.23211731547952716,
                    0.5982391873312175,
                    -0.8089561700989246,
                    -0.06822281578815077,
                    -0.7793669527405498,
                    0.41517355912624565,
                    -0.09407594871810031,
                    -0.717209001246248,
                    -0.27249596196709,
                    -0.5431002652943338,
                    0.07781200330042047,
                    -0.7697227903426579,
                    1.1443553714116947,
                    -1.258391558505174,
                    -0.2851105369966387,
                    -0.4884561200341636,
                    -0.16189684755291106,
                    -0.6804622341997892,
                    0.43578890676188575,
                    -2.390042108706663,
                    0.2156812408838373,
                    -0.9339268172449587,
                    0.7927953244502044,
                    -0.6942690295342039,
                    0.4291861852730358,
                    1.2698801279265644,
                    -0.184988339996654,
                    0.8830535998228874,
                    0.8917258471347448,
                    0.34353625703665697,
                    0.5605857170804949,
                    -0.7000759146286348,
                    -0.1889838437029102,
                    -0.08970852622640417,
                    0.38299667847876945,
                    -0.9035126925627721,
                    0.46119796409981884,
                    -1.1692129345835414,
                    1.6275411430991478,
                    -0.5763403603800437,
                    0.5377868823645722,
                    -0.990749623719056,
                    -1.0778648898156538,
                    -0.9138110040097102,
                    -0.2958899309018559,
                    -1.0102254690571015,
                    0.3468109049572026,
                    -0.36085343264589603,
                    -0.8487673943102082,
                    -0.9349350672233524,
                    -1.2158656859442054,
                    -0.1257248866128902,
                    -0.1429882086350845,
                    -1.8150136787792508,
                    -0.5289741952799302,
                    1.4834441465572674,
                    -1.5716221598298772,
                    1.748232350343517,
                    0.974611610654935,
                    0.7531168528131661,
                    -1.3270388770307089,
                    0.6489111516021746,
                    1.2865409780988282,
                    -0.9192386386675909,
                    -0.4489799869626441,
                    0.1727397049453927,
                    -0.10160442850936609,
                    -0.6836220561421872,
                    0.36797202191574424,
                    0.5926139050248651,
                    0.7060075057410345,
                    0.46619932889554555,
                    0.3120097430166183,
                    1.8093428305504997,
                    0.26786587069747614,
                    1.5055123632999472,
                    -0.2778668524789154,
                    -1.4603114031521183,
                    2.191273285823298,
                    0.3891550133465336,
                    0.887688311963877,
                    -0.6821020401699128,
                    -0.3055672810682161,
                    -0.9012257859631249,
                    0.42478334857081207,
                    -0.45984808032805613,
                    1.5283183676989056,
                    1.3304004126395201,
                    0.6182502404564186,
                    -0.048134214074963884,
                    0.38185107540009405,
                    1.1069419833936567,
                    -0.5684032207886928,
                    0.10960003437842405,
                    1.5525055887479338,
                    0.1253051971809221,
                    1.7270061184375127,
                    -0.06167307239183523,
                    -0.21270166661478263,
                    -0.6887643235690021,
                    -1.3403563950205575,
                    -1.5134861217590838,
                    -1.7072496991380541,
                    -1.0434429125015692,
                    -0.7956503543478568,
                    0.281465744261236,
                    2.6894256653724584,
                    0.592596933979235,
                    -1.8136589578575981,
                    -0.11012270230218474,
                    -0.7197559633060979,
                    -0.19088407692812143,
                    1.6801059298590382,
                    -0.9997992495013678,
                    -0.8784983043124748,
                    0.0775415219313533,
                    -0.30616666923500335,
                    0.6405097632108784,
                    1.6776032278537036,
                    0.2504345358246571,
                    -0.6495221580713895,
                    2.4772828309220185,
                    -0.9582987538884811,
                    -0.06147316600011118,
                    0.407521189839864,
                    -1.9282897408848305,
                    -0.7693876314952057,
                    1.3654007963327834,
                    -1.1212954209182224,
                    -0.7240372298344377,
                    0.8670190145474094,
                    -0.693014328686737,
                    1.0012860171572322,
                    -1.0913265376183905,
                    -1.1092845033755392,
                    -0.495926913144542,
                    -0.2919410523183209,
                    -1.5466960566494263,
                    -0.34407195991699796,
                    -1.4323573787929205,
                    -0.239340700575918,
                    1.5560899428472377,
                    0.8620476252196474,
                    0.5325854343551427,
                    0.5208415060093786,
                    0.5423611148221712,
                    1.6265538038394476,
                    -2.071702886336496,
                    1.83626020978373,
                    -0.44762590499373234,
                    0.7193749944249597,
                    -0.2003054982958882,
                    0.6616620512767387,
                    -0.929010880315033,
                    -0.8933929270051735,
                    0.3547477961224183,
                    -0.4557753893281587,
                    -1.4761011235943142,
                    -0.7320022999622835,
                    1.6972380657723862,
                    0.029618353837079104,
                    0.43528917717758864,
                    0.9713605193237127,
                    -1.6922568870287833,
                    -0.31184803380110726,
                    0.33580432624117573,
                    0.13951441380988966,
                    -0.7328530338669018,
                    0.40926093941265856,
                    -0.06994043575687248,
                    -1.837253585271766,
                    0.820533586379208,
                    -0.3192884784140278,
                    1.433517835050471,
                    0.691207588083071,
                    0.3049491366977015,
                    -1.3099247767272455,
                    0.6281585856661839,
                    -1.7278661225135106,
                    0.4029351793568248,
                    -0.1068682129757319,
                    -0.5517534709543864,
                    1.4641423866753827,
                    -0.0917271152871651,
                    1.2979076298469672,
                    0.9434140765899691,
                    -0.8529748206453479,
                    1.5764100264356773,
                    0.8542528856660274,
                    0.3393756429313968,
                    0.7602556853266085,
                    -0.635672489803457,
                    1.0226423661153121,
                    -0.3626317170394996,
                    2.4855364211377444,
                    -0.774971204303247,
                    -1.246136270745349,
                    -0.5286521626043419,
                    -1.0375470425402098,
                    -0.08850009202725832
                ],
                [
                    -0.9071629238101092,
                    0.04355678126391047,
                    1.7260034281926175,
                    1.9698722160678337,
                    -0.41233552480340985,
                    1.1998862372296417,
                    0.12810916282255216,
                    -0.9499524831527191,
                    -0.07568405147392816,
                    0.3120042314813296,
                    1.0066545386404437,
                    1.9603509239135788,
                    0.005427809472437361,
                    -1.0978907542008467,
                    -0.44577468711864715,
                    0.6717283271985078,
                    -0.7094105048016089,
                    1.5476246187241143,
                    0.11429283507791325,
                    0.08678530315024052,
                    0.3558499117433463,
                    -0.9010589635849037,
                    -0.6783570477333183,
                    -0.5464225625088776,
                    0.40411312485944795,
                    0.9872057120444143,
                    0.2353927362546246,
                    -0.09964818129109762,
                    -0.23553744198977122,
                    1.160669713980956,
                    -1.316820400293259,
                    0.3790736736313221,
                    -0.0734687222226459,
                    -1.003537594273408,
                    -1.0587602140043608,
                    -0.6319174490273392,
                    0.17871130913012429,
                    -0.3910074824748207,
                    -0.09934860406187435,
                    -0.42036461605582787,
                    0.3814473825195884,
                    0.03757082365063937,
                    -0.19434324770304306,
                    -1.1247125702440215,
                    -0.9584833852975486,
                    0.8955362170230594,
                    0.6655528889384766,
                    -0.6896507863139346,
                    1.8589331408715173,
                    0.27219738343862365,
                    0.1871353820934167,
                    0.6458825944627008,
                    1.061471465164437,
                    0.02919185353796618,
                    -0.0240602652261706,
                    1.233461525876224,
                    -0.8114473583609386,
                    -0.4248493908309518,
                    -0.5786928174934297,
                    -0.7345663914387601,
                    -0.44598686304393026,
                    -2.3218024924305363,
                    -0.3177611244738652,
                    0.4902250594965455,
                    -1.2695794335855028,
                    -1.954301957089736,
                    -0.8780049991521569,
                    -2.0868036453021825,
                    -1.204008549093029,
                    0.22091162645131404,
                    1.072511059224066,
                    1.4623593253564287,
                    -1.2220045878394736,
                    0.008066883857387004,
                    1.9125463395800273,
                    -1.0405610131353573,
                    -0.6738388734525297,
                    0.3692898282874654,
                    -0.5428648423122207,
                    -0.3170108951078509,
                    -1.1453322199266724,
                    0.40873539239825984,
                    -1.7685308253542869,
                    0.6746972422147348,
                    2.906885713439475,
                    -0.4158408565652358,
                    -0.7486146638412169,
                    -0.7135712598682877,
                    0.08805131516611166,
                    0.47942633143205937,
                    1.3358583902893102,
                    0.8477165619015151,
                    -2.7270054637087546,
                    1.43838449049319,
                    0.9850928394121471,
                    0.35346636004075904,
                    -0.0909064094973183,
                    1.601694346083184,
                    -0.250572585155551,
                    -1.1405513254659185,
                    1.8170984617952277,
                    0.2793197254869599,
                    0.8374508563498909,
                    -0.9245412575355006,
                    -1.487316416053598,
                    1.3567206843415676,
                    -1.1464179351294739,
                    -0.8038908372513821,
                    0.49317102601718954,
                    -2.7385914044562703,
                    0.4001183710784138,
                    2.3604451872677554,
                    1.454239142370509,
                    1.2344981600507585,
                    0.6305223487603867,
                    2.132440058682732,
                    1.2092713024217183,
                    0.8387373361602448,
                    0.10643542504951399,
                    -0.28108609239203197,
                    1.552673913878281,
                    0.033540350533588476,
                    -0.31812536368617184,
                    0.22988581120273574,
                    0.08301392827082142,
                    1.879165470647392,
                    -0.4789401485909104,
                    0.46700710848885046,
                    1.0664830725433547,
                    0.16217623828899702,
                    1.4384163446450786,
                    -0.8204419476446405,
                    0.5715035851302341,
                    0.24743678444348322,
                    -0.7289462576383975,
                    -0.4964499815435892,
                    1.2615230836935887,
                    0.03196581560443926,
                    0.8191242277600814,
                    -0.24428994132145257,
                    -0.5292938173401971,
                    1.011990782975705,
                    -1.7334355481363912,
                    -0.3236333049435246,
                    1.2133955890321095,
                    0.30337312895394847,
                    0.1480919037760851,
                    -0.9343322627605283,
                    -1.333608588090275,
                    0.005176311786749795,
                    -0.46154419620292414,
                    -0.713262956014145,
                    0.3515780031727253,
                    -0.28988326989468743,
                    -0.19732453933348956,
                    0.35229738137182814,
                    0.1015467438798862,
                    1.6197892121018915,
                    -0.6495833130519545,
                    1.510146553266941,
                    -0.04275677535936365,
                    -0.05974822120346845,
                    -0.03073955894901928,
                    0.23816624842149836,
                    1.417545481382393,
                    -1.270539450818834,
                    -0.3997440062793554,
                    0.5011406007522737,
                    1.1980598104626974,
                    -0.571282458266232,
                    0.08582955573990024,
                    -1.8899222300025127,
                    -1.1591513947394754,
                    0.42434981477803274,
                    -0.4224349708844752,
                    -0.412794372883631,
                    -1.607144490603766,
                    1.012766648173803,
                    1.6184503971202588,
                    0.3877466942526942,
                    -0.9769001517249237,
                    -0.12843574195648833,
                    -1.5379190024637515,
                    -0.40026602810247475,
                    -1.9317796640353428,
                    -0.19392503358969782,
                    -0.09342759836706001,
                    -0.2871984179556645,
                    1.2202234218489199,
                    0.42810706934273857,
                    0.6100572535821972,
                    0.19442505244936098,
                    0.6210468667785035,
                    0.04238841493554801,
                    2.1987175811727884,
                    -0.02150776048306797,
                    -0.7768043018678407,
                    -0.3227551018906005,
                    1.7987610091959552,
                    0.10141162786632892,
                    1.3881719808883493,
                    1.1482927912410414,
                    -1.8421824070327946,
                    1.1456561154125493,
                    0.25335062273856174,
                    -0.3476477620030362,
                    -1.2486330681222522,
                    0.4859108533647443,
                    -1.0672027862412963,
                    0.41061018365247043,
                    -0.1091860728699916,
                    -2.6367061846258752,
                    1.649450216385151,
                    1.6079512599421726,
                    -0.1473256151814306,
                    0.24347661118348993,
                    -0.7015313696518345,
                    0.34303189365865333,
                    -0.31410430048041843,
                    -0.9762601739958986,
                    -0.5736828774102783,
                    0.3630334728054663,
                    -1.2159143787244748,
                    0.19695131602512325,
                    0.42601484202471784,
                    -0.0031003146250552626,
                    1.0967885349162811,
                    -1.0222591170746531,
                    1.493950275569063,
                    0.346083371949393,
                    0.38902125276348876,
                    1.5629904152461884,
                    -0.4597915786802784,
                    -0.9749534041413327,
                    -0.0046386836681192156,
                    0.2783657966032396,
                    -1.0841333541277984,
                    -0.7158823989048019,
                    0.06759592523027219,
                    -0.004390420035907181,
                    -0.042997226659575026,
                    -1.8584562556985544,
                    -0.027755602917371818,
                    -1.9932770959663388,
                    0.03463682531792569,
                    1.062105097152959,
                    0.1893607369314727,
                    -1.057378469990339,
                    0.8446345617044965,
                    -0.7075766543222933,
                    1.5637359864008413,
                    1.6819055569046995,
                    -1.878767776771946,
                    1.5739957035506262,
                    -1.0620164927322162,
                    0.41694532458006406,
                    -0.6699851708929729,
                    1.097189795620926,
                    0.8249374223131333,
                    0.33795391065511904,
                    -0.696779069777125,
                    1.8032721969560348,
                    -0.4026154763552534,
                    1.1122962989206984,
                    0.5720202095372443,
                    -0.8414680997156572,
                    -0.836942174815527,
                    0.19472070773303304,
                    -0.656833004624574,
                    1.1325587562108508,
                    -1.3634862566078576,
                    -0.8077867080496348,
                    0.1554926303063565,
                    1.9975760583592652,
                    -0.26470748722962484,
                    0.31934287074023143,
                    0.08290349501069963,
                    0.2752976701385305,
                    -1.1435761396074835,
                    -1.3595894242902278,
                    -1.4840615013929017,
                    1.3978370598508423,
                    1.4210251670212002,
                    -0.1762456547808502,
                    -0.6649993700882431,
                    -0.43666949419238965,
                    -0.7970045774786,
                    0.7996191386458396,
                    0.46429455570423417,
                    -0.536160083370926,
                    1.3285262974502254,
                    -0.5923857145116529,
                    -0.5830290627169039,
                    -0.05998969304729542,
                    1.1221574127749416,
                    0.17776974575785584,
                    -0.5867492468856482,
                    -0.8585503429163205,
                    -1.4929050259486463,
                    0.2669692408376223,
                    -0.18811975539530446,
                    -0.3142733243762933,
                    -0.12360459461400888,
                    -0.3506551558945685,
                    1.7617521395107139,
                    0.5095341861695915,
                    -1.3222969661427217,
                    0.3531329988900495,
                    -1.7267070656852304,
                    0.31735725457289454,
                    -2.1380298979377814,
                    0.20564395531350962,
                    -1.9322762135292015,
                    0.5360481956788278,
                    0.037110662092956964,
                    0.6692266993722791,
                    0.9488266781822089,
                    -0.20890930243027192,
                    -0.34579725838874875,
                    -0.6973979640717588,
                    -1.361914773925852,
                    0.369055317225974,
                    -1.0217353764932215,
                    -1.1542662617536361,
                    0.16257754848985492,
                    0.7933756824265059,
                    0.02943672848837676,
                    -0.7090981823544844,
                    0.27533663486077065,
                    -1.2324524822951168,
                    0.7178857592529757,
                    0.6532255009731223,
                    -1.947477684866381,
                    0.3378352109223736,
                    1.098595267929853,
                    -0.06375374968139656,
                    -0.7640579167053991,
                    1.1146022146550418,
                    -0.522355886924126,
                    -0.8202283905506658,
                    0.039075750987052495,
                    -0.7473804222355902,
                    0.35333830635616154,
                    1.7575508039950247,
                    -0.26719455158158284,
                    -0.03014387930624821,
                    -0.1769314160600181,
                    0.967004815911122,
                    0.4873612940713399,
                    -0.976705837963725,
                    0.7196176315887044,
                    -0.20839490276983702,
                    -0.25812139700327,
                    0.8393508326195455,
                    -0.5423356895303335,
                    0.5083099486000374,
                    0.5276533875329569,
                    1.2874075079733014,
                    0.8528824631531731,
                    1.5373845843087677,
                    0.6621676006521582,
                    0.18218701775884644,
                    1.7418328876329299,
                    0.32550988528556835,
                    0.46322762366522435,
                    -0.4918143166463722,
                    1.7669079505798493,
                    0.09767109582476553,
                    1.2913552962502248,
                    0.564625541741186,
                    0.621042792244967,
                    -1.8191869516674883,
                    0.9191669524157068,
                    -0.02657171331496893,
                    0.7034814337595953,
                    -0.2966968914417027,
                    0.09786286371027682,
                    -0.4363903464239713,
                    -1.2553917500856868,
                    -0.5575498533331701,
                    -1.3524175507135514,
                    0.6761190156860736,
                    0.5675020293574105,
                    -0.33914963832467493,
                    1.5990847266820305,
                    -0.7445133630086275,
                    -0.19948579767715516,
                    1.4806093480741664,
                    0.13303954161741252,
                    -0.4060989338765748,
                    -0.46440847929947077,
                    -0.28647910230212886,
                    0.9242666091151363,
                    -0.2437311627850694,
                    -0.8797267004628276,
                    0.35005025387646166,
                    -0.7673389614757881,
                    0.5675505890321284,
                    -2.5012011831413195,
                    0.7681174046896269,
                    1.0944002923417036,
                    0.6228616949663186,
                    2.4620903860288714,
                    -0.28969822909210086,
                    0.314299452899445,
                    -0.8286175267443573,
                    0.4669191012929443,
                    0.03059515639620835,
                    -0.2176774390776733,
                    -1.4748410861355643,
                    -1.687966397468236,
                    0.17337677355016623,
                    -0.9216929412745875,
                    0.8305691093805198,
                    0.18804311700709145,
                    0.38601398953671534,
                    -1.082088743644367,
                    -0.9159434177515073,
                    -0.16475450297297484,
                    1.8289891102519091,
                    -0.7160524090107656,
                    1.0610065135243854,
                    0.07950211820273088,
                    -0.20069298055636384,
                    0.23869129994689453,
                    -0.5305885406326012,
                    -0.5311416203915692,
                    -0.6028807562133335,
                    -0.47021965455588155,
                    1.5115848372255645,
                    0.7793468594398861,
                    -0.6115579874266188,
                    0.5645871189741735,
                    -1.54217964786277,
                    -0.3102090813520837,
                    0.04345496278007208,
                    -0.0898220781029128,
                    0.17632693028294663,
                    -0.8071195565191274,
                    -0.6808597648010802,
                    -1.6465202778632617,
                    1.0689431147887696,
                    0.36170107474542734,
                    0.2134952136165203,
                    0.7720258620223068,
                    2.256562643242296,
                    -2.7615212457882463,
                    -0.19128131510401655,
                    -0.09965446201958951,
                    -0.04259644367358161,
                    -0.7559442376816088,
                    2.7110551767257545,
                    -2.3646741276192795,
                    0.3172369879854525,
                    1.8269720580850162,
                    0.02295645622310541,
                    -0.3338665354214618,
                    -0.5048049936106884,
                    -0.9712287307027898,
                    -0.9591262029095139,
                    -2.4880236915673195,
                    -0.008045907569221753,
                    0.5636054664473718,
                    0.033345351109018886,
                    -0.5597943929778731,
                    -0.4292747065729113,
                    -0.23420888886097124,
                    -0.9746443984829047,
                    -0.12288053010037304,
                    -0.08295539777687831,
                    -0.5187793598991179,
                    -0.5085947884481103,
                    0.6187946892662382,
                    -0.853628658958966,
                    -0.4286556172593862,
                    -1.6908515579709946,
                    -0.2327582561117625,
                    -0.010595617749811468,
                    -1.346785711310519,
                    0.18460859091018453,
                    -1.2196126098665208,
                    0.9228396225023898,
                    0.7259718549490238,
                    1.0120007632976227,
                    -0.26388705814623775,
                    1.0794288496474362,
                    -1.1443305284056684,
                    -0.11910941454087094,
                    -0.2853457541280868,
                    -1.8463403882877025,
                    -1.1433817229687342,
                    -1.0080249290791676,
                    -1.2846639409393474,
                    0.36578462437627474,
                    -1.1639647077891284,
                    0.7777237267800113,
                    0.4165715627756962,
                    -0.33312765424196095,
                    -0.3654444016935537,
                    -1.378158498986196,
                    -0.33318081355852386,
                    0.15666257758510915,
                    -0.43041114237681966,
                    -1.236031735220662,
                    -1.666310190175522,
                    -1.2884700999690553,
                    -0.9676144317465487,
                    -1.3698877531650107,
                    -0.4501478101820751,
                    0.10851570986483948,
                    -0.9404164249655667,
                    -0.10939449324215585,
                    0.11798546275516586,
                    -1.6203231207538114,
                    0.14225236803419064,
                    -1.2204705455624796,
                    0.3067183795230458,
                    0.2348571549379131,
                    0.2884888051399786,
                    -0.4492213986249337,
                    0.6234616206591003,
                    0.7203580314132867,
                    0.7897337683140688,
                    -1.8276966839709339,
                    -0.2789063728289033,
                    -0.6820983881157664,
                    0.6210161244440653,
                    1.6097677212960873,
                    1.2181440144274474,
                    0.959955744831528,
                    -0.1947157946192022,
                    1.0451621638157191,
                    -1.1190898289496487,
                    -0.2240802257756252,
                    -0.20079330360668948,
                    0.6957873569553765,
                    -0.33819297773378154,
                    0.7919664799647337,
                    -0.5584822843926067,
                    -0.7798204992899173,
                    0.04255902567799713,
                    -0.7552996871666935,
                    -2.8453397239592126,
                    -0.6652420885827455,
                    -1.1880402938899908,
                    -1.4111045155434565,
                    0.8598120494559305,
                    -1.4298649071615228,
                    0.07289063020937667,
                    -1.1055920301557494,
                    -0.5860473566626815,
                    -1.7912914948455723,
                    -0.8913383257059252,
                    0.5911059263744912,
                    0.706765143701412,
                    -0.21506395146504612,
                    0.8913817120500981,
                    -0.24299725306386893,
                    0.08707552124953011,
                    -0.12794895859064567,
                    -0.4950048239719283,
                    -0.9379724251763342,
                    0.09729544314654416,
                    -1.159801029723866,
                    0.6263679462343807,
                    -0.5435901367700219,
                    -2.1419664974695563,
                    0.04593119031949404,
                    -1.2391133684030124,
                    -0.9531501052922473,
                    0.7656116574796145,
                    -0.29180809696063836,
                    -0.43372401824165085,
                    -0.2281517004256772,
                    -0.11574886049509019,
                    -0.8897999976398827,
                    0.6887474129658644,
                    -0.4772558493534858,
                    -2.1619714726858583,
                    -0.9194698413708537,
                    -0.739753493645062,
                    -1.852037617639339,
                    1.7333716522903446,
                    -1.2748071021326783,
                    0.3752334229909376,
                    0.7828720347972412,
                    1.986114773733265,
                    1.0011544782763522,
                    1.5163827283659426,
                    0.19694979367048202,
                    2.0113901000269774,
                    -1.2000503145003865,
                    -1.1824688202587,
                    -0.47300837910662663,
                    1.5005986445078057,
                    1.398618659636024,
                    -0.14707547496382753,
                    -0.3970450802454141,
                    0.6067511699704706,
                    -0.13109055578928425,
                    0.7148830327381397,
                    -1.965029377413342,
                    1.4380308089498675,
                    0.06429037066168193,
                    0.1576287856164603,
                    1.1244594134442765,
                    0.15506343307334497,
                    -0.3539446476938196,
                    -0.786966784241732,
                    1.0239099195177264,
                    -1.7830450759471779,
                    -0.8134243438901467,
                    0.34209656508613256,
                    0.11455102235380829,
                    0.9486499618354316,
                    -0.12736453567834513,
                    -0.532294529436413,
                    0.5437142690435327,
                    -1.8263585663474786,
                    -0.7050456974799221,
                    0.5685048762091854,
                    0.6143956725447659,
                    -1.7822175736027983,
                    -1.4072708010518282,
                    0.20739030386464738,
                    -1.315410797386398,
                    0.5309242605402295,
                    -0.4751285246534326,
                    -0.25818056096868264,
                    0.4493397009016421,
                    -1.362241311667305,
                    -1.535443307928755,
                    -1.237731638238556,
                    1.4381089286019222,
                    -1.5165710421929157,
                    -1.186468618013565,
                    0.2634052809561007,
                    0.8827900756037294,
                    -0.16540737985479542,
                    -1.958914043028445,
                    0.864432363722612,
                    0.46913893129062467,
                    1.6760867512578548,
                    -0.3903972748229094,
                    -0.6856423758887158,
                    0.1871176278091354,
                    1.217347647287982,
                    -0.5372988333251589,
                    -0.5779094302376289,
                    0.4681936018119532,
                    1.88742159182127,
                    -0.23159321443707032,
                    0.3308833909839422,
                    -1.80218825590776,
                    -0.5479623916373615,
                    0.4730138044064836,
                    -0.917167537352027,
                    0.354094626572237,
                    0.7654331150623028,
                    1.2058326138728097,
                    1.3506107080295935,
                    -1.9608712020949397,
                    -1.0794686144578496,
                    -0.06418092933851957,
                    1.1861710200181967,
                    -2.078477308920275,
                    -1.0668874416353287,
                    -0.32792370981778146,
                    -0.9980521031026052,
                    -0.777240545111731,
                    0.9372564972216767,
                    -1.6119157980111896,
                    -1.2787066636130897,
                    0.48103335114090695,
                    -0.19820973152292998,
                    -0.704861072025347,
                    0.5514768248386661,
                    -0.48872220044369424,
                    -0.28668685425780205,
                    0.6736545513629643,
                    -0.3773401207864502,
                    1.5566705439632664,
                    -0.18355909669076362,
                    -2.0769255127692787,
                    -0.5045097743527047,
                    -0.10872984990896856,
                    -0.10015516578219273,
                    -1.2808350761073388,
                    0.3169213930704364,
                    -0.8187763749116153,
                    -1.1780843012210125,
                    -1.3600057214999115,
                    0.022683809040939015,
                    -2.4509442918690616,
                    0.59257974570727,
                    1.3039988659213977,
                    0.5037780618749648,
                    -0.5310813311002789,
                    -0.3405968834935104,
                    -0.5329243620048406,
                    1.0536319676218588,
                    0.9670598031114286,
                    -0.387605900821042,
                    -0.3469131427798558,
                    -0.714281915105387,
                    -1.3615526395509843,
                    0.3337564728801726,
                    1.34952031851556,
                    -0.7293905426323241,
                    -2.0148708597004656,
                    2.2541016803902987,
                    0.4423496452436644,
                    0.41691672769998867,
                    0.09600297592920591,
                    -1.2128864728913753,
                    -0.7193617022719795,
                    -0.2794850831723126,
                    0.5147631487350368,
                    0.6267204658379588,
                    -1.2474348678213523,
                    0.12779444108142887,
                    -0.12093304529148802,
                    1.4967974250234761,
                    -1.8587638180514185,
                    -0.3205094855296337,
                    0.6460170188933986,
                    0.84906745685208,
                    -1.1421671712190007,
                    1.780752494854066,
                    0.2800169487692535,
                    0.09893390000796688,
                    1.4760118652271965,
                    -0.016803411153919392,
                    -1.835835745985603,
                    0.9772128597879812,
                    0.8104299416528162,
                    0.37523333998663716,
                    -0.606303484852323,
                    -0.1268174429995703,
                    -0.18390719105399142,
                    1.251317967665396,
                    -0.5709972802358836,
                    0.033713046442802444,
                    -1.3832585979748466,
                    -1.3474110039415765,
                    -1.0829069147220172,
                    -0.08103944263149881,
                    -0.4692940344043611,
                    0.7094066156617451,
                    0.03391176070894408,
                    0.14213160874802358,
                    0.5918441489258698,
                    1.0797101846727535,
                    2.2504017318907765,
                    -0.13497191356442412,
                    -1.4690857109684374,
                    0.148711468553477,
                    -1.6803097221508512,
                    0.2951553655861674,
                    -0.014750627874263188,
                    0.917353806924093,
                    -0.7564775618178765,
                    0.8617265734538792,
                    -0.12061607987484303,
                    -0.13116333199243424,
                    1.9369220249375274,
                    -0.1460840560954724,
                    -0.7552900458639908,
                    -0.45622815635139413,
                    -0.7912595575051338,
                    0.20595934356256085,
                    -1.975513946395326,
                    -0.25377063693064067,
                    1.6000512137113267,
                    -0.8939866540313465,
                    0.20838205499897083,
                    1.2523775919637004,
                    0.3866582827017672,
                    -0.6255923423139312,
                    0.27526007545877235,
                    0.5985005477964322,
                    1.3716157805921305,
                    1.4759051570361887,
                    0.4413202598791774
                ],
                [
                    -0.3677206574515369,
                    0.9806894294522631,
                    -0.4471892253175587,
                    -0.8632992824843159,
                    0.21413842759335808,
                    -1.2634418063609172,
                    -1.4267608577542605,
                    1.1441489225849921,
                    0.05298864789902803,
                    -1.2083683675500618,
                    1.4320063364913935,
                    -1.6267345423855388,
                    -0.26951371682303277,
                    0.06905734071063636,
                    0.054420925942237464,
                    -1.1015561498579665,
                    -0.8045506391774975,
                    -1.1127766386340192,
                    2.280261851613408,
                    -1.4278954752422688,
                    0.9323023939867918,
                    0.14116742685852715,
                    -0.711521112761961,
                    1.015343000809997,
                    -0.41665631862180497,
                    0.5135346313396701,
                    1.1956915229516252,
                    -0.790112508386938,
                    -0.17017490718033615,
                    1.3760187982262442,
                    -0.9943491287190039,
                    -0.6229405648850841,
                    -0.009054968314682398,
                    1.7843556444819866,
                    -0.744649751605179,
                    1.1928245229995775,
                    -1.7316459381298328,
                    -0.3796586947438645,
                    0.13083841753211709,
                    0.2558073458144388,
                    -0.5129301796406049,
                    1.0290152256405245,
                    -1.0702411790157431,
                    -0.014185001870972845,
                    1.2450789826040918,
                    0.10798357895725398,
                    -0.9723586901833123,
                    -1.1570083525981123,
                    -1.6384435377770452,
                    0.40424684887728496,
                    1.9545361608894851,
                    0.7004705299464761,
                    -0.3645790991636527,
                    -0.1554114772963376,
                    0.41826247625996127,
                    -0.8528531974465473,
                    -0.11247072709254957,
                    0.23515513154823212,
                    -0.4238648324871054,
                    2.061470672298573,
                    -0.5657400194590982,
                    1.9869590362352323,
                    0.5191665407189415,
                    -0.47641516244690457,
                    1.448678808387413,
                    -0.8273158810137584,
                    -1.3043020107752803,
                    1.8501665973387034,
                    2.1266382216258544,
                    -2.1384072952684865,
                    2.7672679906780187,
                    0.5527228441071158,
                    -0.40851342064151763,
                    0.5401939767627745,
                    1.3108729408895077,
                    -0.17305516828658776,
                    -0.9202986472550295,
                    -1.2261105596464406,
                    0.07353647660227496,
                    0.15238833910473912,
                    -0.7790362131337809,
                    -1.2777906340125813,
                    1.414737594872365,
                    -3.290316363697887,
                    -1.8352179318001671,
                    -0.6367021044972666,
                    0.03421957651809559,
                    -1.6061016076323718,
                    -0.22117812294149797,
                    0.07141006875316411,
                    -0.8398539214788676,
                    -0.2774957005387246,
                    -1.3197929838924867,
                    0.07836781266206211,
                    1.206555684604553,
                    -0.5201255167102086,
                    0.9461547869033659,
                    -0.12476626685252452,
                    0.03768972189566326,
                    -1.3684992532096578,
                    1.5496782239318099,
                    0.2856733387676486,
                    -0.17030762240412672,
                    -0.8737743988209059,
                    0.00877768943337512,
                    -1.2747523630501079,
                    0.7637647655583305,
                    -0.7567825503319354,
                    1.628628005412989,
                    0.5944868361854664,
                    1.051819727357077,
                    -1.009094862553249,
                    0.8458678591096921,
                    -0.42027992952569604,
                    0.3119441271311712,
                    1.057269844378117,
                    0.9398234369838169,
                    -0.3878859597024842,
                    -0.019731113815533673,
                    0.1253198950283093,
                    -0.3393852938839807,
                    -0.5714812094246768,
                    -0.25077349442231583,
                    0.18736824054150095,
                    -0.7372860593601342,
                    -1.552638315067957,
                    -0.49549022497299855,
                    -0.9175461565748702,
                    1.1260058187073778,
                    0.9359884273753466,
                    0.11398433527131827,
                    -0.2259511512803262,
                    1.574731344875433,
                    -0.725234158850089,
                    -1.0745168346274172,
                    0.8207574299425477,
                    0.35234618460542066,
                    -0.2712638997188816,
                    -0.020005499172151334,
                    1.0305421869625713,
                    1.0949332711223978,
                    0.5594629903083282,
                    0.35211027367353953,
                    0.1617530373914395,
                    1.654693206659526,
                    0.900139395723369,
                    0.38183034859628695,
                    -1.9002778072029014,
                    -0.9508481992519621,
                    -0.7998415239907258,
                    1.055037235621835,
                    -1.0401985951856374,
                    -0.23943672713656688,
                    -0.9681297927450977,
                    -0.20197327101442825,
                    -0.04160034290401659,
                    -0.14161418042210022,
                    -0.24711647977928938,
                    0.4524220721389075,
                    -2.311448476050809,
                    -2.073352370990722,
                    0.0011273991210227598,
                    0.86260852523576,
                    -0.20044693390165208,
                    -0.07351199129353057,
                    1.7341977351592779,
                    -1.5482666418076745,
                    -1.6812836109959592,
                    -0.29257406976484324,
                    -0.761337138930351,
                    -1.808452529374832,
                    1.581148218121537,
                    -1.3992001760604884,
                    0.764884621016567,
                    0.790544360439291,
                    1.0993413752490644,
                    0.14298633364139876,
                    2.0488756775751464,
                    1.0348980983740697,
                    -0.19042825799344468,
                    -0.5959695378331289,
                    -0.22401695060887925,
                    -1.3439426490558215,
                    -1.3685601998762909,
                    -0.7696058637880101,
                    -0.8271135691739309,
                    -0.443944012409535,
                    0.2439777983381179,
                    -0.48442082577347595,
                    -0.10962645718917424,
                    1.4068757461395986,
                    0.4624138057243704,
                    0.5013164362546818,
                    1.5927248652783537,
                    -0.052037040383694444,
                    -0.3861860782897571,
                    0.1342176614925158,
                    -0.3031480731706804,
                    -0.7747460555221602,
                    0.5571644327032851,
                    -0.2546460205370246,
                    0.5617585201884917,
                    -0.610115511396329,
                    0.6459062458111177,
                    -1.0124356094603788,
                    -1.4400501353797595,
                    1.5228552199362109,
                    -1.7247467583261469,
                    -0.40524467468795433,
                    -1.5524654027714597,
                    -0.5353461507636071,
                    -0.692263445989723,
                    0.021897086378443467,
                    -0.011626793273859714,
                    -1.3439696016150644,
                    -1.4225589061002761,
                    0.04355515053871636,
                    0.3795815624485121,
                    0.6751535514675485,
                    1.7380223796803442,
                    0.5431086821574135,
                    -0.5675504747024825,
                    -1.038222559446563,
                    -0.4553130525175277,
                    0.4983118788827996,
                    1.0794783761011042,
                    0.9486149543161276,
                    0.2183317588211697,
                    0.3002799323804033,
                    1.9688551909949512,
                    -0.42652097239928516,
                    1.3898027208516155,
                    -0.4586337056581119,
                    -0.7189364309095307,
                    -0.9737541289337435,
                    1.8338042992937547,
                    0.020708666806612496,
                    -2.0122675434974613,
                    -0.736087570489707,
                    0.7060691715483106,
                    -0.09139204923913595,
                    -0.3064498196173234,
                    -0.0824245873829908,
                    2.214328911972283,
                    -1.1795117165421636,
                    1.1056737543781736,
                    1.5010241985451902,
                    0.32103231585602376,
                    1.417795264904022,
                    -0.223419805869538,
                    -0.09140461281397913,
                    -0.8219462232385315,
                    1.7622175242526168,
                    0.8518953934681206,
                    1.4364347696722668,
                    -1.0884551406555865,
                    0.11129993719948121,
                    -0.9777601429392224,
                    -1.0425941105415928,
                    0.2813003800872864,
                    -2.4324102196735686,
                    1.8718855559611736,
                    -0.6509042330741569,
                    -0.555035470695037,
                    -0.03648694106499266,
                    -1.8841703911920258,
                    0.6042400733918281,
                    -0.17780324009188775,
                    1.1856141657989736,
                    -1.1460192316428368,
                    0.4216287486320541,
                    0.6539987224157883,
                    -0.3281290839866325,
                    1.5738582409661324,
                    -1.6851361662206847,
                    0.036509953255618836,
                    -0.17421006561008326,
                    0.426268230990687,
                    0.24487331914684002,
                    -0.3417774043461365,
                    0.34424485565637786,
                    -1.0611737611097554,
                    0.3851970543008571,
                    0.9484051221274256,
                    0.06726013134757973,
                    0.3862095596658554,
                    -0.49906854920729243,
                    -0.7440249057703463,
                    0.3842107732227895,
                    -1.8474983870346524,
                    -1.0764711121002515,
                    -1.2946416521940114,
                    0.006266339374176193,
                    2.0589857792833457,
                    0.47381073173236576,
                    0.755685311360594,
                    -1.0069703760829911,
                    -1.3219088932857037,
                    0.7202027984139631,
                    0.08911665900806914,
                    0.22766586615085324,
                    -1.8013117617444536,
                    0.12168786110119155,
                    -0.016733527476661857,
                    -0.5127711568923748,
                    -0.8777539818182359,
                    1.324864034954085,
                    0.7986810686414383,
                    -0.7877564703395675,
                    -0.09287746614776403,
                    -1.7450605936982286,
                    -0.09077879025157352,
                    0.4509434342183189,
                    -0.08365862181167356,
                    1.4118986943281133,
                    -0.0007843654742064583,
                    -0.17659627149915402,
                    1.1989690138376792,
                    -0.9826755585809631,
                    -0.6009211852807792,
                    -0.4629446555382673,
                    -0.7666841393082982,
                    -1.3792587259089713,
                    -0.6650126590849448,
                    -0.8138225525409809,
                    -0.4389067461021965,
                    -0.11568674667160637,
                    -1.4326626987795115,
                    0.4431477511622561,
                    -0.45863274748832816,
                    1.0150443768407,
                    0.2818780758049765,
                    -0.4304971642336823,
                    1.0648235921593903,
                    0.033177133999265404,
                    -1.5716058738098966,
                    -0.14514153640488492,
                    0.6846674926451001,
                    -0.10597607556015218,
                    0.15365320904095744,
                    0.7345559190790808,
                    -0.47793641001205084,
                    0.07099845874900734,
                    -0.29349767010103484,
                    0.32433238081489596,
                    0.6555011705133085,
                    0.007342238219911259,
                    0.4422352686647132,
                    -0.19322073934032027,
                    0.26314481880847046,
                    -0.7569115716590419,
                    1.0798839701632985,
                    -1.6766014131262568,
                    -0.8240029166346491,
                    0.09424316199775279,
                    -1.7531135635326236,
                    -1.2126238567432484,
                    -1.0682259705676267,
                    0.9537995852187399,
                    0.9503588864040038,
                    0.9470717775200289,
                    -0.5921312002888597,
                    -1.0239390141937266,
                    -0.4967651321030203,
                    -2.2201497735922833,
                    0.5899257957882863,
                    1.9257987701437742,
                    -0.21688380716016678,
                    -0.038667589233315806,
                    -1.1489007123850745,
                    0.8583376278129067,
                    -0.06769253126091619,
                    -1.0311706242647174,
                    0.8143874131074545,
                    -0.5530283041703308,
                    0.9439512389602233,
                    0.4402497591895309,
                    0.544330298303187,
                    1.5127802344044694,
                    -1.0183775454024058,
                    -0.3554909455279778,
                    1.1583635775451355,
                    -0.7613655965934711,
                    0.642600811893852,
                    0.3259215674482864,
                    -2.879775569619876,
                    0.1284525172539678,
                    0.17500356300460135,
                    -0.2630725026833019,
                    0.35044155388384174,
                    0.5761996541377844,
                    0.45783717882017894,
                    0.21895652620350584,
                    1.77631242308813,
                    -1.1796049864848293,
                    -0.3616256901435644,
                    -0.456389188419666,
                    0.3258666599853883,
                    -1.5756285332797617,
                    -0.29549731247410826,
                    0.6828589503227738,
                    -0.5705132562470191,
                    0.4658513795729388,
                    0.1215208166872259,
                    -1.3655062163865286,
                    -0.5812603473603396,
                    0.4158672351341502,
                    -0.24562775848525495,
                    0.1567753122192053,
                    0.3793646345713962,
                    -0.6924412240658888,
                    -1.241114067287196,
                    0.1282810137692653,
                    0.5967392083326238,
                    -0.7286692162379289,
                    0.19438795620815064,
                    -1.5096061444911266,
                    0.13639001592821529,
                    0.6195918537100286,
                    1.4075753779243316,
                    -1.8297496096955885,
                    0.8930476238502321,
                    0.3262769861159483,
                    1.8288097798418315,
                    -0.7467966972719771,
                    0.40088387366872524,
                    -0.7293363778505113,
                    0.1012776947760973,
                    0.9280299257811251,
                    -0.9665906140112099,
                    1.1835235967583224,
                    0.24031905115023666,
                    -0.730352656018629,
                    0.6441080529114931,
                    1.6475421751397645,
                    0.41499314682546473,
                    -0.3176415389823697,
                    -0.7553074850686617,
                    0.41556777852545973,
                    1.6522477157955457,
                    -1.7047842768990888,
                    -1.5749097916850519,
                    -0.1106129920593157,
                    2.2164471827974443,
                    -0.5129237419490098,
                    1.4986271316132176,
                    -0.1181584543490636,
                    0.07003875162728199,
                    -1.106211958209163,
                    0.10632404748324518,
                    0.19095847661832496,
                    0.9349435655443376,
                    0.7363313032897817,
                    -0.21222084473910496,
                    0.9189757039055005,
                    0.2575347547591009,
                    0.2137205972104318,
                    -0.6626997096128459,
                    0.2057444032300317,
                    -0.009419423672815841,
                    -0.3665242115769731,
                    -0.7607140848966101,
                    -2.3342221192993846,
                    1.1975772566690048,
                    -1.0797445706416886,
                    0.18987437375261276,
                    -1.1912935735597574,
                    -0.07315989835818473,
                    -1.2362693041077784,
                    -2.969509334516719,
                    -0.8861322654914294,
                    -0.3185329675242574,
                    0.08944642524053237,
                    0.3915003150149413,
                    0.3768306536080245,
                    -0.5380227084786093,
                    -1.583966767819456,
                    -0.26248773463532077,
                    1.2327464054860777,
                    1.1924513392971323,
                    -0.012138205393306355,
                    0.6355941393339094,
                    0.21397293357751257,
                    -0.46393154404909237,
                    1.8902668468341393,
                    -1.807839689222179,
                    -1.0692669043182832,
                    -0.6102993339433506,
                    0.6120391744239214,
                    -1.0719701856569233,
                    0.7542599547494525,
                    0.08351955223847399,
                    -0.2302118243777642,
                    -0.6486227712556868,
                    2.03851792461951,
                    -0.32176068445498335,
                    2.3767245635469694,
                    -1.3390326946058853,
                    0.5281293525316637,
                    -1.8716977719839283,
                    -2.565885990061956,
                    -1.6819851770303593,
                    -1.4946951957511387,
                    0.4342935139209175,
                    1.5460617816909732,
                    -1.0206318614904928,
                    -0.07300874228891546,
                    0.3782315870227285,
                    0.9012892762098771,
                    -2.1538206204753014,
                    -0.34791848214344184,
                    0.7838405420676535,
                    -0.12150249637186034,
                    -1.2094903771583976,
                    -0.5285196803762808,
                    -1.2205977443797449,
                    -0.664701248712586,
                    1.2304489964586205,
                    0.7261911480019961,
                    -0.06400682034275712,
                    -1.5929472123968291,
                    -0.8577056455095934,
                    2.5422441059898233,
                    -0.48330188951267666,
                    0.6982273279329997,
                    -1.5939510672093966,
                    1.1519688411190696,
                    -0.5470734753105843,
                    0.38504645616748295,
                    0.8006941610447351,
                    -0.6425894430838479,
                    0.2340930899247484,
                    -1.642299625638005,
                    -0.7934419149199505,
                    1.1957186130485744,
                    -0.07321570834386434,
                    1.6021286431247588,
                    1.369592162328415,
                    -0.43194132097126653,
                    0.17704362657731063,
                    0.40725179604847866,
                    0.10113086441508505,
                    -0.45149894349384595,
                    -0.6980120308398321,
                    0.21896908375118207,
                    0.49228412961276535,
                    1.2048740681505765,
                    -0.28484537683545946,
                    0.8250308031971605,
                    0.1475482619084622,
                    1.5650638655444777,
                    -1.0570419940154598,
                    -0.9738680617529364,
                    2.0436191798315826,
                    1.9495764334846122,
                    -1.4618787059852667,
                    0.14722892819451816,
                    0.2641601294253126,
                    -0.434249542701966,
                    1.495239433501785,
                    1.1059844141087116,
                    -0.24539828731949198,
                    -0.19162736364356883,
                    -0.4710688064247142,
                    -0.012400696269706728,
                    -0.36258427594451825,
                    -1.176887779609715,
                    0.4511570427643158,
                    -0.5243128370356397,
                    2.05407472253153,
                    0.7075142050669756,
                    0.8438757185820388,
                    -0.31401821676957925,
                    0.7961219486955496,
                    0.9848610896372323,
                    -0.31815410592504895,
                    -0.13186008648210107,
                    -1.5348551101767076,
                    0.5848989058263265,
                    0.7946697646338128,
                    -0.5658789978799563,
                    1.7299898833974183,
                    -0.23483083160019588,
                    -0.5180844707257107,
                    0.9024362061409216,
                    0.41306142404575935,
                    -0.6001919585922164,
                    0.19473058766159562,
                    -0.5070758713460513,
                    -0.6911712933130502,
                    -0.372950159967319,
                    -2.435858833989876,
                    -0.326467816087286,
                    -0.9079660612227619,
                    -0.11224929359461598,
                    0.4132244276206453,
                    -1.383567462470939,
                    0.07646536497235167,
                    -0.7769884160973737,
                    -0.0999754421402414,
                    1.0256511143252236,
                    -1.0989163993826956,
                    2.113708983866428,
                    -0.7933121578199104,
                    -0.3530410470319883,
                    0.1546226241037215,
                    -0.21374540586872964,
                    -0.3252697429683672,
                    2.658783065229568,
                    -1.0750887530745448,
                    -0.2299382425909046,
                    -1.439002671007464,
                    0.662782394238048,
                    -0.054104941622184884,
                    1.7650986791551397,
                    -1.2420377959821682,
                    -0.30842087919949035,
                    -0.5028471644823278,
                    -0.2325316127202456,
                    -1.2424074432255807,
                    -0.38625173986040556,
                    0.5892664279755886,
                    0.14995646489235245,
                    -1.0252413278702286,
                    -0.3752293817648699,
                    0.6273280294537646,
                    0.31535490282388196,
                    -0.04974027075098918,
                    -1.193722514006923,
                    -0.7892408031162954,
                    -0.13394589940424623,
                    0.029392805923376,
                    1.2227980261945208,
                    1.0275754276327775,
                    -0.2818322681431793,
                    0.4388716833632287,
                    1.2967988102809727,
                    -0.5779055970654137,
                    -0.10308955867275302,
                    1.7597532139778718,
                    0.757288904396969,
                    -0.15688839819178052,
                    1.0686315324600622,
                    1.3679707523851734,
                    0.040222263024572526,
                    0.33564939249609244,
                    0.230518971435921,
                    -0.46140179544764975,
                    -1.5135200588913102,
                    0.2009841674067074,
                    -0.6165349755958011,
                    -1.9007953085390146,
                    0.7659125949136638,
                    2.038852676496598,
                    0.7430986777142037,
                    0.7498487389394463,
                    0.5618790757836297,
                    -0.28891323790882023,
                    1.531779407904157,
                    -0.9582308856253297,
                    -1.2334416682368554,
                    -0.5664548020657416,
                    0.055995418449136476,
                    -0.2494065196790439,
                    0.7785440526829197,
                    -2.632177192131243,
                    -0.10554847417210139,
                    -3.0641946750590656,
                    -0.45717250836151885,
                    -0.027731008628567595,
                    0.08839994684567028,
                    0.4060446079128878,
                    0.5329544722538511,
                    -0.8071869104529824,
                    0.1039425265708724,
                    0.1917279438461231,
                    0.7285868993360708,
                    -0.5395076507906845,
                    -1.7870343857133657,
                    0.8839378427909784,
                    -0.12456338038614156,
                    0.5388118803304891,
                    -1.1904210864284404,
                    -0.4398614157094368,
                    -1.5726917596640628,
                    -1.1380568852125466,
                    -1.4459854493140794,
                    -0.2629076377116775,
                    1.3747823059200623,
                    -1.1349836444635772,
                    0.6008288928805955,
                    0.2886349584969822,
                    0.11069402240915895,
                    1.1722096670538014,
                    0.7191383980610434,
                    2.0144257589304155,
                    -0.24060814222639376,
                    1.3667212298190643,
                    1.5033684640240372,
                    -0.6343323600154519,
                    1.7619161331457784,
                    -1.1363820471019137,
                    0.724114669428474,
                    0.2700177272161259,
                    -0.4903129490870047,
                    -0.1752990557120542,
                    -0.612693294073013,
                    0.9345925628014448,
                    -1.9930112610797892,
                    -0.4417295458375904,
                    -0.40723287708331163,
                    -0.29218033566235235,
                    -0.5949291815363669,
                    0.9829217884505375,
                    0.5738726869727097,
                    -0.10256331650679436,
                    0.031058287415126246,
                    0.0411858778618331,
                    0.04387322669740245,
                    0.830425852869714,
                    0.23163711346533122,
                    0.5105182453325582,
                    -1.2979456294325897,
                    0.031387873230042176,
                    -1.5586668078395156,
                    -0.5681833475532995,
                    0.4187999405247556,
                    -0.029908561520399727,
                    0.8875260270679229,
                    -0.9757991485451539,
                    -1.5313270477967331,
                    -0.1425451861380332,
                    -0.5555487391977012,
                    -0.4599975800976091,
                    -1.1631334563589089,
                    0.8947364671225867,
                    -0.35703629013319926,
                    0.7992120808408913,
                    -0.9418209867167733,
                    0.5085153208508841,
                    0.03303132986386535,
                    -1.842646614069003,
                    1.0667829481227011,
                    0.5054425900230993,
                    -0.048488390841591934,
                    0.4968560618748372,
                    1.114333991341923,
                    -2.0726055725113315,
                    1.2705604737968512,
                    0.3801793731325252,
                    -0.09805497135405619,
                    1.0564656699124357,
                    0.19048012918332408,
                    -2.1478091962140313,
                    -0.27964678094708423,
                    0.6206491338102446,
                    -1.4672849603698859,
                    -0.46813927310061093,
                    1.794338432697281,
                    0.5569214175797974,
                    0.8203517641788678,
                    -1.4446855142075892,
                    -0.728606895113739,
                    -0.3547256773225235,
                    -1.0422429041462409,
                    1.1527988334985926,
                    -1.2422490301457216,
                    -0.5390511994272404,
                    -1.0005129729708049,
                    0.8762372591414528,
                    0.15190920718834236,
                    1.797008235167294,
                    0.5190218168332043,
                    0.9636362796199212,
                    1.8430816950428623,
                    0.7407545836507774,
                    0.07365128476446381,
                    0.8393148583468347,
                    0.0702468993218656,
                    1.6549405878602688,
                    0.5969273039759432,
                    -0.6834486398812258,
                    0.1384403317590545,
                    -1.1081809664093953
                ],
                [
                    -0.023151951985923357,
                    1.096457704031147,
                    -0.21146966659539781,
                    -1.045658501544253,
                    1.9297345427401684,
                    0.1826188186348571,
                    0.6753071927256339,
                    0.023758472987403207,
                    -0.2869734385994939,
                    -0.9508768313989985,
                    0.9025168768866908,
                    -0.5373225509967416,
                    -0.9757237510001735,
                    -1.9697086733043638,
                    -1.317946897800941,
                    1.6476912774505974,
                    1.1783277476427338,
                    1.1716125155060335,
                    0.6874738039294479,
                    1.397661472492892,
                    1.1122850927211785,
                    -0.0640734020854299,
                    0.5252334801280142,
                    -0.7025930312386228,
                    -0.7588266363066901,
