{"learning_rate":0.1,"epochs":50,"layers": [{"weights":[[0.99044,-1.48141,-0.138637,0.280118,-1.22705,0.268815,-0.703258,0.428541,-1.58352,1.86277,0.676158,1.47586,-0.211186,-2.04,-2.31804,0.723824,-0.660255,0.36224,-0.641165,-0.421923,0.206097,1.32857,0.936601,0.889901,-0.820583,0.698714,0.309581,1.82776,0.452693,0.539991,0.880803,2.50637,0.636455,1.23171,1.29533,0.0820454,-1.13582,-0.486904,-1.17567,0.659872,2.56713,0.632441,0.102546,-0.902847,0.0734093,0.437224,1.86333,1.15411,-0.1942,-1.64385,-1.36608,-0.535815,0.376359,0.404438,0.0699206,0.707072,0.333465,0.506607,2.05823,-0.161453,1.02082,0.367322,1.13625,-0.371545,-1.87949,0.488738,-0.0918906,1.44205,-0.77183,-0.661144,-0.43415,-1.45754,0.696833,0.524569,2.52028,2.28941,0.848883,1.87665,-0.171675,-0.186561,0.0719101,-0.172767,0.0955669,1.07672,0.506504,-0.356768,0.058656,0.610504,1.84157,1.48842,-1.26763,-0.741372,1.17769,-0.0445128,-1.1491,-0.859954,-0.55104,1.22542,1.13828,0.159229,-0.912645,0.75466,-1.74875,-1.13912,-2.93468,0.389531,2.07598,-1.26208,0.202411,0.732547,-1.05495,0.0702219,0.71457,1.20579,0.0247298,0.741416,-0.762829,1.33667,-0.147163,1.41862,0.854794,0.695974,-1.60994,-0.402401,-0.881352,-2.04859,0.410656,-0.32455,0.556618,0.16803,-1.00943,-0.407043,-1.10802,-0.973078,-0.105835,-0.526718,1.18078,-0.244169,-1.02521,-0.802443,0.653191,-0.485039,0.671263,1.03525,0.496034,2.7512,-0.317676,-1.13796,-0.547337,0.44242,1.8883,1.74233,-0.882799,0.015149,-0.753618,1.64801,-0.0521217,-0.675953,-1.13548,0.190504,-0.366278,-1.14351,-0.430271,-0.637228,-1.83265,-0.0915604,0.46242,0.865883,-0.887825,-0.195071,-0.268449,0.252435,0.277112,1.83286,0.260923,-1.13254,-0.55655,0.258894,-0.222197,-0.146029,-0.579967,1.74082,-1.0835,0.226965,-0.24155,0.595036,-1.83001,-0.888445,-0.816571,0.345635,-0.877399,-1.0617,-0.23168,-1.73614,1.07256,1.41226,0.524637,0.68842,0.493706,1.25647,1.93442,1.98304,0.616989,0.0202237,0.577483,-1.68795,-1.47954,-1.07443,0.336114,0.362403,0.38295,0.308621,-1.44195,0.116267,1.29577,-1.37525,-1.5158,0.301209,0.473255,-1.75904,0.716403,-0.117022,-0.856138,0.802521,1.15714,-0.260049,-0.317032,0.489764,0.37989,1.0126,0.0506417,0.471308,0.394378,0.383485,-1.80981,-1.37142,0.552301,-0.664812,-1.49091,0.703268,0.373666,-0.794083,-2.49246,-1.05055,0.599416,2.40803,-0.737353,-2.1,1.96094,0.0511389,0.767572,0.508449,-0.12734,0.347839,-0.700652,0.885105,-0.706355,-0.948731,-1.08509,1.03936,-1.38053,0.44443,0.636029,0.171969,-2.23076,-0.449372,0.738511,-2.25758,0.196478,-1.3535,-0.569392,0.288898,0.152785,-0.225659,-0.086992,0.209186,-0.891894,-1.24256,-0.799528,-0.423606,0.221438,-1.12698,-1.33751,-0.245723,-0.225877,0.805322,-0.481776,0.0625695,-1.87156,-0.795009,0.290767,-0.733441,-0.122135,0.5705,0.445147,0.996496,-0.590193,-1.76092,2.92949,-0.963309,-0.754545,0.289395,1.09553,-0.774055,-2.48622,-0.899953,-0.48089,0.176367,0.131478,-0.959451,-0.195225,-1.72193,-0.0204851,-0.924029,1.09856,-2.23458,0.900853,1.94708,-1.37496,0.242212,0.148861,-1.91373,0.15926,0.0786632,-0.25804,1.24124,0.921727,2.22036,-1.66163,-1.09083,1.46811,-0.294816,-0.348673,-1.72827,-0.908586,-0.998096,-0.409894,1.3515,1.58039,1.53362,0.50321,-1.36835,0.273165,-4.34332,1.29037,-0.421015,-0.235891,-0.329372,-0.87307,-0.442273,0.118502,-0.075978,-0.833742,-0.530936,0.750718,0.562824,-0.18406,-0.0711519,-1.41791,0.464615,-0.610535,-1.01027,-0.0136519,-0.531889,1.35296,0.32589,0.77483,1.98643,0.817919,0.77332,2.59931,1.29858,-1.1145,0.17209,0.263905,-0.369518,1.03304,-0.0490457,0.537939,0.0171513,-2.07266,-0.802525,1.05497,-0.167321,-0.907864,0.840861,0.921745,0.169662,1.177,1.5054,0.976976,0.854378,-0.0174521,-0.286951,-0.355004,-1.56656,0.397832,0.356732,1.07856,-0.417082,0.180332,-0.307028,1.27233,1.12488,0.484646,-0.000766338,-0.992952,0.661658,-0.875409,-0.299901,-0.911678,-1.13619,1.65947,0.0329732,1.3675,0.588943,0.48818,-0.0676725,0.206878,1.42805,1.3634,0.611233,-0.172632,-2.07393,-0.888793,1.9229,-1.71999,-0.363353,-0.311224,-0.866254,0.0766462,-0.735226,0.790942,-0.865304,-0.567791,-1.60783,-0.71966,0.926043,-0.74137,2.15226,0.459731,1.45999,1.29782,-1.28457,-0.402388,2.16004,-1.42177,0.0500814,-0.809819,0.87491,-0.46666,1.98536,-0.996867,-0.262057,-0.136324,-0.934028,-1.03135,1.16675,0.100317,-0.790332,0.33409,0.564837,-1.74746,0.775823,0.205703,-0.311834,-0.415809,1.14629,1.59191,0.142198,0.223245,1.40819,0.522672,0.942735,-1.89425,-0.0248228,0.304107,1.20407,0.568921,0.481798,1.70732,-1.159,-0.81985,-0.317663,-0.238892,0.104743,0.13112,0.399475,-0.15393,-0.214856,-0.432547,1.00287,0.385121,-0.101287,0.0928811,1.0061,-0.743745,-1.01502,-0.177897,0.0341356,-0.796425,-0.0386391,0.891041,-0.096099,0.0178283,-2.22725,2.04455,-0.898005,1.66965,-0.299135,-0.292109,1.5655,0.604396,-0.391555,0.516164,0.21726,0.137557,0.145036,-0.588944,0.00171973,-0.0670315,0.718419,-0.992115,0.427789,1.12637,0.317085,-1.31556,0.636946,0.483421,0.0864214,-0.169461,0.31541,0.0795166,-1.58367,-0.381872,2.00514,-1.66513,0.611749,0.313766,0.16248,-0.156848,-0.102605,0.634189,1.4239,1.4613,1.72153,-2.38928,1.35222,-0.0297237,-0.750336,1.14464,0.203686,0.503164,-0.559036,1.34954,-0.254549,-0.970095,1.41975,-0.0925049,1.09799,-1.50634,-0.645213,0.944324,-0.818966,1.59481,0.386598,-1.17515,-0.402262,0.569356,-0.338002,-0.563383,-1.03707,0.825944,-0.636919,1.12446,0.75162,0.858455,-1.82941,0.811552,-1.57427,-1.41231,-2.35603,-0.254918,1.35234,-0.123691,0.0142933,0.906603,0.246479,-0.284791,0.289626,-0.570458,0.632977,-0.768175,-0.639537,1.1611,-0.189264,-1.07464,0.169256,0.808557,-0.904803,1.67382,0.676522,-0.493545,2.13564,0.0502923,-1.47498,0.000917832,0.982042,-0.900815,0.746868,0.627305,0.917191,-0.478599,0.492378,1.23503,-0.117388,-0.0919761,1.31277,-0.308574,-0.223854,-0.010624,-0.671267,0.275852,-0.297032,0.979898,-1.07067,-1.55125,-1.127,0.793988,-2.25735,-0.363526,1.24518,1.26175,0.240129,-1.30118,0.206759,-1.18733,0.492199,0.98652,-0.956574,0.0826847,-0.960845,-1.36693,0.38881,-0.14045,-0.518435,1.79746,1.35814,0.0311623,-0.749699,-1.86751,0.549406,-0.220679,0.617637,-0.751121,1.06543,1.84621,-0.543002,1.38006,-1.45071,1.2826,-0.823835,1.24902,0.00850995,0.289699,-1.17581,-0.920486,-0.290213,0.635904,-0.314498,-0.631299,-1.12637,1.32122,-1.82252,0.524099,0.180752,1.0583,-0.53718,0.665978,-0.24622,-1.89881,0.0153437,-0.532464,0.107204,1.94549,0.706983,-1.50683,-0.911904,0.538035,-2.04674,-0.32168,0.814394,0.87882,-0.453494,0.640064,0.0514503,2.04897,-0.874889,-0.938172,0.379965,0.0795883,0.801183,1.92716,0.495377,-1.01331,0.342353,-0.352597,2.06846,-0.492901,0.777942,-0.222701,1.34587,-0.641191,1.23722,-1.41673,-0.0213857,0.908229,-0.0470825,-0.659405,-0.0537227,-0.129653,0.311294,0.320482,-0.710393,-0.175271,-1.50301,0.00269067,0.460528,0.216121,0.292002,0.762104,1.07287,1.18344,-0.397483,2.00615,-0.268252,-1.50328,0.759138,1.92902,-0.927573,-1.12909,-0.994861,-0.597786,1.2336,-1.07488,0.680454,-0.0706945,0.0431831,-0.612012,-1.39637,0.572869,0.251746,-0.632941,-0.217017,-0.928946,1.14396,-1.28462,1.68303,-0.154772,-0.273309,-0.490438,0.489797,-0.506346,-1.02896,-1.00794,0.295673,-0.340121,1.04323,1.2945,-0.910184,-0.0869906,-0.422874,0.136101,0.609379,-0.595868,1.7585,-0.552036,0.873264,0.239043,-0.0294215,-0.387542,-0.0981552,0.391927,-0.0777804],[-0.620984,-0.605982,-0.179747,0.149188,-1.28527,-2.9927,-1.19524,0.166696,0.695002,0.820973,-2.32161,-0.77804,-1.28674,-0.724599,0.938627,-1.63152,-0.663679,-0.707715,0.233428,-0.0845766,0.0378537,-0.641318,1.86989,0.999736,-0.804133,-1.21826,-0.494758,-0.338335,-0.582687,-0.501076,-1.65395,0.303443,-0.0628544,0.667208,-1.53989,-0.545074,2.08184,0.574899,2.2353,-0.205703,-1.07638,-0.97318,1.37964,-1.55946,-0.777482,0.818663,0.398546,-0.858156,1.12489,-0.226056,-0.625585,-0.753028,-0.245951,0.055013,0.0145405,1.94657,0.425015,-0.383851,1.24391,0.630513,-0.612379,-0.630725,2.14841,-1.34934,-1.96658,0.676716,0.992317,-0.597178,2.16637,-0.091941,-1.72703,-0.00203274,0.492069,0.0624348,0.0308036,1.3029,-1.12234,0.366825,0.0400127,1.77159,0.0520371,-0.755823,1.89441,1.20569,1.33824,-1.35663,-0.896148,0.49334,-0.662618,0.471297,-1.98512,0.181461,-1.55617,-1.3868,0.862965,1.86171,0.232587,0.157933,-1.13783,-0.851158,-0.727561,-1.61301,1.53819,-0.295669,-0.710416,0.761006,0.918372,-0.925433,1.36437,0.0917704,-2.07877,-0.371035,3.01859,1.45345,0.276678,0.892732,0.0288085,-0.847539,1.61756,-0.194667,0.6159,-1.10066,0.440337,1.3529,0.39846,0.865166,-1.49616,1.79522,0.905355,-1.83084,-0.0899993,0.409491,1.09042,0.044647,3.6229,1.98511,-0.355327,0.687454,-0.593504,-0.860831,0.734826,-1.10768,0.376383,1.0134,1.04636,0.811298,-0.488065,1.73385,-0.759665,-0.11834,-0.235913,-0.594955,-0.573844,0.539578,-0.825591,-0.38812,-0.352048,0.611335,1.21551,-0.340983,0.409872,-1.93358,-0.606228,-0.520301,2.43948,0.36536,0.717449,0.167093,1.99917,-0.780608,-0.130475,0.288981,1.33646,0.223109,-0.641802,0.642129,0.506444,0.51858,-1.24695,-0.994181,-0.855386,1.41836,-0.694044,-0.309686,-1.15466,-2.04335,-0.546181,-1.15984,-0.147246,0.0705558,0.143152,1.66702,-1.55302,0.687741,0.710765,0.382911,0.49872,1.99515,-1.55771,0.501644,-0.211533,-1.37419,-1.82463,-0.0275203,-0.0377169,-0.136151,1.56503,1.63885,-0.766874,-1.23142,-1.96477,0.144418,-0.215818,-0.40055,-1.47123,0.24122,1.03062,1.01744,0.567842,0.488668,0.479963,-0.0928301,0.609334,-1.48073,0.45613,-0.813422,0.444578,-0.0900352,1.70203,-0.00532056,0.910864,-0.035132,-0.234485,1.14777,2.13004,0.191594,-1.34229,1.83492,1.85732,0.715346,0.527157,1.49792,0.14203,-0.923407,0.261871,-0.464581,1.41678,0.594198,-0.120323,0.190294,-0.979716,1.0047,-0.669153,-0.534064,-1.44913,-0.269025,-0.385094,-0.0941522,-0.856756,-0.831835,0.601536,-1.04459,1.98085,-0.566266,1.45309,-0.211773,-0.560384,-0.577478,0.902263,2.17103,0.923391,-0.845942,0.253924,-1.29384,-0.799002,1.30847,1.56439,-0.0335822,0.220722,-0.109238,1.40495,0.20128,-1.96798,0.511475,-1.07602,-0.168095,-0.712249,-2.39561,0.74931,0.572855,2.58623,-0.532652,-0.119343,0.500726,0.693083,1.7336,0.635884,2.15004,-0.548937,0.176533,1.84204,-0.298433,1.6943,-0.462007,0.379227,0.0510857,-1.12484,-0.49128,-0.0775513,1.17821,0.378268,-2.26167,-1.78405,-1.03131,0.473951,-0.52686,0.640084,-0.411084,1.64795,1.16339,0.489769,0.787044,-1.32182,-0.655117,0.21763,-1.36882,-2.56753,-0.137192,-1.59454,-0.155946,0.102782,-0.522617,-0.0851799,0.239736,-1.36967,0.919539,1.71183,-0.14019,-0.779936,0.65348,-1.35193,-0.535268,-0.526472,1.03643,-0.682521,-0.0494163,-0.0277481,0.120615,1.08306,-0.773893,-2.15611,-0.495467,1.12123,-0.979806,-1.03017,1.66612,-0.594516,0.115568,-1.55407,0.0908355,0.440117,-0.223969,-0.946822,-0.434778,-0.500806,-0.456984,-1.3219,-0.991788,0.521933,0.0507235,-0.681322,0.843145,0.02,0.0635423,0.168938,0.456809,-0.726866,-0.785825,0.774699,-0.369182,-0.616593,0.44644,-0.533939,-0.684844,0.292676,0.654849,0.732585,1.66804,0.214956,-0.0513829,-0.129694,-0.809546,-1.29359,-1.9632,0.34305,-1.49549,1.12858,-0.218581,-1.22752,0.325521,0.549754,-0.45251,-1.18249,0.568264,0.15376,-0.436787,-0.124925,1.10119,-1.05179,-1.47673,-0.299779,-0.682285,-0.193588,-0.102839,0.17492,-0.539469,0.237946,-0.942975,0.970495,2.02516,1.14694,-0.581153,-0.344562,0.496481,0.451289,-0.731052,-1.07485,0.0295189,-1.17038,0.342112,-0.591047,-1.03228,-0.655907,0.989375,-1.21985,-0.423913,0.155601,-0.458188,-0.111583,-0.20885,-1.30578,-0.296497,0.95989,0.749289,-0.385219,0.549079,0.0505936,-0.938781,1.09829,0.973079,2.17961,-0.682399,-1.22891,-0.0173561,-0.782775,-1.6352,1.29981,-1.27274,0.722883,-0.228448,-0.233527,-0.154072,0.173805,-1.38424,0.103156,-0.607633,0.123345,-0.421916,-1.1616,-0.202466,0.141432,0.189749,-1.54265,1.31248,1.25179,0.248592,-0.346168,0.506199,1.0965,0.105983,0.680538,-2.42885,0.357797,-1.05432,0.506138,0.284192,-1.08348,1.51291,1.59528,0.546713,-0.82089,0.101824,-1.34209,-0.538854,0.308486,0.330954,-1.08822,-0.996428,-0.248363,1.15607,0.462456,-1.19608,-1.09844,1.07835,-0.553891,1.36354,-0.0113618,-0.65021,-0.721078,-0.783404,1.42125,-0.988559,0.543253,1.11883,0.110028,-1.41884,-1.528,1.31951,0.108159,-0.50791,0.00780911,-0.798763,-0.698183,0.00791928,-0.151986,-0.586321,-1.61169,0.535409,-1.44074,-0.136131,-0.69619,0.501846,0.0915417,2.23016,0.0861319,-0.532521,2.36715,-0.499217,0.403045,-0.803323,0.496372,-0.924897,0.994627,1.04535,0.125358,0.659125,-0.692533,0.776929,1.23956,-0.68882,0.38897,1.08922,-0.314048,0.927402,-0.0581922,0.14254,1.29092,-0.228965,-0.686078,1.20625,0.0992478,-0.106849,0.38075,-0.228931,0.472776,0.0810689,-0.146108,-0.277151,-1.67413,0.155014,-0.238571,0.891038,0.847621,-1.67328,-0.366439,0.632477,0.286216,0.659838,-1.19125,-0.479334,-1.53254,0.848533,-0.015375,-1.51611,-0.720596,-0.31538,0.362932,-1.70788,-0.448845,-0.268654,-0.382334,-0.805583,0.535007,1.29555,0.726744,0.72999,-0.744229,0.573926,-1.89971,0.54826,0.939449,-1.21259,-2.48854,-0.546703,0.368768,-0.796609,-1.08268,1.23268,-2.04764,0.832069,-0.407124,-0.532655,0.400947,-1.53819,1.0591,1.45539,0.100201,-1.17364,-0.348662,-1.97964,0.944323,0.556421,0.602904,-1.03526,-1.36569,2.28537,-0.95169,0.116951,-1.66734,-0.499499,0.53476,-0.730602,-1.19447,-0.370667,1.00218,-0.217089,-0.375924,-1.91955,-0.273327,0.773408,1.51156,-0.247808,-0.523034,-0.852633,0.94101,0.244575,0.812453,1.64436,0.00996744,-1.54176,0.412919,-1.3999,1.9523,0.340542,0.484402,0.977433,0.262928,0.528659,-1.73803,-1.70398,-0.185192,0.603489,0.359584,1.74272,-0.272291,-0.169439,1.89243,0.102262,-0.89979,0.373424,-0.734708,-0.7602,-1.57884,-0.356774,0.0439045,0.380864,-1.1176,-0.00201705,0.0813925,0.722892,0.698783,0.129908,-0.318031,1.09054,-0.0831825,-0.085041,1.1732,-0.571167,-0.202295,0.530255,-0.512552,1.39082,-0.12606,-1.36007,-1.00635,0.739634,0.179433,-1.58957,2.39835,0.112647,-0.548404,-0.305827,1.13906,-1.42283,1.11926,0.0545113,-0.575541,-0.791863,-1.03286,-1.1598,1.16761,0.330213,1.45164,-0.162436,1.30273,1.06885,-0.248084,-1.1068,2.10857,0.765975,-0.191567,1.24567,1.65119,-1.30111,-0.964855,-0.663645,0.569724,-1.85948,0.21168,0.262681,0.725033,1.26229,-0.45083,-0.130021,0.477856,0.403712,2.32386,0.738734,-1.23763,-0.212548,0.484576,-0.107099,0.243988,-1.52687,-0.280321,-2.54086,-0.210529,-1.98346,0.648414,1.85458,-0.449678,2.05086,-0.628257,-0.333756,0.926733,1.87055,0.0393871,1.80658,-1.10496,0.283978,-0.979298,-0.900927,0.182507,0.261467,0.925644,-0.354927,-0.488181,2.06273,-0.175394,-2.1192,0.336959,-0.927508,-2.41712,2.24721,-0.0267947,-0.155099,0.665099,-0.090286,0.505383,0.528395,-1.8769,0.869117,-0.590145,-1.54646],[-0.461822,0.658761,-0.551719,-0.0683355,1.00828,-1.76081,0.782646,2.1549,-1.82866,-0.981919,-0.114418,0.161562,0.29769,0.888356,-0.392449,1.12202,-0.231273,-0.164698,0.750384,-1.61593,0.384852,0.518841,-0.222047,-0.602263,0.990324,-0.301645,-1.74949,-1.57224,0.312549,1.82665,-0.440454,1.1126,0.019051,0.865103,-0.486174,-1.41755,0.863364,-2.54013,-0.529979,0.743965,0.762168,-0.288116,0.765871,0.459749,1.07863,-3.35493,-1.2923,-0.282569,-0.48273,0.047598,1.80503,-1.77202,1.38776,1.30763,-0.205068,-0.510108,-0.472855,-1.04741,0.537406,0.802907,-0.84346,-0.65123,0.456543,-0.612185,0.065903,1.36147,0.496405,-0.357277,-0.208076,-0.0153375,-1.84312,-0.161991,0.215656,-0.400255,0.259702,-1.07678,-0.477591,0.727687,-0.489861,0.504218,-1.12345,-0.507057,0.0511738,0.719352,-1.92475,0.992715,-0.843602,0.951656,-0.613446,0.0524966,0.0704003,0.79183,0.008942,-0.494881,-0.932686,-0.100106,0.692509,-0.253873,0.609847,0.423749,2.77674,-1.00694,0.684845,1.60239,0.495709,1.90116,0.362084,-0.36729,-0.199986,1.76605,-0.186169,0.810098,-0.0412908,1.10988,0.381945,0.836075,-0.324014,0.794575,0.304469,-1.49697,-0.204493,0.163744,0.856774,0.368201,2.59091,-0.596036,-0.0754614,0.833934,-1.66613,0.0912487,-0.292228,-0.183417,-0.916026,1.02443,1.51759,1.66351,0.546366,1.2013,0.830651,0.903799,-0.676093,-1.80938,1.33634,-0.839894,1.00945,-0.280689,-2.00538,1.06755,-0.316459,-0.487146,1.46829,0.220166,-1.37517,-0.549019,0.718598,-1.92364,-1.29862,1.41708,1.02129,0.13283,0.694378,-0.169336,-3.49783,-1.52655,0.195173,2.56296,0.65726,1.1054,0.673208,-0.899929,-0.189784,0.449493,-2.4689,0.215545,-1.7839,1.12684,-0.737621,1.44148,0.657684,0.803645,0.607306,-0.122587,-0.70219,0.195646,0.0291044,1.07885,1.26929,-0.386669,0.933271,0.190835,0.746711,-0.757982,-1.20761,-0.955788,1.1692,-0.877081,-1.3182,0.212232,-0.566956,-2.27899,-1.3777,1.00696,-0.0261837,1.28688,0.912986,-0.340267,-0.512685,1.39934,-1.73896,-0.0920805,0.150115,-0.436872,1.76269,-0.105023,-0.428142,-1.93338,1.99145,-0.6608,0.851732,2.22103,-0.178227,-1.75394,0.355976,-1.13878,-0.597439,-0.603855,-0.12959,0.502896,1.18513,1.1599,0.222307,-0.46996,1.29515,-0.959664,-2.14022,0.76709,0.43548,-2.33647,-0.96984,-0.202574,-1.21192,0.232517,0.277017,1.46905,-0.938292,-0.436802,0.427955,0.944395,-0.175904,1.78536,-0.325196,-0.951676,-0.621244,-0.4074,0.0579405,0.0744439,0.314517,-0.773264,-0.432191,-0.466048,1.89511,1.7032,-0.0832291,0.111551,-1.12316,0.90931,0.883105,-1.76615,-0.496596,-1.21848,-1.89365,-0.272473,-0.614676,1.40598,0.335589,0.156296,-0.133402,-1.18983,0.793845,-1.5873,-0.539562,1.96296,0.183546,-0.314371,1.02793,-1.67636,-1.14793,-0.990086,0.861832,0.320776,-1.70692,-1.64125,1.30237,0.300794,-1.20809,-0.600416,1.87881,-1.93652,0.762669,0.479634,0.353538,-0.0776478,-1.15021,-0.261748,1.59156,-0.791323,0.590854,2.04116,0.955329,-0.668869,-0.573367,1.81135,-1.65265,-0.266021,-1.93961,-1.22513,-0.80934,-0.478993,0.418856,-1.71213,-1.24366,0.921843,-0.547149,-0.478142,1.55469,0.467567,1.10962,0.639009,-0.372518,-1.77016,0.501492,-1.64395,-0.90429,-0.319145,0.939614,-0.403637,-0.419788,-0.417462,-0.53905,-0.605479,1.46075,-0.190691,0.308426,-1.55345,0.353913,0.289208,-1.45259,0.655153,0.892244,-0.477418,0.481222,-0.581726,-1.1005,0.112925,-0.0936872,-0.261504,-0.720371,-0.627066,0.439495,0.256173,1.68882,-0.248519,1.15535,-1.59974,1.54012,-1.47208,0.295914,0.75079,0.303303,0.407851,-0.181069,-1.3386,-0.00971478,-0.197885,-0.0606996,-0.106668,0.692526,1.1236,1.0679,-0.632578,-0.31153,-0.221741,-0.676889,-0.551338,0.730078,1.35026,-0.231342,-0.416395,0.0723598,-0.427684,1.69098,-1.29835,-0.0484084,-1.13793,0.355573,0.50164,0.735489,2.00223,1.55696,0.00545944,0.895643,-0.7544,-0.760937,-0.64777,0.0773085,-0.823564,-0.581192,-1.48372,-0.408279,-1.33378,-0.0600451,-0.897648,0.560592,1.35531,-0.349301,0.583605,1.41062,-1.1432,0.304066,-0.46833,-0.685465,0.0662741,-0.310933,1.7966,1.80529,-0.920853,0.234389,0.651258,-0.104986,-0.0481689,0.881122,0.81053,-1.61224,-0.965516,0.585508,-0.820584,0.0923037,-0.0643995,-1.62899,-1.66478,0.140536,-1.40614,-0.0808785,-0.00709087,1.06486,-1.61988,0.290526,1.24013,1.78451,-0.00545508,1.40253,-1.23067,-1.1764,-0.131019,-0.663301,-0.791822,-0.383625,-0.22485,-1.63709,-1.82939,-0.0477675,0.963487,0.704161,-0.0890364,-0.431991,1.00567,-0.649133,1.47939,-1.16944,-0.602395,-0.252527,0.185747,-0.281853,-0.616405,0.22658,-0.630532,1.87722,1.6869,-0.439706,0.134856,-0.208936,0.650747,1.44988,-0.778463,-1.16351,0.421566,-0.744818,0.29247,1.05751,1.25506,0.816963,1.41821,-1.97154,0.266154,0.00705742,-0.932791,1.55963,0.962439,-1.38121,1.03546,1.36771,1.01484,1.18289,0.496093,0.883326,-0.906156,0.0272162,-1.03108,-0.102417,0.931805,-0.743355,0.472748,0.775284,-0.889018,-0.652573,1.22366,1.31362,0.172291,-1.66899,-0.275344,-2.36743,0.0292076,-1.17438,-0.624791,0.290838,1.02737,-0.251287,2.22736,0.213623,-0.295194,0.643166,-0.420793,1.24984,1.3577,-0.419196,-1.11461,0.807464,2.23427,0.237059,1.40445,0.886777,0.420374,-0.379822,0.930324,0.857396,-1.36361,0.0480136,-0.202326,-2.39414,-0.0362409,0.786964,0.469773,-0.586822,-1.98682,0.881193,1.82446,-0.378053,-0.397774,-0.176236,0.890848,-0.299861,-0.104482,0.870303,-0.0634588,0.912097,1.76333,1.18099,0.594708,0.0779887,0.27014,0.542749,-0.0915869,-1.49532,-0.641587,0.293487,-0.748207,-0.415615,-0.595707,-0.576931,0.730603,-1.01096,-1.3024,-1.28209,0.0568876,-0.283885,0.527497,0.384853,-0.314473,1.19959,-1.11974,-1.47873,-0.682846,1.321,-2.45987,0.429076,0.938111,-1.36203,0.939132,-1.22724,-1.07392,-0.759797,0.799035,-0.83747,0.726854,-0.56987,1.30073,0.0116877,-0.283411,1.6372,0.172818,-0.950299,1.44471,-1.07319,-1.29409,-1.04295,0.47275,-0.375586,0.0571413,-0.794503,0.529848,-0.425199,-0.715006,-0.620894,0.0684635,0.310393,-0.523784,0.328127,-1.1757,0.190485,0.364167,-0.335066,-1.03089,1.10829,0.350321,-1.06581,0.570146,1.44478,-0.89961,0.131728,-0.832768,-2.72237,-0.0155561,0.145861,0.218202,0.456292,-0.575929,-1.31664,0.293543,-0.589182,-1.25616,0.64835,0.557615,-0.666228,1.0381,-1.2327,-2.0189,-0.699772,-0.399237,-0.425783,-0.237654,-1.41395,-1.82268,0.434653,1.2494,-0.855906,-0.650954,-0.010147,0.347,-0.919552,0.426945,-1.93139,0.0368569,-0.881397,-0.358306,-1.08891,0.860249,-0.101424,2.10686,0.270774,-0.123671,1.72332,-0.549035,0.758879,-1.80115,0.673623,0.647983,1.56095,-1.00881,0.0941626,1.05319,-1.69536,1.03914,-0.866242,-0.432798,-1.03315,0.637359,-0.554279,0.760489,-1.13537,0.138414,-0.216735,2.89941,1.38702,1.23462,0.637365,-0.158776,0.132531,-0.267969,-0.557259,1.73689,1.35217,0.504994,0.0421112,-0.844493,-0.117486,1.16247,-0.702904,-0.80653,0.431537,0.665323,-2.03811,0.899262,0.22674,-1.14099,1.71595,1.96744,-0.177935,0.668693,1.26862,0.479463,-0.12959,-1.97235,-0.528733,0.213287,-0.168842,0.937454,0.146415,-0.60952,-0.102426,-0.284503,-0.591575,0.260478,-0.379906,0.745346,-0.827329,-1.11208,-1.68623,-1.01947,-0.900791,-0.162362,0.786143,0.497278,0.0953154,0.0853641,0.60985,0.273297,0.984854,1.75263,-0.86944,0.115387,-0.348183,1.33833,1.96596,-0.340075,0.901392,-0.147495,-1.15281,-2.34433,-0.0505709,-0.494371,0.189849,1.33871,0.45776,0.25562,1.75614,-1.11896,-0.573358,0.380282,-0.694473,-0.948519,2.32067,-0.797903,0.329336,0.407392],[-1.49561,0.513567,-0.74426,-0.576767,-0.339036,0.435314,0.367639,-0.338196,1.07396,1.33706,-0.995512,0.731084,-1.52673,1.57853,0.0891146,-1.8047,1.09806,0.295912,1.72953,-0.00406733,-0.38063,-1.58931,1.97126,0.184298,-1.48219,1.03154,-0.834061,-0.315529,-0.965605,0.454536,0.58313,-0.865759,-0.495647,-1.41413,1.01014,-1.12751,-0.856921,0.842037,-0.193878,-0.25079,0.439749,0.612984,0.219999,1.38578,-0.653884,-1.02842,0.489376,-0.173385,-1.01408,-0.182902,-0.015782,0.561625,-0.982638,1.61786,0.107371,0.808224,-0.389384,-0.173892,1.49053,1.71128,-1.6101,0.643199,0.039836,0.439059,-0.787991,-0.884939,-0.232793,-0.940963,-0.463128,0.892764,0.653764,0.148129,-0.37795,-0.73888,1.89932,0.39986,-0.614033,-0.17938,1.11646,-0.710678,0.680652,-0.620708,0.0716122,1.19831,-0.405712,-0.403132,1.36317,-1.08525,-1.06447,-0.0999499,0.929043,1.42155,1.8568,-0.110173,1.61772,0.597562,-1.6288,-0.387921,-0.692324,-2.24543,0.0141602,-0.0479334,0.130194,-1.87562,-0.0671526,-0.85366,-0.343981,-2.67358,-1.03925,1.4598,0.774657,-0.259589,-0.670316,-1.011,0.361212,-1.6642,0.279558,0.145687,-0.313058,-0.243159,-2.86819,1.40617,0.355722,-1.10559,1.1097,-0.235614,-0.733202,0.655947,2.09697,-0.0910297,0.381886,-1.22708,0.931753,-0.505337,0.272684,0.969938,0.358448,0.58111,-2.01935,-0.540779,-0.687914,-2.04421,0.575231,2.70286,-1.67758,1.37914,-0.112074,-0.741673,0.2998,0.0639278,-0.287599,0.166221,0.875429,-1.48959,1.20805,-0.530051,2.12553,-0.103067,0.1348,-0.490099,-0.605213,-0.277429,0.523938,0.266311,1.01053,-0.25823,-0.670795,0.943853,-1.60445,-1.22029,-0.218353,1.38005,0.266974,1.11199,0.126866,0.721436,0.126113,0.295653,-0.642831,-1.88348,-0.873601,-0.102871,1.13544,-0.205697,-1.78791,1.83839,-0.487404,-0.43511,-0.613654,-1.05978,-1.97476,-3.25853,0.24224,-1.2048,-0.504101,0.943464,0.494181,-0.211275,0.572691,0.894556,-0.134552,1.11866,0.365127,-0.499006,-0.222798,0.570277,-0.952372,1.32973,1.59401,0.217815,0.226911,-1.67989,-2.10635,-0.0171032,0.032942,0.0471577,3.10452,1.63258,-0.199018,-0.627325,0.0402069,0.668879,1.05233,-0.227004,0.777121,1.86925,1.40778,1.55636,0.4472,-0.0858929,1.12999,0.515799,-1.03056,0.254177,1.62996,-0.0606508,0.0749142,-0.414667,-1.78453,-1.33912,-0.336334,-0.372568,-1.14425,1.1518,-0.931085,-1.20313,2.17944,-2.66529,1.4747,-0.68621,0.890263,-0.278927,1.01007,1.05187,-2.15693,-1.71379,0.521276,-0.64476,0.563095,-0.463618,-0.336064,0.175671,0.17069,-0.753303,-0.0813617,0.230373,1.08365,0.367268,-0.597923,0.237551,-1.08747,-0.831608,1.49025,0.894068,-0.638159,-0.798139,-1.47193,-0.797266,1.04836,-0.446993,-0.0590711,-1.80066,-0.0744662,0.840175,-0.292764,0.351648,-2.26407,0.3417,-0.509979,-0.269273,-0.583507,-0.105525,-0.927122,0.113019,0.324525,-0.295009,-1.45002,1.47183,2.53872,-0.30067,0.541056,1.37165,-1.58572,-0.196589,-0.357728,0.995208,1.00776,0.602163,0.370859,-1.1067,1.1352,0.320357,0.874425,0.246657,0.477811,0.784803,-1.25561,-0.663237,1.07777,-1.06133,0.134224,0.0779819,-0.248626,0.481107,-0.512431,0.360363,-0.202548,0.922547,-2.97902,-0.806093,-0.875498,-0.828053,0.115127,-0.446129,-0.137867,0.784405,0.451432,0.369331,0.894354,0.355945,-0.801847,-1.06313,0.82659,-0.632567,-0.212494,2.32999,-0.05853,-1.40306,-0.284416,-1.99144,-0.743065,0.157555,-1.76395,-0.81184,0.852498,0.868574,0.352042,-0.814766,0.32702,-0.917181,-0.0604306,-0.402413,0.63915,0.985238,-0.00711123,0.0268207,-0.136926,0.875026,-0.788163,-1.23224,1.38587,1.54627,1.08649,1.18801,-0.203165,0.332943,-0.538463,-0.668488,-0.428763,-1.57616,-0.933729,0.003965,1.54924,-1.13105,0.21316,0.487472,-1.11851,-0.172981,0.666204,1.26111,-0.026745,-1.02341,0.0854005,-1.83374,-0.971321,-1.0719,-1.35269,1.58121,1.62297,-0.576431,-0.401719,0.332011,0.0461087,1.78124,-1.10113,-1.72164,0.192279,-1.54869,-0.307483,-0.0608685,-0.136807,-0.622045,0.689866,1.25642,1.46696,-0.39864,-0.959194,-1.02149,0.357748,-0.100234,0.758145,0.837957,-0.248739,1.68131,1.52164,-1.5349,0.669871,-1.05136,-0.261496,-1.09198,0.332751,0.226572,-1.25064,-0.0140413,-0.0147134,0.58602,0.615866,0.871511,1.15781,-0.930512,0.157136,-0.571921,0.0374791,-0.902296,0.0806824,-0.134737,-0.199103,0.578383,-0.833407,-0.317829,1.4639,1.34621,1.77528,-0.691694,0.0467544,0.530975,-0.0860759,-1.90091,1.40845,0.373453,-0.236996,0.898285,3.01815,-0.494946,-1.35066,1.05665,0.511879,-0.244147,-1.50547,0.64327,0.23378,1.14303,-0.646649,-1.40957,-0.435759,-0.658781,-1.31712,-0.871785,0.763847,-1.85601,-0.429749,-0.72879,0.363085,-1.08679,0.735385,0.347312,-0.525536,-0.30702,0.267737,1.08369,-0.678346,-1.17219,0.0739876,0.0162229,-0.346215,-1.49093,0.434207,0.81963,0.0474888,0.488303,-0.492327,-0.354074,0.77568,0.250349,1.23139,-2.05437,0.340522,-0.0162855,2.03311,-0.265086,0.334142,-0.369377,-0.757281,-0.244301,-1.00018,-0.0773602,0.719687,-0.453121,-0.42191,-0.731514,0.691583,0.579254,-0.892106,-0.211653,0.313096,0.228338,0.410067,-0.588619,-1.17934,0.551278,-0.175913,-0.443305,0.610801,0.839585,-2.06168,0.362259,-1.17338,-0.869795,-1.63877,-0.584776,-0.712562,-0.338886,1.28926,0.905399,-0.204138,-1.77329,-0.75694,0.106018,1.06561,-2.52906,0.263212,0.836599,0.0752037,-1.13369,-1.02774,0.445931,-0.511542,-0.472563,-0.106648,-1.47957,-0.430643,-1.199,0.277978,0.126753,-0.885211,0.895832,1.85977,0.0939538,-0.525476,0.199317,0.246684,1.11556,1.06088,0.254292,-0.0591701,-0.239644,-0.447546,-0.671721,-1.37336,-0.575453,1.23873,-0.610499,0.699403,-0.50682,-0.226346,0.66493,1.56892,-0.313835,2.38848,-0.734446,0.382887,-1.37239,0.71838,1.44253,-0.607586,-1.58264,0.546232,0.183521,-0.139532,0.267475,-1.36906,-2.67867,0.638867,-0.375958,-0.312571,-0.258821,2.27589,1.06672,1.91818,1.30321,0.160171,-0.425651,0.546931,0.216806,-2.7451,-1.51815,-0.300607,-0.321796,1.43184,-0.329596,0.126938,-0.634307,-2.61569,0.766948,0.211704,-2.73411,0.102299,-1.50626,0.481588,1.94119,-1.18581,1.1019,2.52334,0.269059,-1.28178,2.4644,1.38824,0.122608,0.106505,-1.05688,-0.420333,-1.36451,-0.78886,0.853495,0.908374,0.403189,-0.208587,-0.00967308,1.08956,-2.31186,2.27668,-0.125811,-1.38661,-0.0543057,1.57244,-0.639003,-0.66738,-1.52479,-1.26418,-1.05939,-0.0608297,0.669539,-0.52747,0.878676,-0.388903,-0.400387,-0.547594,-0.236773,-0.734673,0.96528,0.123481,0.22498,-1.85243,0.710269,-2.732,-0.418742,-0.906654,-2.12213,-0.289785,-1.21661,-0.947133,-0.153666,-2.35427,0.357577,-0.0468728,0.0136771,0.0350267,0.725283,-0.17482,0.630946,-2.07551,-0.0883859,0.922793,-1.29384,-0.816299,0.189803,0.354689,-1.34573,0.458444,-0.641723,0.144831,-1.69528,-0.827205,-0.550478,0.796359,0.617329,-1.30104,0.323344,-0.0515878,-0.392844,0.325085,-0.243825,-0.268311,0.255274,1.30465,-1.65343,1.34035,0.296713,1.38461,-0.263835,0.541559,-0.270614,0.615426,-0.737575,-0.233022,0.0650029,0.30908,-0.0635321,-0.926534,0.402701,-1.62904,0.980628,0.117014,1.31192,-0.809553,-1.54947,-0.432475,1.87458,0.0395498,1.33073,-1.42309,-0.0903149,0.721536,-0.177344,0.530819,-1.27841,-0.0617724,0.615354,1.86006,1.23017,0.821536,1.75387,-0.33594,-1.21632,0.521026,1.82698,1.28162,-0.277362,0.906482,-0.806966,-1.04013,-0.400588,-0.981134,0.709942,0.785414,0.264172,-0.0697519,-0.00535216,0.314411,0.988384,-0.226991,-0.451069,0.276484,0.333778,-0.139532,-0.313573,0.510119,1.29598,1.08943,0.194066,0.788532,0.588944,1.21319,0.0130584],[-0.215154,1.36783,-0.58132,-1.24175,-0.368535,-0.174791,-0.86284,-0.288668,-1.65746,0.763291,0.923035,-0.645001,0.689455,0.862337,0.202014,-1.03719,-0.800263,-0.90426,0.557384,0.629564,-1.08028,-0.442886,-0.396715,-0.89401,0.194264,0.286961,0.694165,0.66115,-0.385272,1.35219,-1.02822,1.42255,1.11174,0.197117,1.94047,0.902928,0.986172,-0.204463,-1.88901,-0.448059,0.447355,0.400587,-0.943307,-0.744723,-0.0373459,-0.409237,1.05572,-1.45999,1.65293,-1.83867,-0.0781191,-0.911596,0.268653,-0.962475,0.18099,0.0113365,1.48376,-0.142469,0.0329982,0.84627,-1.01726,-0.661655,0.703163,-0.425554,0.561776,-0.860367,0.319425,-0.686418,1.55514,0.661835,-0.697763,-0.321805,1.59907,0.845154,1.0846,1.11405,-0.123151,1.23198,2.03802,-1.52706,-0.203218,0.586541,-0.186565,-0.160343,0.398224,1.49514,-0.381032,0.182382,0.221769,0.361251,-0.585925,0.141771,-0.150442,-0.734143,0.271025,-1.62333,-1.05641,-2.16685,1.78293,-1.26576,1.56708,0.514875,-1.61942,-0.150625,0.846881,-0.324247,-0.831218,0.67999,1.97738,-0.211918,0.217605,0.79373,-1.55394,1.21366,0.069574,-0.514653,-1.66725,0.681498,0.662302,0.913622,0.0465812,0.862042,0.709629,0.138871,0.588684,-1.51621,0.54784,0.231164,2.88036,-0.0109452,1.55127,-1.27071,-0.400933,1.48905,0.731176,-0.661554,0.0867775,-0.192212,0.316613,0.430343,-0.503177,-0.772428,0.306323,0.744934,-1.99376,-1.53224,0.557239,0.665682,-0.685529,-0.312229,0.783448,-1.54025,0.0704449,0.63585,1.11684,1.09313,0.757623,-0.154635,0.215774,-1.1516,0.0534894,0.142379,0.366675,1.27639,-0.593414,-0.186654,-0.18735,-0.7637,-0.196943,1.07248,-0.971282,0.187144,-1.25726,-1.30517,0.0212046,-0.212142,-0.530525,0.128712,0.621151,-0.361448,-0.146171,0.524956,-0.132888,-0.733935,-0.791072,0.903634,0.141587,-1.21814,1.67991,-1.16799,0.550277,0.645455,-0.798315,0.526792,-1.20586,1.82455,-1.50827,0.493233,-1.8309,-1.20158,0.354841,-0.837797,-0.244535,-0.0209168,0.086667,1.405,1.69955,1.00229,0.875239,-1.01915,-2.64424,-1.12083,0.0737405,0.308754,-0.966444,1.03115,-0.764517,0.775047,-0.578424,-0.548967,-0.390867,0.721186,-0.499212,-2.86581,0.797958,1.61503,-0.666968,0.121909,0.27211,-0.255811,-1.67989,0.380407,-0.189903,-0.319312,0.602305,-0.0178675,1.52497,0.853725,-1.73341,0.352293,0.247098,-1.05038,-1.45266,2.01308,-0.208788,-0.855389,0.577299,0.378782,-0.224818,-1.14451,-0.720363,1.55455,-0.54105,1.48309,-0.421357,-0.402801,-0.234885,-0.394156,0.474703,-1.07131,-0.730445,0.58783,-0.720648,-1.40156,0.695705,-1.00844,-0.435189,-0.340523,0.108265,0.296763,0.367605,-1.38912,-0.00773337,-0.468078,-1.7316,1.34343,0.863736,1.04314,-1.23154,2.01995,0.855506,-1.03604,-0.262514,-0.373292,2.33131,0.587038,-0.646295,-1.47696,1.15669,-1.68649,0.0947554,-1.01347,-0.643309,0.308989,-0.918504,-1.27024,1.19972,0.161165,1.32851,1.0716,1.1754,-0.418078,1.10788,-0.531162,-0.742972,-0.257904,0.382038,-1.50903,0.4373,0.0780102,-0.336953,1.02207,-1.75173,0.867574,-1.08608,1.74331,-0.816552,2.14471,-0.365786,-0.716542,-0.544858,0.70296,0.533795,0.413752,-0.41228,0.210099,0.263815,-0.727237,-1.0502,0.403303,-0.811826,0.362512,2.72818,-0.413097,-1.90165,0.650413,-0.119449,-1.54286,0.813316,-1.87628,1.40899,0.324529,0.139893,1.27549,0.491164,-0.0112001,-0.309282,-0.767665,1.01857,0.0778214,0.553661,-0.782948,0.968014,-0.316203,1.41691,-2.32905,0.491936,-0.957575,1.24683,-0.524588,-0.19269,-1.86656,-0.238833,-0.939208,1.13634,0.850974,0.05753,1.04699,0.394213,-1.30174,-0.730547,1.39428,-0.452268,-0.48277,-1.478,-0.802456,-0.192716,1.06704,0.601292,-1.0184,-1.86629,-0.609272,1.04538,-1.4623,-1.24193,-0.424998,-0.602427,-0.508238,0.943889,-0.192152,1.10385,0.830389,1.20202,0.339046,-0.958035,0.125233,-0.5171,-0.408748,-0.882118,0.678138,-0.744657,0.417609,-0.0803859,0.248749,0.385826,-1.6633,0.846109,0.906341,0.29003,-0.325512,-0.499732,-0.658671,0.43921,-0.910807,-1.72526,-0.460429,-0.427952,0.253493,-0.316422,-1.63546,1.19295,0.0771594,-0.624188,0.789981,0.690841,-0.350139,0.798917,2.13283,0.586248,-0.081352,-0.033467,0.487418,-2.4922,-1.46947,-1.94863,0.103814,-0.145867,0.00540911,1.3528,-2.15796,-0.408942,0.0486093,0.0903621,-0.324381,0.366971,0.866436,0.979116,0.00781916,-0.576942,-0.514201,0.770375,-0.278103,0.104169,-0.425768,-0.449179,-1.73178,-0.114744,0.680253,0.733037,-0.375486,0.413518,-1.33077,0.735756,-1.21964,0.935317,0.200127,0.000353464,-0.42438,0.908671,0.63514,0.425799,0.457974,0.242599,0.538955,0.490512,-0.804482,-0.874548,0.6233,0.465893,-0.358843,1.25531,0.175384,0.595449,0.10176,-1.41246,1.30417,1.30947,-0.645748,0.0902235,0.987657,-0.757466,0.282411,-1.82646,0.0219116,-0.697809,0.77069,0.832146,1.2042,-0.633908,0.650009,0.651543,-0.166522,-1.02825,-0.304283,0.856371,-0.375768,0.299087,0.518998,1.22752,1.57755,0.143768,-0.969331,0.386269,-0.569923,-1.19872,0.984357,-1.12733,0.323976,-0.65613,-0.230492,-0.11008,-1.66884,0.673748,-1.74304,0.472027,-0.572146,2.00389,0.402883,0.324007,0.733394,-1.5066,-1.29528,-0.302551,0.611536,0.203468,-0.0622306,-0.470585,-0.228099,-0.71461,0.137506,-0.0583458,-0.583314,0.401263,0.587297,-0.581116,0.639813,-0.0751041,-0.305543,0.130859,-1.2242,0.773718,2.40827,0.900132,1.05943,0.35827,2.27158,0.0702555,0.978968,0.938016,0.666301,0.551709,-0.210545,-0.272676,-1.51501,-0.825522,-1.02615,-1.2703,0.549105,0.589138,0.910185,-0.734526,0.324224,0.169194,-0.252381,-0.71714,-0.541855,-1.47812,-1.45762,-2.34276,0.766444,2.51778,-0.673136,-0.927901,-1.11104,0.0606445,0.871094,-0.113814,0.316513,0.172317,0.398028,-0.756811,-0.483542,1.37099,0.105756,-2.50254,1.06862,1.5375,-0.267477,-0.191315,-1.03411,-1.16797,0.44807,0.211328,-0.0648036,1.65436,-0.613702,-0.451569,0.15006,-1.19419,-0.825021,-0.9586,0.330698,0.373996,-1.15055,-0.686854,0.357069,0.276979,-2.16561,0.841568,0.881723,-0.825923,1.36487,-0.098223,-1.44598,-1.33989,0.465514,0.446177,-0.629707,-0.854308,-1.25631,0.180163,-0.18518,-1.39376,-0.550736,-0.30443,-0.860396,1.56814,-1.0364,-0.347994,0.937523,-0.916114,1.23199,-0.197609,-0.261243,-1.85155,-0.423332,-0.280749,0.473582,-0.798884,-1.85217,0.410774,0.971669,-1.18396,0.876992,0.912411,-0.83469,0.873959,-0.651134,-1.3076,0.58753,-1.79252,1.35952,0.512518,0.867602,-0.180086,1.05122,-0.536213,0.261668,0.604106,1.04876,1.53594,-0.23514,-0.727154,-0.595903,2.19951,0.543712,0.579004,-2.25279,-0.665058,-0.0846092,0.95305,-0.480501,-0.0935601,0.936248,0.237101,-0.953858,-0.651166,2.13193,-0.232725,0.389989,1.17099,0.1908,-0.658215,0.847667,1.49933,1.68942,-0.975091,-1.07218,0.704666,1.91041,-0.970715,-1.09997,0.052122,0.833814,-0.277165,-0.4812,0.585798,-0.509871,-0.799972,1.83897,1.6876,-0.646647,-1.1317,0.403596,-1.84663,1.41502,1.63046,-1.28717,0.420554,-1.18767,0.636367,-0.421272,-1.37026,-0.166899,0.103269,-1.25936,-0.393093,0.186038,-0.254439,-0.786066,0.663499,-0.413667,-0.971802,0.0495242,1.76581,-1.63393,1.29135,-0.657287,1.61782,0.321365,0.16457,0.0337913,0.170299,-1.8171,1.31848,-0.251851,-1.07669,1.0308,1.31943,-0.231349,-1.2464,-0.247438,1.27062,0.0721414,1.2817,0.889296,0.0813314,-0.0152832,-1.90797,-0.24107,-2.60719,-0.296921,1.19672,0.606545,-1.11339,1.40562,-0.345697,-0.169977,-0.803525,-2.06813,-1.15384,1.36339,-0.808904,-0.0246757,-0.264872,0.153939,-0.64013,1.63763,2.25747,-0.343564,-0.377871,0.987191,-1.58122,-0.606807],[0.114025,0.224689,-0.542134,-0.519966,0.925733,0.737874,-0.151049,-0.438046,-0.306501,-0.368065,-0.436723,-0.360327,-0.881359,-0.277387,-0.344103,-0.557007,1.16851,0.480538,0.524147,-0.518364,0.602861,-0.310999,-0.667101,-0.895978,-0.0836161,1.39766,-0.250785,-0.260782,0.546911,0.83059,-0.00128096,-0.746853,-0.0917977,-0.775186,-1.88167,-1.24499,-1.1913,0.17198,1.36378,-0.0768012,0.0970724,-0.412256,-0.3644,-0.926561,-0.0356149,-2.84751,-0.0850545,0.720128,1.31694,-0.834139,0.209696,-1.91416,0.824817,1.48593,0.49911,-0.748842,1.03933,-1.57629,-0.278202,0.0771264,0.735729,0.700696,1.14011,0.11221,0.208795,-1.66433,0.55423,-0.364416,1.13053,0.121125,0.503065,-0.78182,-0.544061,-0.132629,1.36752,-0.479686,0.521722,0.411694,0.908554,1.13073,-0.322863,-0.951869,-1.97772,0.524331,-1.14047,-0.781668,0.564357,1.29017,0.918146,0.706577,-0.483643,1.69321,-0.175007,-0.866444,-1.73446,2.11813,-1.70562,-0.64109,-1.28417,-1.02481,1.83879,-0.966474,-0.450948,-0.267261,1.61215,-0.392653,-0.967377,-0.700521,0.927111,0.906288,0.895926,-0.844556,0.131936,-0.409655,-1.1885,-0.288143,-0.917723,-1.05375,-0.280561,0.841041,-0.327949,0.654651,0.0810142,-0.273629,-0.23994,0.618769,1.53634,-1.63638,-1.2754,-1.02352,0.599877,0.16389,-0.750262,-0.814276,0.0438501,0.0734312,-0.140986,0.0890921,-0.00341472,1.05116,0.970183,1.44549,0.660441,0.754744,0.799183,-0.548261,-0.200547,1.02769,-0.562263,0.92221,-0.838937,-1.12294,-1.73309,0.550418,1.6342,0.436215,-2.20485,-0.482439,1.3066,0.37701,-0.895482,0.987061,-1.08405,-2.37643,-1.56159,0.964826,0.653925,0.415908,2.00963,1.03045,1.19187,-0.506127,0.750412,-0.830893,-0.175448,0.805919,0.876609,0.155987,0.876828,0.305947,1.1148,1.06841,-1.25077,0.180404,0.356882,1.16421,-2.1259,-1.8336,0.880997,0.0147285,1.45658,0.18678,0.0587812,0.964849,-0.972111,-1.18997,-1.39142,-0.134871,-0.877836,1.12867,0.936438,0.565743,1.25389,-0.667768,-0.0028881,-0.235488,0.336666,-0.202928,0.14051,0.046574,-0.961191,-0.307501,-1.38522,-0.167723,0.033485,-2.78301,0.241323,-0.893687,-1.40499,0.316445,-0.230113,-0.323493,0.908752,-0.612631,0.796032,-1.68112,1.05434,-0.220797,1.41941,-1.0803,-0.217313,0.350256,0.426927,0.138756,0.228679,1.46943,0.110221,0.414157,2.10539,-0.029883,1.3835,-0.547949,-2.61258,0.358943,0.0292337,-1.17299,1.3621,-0.696686,0.376476,-0.178217,0.445355,-0.349308,-2.94429,-0.390697,-0.115804,0.143534,-0.215064,-0.508969,0.6476,0.740699,-0.921301,0.712412,0.283159,0.560816,0.754823,-0.781808,-1.31608,0.346365,-0.0321143,-0.191475,1.92542,0.506986,0.602468,-0.406281,0.613298,-0.242676,-0.483291,-0.868708,0.0725764,-1.56871,-0.0582846,0.446634,1.55904,1.27291,0.952242,0.668903,0.561973,-0.322021,-0.726385,0.961984,0.413044,0.164056,-1.50031,0.247918,0.202826,-1.03005,1.16912,-1.31112,-0.36321,1.12243,-1.76472,-0.504114,0.705848,-0.712849,1.46747,-1.4421,-1.1512,-1.28114,0.24605,-0.410385,3.41588,0.355737,1.49729,-2.53607,0.910751,0.229968,1.6697,-1.28107,-0.478343,-0.0968197,2.03805,1.26063,-1.06541,-1.19203,0.653682,-0.473992,1.5752,-1.93056,0.629422,-0.173584,0.509247,-0.73549,-0.221628,-0.277452,0.0392045,-1.83389,0.483262,-0.180073,-2.54956,-0.130308,0.520002,-1.1862,0.242535,-2.42773,-0.393533,0.53746,0.105285,-1.49055,2.43226,1.3849,-0.551167,1.82114,-1.42002,-0.894795,-2.09144,0.159061,-1.51092,-0.0574607,2.06061,0.833676,-0.776802,0.641663,-0.361566,-0.551888,1.21617,1.17541,0.417867,0.144665,-1.76758,-1.99046,1.63294,-1.24255,-0.377002,0.477534,1.2941,0.231501,0.273623,-0.407412,-1.23891,1.43774,-1.8686,0.383819,0.341814,0.843365,0.638686,0.661242,0.184617,0.147005,-0.16675,0.887484,0.0756323,1.4546,0.364559,-0.146351,0.039536,-1.07457,0.0200074,1.20711,-0.118613,-1.86776,-0.065708,1.26898,-0.336816,-1.22564,0.313633,0.367754,-1.69707,-0.14356,-0.490695,-0.108477,-0.206622,1.57812,-0.988353,-0.117411,0.890979,-0.797794,0.730799,0.462838,0.188586,0.993528,-1.49455,-1.88895,0.156331,-0.35807,0.729738,-0.412605,0.899982,-0.280225,-2.28431,1.60644,-0.725732,0.263922,-1.44031,-0.035277,0.294504,0.560042,-0.58277,0.125276,1.12584,-0.255748,-0.773837,0.797834,0.0596805,1.07876,-0.756644,-0.451361,0.178465,-0.469473,-0.187588,0.582326,0.558183,0.26329,1.00197,-0.916373,0.146329,-0.0373891,-1.26917,-0.796309,-0.211361,-0.512352,-0.164331,1.42002,-1.90679,0.305757,-0.194302,0.744788,0.294038,-1.12653,-0.206258,-1.30187,1.26064,1.72472,-0.562362,-0.149827,-0.431985,-1.69828,-0.146627,0.661326,0.884732,-0.962719,-0.13128,-1.05804,0.148654,0.354493,0.487254,-0.95744,1.1391,-0.293348,-0.346117,0.929145,-2.27089,0.222964,0.759699,-0.189284,-1.42363,0.604423,1.14812,-0.121593,-0.31845,0.804435,-0.322212,0.360073,0.174219,0.356494,-0.424347,-1.47862,-0.821246,0.527097,0.16482,0.74987,-0.536388,-0.174349,0.827697,0.488322,-0.155377,1.13311,-0.097697,0.855387,0.879484,0.117539,-1.18374,-0.875816,-0.455376,0.174867,0.749811,-0.420878,-0.332295,1.82122,0.0186779,0.985778,-0.755172,0.0923101,-0.95067,-1.56539,-0.471418,0.0685697,1.69445,0.827379,0.0332582,-0.860567,0.717786,-1.37437,0.0507425,-0.018905,0.511902,0.263783,-0.50468,-0.268267,-0.151204,-2.07567,0.374181,-0.566879,1.62488,0.73678,0.295705,1.02598,0.456372,-0.187121,1.16459,1.23152,1.18474,0.393699,-0.710846,0.311402,0.190679,-1.29888,-0.990663,-0.440343,-2.25395,-0.351419,-0.229372,-0.494648,-0.505312,0.509963,-1.03906,-0.740328,1.39469,-2.01532,1.386,2.05037,1.25888,-1.02699,-0.28077,-0.655021,0.410358,0.0490555,1.01226,1.30108,0.344128,-2.52442,-0.529496,-0.316761,-0.153703,1.38909,-0.393578,1.2967,-0.359142,-0.999815,1.07016,-0.49098,0.648897,-0.466491,-0.263252,1.71964,-1.59513,0.01648,0.0824251,-0.447268,1.1328,0.523791,1.33256,-1.09641,1.13937,-1.20221,1.4095,-0.0674827,0.862151,-0.694191,0.829227,-0.322285,0.46383,1.88778,-0.806931,-1.31612,-0.436561,-0.0570171,-0.489826,-0.567169,-0.19796,0.108935,-1.12538,-0.678504,1.74024,1.57412,-0.798036,0.377029,-0.411552,-0.618092,1.66749,0.338038,0.147346,0.654564,1.40964,1.94213,-0.281112,-0.53241,0.272974,0.341596,-1.21552,-0.184155,-0.00375335,1.13783,-2.06506,0.848456,-0.639969,-0.841065,0.610804,-0.22311,-1.37435,-1.51923,0.594663,-1.88934,-0.305755,-0.760273,0.661359,-1.38621,0.351898,0.82489,-0.365437,1.56151,0.359421,-2.17705,1.20277,0.345091,-0.707548,-1.41913,-0.954825,0.658724,0.33098,-0.971907,-0.595405,-1.43318,0.318889,-0.29851,0.28085,-0.69928,0.79205,0.418088,0.59446,-0.194978,0.582203,-0.571526,-1.68385,-0.15905,0.91242,-1.40803,0.226592,1.57594,0.101301,-1.47269,0.553852,-0.269046,0.442359,-0.188126,-0.147076,-0.254758,0.970218,-1.60684,0.191264,0.120626,-0.561719,1.81001,-0.189892,-1.13407,-1.66407,-0.263629,-1.28785,0.312194,0.720967,-1.42444,-1.59663,-1.23236,-0.691799,0.609347,1.25128,2.16421,0.0545564,-0.407976,-2.11247,0.602048,0.60285,-1.24818,0.493666,0.812852,0.519264,-0.38837,0.998038,0.114628,-1.39162,-0.614444,-0.415778,-0.622958,-0.980666,-0.87903,0.0445016,0.620895,1.53263,-0.133094,-0.795641,-0.984287,-0.257018,-0.422492,-0.73714,-0.599475,1.24068,0.690609,-0.813939,0.990713,1.35999,1.39015,-1.72168,-0.891922,-1.35803,0.979306,0.432785,1.22111,-0.141529,-0.832296,1.37229,-1.21446,0.899308,-0.147973,0.81527,-0.317254,-0.510101,0.265295,0.176616,-0.383904,-0.11803,0.138831,-0.34863,1.01265,-0.942162,2.05025],[0.84528,-0.275934,0.758615,0.332919,-0.31919,-0.147562,0.885173,0.245797,1.10554,-0.839362,0.965642,-1.06586,-0.27806,-0.727743,-0.758924,0.253896,1.12823,0.100596,-0.0604142,-1.92819,0.870323,1.53292,0.930855,0.983407,0.258515,-1.52009,-0.00933792,0.385103,2.20631,-1.42846,1.32799,-0.361017,-0.378424,1.61441,0.162244,-1.18006,-0.261191,2.62898,-0.0368888,-0.700638,-0.86542,0.699398,0.305096,-0.480233,0.164062,-0.367878,1.07658,1.60194,-1.10908,-1.78838,0.30677,-0.0378926,-0.744089,-2.79921,0.401938,-1.34076,-0.176707,-0.0463713,1.29657,-0.567377,1.19964,-0.275889,0.892935,1.47593,-1.27654,1.41913,0.630096,0.678451,-0.601054,-1.29827,0.877128,-0.738765,1.03985,-0.552146,0.0576968,-0.332771,-0.880875,-0.447984,2.12555,1.30277,2.36356,1.1643,-1.48695,-0.653649,0.0889087,-0.0899744,0.187057,1.31943,0.879685,0.221277,-0.228063,0.175441,0.692162,2.04336,-0.463285,-0.956627,-0.854217,0.243924,-0.0651242,0.230909,0.122969,-0.888161,0.834913,-0.76711,0.042246,-0.147421,-0.628469,-1.55239,-0.354068,0.53157,-1.77113,1.71868,-0.10967,0.797706,0.733898,-1.25484,-0.309788,-1.01274,-2.41207,1.23531,0.279266,0.182465,-0.216549,-0.378824,-0.369626,-1.79033,-1.34574,0.237137,-1.26926,0.176717,-1.62667,-0.190427,-1.53286,-0.234554,0.791459,-0.348465,-0.729628,0.55876,0.57341,0.159079,-1.55028,0.667555,1.70607,-0.250915,0.788987,-1.72978,1.00801,0.64198,-1.37383,0.166494,1.36671,-0.208408,-1.13543,0.700414,-1.63451,-0.721347,-0.0906014,0.836338,0.535578,0.413114,-0.579254,-0.701914,0.880045,-3.61525,0.841066,-0.216229,0.462042,-1.87149,-1.19149,-0.917353,-0.122358,-0.831348,-1.11367,0.369815,-0.3768,0.339425,-1.08205,-2.04015,0.232898,0.121613,0.107702,-0.687422,0.576277,1.25215,0.518571,0.0772111,1.4479,0.461506,-1.01816,0.646159,0.90694,-0.200736,1.39089,-0.553893,-1.27959,-0.469737,-0.119981,1.4672,-0.835771,-0.394704,-1.67292,-0.329567,2.42615,-0.322248,0.854899,0.00237211,-1.14688,1.28414,1.05002,-0.214476,-0.256618,-1.36029,-0.243086,-1.06128,0.103336,-0.278348,-1.55193,0.184246,-0.802092,0.843824,-0.208061,-0.284778,-0.652878,-1.32182,1.23903,1.12137,1.37189,0.0999079,-0.719417,3.09073,1.52905,-1.28974,1.33665,0.139159,1.41824,-1.19486,0.650291,0.81051,0.121418,-0.583322,-0.449341,1.22682,-0.330309,0.322367,0.0556086,-0.461758,-1.67552,0.6667,0.54254,-1.28283,0.275962,0.331514,-0.999149,-2.13559,0.966386,0.922856,0.487636,2.18399,-0.674961,-0.484844,1.44544,1.7326,-0.0711385,-0.517141,0.253392,0.022925,-1.93839,2.31087,0.269706,1.45915,-0.401933,-1.35797,-0.203143,-0.659835,-0.995936,1.15086,-0.159887,0.946727,1.10762,1.28839,-1.22433,-1.6272,-1.02696,0.406895,0.0170726,0.865628,-0.816244,-0.308723,0.243657,0.0113403,-0.883377,-1.48561,0.561047,1.62594,-0.373856,0.851132,-0.0995654,0.893044,-1.022,0.353367,0.275151,-0.853601,-0.446943,-0.858604,-0.0786026,-0.397803,0.278201,1.59996,1.85707,-0.0254353,0.804008,0.816928,0.953969,-0.580919,-1.0553,-0.365907,-0.285621,0.43255,-1.91274,-0.178579,1.96365,0.948552,0.146577,1.15371,-0.320275,0.793455,-1.12656,-0.988354,-1.17774,-0.141177,0.870178,-0.60263,0.372444,-1.34601,-0.809589,-0.990202,-0.199606,-1.92839,-1.10751,1.90542,-0.497203,-1.18243,-0.537814,-0.0107719,1.12485,1.06753,-1.0107,-0.0342691,0.971265,1.44107,0.00906537,0.549432,-0.407181,-1.84514,-0.31975,-3.46233,0.262626,-1.60777,-0.540239,-0.376521,-0.731882,-0.3792,1.02004,-0.216443,-1.25842,-0.408638,-0.729162,1.83633,1.10604,-0.410948,0.628543,-1.24074,-0.0336069,-0.415686,-2.23337,2.25696,-1.0795,0.363651,-2.18265,1.78983,0.00230651,1.51138,-0.603929,-1.50266,-0.0809248,-1.03349,1.01833,-0.312757,-0.0797989,0.635683,-0.144438,-0.731709,0.575974,-1.14696,-0.150133,-0.122521,0.717,0.459548,-0.481907,-0.300945,0.657487,0.823612,-0.821192,0.606171,0.469989,-0.963206,-0.159165,0.67879,-0.658859,0.0604281,1.23638,-0.895239,0.241659,-0.0413159,-1.18896,-0.549966,-1.13563,0.0545538,0.136056,0.178953,-1.50683,-0.129122,0.722498,0.386931,-1.01266,0.754004,-1.41799,2.23775,0.886669,0.197851,0.413048,-0.858416,-0.132572,0.16007,-1.82112,-0.501008,-1.05532,0.684443,-1.15956,-0.266596,-2.55204,-0.504067,-1.19379,0.696519,0.410562,0.992537,1.2503,0.0873884,0.138439,-0.343692,0.118848,-1.01361,0.721313,0.871444,-1.05048,-1.59474,0.287854,-1.2939,-0.185749,0.458451,1.4146,-0.227568,0.0338975,-1.1989,0.298411,1.92843,0.024204,-0.235444,0.897971,1.24092,-0.469205,-1.2386,1.81349,-2.25648,-0.0221946,-1.00106,0.30235,0.45984,1.74364,-1.19313,-0.740621,0.496714,-1.13954,0.0826206,0.411354,0.669733,0.426801,-0.404015,-1.93676,0.87434,-0.516023,-0.585976,-0.407741,-0.89571,-0.215535,1.60453,-0.392715,0.446361,-0.535415,-0.272474,1.43637,-1.7179,0.242488,0.0873766,0.188201,-0.568471,-0.24861,0.768283,-1.3328,0.234518,-1.44048,-0.521792,1.0226,-0.566649,0.220197,-0.675808,0.16594,0.0259385,0.432631,-0.638817,-0.9016,-0.132052,0.682676,-1.17693,0.403368,0.860761,-1.58425,0.575276,0.514026,-1.8662,-1.63735,-0.506918,0.0953133,0.313061,-0.440571,0.628234,-1.12892,1.36139,0.0394296,-0.860452,1.44468,0.22371,0.806254,0.760141,0.250011,1.71701,-0.356725,-1.87337,-0.552206,0.555139,-0.300576,-0.814154,-1.3924,0.280605,-0.00961534,-1.45926,-0.396498,-0.69946,-1.90745,-2.45338,-0.411102,-0.808169,-0.552999,-1.12986,-0.578356,-1.7116,1.26605,-1.10365,0.0868769,-1.24356,-0.852947,0.409726,-2.06372,1.05262,-1.824,-0.355766,0.441981,-0.311663,0.340588,-0.332963,0.966836,-0.0162839,0.445103,-0.261925,1.01162,-0.719024,-0.0204918,-0.937489,-0.976808,0.0562128,-2.43889,1.19183,-0.149426,-1.71108,3.18057,1.97478,0.239722,-0.717671,-1.56002,0.902368,0.482393,-1.21304,1.71712,-0.627926,0.983336,-0.257516,-0.294178,-0.713652,0.461714,2.24014,1.68306,-0.535314,0.590167,0.694926,0.978316,-0.158602,1.1968,1.33132,0.243991,-0.856888,0.177736,0.414521,0.888838,-0.673462,0.855537,-0.221164,-0.649544,0.156843,-1.36485,-2.29054,-0.789286,-0.999237,-1.07154,0.741321,-0.795087,-1.27202,-0.0170741,-1.12696,-2.3337,-0.87778,-0.997395,-1.63665,0.764039,2.35539,1.92865,0.74446,0.622218,-0.0876611,3.10946,-1.94078,-0.708956,-0.336323,-1.45609,-0.453133,-1.02999,-1.23393,-0.450883,-0.200872,0.984148,-1.02391,-0.257257,0.79492,-1.2748,-0.250761,1.21923,-0.758405,1.40958,1.35846,1.12333,0.341989,2.56152,0.482321,-1.29046,-0.477511,-0.660279,1.33611,-0.476493,1.02771,-0.982056,-1.08892,-0.829616,-0.297443,1.00102,-0.982359,-0.293133,-0.882898,-0.592862,0.204885,0.947143,1.48874,-0.156545,0.60689,0.695032,-0.901477,-1.74231,-0.436917,0.119541,-1.96525,-0.53202,0.189856,-0.987852,0.487788,-1.85518,-0.739449,-1.80985,-1.21807,0.0424732,0.672,0.283682,0.221627,-0.0285962,-0.47287,-0.404023,-0.107203,0.421269,0.291826,-1.59287,1.56894,-0.0454365,1.37954,0.567642,0.595761,-1.43206,-1.11788,0.548179,1.23493,-2.32621,-0.16204,1.67629,-1.73897,0.479882,-0.378119,-1.15294,-0.625929,-0.884611,0.442103,-0.116,0.645897,-0.273642,0.384062,0.787146,0.297425,-0.126905,-0.329963,0.434088,-1.17148,1.10031,0.934644,0.044785,-1.54184,-0.0180924,1.34488,0.273557,0.0684747,0.484607,0.368342,0.901068,0.35794,1.2725,-0.699161,0.535115,-0.574315,0.437994,-0.0636532,0.201478,0.135285,1.29767,0.572162,-1.05054,-0.413273,0.838761,0.748977,-0.733091,-1.47799,1.81051,0.847264,-1.34408,0.562475,0.376079,-0.43767,-1.13899,-2.79298,0.322543,-0.209785],[-0.451964,-1.00364,-1.15221,0.155061,-1.1382,0.203411,0.577887,-0.789854,0.192604,-0.818786,1.38305,1.33789,-0.200148,0.257614,-0.827601,0.376111,-1.60389,-0.0182815,-0.886174,-0.615101,-0.269725,-0.549674,-0.668695,1.98364,0.673873,-1.21054,-1.97352,0.564921,0.281867,-1.14885,1.82148,-1.81276,-1.00667,-0.584243,0.780797,1.1658,-0.51601,0.540352,1.25571,-0.95474,1.09406,1.24024,0.340386,-0.0244672,3.09388,1.72267,0.230185,-0.584596,-0.154667,0.270039,-0.634937,0.865414,0.308165,-0.388903,0.377938,0.648772,0.512518,-0.0260815,-0.247215,0.398917,1.6517,0.943439,-0.768872,0.000681822,0.0673496,0.573434,-0.00276412,-0.755835,-1.21754,-0.313974,0.691841,0.0401905,1.2717,0.325469,0.480273,-0.0590254,0.865607,-0.356838,-0.868888,-0.465028,1.29863,0.999734,0.779369,0.584898,0.798503,1.7433,-0.192088,0.0081904,0.949631,-0.589694,1.87533,-0.706384,0.113768,-0.7685,-0.174126,0.163861,-0.0893616,0.506728,0.657842,-0.402857,-0.675954,-0.396525,-1.55242,0.665219,1.03293,0.360524,1.90358,1.08282,-0.676932,-0.0154944,0.518685,2.72304,0.274796,1.36216,-0.857649,-0.487738,-1.36658,0.634896,0.334857,0.0331824,1.70001,0.00998051,-0.324323,-0.210877,0.817832,0.437318,-0.49616,0.852882,0.178211,0.254858,0.175216,-0.159768,-1.02276,1.07751,0.724864,-1.30061,-0.550459,-0.353813,-1.57046,-0.49052,0.63739,0.102133,-0.0728291,0.355729,0.641727,2.07115,0.148718,-0.917389,-1.08541,1.73312,0.666615,-0.545009,0.526379,0.702142,0.255757,0.681008,0.0523337,-0.448959,-0.325087,0.444442,-0.13983,-0.69995,-1.59238,-1.32977,0.0300531,-0.658744,0.998708,2.78509,0.320163,0.600538,-1.03988,-0.779803,-0.754772,-0.940114,-0.0445033,0.349966,-0.714943,-0.219057,-1.03787,-0.678193,0.449375,-0.407745,-0.220399,0.171456,-0.120456,-0.167726,0.809371,0.691489,-1.14466,-0.202572,0.586231,0.557481,0.217201,0.144383,0.0751492,-2.03121,-1.84891,0.0798709,-0.383796,0.533028,0.382532,1.08509,-0.664404,0.777251,-1.26627,-0.184647,1.53658,0.232586,0.893609,-1.64082,0.108983,-0.0640308,-1.16523,1.16417,0.059616,-0.849914,-1.52883,-0.188843,-0.92413,-1.38794,0.965049,1.81913,-0.614297,0.0630146,0.182568,-1.38485,1.28842,1.02323,1.36896,0.269182,0.488413,1.69761,-0.73744,-0.449021,1.33363,0.358698,-0.269586,-1.02856,-0.831614,-0.784135,-0.0261765,-1.32757,0.23904,0.55417,-1.91602,1.27941,-1.45685,-0.413059,0.0278377,-1.10008,-0.576934,0.973254,1.13289,0.715017,0.434784,-2.27999,-0.217408,-0.992531,0.835335,0.752744,0.637217,-0.39143,1.25952,0.552899,-0.303598,-1.67776,0.653463,0.304315,-0.448502,1.11457,0.496164,0.705785,1.48011,0.755829,-1.47991,0.650615,0.409849,-0.133656,1.28179,1.17449,1.10936,-1.20865,-0.237987,-0.00271619,-0.195134,0.404644,0.365527,-0.871509,-0.735046,0.355328,-2.66711,-0.432888,-1.11746,1.07743,0.869866,0.0287627,-0.80626,1.90604,1.68993,0.118302,0.967602,0.598071,0.0782567,-0.44425,-1.32256,-0.383701,0.97027,-1.26516,2.03411,-1.32701,-0.147698,1.41817,0.490783,1.47555,-0.609021,1.8091,1.26947,-0.302354,-0.56558,0.121168,0.397684,0.590383,-1.32092,-0.76211,-0.00608639,-1.43371,-2.131,1.47279,-1.25649,1.21446,-1.1409,-1.07459,-0.490968,-1.00394,1.00727,-0.74262,-1.43092,-0.571507,1.4004,-1.78584,-0.556136,0.768888,0.162302,0.188046,0.291106,-0.0221548,-1.20403,0.0799611,0.397614,-0.0419636,0.183134,0.95202,0.146358,-0.819715,0.356276,-0.511931,0.291637,0.801829,0.135473,-0.70961,0.858282,0.403492,-0.310763,-1.7635,0.680827,-0.299582,0.873188,-0.717237,0.28706,0.61609,-0.0807145,-1.14976,0.720749,-1.19137,-0.8059,0.977133,-0.274045,-1.75484,0.658301,1.10019,1.26471,-0.935362,2.04112,-0.0723777,-0.0273021,0.215952,0.688432,1.91187,-2.13363,-0.871444,0.0536684,-0.5,-0.855303,-1.006,-0.826557,1.8654,-1.73042,-1.11979,-0.750817,1.78223,-1.06883,0.24028,0.504219,-0.115655,-1.16082,-1.66615,1.09251,0.873936,0.25741,0.247807,-0.892798,-1.10769,-0.457909,-1.45625,1.23954,-1.72947,-1.86555,0.607015,0.141644,0.459339,-1.76362,0.730851,-0.827916,0.171001,-0.00409193,-1.4477,0.171501,0.0621031,1.06054,0.734193,-1.87776,-1.01777,-0.334715,-0.999163,-0.893871,0.580859,-0.4648,-0.0454405,-1.06239,-0.485708,-0.18649,0.183898,0.147258,1.38941,-0.00924458,1.37376,-0.786929,1.64006,1.56102,-0.660377,1.17056,-2.08654,1.33751,0.798701,-0.480606,0.326148,0.480966,-2.95018,0.915951,0.711143,-1.68797,-2.0968,0.63127,-0.684938,1.24216,-0.468437,-2.107,-0.0511468,0.461632,0.16939,-0.877695,-1.02968,-0.395112,0.346685,1.9431,0.936589,-0.954691,2.43488,-2.07042,1.32948,-0.0570042,-0.542992,1.24037,2.3782,-0.725584,-0.37974,1.59357,-1.05991,0.252339,-0.0202511,-1.23293,0.852311,1.6364,-0.886255,-0.534393,0.0109042,1.21264,-1.41902,0.92202,0.281355,-0.0989415,0.455719,-0.982809,-0.34483,-1.21798,1.05377,1.04722,-0.263818,-0.40523,-0.245689,0.966661,-1.70557,-0.660914,0.580771,0.57329,-0.16652,-0.269115,1.47582,-0.279848,-1.57288,-0.618695,0.664989,0.317457,-0.210085,2.1516,0.366595,0.297955,0.187075,0.754691,1.2951,0.254636,-1.48539,0.168252,-0.49721,0.656313,-1.97766,0.588812,1.00212,-0.0917906,0.552227,-0.552152,-1.3159,-1.12555,-0.665458,0.508323,0.387026,-0.346049,0.0812626,1.17197,1.23044,-0.487542,0.909535,-1.431,-0.734374,0.041998,-0.306748,1.09982,-3.4389,2.01463,0.681057,0.113295,-0.9693,0.74666,2.15524,1.06184,-0.67524,-0.8234,0.384433,0.379242,-1.069,-0.593478,-0.182449,0.740055,0.786978,-0.602278,-0.311959,-0.754525,-0.461702,1.08191,-1.52337,-1.25355,-0.00478,-1.70806,1.20166,-0.275797,0.551541,0.182685,1.17267,-0.56125,-0.954274,0.372396,-0.593608,-1.24922,1.17742,-0.286584,0.151972,0.275431,1.56686,-1.95199,-2.07504,-1.60292,-1.59238,1.94762,-0.901272,1.34615,0.20828,0.949641,1.27886,0.894074,0.809383,-0.287016,0.235197,0.303184,-0.543697,0.122142,-0.0627035,-0.533831,0.230458,-0.229305,-0.754241,0.643937,0.762606,-0.35893,-0.477848,-1.06594,-0.348908,0.2242,1.67773,-0.618069,-2.11729,1.96733,-1.12125,0.193778,-0.184546,-0.0524092,-0.675654,1.24249,0.330269,0.430734,0.772428,-0.476705,0.277411,0.398078,1.41252,-0.61866,0.796913,-0.0830344,0.866448,2.80511,-0.209006,0.175177,-0.830346,-0.730154,-0.806357,0.889214,-0.165869,-0.417211,-1.72281,-0.932981,0.0685982,-1.0472,-0.554741,-0.770061,0.436092,1.06813,-0.460728,-1.02329,-0.3988,1.39218,-2.5007,1.2406,1.72576,-1.83348,-0.947956,0.58657,-0.168456,0.091408,-2.15765,0.468791,0.394565,0.299855,-0.265564,0.688902,-1.08551,-1.39355,-0.410266,0.225957,-0.551043,0.0664069,0.880211,-0.45759,-1.29825,0.352479,-0.480654,-0.366734,-0.268122,1.17538,-1.32272,0.608906,-0.278042,-0.0363691,-0.310546,-0.925569,-0.965724,0.397357,1.36205,0.378373,-0.897424,-0.86949,1.36743,-0.710334,-0.401769,0.149816,-0.378126,1.14782,-0.294299,0.747141,-2.06719,1.04059,-1.90279,1.18545,-1.02643,0.202906,-0.519809,0.276355,-0.490155,0.0511299,-1.12559,0.180689,0.369363,0.492275,0.00977733,0.68086,-1.72517,1.4585,1.49872,-0.563272,0.0958506,0.590771,-1.03756,0.725309,-0.0386448,-0.676108,-1.95516,-0.55502,-0.470345,1.08668,-1.48853,-0.00988561,1.30373,-0.440101,0.200988,0.900738,1.81695,1.82254,0.209513,-0.28233,0.67733,1.35133,-0.168242,0.0843863,-0.054993,-1.90023,0.617238,-0.923275,-0.550591,-1.22838,1.1623,-1.41237,0.486057,-0.439543,-0.7106,-2.01859,0.126615,-0.637819,1.01074,1.2098,-1.89813,1.18393,-2.42826,1.68273,-0.971241,0.933027,0.283211],[1.91154,1.43368,-1.45082,-0.14117,1.02644,-1.26125,-0.246164,-0.138657,0.356855,-1.06302,0.630686,-0.812367,0.212853,-0.780587,-0.808554,0.920388,-1.03958,-0.237246,-1.97198,0.623535,-0.0566586,0.425751,1.96825,-0.125408,-1.04111,0.605943,-1.40229,-1.08788,-0.335062,0.788578,-0.180719,-1.47353,-0.0787707,1.13939,1.14297,-0.499675,0.0417388,-0.477197,-0.561434,-0.671777,-0.59799,0.088522,0.71554,-1.26283,-1.21773,1.647,-1.29125,0.745927,1.14885,-0.608125,-0.699667,0.782372,0.427791,0.309954,-2.61147,-0.309087,2.05106,0.262021,-0.837575,0.563817,0.167754,-0.476693,0.104756,-0.576589,0.145222,-0.256473,-0.393996,-1.01816,0.972746,-1.86989,-0.794352,0.0873626,-0.113187,0.216767,-0.66203,0.889742,-0.234473,-0.602311,-0.0983453,-0.910064,1.34243,-0.29294,-0.303678,-0.410627,-1.13557,-0.502964,-0.456887,0.484287,0.178203,0.570445,-1.57427,0.465829,-0.344623,-1.99177,-1.74962,0.567464,0.139869,-2.05532,-0.268483,0.431433,0.562261,-1.71339,-1.03513,1.38369,-0.0656185,-0.962375,0.696955,0.051559,-0.0429672,-0.115361,1.15579,-0.00325612,-1.12475,1.33236,1.36812,-0.69542,0.753823,-0.124519,-0.0874491,-0.0252677,0.920846,-0.578992,-0.216171,-1.85115,0.361141,-1.90311,-2.1091,0.861329,-0.40933,-1.017,1.51275,0.310579,-0.771755,1.59405,0.824919,0.228518,0.166418,-0.507008,2.34149,1.94934,-0.974142,-0.75484,-1.32789,-0.155367,1.19115,0.0836665,-0.812142,-1.07135,-1.20721,0.66969,0.615823,-0.647141,-1.05013,0.274121,1.22079,0.5918,1.74217,-1.61114,-1.36138,-1.85243,0.936233,-0.516605,0.0231049,0.324796,-0.183331,-0.383736,-0.320202,-1.01438,-0.31769,0.0192031,0.651116,1.41132,0.143639,-0.239608,0.030572,0.779129,1.17228,-0.0758915,0.868633,-0.123532,-0.201734,0.247205,0.305641,-0.25243,-0.656132,0.589998,0.814546,-0.099887,-1.32301,-0.455984,-2.21364,-0.361061,-0.315498,0.340471,-0.204334,-1.0063,-0.49492,-1.47459,-1.01125,-0.0553752,0.527815,0.0328214,0.661188,1.03181,-0.326322,-0.510061,0.600662,1.49573,0.81911,-1.52229,1.77025,-1.98858,1.31238,-0.231445,1.77049,0.0434424,-1.12607,0.796981,-2.13923,-0.853488,0.708998,-1.83768,0.0131617,0.748919,-0.00914096,-1.51103,-1.08241,0.598634,1.43876,0.427172,0.257535,0.167912,-0.907401,-0.99352,-0.622087,0.517751,-0.00513684,-0.254134,-1.53313,-0.114366,-0.570002,2.0208,-0.403662,-0.235363,0.977172,-1.04673,1.07258,-0.693536,-0.199299,-0.222658,0.247743,-1.08821,-0.110427,-0.46957,-0.100035,-0.801285,-0.570933,-0.120074,0.740544,-0.43219,-0.161799,1.26454,-1.83384,0.356252,1.3092,0.878512,0.0788767,-1.25167,0.411461,0.365936,1.00333,-1.57673,-1.43313,0.0566482,-0.714668,-0.273326,-1.04335,0.541041,-1.33396,-0.403834,-0.0998506,1.39503,-0.0350838,-1.0111,-2.69651,1.60967,-0.322833,1.74668,-2.26927,0.0760862,1.42983,0.115945,0.145393,-1.11416,0.0719512,1.48121,-0.748688,1.71305,-1.34489,1.14663,0.669162,-0.471385,1.13714,-0.659973,0.103253,0.727513,-0.343328,-0.985279,0.880369,-0.432524,1.37404,0.510176,0.228158,-0.940113,-0.14733,-0.705115,0.614507,-0.376924,-1.63032,-0.0650622,0.0597127,-1.47822,-0.136725,-0.605751,1.19493,-0.127941,-0.446339,-0.0594894,0.376253,-0.928088,0.213053,-0.3154,-0.962191,-0.55361,-0.0781346,-0.894989,-1.39605,-1.76658,0.369681,0.255554,-1.89225,-0.0436794,-0.0980172,-0.915718,-0.0894116,-1.00745,0.260581,-0.742106,0.79454,-2.41905,0.409566,0.337839,-0.343324,1.04415,0.477654,0.68068,0.515242,-0.186614,0.665482,0.635075,0.27095,0.469886,-1.46318,-1.21553,-2.45805,-0.358742,-1.57401,0.465808,1.31563,-0.133867,-0.34565,-0.706806,0.543257,-1.17532,-1.66905,-0.27573,-0.590263,-1.14664,0.289192,-0.941307,1.1084,0.113432,-0.641323,1.94077,2.33214,-0.0137579,-0.593739,-0.327602,-0.57747,-0.900049,-0.168752,0.669495,-0.688099,-0.0117659,0.0516944,0.439817,-0.364082,0.44863,0.533201,-0.466004,0.239518,0.235423,1.46031,-0.100795,0.336531,-0.903381,1.36542,1.75755,-0.148368,-0.598124,-0.11368,-2.52502,1.74487,0.510584,-0.148749,1.48401,0.135282,-1.10859,1.84606,0.342582,0.385193,-2.0102,1.26993,1.18356,-0.158653,-0.358333,0.671306,-0.0141699,-0.0665517,-1.8509,-1.01268,-0.319358,0.368217,-0.84518,-1.15503,1.28264,0.79087,0.499858,-0.822077,0.16344,-0.450518,-1.28498,0.297839,-0.59355,0.525563,0.38309,-1.3438,-1.62763,-0.788845,1.6055,0.301666,0.6708,0.677233,-0.714063,-0.707456,-0.746177,-0.589628,0.386379,-1.44882,0.109204,-1.2107,0.980769,-1.05383,1.10253,0.536568,0.327616,0.982573,-0.28813,-0.144731,0.369395,-0.354876,-0.833394,-0.633563,-0.73379,0.196267,0.962389,1.0552,-0.802278,1.72707,-0.662327,-0.0132346,0.619832,0.351929,-0.00103857,-0.957141,-1.7059,0.163912,0.380949,-0.39053,0.403397,0.257969,-0.627297,-0.0609871,0.734615,-0.146353,-0.286495,0.941758,0.578528,2.42915,0.222557,2.99592,-0.421002,2.28866,0.174105,0.0813342,-0.246987,-0.916092,0.779875,-0.993722,0.485904,-0.54568,-0.32292,0.37182,-0.0265495,0.0503752,-0.673564,-0.944838,-0.987544,0.392499,-1.47254,0.121014,-0.00225146,1.33679,-0.349131,1.4672,-2.22791,0.077432,-1.00241,-0.886924,1.34898,1.80093,-1.10104,2.17943,1.35588,1.68044,-0.823035,0.355124,-0.490939,1.35056,0.398977,1.91686,-0.631433,-0.383715,-0.139894,-0.529752,-1.08506,0.0536624,-1.97957,1.37743,-0.0490923,-1.14721,0.294915,-1.42408,-0.244634,0.397,0.0258902,-1.321,-1.87454,-0.105907,-0.23828,-0.519974,0.980055,-0.821386,0.438149,-0.7126,-1.26874,0.687688,-1.89713,-0.014833,0.382246,0.362815,0.0624608,-0.085906,0.617813,-1.38756,-0.629948,-2.21619,-0.97181,-1.44255,-0.184372,0.0522622,0.731473,-0.335008,0.70929,1.40736,-0.251134,0.329688,0.81916,0.205849,-1.45543,-0.598562,-0.0476859,-0.280704,-0.663079,-0.793296,0.40551,-0.744091,-1.20542,-3.39964,1.18833,1.40626,-0.925787,-1.51952,0.728325,1.21411,0.267992,-1.03215,0.0292789,-2.24056,-1.17923,-0.0887856,0.152309,0.980628,0.654365,-0.58066,0.348225,1.18335,0.183623,0.198862,1.23254,-1.74308,-0.493284,-0.261688,0.0286742,-1.12921,0.224837,-1.7758,-0.0422092,-1.30313,0.824063,0.264773,0.93825,-1.18859,-0.119479,2.1227,-0.745853,-0.362093,-0.978095,-0.125215,0.0633935,0.824674,-0.252993,-0.0375838,0.919689,-1.09395,-0.832351,-1.7694,0.378852,0.141317,-0.180728,1.22678,-0.892394,-1.72678,-2.56711,-0.624995,0.27343,-0.668526,-1.49852,1.28238,-0.855071,0.00242532,1.31992,-0.197208,0.270645,0.190325,0.999725,0.200888,0.742834,-1.09283,1.65458,-1.75702,1.09315,0.338077,1.32453,-0.994482,0.818829,1.75667,0.08272,0.941792,0.193172,-1.84829,0.270167,-0.0942505,-1.09134,0.543434,0.98924,-1.74594,-1.07713,0.108289,-0.556568,-1.24968,-0.298898,-0.684469,-1.84578,-0.305737,-0.013725,1.57895,0.607866,1.91311,0.695878,0.0462743,0.265337,-1.13387,-0.583157,-1.87847,0.175119,-0.1832,-0.350296,-0.723425,-1.18048,0.532491,0.040592,-0.0162539,-0.198977,-0.04078,1.34689,0.300122,0.00882993,-0.571168,-0.932374,-0.643916,-0.498997,0.219458,0.262218,1.50613,2.53164,-0.144947,-1.33197,1.32883,-0.190315,0.559676,-1.40532,0.679123,-0.615147,0.00970374,0.485236,0.155719,0.701278,0.920662,-0.591464,-0.140611,0.341654,0.0564603,2.68023,-0.529579,0.508186,0.560277,-1.1078,0.581197,-1.58105,-0.291871,1.45314,0.950834,0.187863,0.158891,-0.854114,-0.045651,-1.03684,0.893183,0.985076,0.840994,0.482754,0.652176,0.0441303,-0.274644,-0.235884,-0.93894,0.8868,-0.0442831,0.915067,0.0265052,1.24896,-0.344515,-0.579053,0.841924,-0.156266,-1.32105,0.35697,-0.497862,-2.03034,-0.487107,1.08334,-0.48627,-0.362323],[0.0192486,0.226319,-0.782162,-1.38253,1.46594,0.191137,-1.21927,0.285496,1.1269,-1.68501,0.59025,-1.39502,-0.261051,0.403787,-0.629465,-1.05075,0.678583,-1.55228,-1.09319,-1.42474,-0.130327,0.450724,-0.234722,-0.655113,-0.204638,0.589856,-1.00921,-0.260183,-1.18497,2.46897,0.26113,2.22065,-1.76368,-0.180619,1.19346,-0.712736,-0.0987774,0.243875,1.12919,-1.07539,0.22002,-0.671946,-1.24689,1.92335,-0.987566,-0.516772,0.446355,-0.180989,-0.347641,-0.626797,-1.49742,0.495231,0.588425,0.485828,-1.22323,-1.56955,0.849116,1.53753,1.82518,0.0831143,0.503122,-1.4201,0.349272,-0.187374,0.874684,-0.816387,1.93224,0.229989,-0.0280566,-0.438811,0.685706,-0.673933,0.376404,1.02757,0.363768,2.62172,-0.422503,1.36845,0.0438412,1.25757,2.55538,0.701933,0.121991,-0.171722,-0.904972,1.80802,2.51903,-1.45916,-2.33374,0.0224135,-2.14683,-0.115696,0.449196,0.91802,0.492765,0.848084,-0.416418,-0.280587,-0.326149,3.23259,0.66714,0.492851,-0.782577,-1.91343,-0.0744061,0.292568,0.14631,-0.544415,1.2864,0.355757,1.10139,1.3404,0.13109,-1.8598,-0.582943,-0.572928,-1.42587,-0.56551,0.124523,0.831353,0.745303,0.481177,0.880412,0.393928,-0.783747,1.59364,1.62903,0.0316428,0.718335,-0.612054,-0.13356,0.515303,-1.93381,0.999925,0.180345,-1.23983,-0.658884,-0.120424,0.714775,-0.549784,-1.03862,0.268422,-0.931893,-2.55484,1.29844,2.36262,-0.0620641,-0.0588019,-0.454708,-0.885164,-0.127675,0.480857,-1.21538,0.556775,-0.456285,0.776953,1.60094,-0.352038,-0.217671,0.0328337,1.54481,2.09425,2.21538,0.115743,0.618856,0.511446,-0.561246,0.773962,-0.289254,1.03343,-0.100007,-0.970495,3.31374,0.778607,1.1463,-0.163352,0.548261,0.868633,1.40947,-1.09228,-0.306057,-1.20215,0.00337574,-1.86459,-0.0855547,-0.286987,0.829182,-0.44893,-0.579927,1.1375,0.0933857,-0.879443,-0.979999,-2.29591,-1.1127,-0.561547,1.53264,-0.774381,-0.151028,1.40924,-0.0211587,0.0280699,1.0401,-0.506761,-0.0840566,-2.54278,-0.0495633,-2.07948,-1.28012,-1.50802,1.28811,0.329465,-0.601871,-0.243474,-0.512826,-1.04342,1.95077,-2.02928,-0.6346,-0.710527,0.178743,-1.27737,-0.42773,0.253737,0.854926,-0.686461,0.683453,-0.451151,-1.6948,-0.523312,1.75332,0.536251,-0.760739,-0.754978,0.0257299,-0.867448,-0.121287,-0.651905,0.0429802,0.0563321,1.79893,-0.0418834,0.447162,-0.772943,-0.166971,1.95074,0.177248,-0.35034,0.713415,0.552475,-1.24519,0.0299431,-0.244324,-0.214077,1.30157,-0.428469,0.0803895,-0.576408,0.811068,-1.67941,-1.16342,-0.292657,-1.18665,-1.07383,-0.91727,0.00634884,-2.04858,0.567382,0.121153,-0.569096,1.17397,-0.241167,0.299209,-1.23689,0.997521,1.83383,-0.804455,-0.539553,1.49073,0.916794,-0.375341,-1.08714,0.735279,-0.67763,-0.406116,0.670907,0.167213,-0.327704,-0.0174786,-0.00445807,0.994717,-1.74977,-0.590471,-0.747461,0.470396,1.57993,0.39165,-0.128799,-0.520632,0.281731,-1.08533,-1.47032,-0.654308,-0.0609148,2.23007,0.127208,-1.01238,-0.100501,1.39349,-0.267475,0.251963,-0.964426,1.50789,-1.79556,-0.719875,-0.0142999,-1.70389,-0.59881,-0.577492,-0.0840827,-1.18974,0.0460809,0.347329,1.88578,0.343394,2.07718,1.68148,1.09476,-0.618372,-0.0385974,-1.25799,-0.357068,1.84083,0.0767516,-0.735938,-0.118087,0.312455,-1.94221,-0.910525,-1.258,-0.0126785,-0.542876,0.170857,-0.903086,-1.19122,0.40777,0.559247,-1.76918,-1.06688,-0.144969,-1.46113,0.109899,1.20639,0.626681,-1.21069,-1.63273,0.270128,-0.389984,0.785992,-0.394825,-1.28187,0.702849,1.57667,-1.16139,-0.166672,1.5908,0.37885,-1.00427,0.820614,1.02116,-0.469284,1.61682,-0.222922,-0.292983,-1.07008,0.0238148,-1.48243,1.08104,-1.45275,-1.2957,-1.56089,1.64647,-0.282713,0.435792,-0.102384,0.874078,-0.395979,-0.866097,-1.08378,1.21464,0.312819,-1.71907,0.447149,-0.0265495,-0.367341,-0.0273866,-0.0984396,-1.01839,-1.09796,-2.12224,0.639832,1.21094,1.18514,-2.99509,0.14143,-0.263801,-0.14938,1.79223,0.025383,0.649766,0.997073,0.682379,0.0988748,0.289453,0.481364,-0.806942,-0.635138,-0.48606,-0.171283,-1.52944,0.595572,-0.974102,-0.690082,2.03047,-0.228178,0.809479,0.744207,2.26788,0.285948,0.0661437,-0.489381,-0.252044,0.618839,1.07523,-0.0948644,0.819532,-0.957965,-1.24155,0.581781,-0.810176,-0.893042,-1.43146,-0.55799,-0.694102,0.0484266,0.372318,-0.481707,-1.04441,0.436957,-0.639514,0.563924,-0.961694,-0.935327,0.927568,-0.112144,-0.518845,1.45982,-1.84679,-0.0984823,0.139911,-0.166874,0.955856,-1.54104,-0.37461,-0.0419254,0.689887,2.54284,-0.142519,-0.144317,0.838156,-0.328929,-1.02429,1.63297,0.257165,-1.49166,0.0677653,-0.552481,-1.33344,1.2462,0.232697,-0.460967,-0.329416,1.14778,1.05748,0.165507,0.300493,-0.724102,-0.726061,0.577885,0.285977,0.245173,-1.7784,-0.466171,-1.4067,0.520606,-1.27174,-0.77125,1.11841,-0.459301,-1.30284,-0.0755757,0.945612,-0.780918,1.19573,-0.279066,0.579336,-0.287737,0.365099,0.733509,-0.140494,0.531193,0.638261,-0.64728,-1.15508,0.321869,-0.56304,0.0253544,-0.115381,-0.0793186,0.550286,1.04363,-0.840926,1.01581,-1.72777,-0.0972116,-1.77827,0.176596,-0.410935,-0.705584,-0.249707,-0.110363,0.219821,0.863806,-0.371509,-1.46357,-0.588089,-0.146978,-1.2981,-1.66768,-0.208714,-0.248407,-0.842698,-0.527798,-0.142461,-1.55582,0.673024,0.341704,1.01782,-1.63976,-1.45421,0.716612,-0.480055,-0.334991,2.3985,-0.132816,-0.781845,-0.7319,-1.2594,1.70912,-0.438102,0.804369,-1.39995,-0.316618,-0.630888,2.91297,0.568318,-0.348913,0.332799,0.847365,-0.379892,1.17256,1.60531,-0.908253,-0.405446,-2.88003,0.100073,0.637344,0.467164,-0.823642,0.677825,-1.8105,-1.68997,-0.618526,0.688479,0.127874,-0.0946296,-0.829607,-0.676616,1.00852,2.32605,-0.252861,1.48985,0.0938758,0.259811,-1.35391,-0.0705533,1.90176,-1.14494,2.09504,-1.64437,-1.26347,0.0745614,-1.54503,2.0206,-0.240673,0.104587,-0.710594,0.879403,0.156006,-0.107486,-1.78121,-0.0884129,0.737439,0.357448,-1.19054,-0.283618,0.521481,-1.11387,0.340166,2.35476,-0.643285,-2.54299,-0.537014,-0.874896,-0.280928,-0.161179,1.57979,-0.135253,-0.734505,-0.0624665,-2.24476,-1.31895,0.727663,-0.856961,-0.340165,1.17393,-1.15912,-0.678292,-0.0429908,0.36616,0.282375,-2.14591,0.71883,0.1863,0.52734,0.556666,0.374529,1.0645,1.58787,-0.595356,-0.390945,-1.11255,0.275225,0.144071,0.832466,1.1551,-0.831933,-0.621245,-0.847553,-0.0201826,-0.508573,0.583133,1.16168,-2.16705,0.0849167,2.31661,0.0238889,-1.47525,-0.441864,0.1675,1.08634,-1.96668,-0.886911,-0.0450219,0.523694,0.913674,-1.20455,0.36314,0.958293,-0.346245,0.919816,0.157274,-0.450086,-0.71475,-0.929899,-0.527536,1.38388,0.604917,-0.371353,-0.430126,0.000241581,0.814013,0.826025,1.74817,1.23719,1.22978,-0.590265,-0.113016,1.07672,0.849976,0.36434,-0.767968,0.491322,0.619757,0.597791,1.2043,0.687153,-0.117759,1.26818,-0.330947,-0.767643,-0.770361,0.367194,1.40671,0.402786,-0.254531,-0.783567,-1.01281,-1.33345,0.415629,-0.189007,1.92673,0.272966,-0.653873,-0.267594,1.47697,-0.795034,1.03705,-1.51761,0.809328,0.311922,-1.02111,-1.42305,-0.0198433,0.633612,-1.60735,1.70044,0.492605,0.480225,-0.0303255,0.0750631,-0.412951,1.05642,-0.0545352,-0.158761,-1.69049,-0.304731,-1.46584,-0.31602,-1.0466,-0.535182,0.532988,0.495801,-0.297434,0.915348,-1.23943,1.3401,-0.345311,-1.21199,1.06753,1.4885,-0.609504,-0.536382,0.434318,0.565943,-0.318301,0.30223,-0.290465,0.741556,-0.51904,-1.13592,0.135723,0.617428,-0.809839,0.0985568,-0.741467,0.0351437,-1.37961,-1.27508,-0.605945,1.43324,-1.58864,-1.13223,-1.2137],[-0.149843,0.0884746,1.35092,-0.0472721,0.15931,1.1561,-0.579678,0.620666,-0.398477,1.44825,0.0866703,-0.152357,1.66381,-0.205417,-1.52216,0.245166,-0.662414,-0.943495,-0.443798,0.556074,-0.80723,-0.585072,1.55401,-1.00868,1.16165,-2.30184,1.58621,-0.435005,0.775024,-0.0397701,-0.648371,-1.06913,-0.108605,-0.695234,0.0870748,0.667712,0.0135385,-0.184911,-0.838809,0.127287,0.88244,-1.31107,-0.512551,0.597399,0.357253,1.272,-0.756449,-0.151126,0.659839,-0.297193,-0.746305,0.321546,0.709645,1.45505,0.879049,0.245651,-0.207301,0.631523,0.947969,0.738093,1.69451,-0.773555,-0.365934,0.916203,-0.212686,0.65504,-1.63146,-0.826655,0.956445,-0.460945,0.650801,-0.300817,-0.517674,-1.2304,-0.542181,-0.318779,-0.66051,0.267142,-0.554061,-0.242841,0.883313,1.27081,0.283438,0.0319249,-0.956612,1.43484,0.0837023,-0.468218,0.0679787,-0.862862,-0.804901,-1.14739,-0.401995,-0.301552,2.12261,1.10262,-1.20145,0.854896,0.867424,0.341203,1.14852,0.621026,0.925629,0.376056,1.05939,1.39433,-0.771039,-0.290419,1.41734,-1.48767,-0.533437,0.15605,-0.579751,0.259003,-0.496461,-0.457085,-1.45052,0.828163,-0.0823292,-1.40151,-1.2735,0.805385,1.01953,-0.582554,-0.785611,-0.450032,1.33267,0.00128071,-0.740769,-0.414881,0.76279,-0.796825,-0.733625,-0.82142,-1.63762,-0.447293,1.4137,-0.849052,-1.03004,0.592995,0.596316,0.351068,1.04984,-0.403396,-0.114206,0.376531,0.021588,1.49486,3.02263,-0.244478,-0.917078,0.429292,1.40491,1.55005,-1.4972,0.582952,0.523965,0.974335,-0.511455,0.520803,1.15022,0.672538,1.11029,-1.71872,0.767125,1.02623,-0.351193,-0.133022,-0.650284,-0.631223,0.461724,-0.503647,-0.991215,-1.21368,0.127236,-2.00396,2.09082,-0.977774,2.1268,-0.00543415,-0.898286,0.162029,0.948391,1.12809,0.101427,-0.289954,0.0985371,1.04964,1.61742,1.03507,-0.632052,-0.778407,-1.68994,0.404584,0.425469,0.188958,0.168177,0.442424,0.537671,1.54191,-0.982089,0.783499,0.497924,0.176068,-0.443451,0.499155,-1.14038,-1.19809,-2.29127,-0.510363,-0.218767,-0.0945198,-1.14973,-1.34265,0.379847,-1.73254,1.86985,-1.22452,-1.79166,-0.929203,-0.220478,-0.418173,-0.410757,-0.816701,0.149881,0.790959,-1.48869,-0.127541,-0.733033,-0.492214,1.09455,0.580028,-0.469278,0.721999,-0.710691,-0.404866,-1.17433,-0.232529,-0.864987,1.4151,1.92721,0.243369,-0.59476,1.10724,-0.94242,-1.19659,0.0625857,-1.17595,-0.293876,-0.384857,-0.476106,1.57976,0.861008,-0.961296,1.63151,-0.212132,1.24903,-0.489414,0.609255,0.880803,-2.33728,-1.61565,1.00072,1.37755,1.19518,-0.629508,1.37596,1.04224,1.55473,-0.307805,1.14812,2.32333,-1.07943,0.383264,0.733401,-0.188511,0.214649,1.71068,0.859133,-0.507786,0.859195,0.701953,0.195017,-1.18751,-0.0447424,1.65035,-0.251922,0.963154,1.02915,-0.33442,-1.17105,0.862248,-0.92977,-0.946584,-0.584429,-0.0777043,1.07045,0.763596,-0.866375,-0.716125,-2.62802,1.76825,-0.0922545,0.496822,2.46068,-1.49313,-1.40347,0.152986,-0.296735,0.234958,-1.15059,-0.310533,-0.854185,0.209205,0.786596,0.378657,-1.19399,0.647068,-0.0491973,0.540015,0.171861,-0.523072,-0.28518,1.50209,0.518544,0.0835522,0.740623,0.182807,0.0538134,-0.481439,1.41296,1.4849,-1.81815,-0.163895,-0.23684,-0.556417,-0.379413,0.0158647,-1.60497,-0.238909,1.94766,0.78976,-1.31865,-1.14265,-0.572294,-0.90219,-1.02286,1.02023,1.1718,-0.535094,0.846208,0.349299,-0.279211,0.221102,1.16037,-0.288719,-1.92107,1.05929,0.545316,1.69242,1.83494,-0.231406,-1.3565,1.10867,-0.407762,-0.481407,1.45127,0.690319,0.233862,-0.171239,0.594591,-0.894673,-0.86987,-0.11941,-2.42096,-1.74708,-1.39462,-0.567348,-0.391788,0.400148,-1.18255,1.19722,0.546364,-0.613199,-0.101532,-1.25372,0.168068,-0.52424,0.303863,-0.863485,-3.1276,0.835624,-0.478226,-0.534738,-0.970297,-1.03158,1.1679,0.437586,0.63227,-2.26878,-1.47655,0.401216,0.985368,1.54868,-1.21006,0.677359,0.0738948,0.190075,1.05395,0.886265,0.361211,0.594611,1.83884,1.39315,0.49996,-0.597962,-0.727623,-2.59671,1.31752,0.160349,0.299396,0.777075,-0.468982,-1.63416,0.637182,0.375108,-0.768676,-0.882651,-1.63767,-2.32428,0.227734,0.122529,-1.49368,-0.507277,-1.31024,0.395022,-0.825623,0.100523,2.44907,0.827053,0.156255,0.16146,1.4801,1.95156,0.925505,0.877762,0.0687794,0.78429,0.487815,1.72447,1.86106,0.714491,-1.68188,-0.535515,-1.21414,0.0221818,-0.519692,-1.06317,1.18713,0.975419,2.372,0.70964,0.867495,0.875397,0.0208519,0.790267,0.320899,-0.412902,0.882449,1.36874,-0.940812,0.220516,0.975464,-0.983546,-2.00065,1.00455,0.35441,0.399829,-0.0438224,-0.481446,1.10446,0.689672,-0.871197,-0.427665,1.21329,-0.914909,0.163381,0.485364,1.14833,-0.420363,0.0228676,-1.7045,-0.305585,-0.224327,0.154087,-0.861039,0.418158,-0.0523041,-1.46947,1.43433,1.08609,-0.259515,0.327521,-1.42143,-0.0275258,-0.709064,-1.73497,1.11719,-0.776777,-0.22594,0.0411112,-0.369714,-0.396259,0.130871,-1.53859,-0.405918,-0.558349,0.782979,0.360807,-1.35226,0.586507,-0.923192,-1.08499,0.282331,0.245573,0.536124,-0.407435,0.191396,-1.26377,-1.25737,1.31917,0.319684,-2.83231,-0.286223,0.547751,-0.501339,-0.051136,-1.30804,1.11533,-0.0813464,0.75453,1.34861,0.954724,0.425032,-0.280988,0.0576878,0.67285,-0.0948631,-1.10623,-0.178852,-0.744798,0.536623,0.536328,-0.416645,-1.01692,0.787195,-1.73605,0.184554,-0.245709,1.21204,0.733771,-1.95302,0.465629,1.80687,-1.51984,-2.02716,0.400262,0.833527,0.242524,0.58632,1.05035,-0.00323873,-0.755666,0.0341958,-0.327482,-2.80985,-0.203045,-2.30359,0.310099,0.0686722,0.8163,0.0895898,-2.03249,-1.32673,0.0602544,0.886545,0.852267,1.35113,-1.17768,0.180132,-0.404531,-1.34289,1.10157,0.751073,0.484713,1.4624,-0.826161,-1.7622,0.242943,2.09374,0.788276,3.6109,1.91709,0.155064,-0.510227,-0.447637,0.570916,0.171914,1.25807,-0.994455,-0.358772,-0.799315,0.188626,-0.797091,-1.11272,-1.57941,0.810955,-0.814368,0.637572,-0.885258,0.439182,1.013,3.2791,-0.473498,-0.169028,-0.568632,0.323608,-0.740053,0.158089,-1.80508,-0.505534,0.269949,0.0227905,-0.935488,0.409426,-0.574501,-0.653256,2.20734,-0.178891,0.278262,0.625872,-1.49418,-2.63963,0.295454,-0.0553393,1.40892,-1.27315,-1.32158,0.10238,-0.000292271,-0.23372,0.389618,0.365062,0.0623055,-0.457567,-2.07775,-1.17098,-0.696734,0.284524,-0.408531,0.181134,0.615321,-0.172128,0.689448,1.31737,2.41741,0.557245,-0.676806,-0.95108,0.115182,-0.127008,0.405478,1.05119,0.132311,0.406949,0.366199,-1.36591,-1.64294,-0.964725,0.100251,0.246417,-0.610761,0.122126,0.615942,-0.623139,1.62829,-0.418252,-0.876566,1.03774,-0.328752,-1.15465,-1.09684,0.0922049,1.28476,1.17708,0.24123,0.146629,-0.125429,-0.788174,-0.984171,0.57463,-1.35135,-0.684971,0.949524,-0.693325,-0.658755,0.198537,-0.776898,-0.320317,2.07365,-0.363083,0.64136,-0.353892,0.723971,-0.0501394,2.13118,-1.39761,0.632955,-0.989928,-1.03298,-1.41776,0.423838,-0.721804,1.44938,-0.220551,-1.23444,-0.484645,0.290022,-0.119441,0.40337,1.00758,0.647716,0.00773067,-0.641183,0.444189,0.689738,-2.23301,-0.762391,0.454162,-0.00308142,-0.182581,0.594728,-0.883448,0.641187,0.362843,1.55791,-2.19945,1.18053,-0.65223,3.30223,-0.307543,0.334646,0.497352,1.08763,1.03678,-1.82128,-0.778987,0.388571,0.146144,0.475781,0.331552,0.747874,0.781225,-0.113939,0.558746,-0.526083,-1.91635,-0.100256,0.670499,-0.058314,0.682212,0.132682,1.441,-0.121257,0.527486,-0.337967,-0.0796434,2.77003,0.295144,0.478751,1.42034,-0.340418,0.43206,-0.719554],[-0.785745,0.340027,-0.474753,-0.0515598,-0.146206,-0.262649,0.23106,-0.40874,1.32939,0.375,0.957726,-1.19493,-1.8187,-0.651224,-0.426188,-0.0959324,-0.202962,-0.140517,-1.91497,-0.761573,0.861557,-0.483218,-1.65884,-1.52618,-0.403413,-1.00366,-0.356366,0.324969,1.86718,1.19862,-0.0498279,-1.08208,-0.0789251,0.868663,-0.0894913,0.143913,2.80959,0.691295,-0.447771,-0.674455,0.397484,-0.0966628,0.991129,1.47528,1.29682,-0.923643,-1.94821,-1.2213,0.956932,1.54897,2.84112,3.03874,-1.378,0.518838,-0.294487,0.201151,-1.64437,2.26968,-1.15022,-1.47961,-1.62453,0.059737,-0.381054,0.46948,1.89554,0.117546,-0.593164,-1.1715,0.74021,-0.603736,-0.306925,-0.846252,0.492792,2.03588,-1.00567,-1.28972,-0.371173,-0.570583,-1.42038,-0.696573,0.307689,-2.2885,0.08046,-1.74849,-2.12466,-0.197729,-0.541664,-0.871575,-0.0790525,-0.169477,-0.384558,0.237996,0.254151,1.523,0.229883,-0.899593,-1.37466,1.16372,0.0419246,-1.2251,0.743711,-0.33628,-0.81074,-1.36386,-2.73058,-2.0522,0.175519,0.621744,-1.24363,1.04139,1.70071,-0.686941,0.16052,0.166231,0.0991292,-0.309724,1.55872,0.966304,-0.088279,0.14103,1.99918,1.50542,-0.366558,0.981864,0.412446,0.455777,-0.475456,0.312924,1.4726,-0.925039,1.48025,0.2282,-0.610123,-1.30681,-0.320947,-0.782468,1.46812,1.35959,-1.69146,-0.258679,-1.96803,0.00970841,-0.579319,-0.00346787,2.08296,-0.0961218,0.659663,-0.128289,0.803067,-1.00394,1.05984,-1.08547,0.722169,-0.738842,1.25202,-0.411821,-1.30282,1.2684,-1.42318,0.791778,1.11691,0.976891,1.27037,0.0855714,1.28225,-0.398609,1.38937,-1.17068,0.475661,-1.45606,-1.71975,1.05693,0.445068,1.72454,0.644334,-0.620778,1.27211,-0.347811,-0.723701,-0.95322,0.25969,0.399791,0.229497,0.58154,-0.472107,-1.34965,-0.587804,-1.24905,-0.00293928,1.50419,-0.558207,-0.232051,0.058679,0.709357,-1.06348,0.390232,-0.835709,-0.415625,0.194788,0.875891,0.121761,1.96345,-0.00401423,1.04016,1.22042,-1.42125,-0.654543,-0.000491921,0.1953,0.549483,-0.465636,0.492348,-0.31521,-1.79669,1.15885,-1.74544,-0.148833,0.345186,0.616896,0.275989,-1.07404,-0.548204,-0.41627,1.24568,-0.252214,2.00929,0.81562,0.889863,-0.875754,0.295348,0.841627,-1.50306,0.0832239,0.34227,-0.574562,-0.819543,0.0335064,-0.198749,0.594347,0.52524,0.358326,1.19107,-0.619225,-1.08148,0.972771,-2.2692,0.880167,-0.620854,-0.160695,-0.966075,0.918519,0.596045,-1.49494,-2.05547,0.0413552,0.139484,-1.59241,0.0594492,-1.12619,-0.883181,-0.959357,0.0262596,-0.778817,-0.421757,-0.0572898,-0.670255,-3.45605,-0.898198,-0.212654,1.7815,0.0495886,-0.811571,1.43749,-0.0604829,-0.871792,-0.328263,-1.00199,-0.802824,-0.907651,-0.259683,0.248655,-1.81301,0.404253,1.49989,-0.672326,0.424584,-0.251274,-0.178955,1.37423,-0.94786,-0.920496,-0.907104,-0.948092,-0.64778,-0.656178,-0.397439,-0.420142,0.695596,1.51162,0.922687,0.12093,1.16551,0.0308234,1.44692,-0.328965,-0.829776,-0.721099,-0.381224,1.98198,0.784292,-1.77682,-1.17783,-0.976342,-1.08206,0.38486,0.433999,2.25612,-0.310363,-1.58636,-1.16879,1.86864,-0.0117914,0.220597,1.08655,-0.680156,0.131269,-0.341139,1.03868,-0.729306,-0.724606,0.716371,0.130889,-1.24146,-1.47752,-0.909705,1.01546,-1.21645,-1.17968,-0.0268518,0.448616,-0.719305,0.603797,-0.287212,-0.855626,-1.45977,0.122918,0.314306,-0.419865,1.07571,-0.234797,1.06725,0.0993365,-1.329,1.03114,-0.462569,0.726648,-1.14757,0.351053,0.842314,0.665069,0.601969,-2.09489,-0.404017,1.87151,-1.43947,-0.82316,-0.324105,-0.248376,-1.39775,0.104401,0.226607,-2.90961,0.552697,1.89507,0.831039,0.376974,-0.839681,-0.518699,-0.457085,-0.248329,1.5045,-0.610526,-1.14648,1.99504,0.707626,-2.12903,-0.757264,1.23629,-0.439878,-1.09004,-0.355452,-1.55599,0.738751,0.0376712,0.732515,0.251483,-0.688774,-0.892367,0.0680196,0.255903,0.0173497,0.463856,1.35135,-0.389701,1.02199,-0.545532,-0.565245,-0.427628,0.526521,-0.267721,0.558443,0.293957,-2.2626,-0.0664463,-0.474029,-1.1073,-1.46559,1.51147,0.256109,-0.923969,1.05413,0.840739,-1.24206,-0.111276,-0.810453,0.280658,-0.511,0.165543,-0.510601,0.883281,0.839374,-1.63778,0.879332,-2.95001,0.246019,-2.99736,1.03204,-0.363074,0.913113,0.270328,1.22275,-0.128703,-1.68328,1.17007,-0.163466,-0.221435,-0.943159,1.11086,-0.281868,0.845509,0.456407,0.671262,-0.00994247,-0.265579,-0.371691,0.769661,0.359389,0.505067,1.26526,0.200906,2.63854,-1.93839,0.0728708,-1.52969,0.655473,-0.241147,0.0226374,-0.223089,1.36438,-0.0758173,-1.05555,0.0370501,-0.0525164,-0.674873,-1.56226,-0.263476,-1.70876,1.48228,-0.21958,1.92615,-1.00371,-1.41079,1.87515,1.49892,-0.604835,0.461505,-0.306146,0.238222,1.29933,1.75076,-1.6093,0.955106,-1.76183,-0.495206,0.749979,-1.48469,0.976818,-0.682064,0.482387,-0.0493722,-0.235349,0.432377,0.425692,-1.859,-0.00419531,-0.287793,1.08624,-2.18537,-0.678766,0.886395,-1.23313,-0.422973,1.12317,-0.481584,-0.61033,-1.2984,0.617686,1.28738,-0.801329,0.453231,2.11072,0.827489,-0.318541,0.787044,2.32249,0.753686,-1.30995,0.403348,0.303315,0.0821466,-1.65162,-0.483441,1.79858,0.860081,0.741251,0.542629,0.132198,1.43411,0.94116,-0.307793,-2.41316,0.316679,-0.6221,0.886827,-0.842023,1.23395,-0.0856946,0.383755,-0.146144,0.403739,-0.938219,-0.277786,-0.378519,-0.328183,-0.0453018,0.934262,1.27039,1.45138,1.04893,0.364599,-0.125572,0.134334,-1.24264,-0.898975,1.28165,1.68961,-0.396373,-1.62084,-0.19448,-1.31399,0.384717,0.732211,-0.0375653,1.05513,0.112867,-1.22828,-1.44106,-0.666732,-0.349047,1.20008,1.44911,-1.75642,0.272673,-0.381737,-0.369144,-0.46972,1.59528,-1.31804,0.0690046,-0.600559,0.379209,1.0482,1.60932,-1.06335,0.808544,1.30487,0.308694,-0.00393482,0.722812,-0.180181,-1.12013,0.0247682,0.0530397,-1.14393,0.0598504,0.759325,-0.261493,-0.953578,0.9527,-0.30613,-0.789524,-1.3,-0.957696,0.889847,-0.297018,0.59531,0.935443,0.0810054,0.324679,-0.783244,0.268783,0.831904,1.36022,0.711484,0.420462,-0.354294,-0.046794,0.133174,-0.311368,-0.861571,-1.32601,1.32098,-0.55798,-1.10928,0.870024,0.221292,-0.590051,0.848336,-1.00697,-1.27817,0.562674,1.71254,1.01096,-1.20787,-0.890894,1.4759,-0.709615,0.72953,-0.422171,-0.502556,1.08787,0.251662,-1.08112,0.11926,-0.610543,-0.853327,-0.594712,-0.459125,-1.35595,-0.571802,1.46515,-0.946198,1.1373,0.264236,-0.130368,0.306554,-1.38286,0.131426,-0.408981,-0.129708,0.534043,-0.446413,0.107981,-0.0212816,-0.998376,0.235693,-0.511872,0.569111,0.834903,1.48138,-0.50338,-1.82306,0.328748,-1.81242,1.49376,0.27734,-0.528036,1.13582,1.30129,-0.212227,0.0403732,-3.52173,0.380871,0.043235,3.04584,0.103856,-0.490534,-0.73116,-0.899706,0.4966,-1.67574,-0.423679,-2.40732,0.680145,-1.25634,-0.842306,0.0484066,0.614178,-0.0830379,0.479118,-1.50756,-1.25588,0.569372,0.5407,0.184603,-0.230899,0.369328,0.487146,1.07389,-0.410397,-0.261121,-1.07736,-0.278753,-0.366001,-0.572548,0.466194,-1.52644,-0.779254,0.193218,0.189129,0.385361,1.50228,0.902313,-0.331849,-1.08244,-0.921602,0.835029,0.628659,-0.434038,-0.956311,-2.34939,-0.4149,-0.676976,-0.980671,1.14451,2.00327,-0.848117,1.83052,-0.0947194,0.100032,0.437596,-0.127375,-0.93914,1.20892,0.125345,-1.17478,1.52504,-0.523787,0.298685,0.625397,0.832536,0.497576,0.373941,-1.50611,-1.96143,-1.8156,0.5699,0.578163,-1.87876,-0.380958,-0.639029,0.786033,-0.319172,-1.67222,-0.910776,0.414199,1.47031,1.12011,-0.818034,-0.684101,-1.24094,-1.25247,0.934851,0.916156],[-1.32417,2.09659,1.96131,0.766851,-0.133681,-1.83568,-0.524626,-1.50667,-1.36795,0.512377,0.110422,1.88564,-0.39532,2.01115,1.19567,1.15132,-0.306657,0.713257,-2.26065,-0.549516,2.86577,1.35207,-0.837239,-1.05903,0.438861,0.917734,0.197736,-0.766331,-0.258084,1.77212,-0.489031,0.981909,-1.48519,0.241569,-1.66192,0.496403,-2.21531,-0.302434,0.18759,-1.78338,-1.14232,-0.735684,-0.641934,0.456384,-0.325004,-0.952784,0.253635,-0.0325394,1.5524,1.09403,-0.422392,0.934231,-0.653543,2.6444,-1.10875,1.47488,0.222506,-0.172011,-0.387151,-0.732085,0.266551,1.37056,-0.341736,1.73133,0.530277,-1.07161,0.0386565,-0.449107,1.27054,-1.25406,0.566349,0.551136,-0.494682,0.80312,-0.3096,-0.110085,1.2471,-1.20095,-0.668338,-0.099885,-0.0613619,-1.37041,-0.169317,-0.769314,-0.273137,-0.353834,0.461799,1.20771,0.483863,2.96305,0.543773,-2.51191,-0.63918,0.67407,-0.561037,-0.991882,1.30311,-2.00101,0.790043,1.32491,0.96141,-0.610836,-0.322193,1.8943,-0.00822038,-0.386152,0.346096,-0.840642,-0.0208087,-0.847155,0.956207,-1.30568,-1.6941,-1.48271,-0.250482,-0.0873439,-0.41624,1.29531,0.131957,-0.510786,0.434357,-0.146717,-1.87595,-0.767995,-1.45793,-0.19221,0.885059,-0.219842,-0.795329,-0.202079,-0.195521,0.957476,0.160071,-2.17111,-0.295953,1.83612,0.711402,-0.324493,-0.996355,0.929553,-0.732951,-0.0757817,-1.7817,0.352557,0.490612,-0.643112,-0.806759,-0.387478,1.27386,-0.17287,-0.802391,0.717062,-0.95028,-0.649428,-0.269264,1.41981,-1.2261,-0.177932,-2.03197,0.34393,-0.203702,0.159583,0.664866,-0.492151,-0.209136,-0.392316,0.34368,0.319417,1.69908,0.450888,-1.16538,-0.933881,-0.848592,-0.277872,-0.637869,0.818966,0.405135,-0.528938,1.48508,0.596429,0.549063,-0.295968,-2.2429,-0.504009,0.880317,-0.162534,-0.191092,-0.305109,-0.612459,-1.64604,0.00198315,1.09959,-0.810862,0.325645,-1.90888,-0.234245,-0.232239,0.17757,-0.192673,0.0220988,-0.407714,-0.889725,-0.894657,-0.240335,-0.688115,-0.264868,0.0418528,0.387011,-1.07526,0.679785,1.08992,0.111865,1.18352,0.583225,-1.73007,-0.718874,-0.739321,-0.522332,0.814327,0.0307942,0.583082,1.99022,-1.22658,-0.944655,0.637539,2.46729,-0.980789,0.323644,-0.142561,-0.847361,3.54558,-0.0456136,0.39471,0.027916,-0.135127,-0.199232,-0.830576,0.113631,-0.640488,0.629347,0.056077,-0.0240936,-0.104037,0.241822,0.566219,0.0171438,-1.40016,-0.496384,-1.85588,0.484509,1.0989,-1.32716,-0.23034,-0.0565981,-0.233528,-1.11256,0.721674,-1.50375,0.172686,-0.447509,-1.09543,-2.37224,-1.20065,0.425314,0.419236,-0.196354,1.01562,-0.663071,-2.18498,0.697623,0.257669,0.205026,1.21504,-0.524666,-1.00647,-0.695411,0.912276,-0.786467,-0.955632,0.319459,0.100068,-1.54723,0.534787,-0.0795517,0.956148,1.81092,0.754907,0.180058,0.139484,-1.64843,-0.412046,0.047086,-1.16064,0.44587,-1.14456,0.68728,-1.75304,1.22405,-0.551014,-0.51162,0.405202,-0.582683,-0.455254,-0.487557,-0.0972201,-0.176086,-0.379121,-2.06139,-0.989909,-0.519733,-0.54336,-0.0574533,-0.957939,0.365985,1.61526,0.707935,-0.384028,0.00489024,-0.0144926,0.231723,-0.965855,-0.0251291,-0.851573,-0.0466252,-0.41486,2.29747,0.574266,0.879763,-0.0510618,0.602143,1.00865,-0.307519,0.910443,-0.239057,-0.420543,1.06454,-1.42502,-1.54064,0.0885479,-1.79511,0.331915,-0.272753,0.118138,-0.166437,0.291342,-0.696148,-1.63977,1.06261,1.63856,-0.384186,0.203473,-1.4377,0.187508,-2.05773,-0.880393,-0.596786,-0.839825,-0.653748,-0.919823,-0.681053,-1.60336,-0.775036,-0.126666,0.301646,-0.486113,0.320354,-1.11878,1.34155,0.151967,-1.39994,2.36768,-2.22424,-0.489744,-0.363622,-0.260092,1.66598,-1.76001,0.194105,-0.575637,-1.24452,-1.41178,0.245371,0.0429599,-0.574333,1.03695,-0.25633,-0.560771,0.303883,0.928937,-0.0605382,0.107315,-0.247161,1.12624,0.977136,-1.62711,-1.2197,0.30795,-0.558442,-0.528036,0.435289,-0.325601,-0.345736,-1.06783,-0.19911,0.591412,-0.303711,1.11175,0.305682,-0.0395531,1.32247,0.721004,0.999271,1.00003,1.51147,0.0705953,1.17115,0.20561,2.06102,-0.553603,-1.20717,1.53469,0.287998,-1.72406,-1.21586,1.40031,-1.04174,-0.732938,0.336929,0.501689,-0.615155,1.41899,-1.61617,1.07737,-1.70455,0.946707,-1.94067,-2.10361,-0.448083,-1.48444,-0.891371,0.408509,2.71819,-0.239215,-0.593085,-0.526043,-0.148075,0.661937,1.87315,-0.545802,-0.613662,-1.83428,-1.48961,1.18321,1.68969,-0.703038,1.04788,0.288974,-0.0697744,-0.644619,1.29531,0.238206,2.20901,0.955792,-1.93894,-1.95295,-1.52502,-1.58691,-0.914362,0.575106,-1.43526,-0.28201,-0.827351,-0.229452,-0.479484,-0.225151,0.138396,-0.248302,1.31622,-0.315664,0.170821,0.55023,-0.597729,-1.68326,-0.294502,-0.33644,-0.222759,-0.0175082,0.973409,1.86268,0.986293,-1.27288,0.819754,-0.432891,-0.120694,1.68923,-1.71095,0.452751,-0.0543051,-0.415998,2.53508,-0.15605,-0.361553,0.26519,2.73041,-0.296333,0.886652,-0.640381,-1.05571,-0.364763,0.0393723,-1.1582,-1.94759,1.48356,1.48829,0.0964789,-1.21345,1.44655,0.455478,-0.115434,0.452048,0.532567,0.451421,0.438657,-0.638254,0.496458,1.68974,1.03896,1.6874,-0.0135783,0.890859,2.06952,1.01511,0.115027,0.465286,1.09522,-0.999054,-1.10088,0.336826,0.0967845,-0.0534511,-1.84546,0.708415,-0.872503,0.564249,0.502039,0.320179,-0.966968,1.7612,-1.42211,0.897865,-0.228346,0.122602,0.40476,1.37304,0.947796,-0.259439,-0.124507,0.54008,-0.116709,-0.0535648,-1.47208,0.233071,-0.272653,-0.219855,-0.593993,1.863,0.587964,-0.776988,-0.200629,-1.29292,-0.157338,1.2077,-2.31712,-1.68377,-1.71176,-1.13557,0.432953,0.60383,0.692394,-0.307455,0.873978,0.321542,0.0462578,-0.374488,0.46779,-0.758681,0.30432,0.692831,-0.392334,-0.849307,0.491848,-2.54771,-0.677025,-0.702706,-0.245803,0.189513,-1.25316,-1.7069,1.69092,-2.05072,0.480918,-1.72033,-0.897351,0.826972,-1.71906,-1.12452,-1.52649,-0.639072,-0.668061,0.485003,1.06316,-0.537161,-1.66,-0.61297,-0.593768,2.53834,1.56831,-0.356009,-0.473436,2.06094,-1.45752,1.00585,0.844244,1.37703,-0.423208,0.851275,-1.24071,-0.82274,-0.438325,1.60819,0.61577,-0.804322,-0.342009,0.980011,-0.000716,-0.244807,-1.26066,0.0757351,-0.840486,-0.227805,0.0790307,0.846522,1.85371,-0.723445,-1.33129,-0.226647,-0.272225,-0.0689429,-0.446325,1.80558,-0.3526,0.466961,-1.37142,-1.11719,1.1393,-0.896868,-1.20194,-1.36205,-0.901485,0.96169,0.21219,-0.279452,0.43822,0.877788,-1.19948,0.279384,-1.95176,0.499871,0.437468,-0.516146,-1.05103,0.642583,-0.465329,-0.0106873,-0.71169,-0.215073,0.248858,-0.653412,-1.08147,1.04686,0.290542,-0.944341,0.837497,-0.923391,-0.268539,0.074712,0.23174,-0.783781,0.863283,-1.48776,-0.354525,0.248309,-0.96804,1.17481,-0.631475,-0.395592,-1.40612,1.00304,-0.685419,-0.0939421,-2.10881,0.413402,1.53206,1.82199,0.0876402,-0.124927,0.169846,-0.752874,-0.238866,-0.776162,0.241499,-1.17508,0.787844,-1.58102,0.659548,-0.259009,1.0896,0.596014,-0.141477,-0.659757,0.425425,-1.31175,0.245217,0.436413,1.14057,0.0337669,-0.997251,-0.523965,0.0552812,1.27164,-0.752605,-1.51554,-0.910732,1.21258,-0.985694,0.269794,-1.7939,0.577117,0.261256,0.418739,1.09666,-0.838201,1.08679,0.204404,0.777795,0.811113,-0.228008,1.00837,1.15768,-0.818687,2.18285,0.536196,-0.155516,-1.05861,0.849284,2.37006,0.162409,0.905878,0.786116,0.738058,-1.89621,-0.336869,-1.17965,-0.212183,0.673274,0.360651,1.63788,-1.69715,-0.393095,-1.66214,-0.432727,-2.71213,0.288622,-0.872126,0.0394746,1.13805,-0.066598,-0.612257,0.639387,-0.726675,-2.07707,1.26676,0.754743,-0.0254293],[1.40607,-0.263576,1.54175,0.42502,0.334083,-0.231447,0.304519,-2.15915,0.359223,1.44577,-0.00822356,0.333781,-1.41889,0.37309,-0.0598738,0.397962,-1.93564,-0.875522,-0.427127,-1.16773,0.711198,2.87423,0.0296334,0.763783,0.41073,-0.724407,0.368232,0.878673,-0.573207,-0.501449,0.0891463,0.00979817,-0.851705,0.564542,-1.90445,0.862725,-0.716904,-1.04051,-0.86004,0.339653,0.669311,-0.422567,0.886406,0.849667,1.58502,-0.374373,-2.59968,0.169744,1.77062,0.302592,-0.221364,-1.50628,1.77593,0.494982,-1.70027,-0.498237,0.170666,-1.66574,1.03469,1.50007,0.0313238,1.14362,-1.09025,0.317692,0.375524,0.384767,0.234055,1.48582,-0.198177,0.836963,-0.0641109,-0.709918,-0.184313,-0.0112479,-0.393791,-0.814701,-0.935077,-0.426872,-0.502001,-0.0631733,0.303869,1.29383,-0.488547,1.51499,0.919481,0.0946342,-1.99817,0.654749,1.80357,0.739073,-1.66871,1.35827,-1.09555,-0.909541,1.08194,0.23825,0.254912,-0.0561681,-0.158017,-0.457658,0.144993,0.31243,1.00379,-0.695869,0.391219,-2.13343,-0.323929,-0.119713,0.777591,-0.402247,-0.522714,0.150217,0.270838,-0.582361,0.486232,0.727312,-0.596335,0.558152,0.0597487,-1.3148,-0.357843,-0.0100573,-0.188587,-0.407858,1.13035,-1.96999,-0.466504,-0.345635,-0.445163,1.62295,-1.19344,1.02175,-0.124181,-0.529325,-1.71666,0.671151,-0.283679,0.486855,-1.77042,0.760552,0.325957,-0.87283,0.60891,-0.990857,0.283222,0.247865,-0.933948,-1.88991,-0.414074,-0.598892,0.873306,0.190382,-0.458262,1.36643,0.229211,1.35821,-1.63934,0.0864396,1.01176,-1.03714,0.429032,-0.054049,-0.10081,1.62701,-1.80743,-1.04962,-0.805356,-1.64136,1.11175,-0.752994,-0.411278,-0.00593883,-0.604372,0.0715042,0.864496,0.233042,1.3821,0.395317,-1.52203,-1.22732,-1.68575,0.813028,0.779484,-0.554266,0.509452,-1.63119,0.382759,1.28061,-0.519365,-0.349924,0.0359957,0.519316,0.504791,1.87268,1.5925,-0.275513,-0.26545,-1.58227,-0.686276,-0.405017,1.31994,0.496182,-1.36672,-0.389827,-0.492542,-1.97024,1.61854,-1.14669,-0.907122,-1.69882,0.175948,0.209418,-0.488625,-0.162887,0.38297,-0.608981,-1.59943,0.0310366,0.0256251,0.107752,-0.228608,0.019847,0.0044034,-0.267647,-1.83349,-0.115701,-0.64865,-0.962533,-1.31654,-0.846202,-0.885069,0.120418,0.031395,-1.07063,-0.316981,-0.426789,0.510072,1.26101,1.40064,-0.52531,-0.761383,-0.773074,0.243695,2.77,-0.51453,-0.8545,-1.52603,-0.142181,0.873394,0.590323,0.3184,-1.22615,0.303209,1.57614,-0.692494,0.487619,-0.917015,-1.4732,-0.017063,-0.00143398,0.764032,0.992933,0.783525,0.528267,0.467127,-0.838762,1.79496,-0.708685,0.976513,0.409507,0.0943948,-0.396968,-2.2602,0.264632,-0.203454,0.558525,1.4035,0.587786,0.975949,-0.53731,-0.127684,0.222805,0.533759,-0.0451017,0.863458,1.81835,-0.855427,0.495533,1.76112,-0.478069,0.806801,-0.987729,-0.375153,1.059,-1.47204,0.328499,0.67884,-0.242248,0.0648012,0.667095,1.10323,0.374725,2.12323,-0.469442,-0.34056,-1.28122,-1.88265,0.170598,-0.699079,1.72591,1.31217,-0.797762,-0.880523,-1.24449,1.08621,2.04878,-0.558357,0.194066,-0.575782,0.777141,-0.1153,-1.44144,-0.723139,-0.354343,0.564177,0.769353,1.84018,0.798315,-1.65548,-0.330923,-0.244113,-0.783954,-0.642627,-0.507592,0.839757,-0.00224199,-0.188044,-0.381089,0.543779,-0.689749,0.673529,0.261262,-0.63566,0.278121,-1.04189,-0.266455,-0.116491,1.2823,-0.991878,0.580953,1.62073,-0.526756,1.79617,-1.31008,-0.55043,-0.817814,0.601387,-0.48328,-0.125526,0.0305093,-0.619663,2.18391,-1.41287,1.56409,0.90915,1.12084,1.35118,-1.38358,-1.63027,0.475268,-0.706225,0.855451,-1.16462,0.387007,0.309305,-0.300387,0.232249,-0.153589,1.73744,1.30011,0.252456,0.364576,0.0362266,-1.27138,0.00279532,-0.0798851,0.0613605,0.633648,-0.0528044,-1.82571,-1.21225,2.71603,1.05022,0.188915,0.697042,0.827151,0.079933,0.0692542,-1.12882,-0.563779,-0.761287,-1.47034,-2.55078,0.430438,-2.19931,-0.0729005,1.28376,-1.22757,-0.687608,0.298047,-0.964867,-0.256852,0.0931702,-0.161471,0.256302,-0.129359,0.943851,-0.22943,-1.30812,-0.0437631,-0.458086,0.401357,1.45015,-0.973573,-2.32782,0.012039,0.511342,0.262236,0.548788,0.187657,-1.35958,0.65416,-0.132205,-0.301318,-0.7928,0.598672,-1.86007,-2.38784,0.638513,1.34401,1.23636,0.548973,-1.18756,-0.701863,-0.985688,-0.226617,-0.290654,-1.03135,-1.39031,0.430189,0.805999,-1.91284,-0.197929,-0.315506,-1.82946,-0.470136,1.55038,0.534588,-1.04114,0.141685,0.100919,0.363937,-0.593231,2.67303,0.980529,1.33865,-0.0978793,0.785407,0.502473,-0.172612,-0.659547,-0.917109,0.25539,0.582833,-1.0371,-2.25047,-0.521342,0.424904,0.35006,-0.979709,1.47614,-0.399848,-1.22424,0.0929686,0.701685,0.0965274,1.19518,0.439344,2.07921,0.54694,-0.976424,-0.948921,0.982737,-1.06288,1.78206,1.50047,0.353103,0.0288206,1.5343,-2.09375,1.28354,-0.0719067,0.188682,0.0836713,0.206585,-1.4446,0.813615,0.042542,-0.138621,1.97701,0.747671,0.936698,-2.11408,1.33576,2.21591,-1.81211,-0.759635,-0.240356,-0.12107,-1.17498,-0.639536,-1.12413,-1.0883,1.04017,0.84916,-1.14805,-1.23004,1.08822,1.22726,-2.47007,1.58665,0.62293,-0.534592,1.19981,1.64339,-0.0430663,0.378519,-0.347199,0.142264,-1.12946,1.44104,-0.340838,-1.27609,-0.304414,1.92712,-1.37184,0.783846,-0.709742,0.142089,-0.0370029,0.223627,1.02454,-1.57864,-0.672626,1.85228,0.194301,-0.55883,-1.42534,-1.08712,2.34594,0.968937,-1.371,0.223754,-0.189441,0.43826,-0.753187,0.588671,-0.897301,0.561512,-0.225825,-1.64441,-0.987887,0.648311,-0.227552,-0.437561,1.2369,-1.05625,-0.298055,-0.521505,-1.53112,-0.031262,0.0287076,0.724005,0.736881,-0.335431,-0.247089,-0.258493,0.0822723,0.8138,1.75435,0.002184,-1.00805,1.03781,-0.718585,0.834498,1.99625,0.551184,-0.19685,0.342922,-0.841758,-0.739474,0.973371,-1.89746,-0.293972,-0.144562,2.56776,-1.37699,-0.226388,-0.680473,1.03182,-1.58165,0.486579,-1.13769,-0.579144,1.03844,-0.227078,-0.186773,0.278751,-1.44048,0.398509,0.451618,0.813546,1.06006,-0.3784,1.79337,-0.107047,-0.551475,1.06077,0.699861,0.757085,-1.91576,1.2431,1.07701,-0.0505399,-0.335777,0.33342,-1.05452,2.85579,-0.0606137,-2.09254,0.758345,0.319795,1.68951,2.01251,1.26643,0.12606,1.14494,1.57698,-0.669397,1.36124,-1.25585,0.269541,-1.10139,-0.107284,0.184913,-1.31665,1.57767,0.950142,-1.2298,0.567997,0.380293,-0.253155,-0.38114,1.45525,-1.33029,-1.29639,-0.0326702,1.18933,-0.713878,0.370252,0.247534,-0.114071,1.38529,0.443177,-0.772614,-0.781471,0.47697,-1.44735,-0.154486,0.266016,1.42566,0.389218,-1.24711,1.12013,0.862113,0.0289989,1.81981,-0.184283,1.05312,0.281954,0.833663,1.11339,-1.09111,0.576563,-0.366334,2.23557,-0.969945,-1.54551,1.7062,-0.759533,-0.65772,-0.444987,-0.523659,0.933771,-0.348188,0.62623,-1.24217,