{"learning_rate":0.1,"epochs":50,"layers": [{"weights":[[0.219331,-1.92393,-0.318702,0.0917279,0.344011,0.182625,0.661266,-0.157357,-0.821092,-1.04524,0.654703,0.530928,0.704104,0.225008,-0.333159,-0.255999,-0.400211,-0.32083,0.598248,0.187829,1.09395,0.179512,-0.469475,-0.670104,0.882397,1.06526,-0.654679,0.119512,-0.58491,-0.111753,0.260855,0.406602,-1.99647,0.416759,-0.182909,1.40881,-0.846973,-0.74705,-0.633781,1.00615,0.823575,0.405666,-0.0480844,-0.158699,-1.4727,0.736284,-0.771906,0.705303,0.12603,-0.267267,1.20132,-0.574761,0.790985,3.15773,-1.02682,0.339893,-0.0254919,-1.77933,0.16613,-1.30768,0.808715,0.88586,1.29994,0.162795,0.477968,0.400932,0.52235,-0.472232,-1.29795,-2.62054,-1.69456,0.339935,-1.10775,-0.246753,-0.40751,-1.12739,0.582791,0.413161,-1.72023,-0.100077,1.21128,1.23896,0.317466,0.83079,0.711125,-0.0750114,-0.871853,-0.161555,-0.467772,0.600252,1.32452,0.175316,-2.28655,-0.851978,0.335619,1.49706,0.297454,0.219901,1.06256,0.385946,-1.67776,-0.0114444,0.538031,-0.885006,-1.21823,0.0891976,0.928704,-1.70197,0.984753,-1.51689,0.0436878,-0.378801,0.308403,-0.946072,0.755062,-0.154103,-0.348359,0.388368,-0.372134,-1.37926,-0.299887,-0.856784,-0.570364,-1.57643,1.15169,1.14785,-0.95405,0.486337,0.577959,0.488917,0.0397598,0.933589,1.6112,0.230517,1.64745,0.853318,0.31305,-0.365842,-1.39009,1.59792,-0.696862,0.889027,-1.13065,-0.160467,-1.07233,-0.378382,-0.972417,-1.4842,-1.5947,0.361529,0.390342,-0.518996,1.25473,0.506992,-0.0127982,-0.300064,0.493756,0.311096,-1.575,-2.40786,0.857559,1.7931,-0.0101726,-0.17869,-0.347554,-0.67903,0.0299606,0.792651,0.40826,-0.706587,0.0766611,-1.72724,0.492753,-0.860048,-1.05546,1.2149,-1.40744,0.106945,0.315433,0.41143,0.835992,0.0135258,0.848767,-0.831099,-0.467993,0.258473,0.878419,0.848337,-0.306308,-0.611438,-0.43085,0.298023,-1.03662,1.69819,-0.30293,1.2151,0.052469,-0.455333,-0.768448,0.348684,-0.794786,-1.56166,1.12998,1.66278,0.843177,-0.906865,1.45515,-1.20103,-1.39681,-1.66278,-0.809801,-1.5312,0.186631,-0.235426,0.689989,-1.46507,0.0611038,1.00741,1.26815,-1.01043,0.281855,0.318271,-0.661404,1.07969,0.209302,-0.882475,-0.863784,0.435972,-0.0500582,0.809141,0.0918283,0.519174,-0.331542,-2.18679,-0.560443,0.992127,-0.544206,1.75728,0.744373,0.0363606,-1.35463,0.817779,-0.2438,-0.458529,-0.563253,-0.527924,-0.667306,0.0913336,-1.66548,-0.00146666,0.277302,-1.37239,-0.058834,0.96737,-0.468897,-0.0504522,0.342218,-1.0331,-0.693635,0.266018,-0.869753,1.3295,0.513196,0.797115,0.651385,0.819728,-1.81048,-0.735577,0.810888,0.481649,-0.389163,-0.127407,-0.65284,2.4531,-0.466357,-0.726651,0.176156,-1.09236,0.176721,0.47706,-0.640573,-1.43013,0.132094,0.242692,-0.774374,1.62366,0.60629,1.75167,-0.977671,1.24102,-1.52127,0.265746,-1.7529,-0.492064,0.430768,0.912151,0.00829259,0.109257,0.818875,2.57971,-1.23206,-1.00266,0.0650555,-0.124176,-1.08682,-0.562928,-0.00869877,0.214947,-0.41235,0.855423,-1.54789,-1.60875,1.17429,-1.02167,-0.542675,-1.43615,-0.681643,-0.257006,0.787648,1.01284,1.00012,0.698658,0.105503,0.137941,-0.331386,0.317619,1.00921,1.77811,-0.825549,-0.191358,0.0118909,-0.8285,-0.425677,2.04888,-2.14365,0.387917,-1.61284,1.05317,-0.289233,-2.85887,0.336497,0.685576,0.91977,0.0563092,0.419333,1.73421,-1.21148,-0.447321,0.833031,1.11948,0.234387,-0.379873,-1.36961,-0.330513,0.812292,-0.996461,1.24705,-0.508117,-1.29868,2.24621,0.464145,0.0243419,0.608893,0.194388,-0.981567,-1.10908,0.746659,-1.08184,1.31551,-0.337711,-0.468833,-0.390363,0.162575,-0.885704,0.801715,-0.157047,-0.318523,0.203728,0.88098,-0.0877089,-0.722394,0.331271,1.61561,-0.0960923,-1.65232,-1.006,-1.66228,-0.164613,-0.332107,-1.20896,-2.57263,0.461415,0.420917,-2.2363,-1.24901,-0.716116,1.82855,-0.993253,1.94552,-0.6463,-1.15869,-0.298536,-0.80708,0.500148,-0.691574,1.14246,-0.661328,0.347216,0.931437,0.173366,-0.0429772,0.0366393,-0.545783,0.0392764,-0.226595,-0.78618,0.526947,-0.643141,0.033891,-0.791315,-0.979873,-0.254573,-0.51713,0.157123,2.3747,1.48143,0.0860807,1.26602,0.592254,-0.254995,1.67367,-1.28298,-0.683894,1.09354,-0.253797,-0.629306,0.111215,1.89925,0.330773,0.626788,0.27134,-0.932942,0.0552503,-0.255982,0.626074,1.96916,1.33937,-0.473473,0.128324,-0.0628664,1.11854,-0.127541,1.34124,0.887192,-0.76267,-1.05897,0.627261,1.10419,0.444302,-1.40206,0.627459,-0.0644926,0.238974,0.124055,-0.486727,0.340651,-1.63998,1.14332,-0.651091,-1.74739,-0.285285,-0.471127,-0.351834,1.56865,0.426888,-0.074141,1.70497,0.853826,-1.75348,-0.227701,-1.73121,-0.830511,0.522155,-0.811948,0.641937,-0.642858,0.390177,1.48066,-1.13702,0.821316,1.32198,0.132924,-1.26802,0.756942,-0.0520644,-0.109661,-0.269288,0.704634,-1.09121,1.23325,0.219808,0.35029,-0.482515,0.492514,1.18307,-0.554848,-0.661849,0.143507,0.175552,0.468307,0.310851,0.1357,0.115756,-0.572826,0.851654,-1.15038,-0.447368,-0.370588,-0.340215,-0.344954,-0.537735,0.716538,-0.757053,1.26057,0.332968,-0.52041,0.440241,0.0029055,-0.129561,0.142009,-0.169921,0.440499,0.572058,-0.130116,0.869488,-0.0648789,-0.173926,0.00112854,-0.15017,1.17668,0.546637,0.407531,0.398048,-0.684237,0.238481,0.294641,1.2434,1.96899,0.102745,0.709523,1.90231,-1.01213,1.42329,0.92947,0.504724,0.365236,0.421975,-0.828366,-1.4834,1.5084,0.79315,0.236385,0.118433,0.744082,0.127622,0.613569,1.22386,0.210529,-0.631051,-0.0929722,-0.57111,-0.355537,-0.0444262,-0.603466,0.315031,0.631813,-1.06666,0.904803,1.25651,0.838587,1.06909,-0.834244,2.9064,-0.402622,0.622616,-0.608661,-0.110592,0.507686,-0.0312109,0.00248398,-1.03098,1.19887,-0.530597,-0.355617,-0.0374403,-0.188995,0.93515,0.954946,-1.77639,-0.828553,-0.442031,-0.322607,0.877533,0.3486,-1.2133,-0.197211,1.19489,-0.242426,0.379877,-0.57538,-1.18487,-0.885241,-0.345817,-0.429805,-1.36154,-0.816399,-1.436,-0.655848,-0.960186,0.662018,1.81314,0.16929,-0.596075,0.89081,1.95858,-0.00276516,1.16649,0.0195035,0.540829,-0.92558,1.04777,0.47789,-1.55804,0.0776702,1.38064,-0.938817,0.0301394,0.297042,-0.41068,0.0317006,-1.64314,0.319617,0.836172,-0.912211,1.30139,0.35757,0.592757,0.378581,1.58257,-0.747049,-0.790851,0.792125,-0.195144,0.402073,1.1581,0.868339,1.75884,-1.40965,0.193306,-0.230293,-1.79406,0.868247,0.835127,-0.963019,0.948151,-1.20051,-0.623639,-0.555971,0.55061,-0.151124,-0.387069,-0.0210395,-1.35067,-0.119541,0.516236,0.814262,0.18933,0.489076,0.43469,1.29809,0.00193754,-0.454485,0.357239,1.40898,-0.252792,-0.896287,-0.200162,-0.122811,-0.111528,0.0652729,-0.032328,-0.0743197,0.221938,-0.587177,-1.01292,-0.321569,1.84259,-0.491979,-0.484867,-0.422834,0.707055,-0.90486,0.117305,2.02425,-0.427118,-1.66908,-1.12514,0.56228,-0.329701,0.503142,0.2945,-0.422621,0.684162,-0.0256035,-1.19416,-0.512877,1.38942,0.0502204,-0.914924,0.87149,1.16085,0.442402,0.149208,0.61869,-0.613737,-0.528956,-0.116401,0.115579,1.13631,-0.234592,0.00586216,-2.6349,-0.686988,1.86352,-1.78559,0.103625,0.119846,0.141066,0.639905,0.626374,0.57441,2.05433,-0.853306,0.885828,0.842942,-0.237684,-0.309656,0.0308474,-0.377722,1.52334,0.23953,-1.06503,0.0764887,-0.638773,1.11165,-0.00097847,0.000279236,-0.127866,0.202445,1.0325,-0.913613,0.753613,1.73845,-0.215712,2.04054,-0.627105,0.444871,0.942152,2.159,-0.651861,0.0951368,-0.266775,1.83014,-0.957655,0.529221,0.0300047,0.6431,0.630569,-0.26736,0.661049,-0.948055,0.0508967,1.26579,-2.02812],[-0.35981,-0.448798,0.3997,1.10752,1.29188,-0.533721,-0.179417,3.09106,-0.761738,1.15948,-1.29728,-0.612351,0.437433,-1.45171,-0.387864,0.455394,1.20752,0.502503,0.639845,-0.939876,-0.0768096,-0.0960283,1.27981,-0.458035,0.43804,-0.796954,0.349696,1.74453,0.430948,0.602336,0.972708,-0.0870506,0.0866214,0.835393,1.00576,0.640591,0.283009,-2.19836,1.23217,-0.216751,0.961594,-0.622502,-1.03202,-1.8419,-0.188156,1.09454,-2.08976,-1.32338,2.86079,-0.635493,0.255246,0.997953,0.711806,0.349604,1.5581,-0.444714,0.568205,-1.3222,0.992974,0.496437,-1.38765,1.46458,0.598852,1.4951,1.21649,-1.01104,-1.63507,-0.697642,-0.733009,0.310662,-0.894889,0.136646,2.47908,0.200382,-0.764002,-0.490341,-0.833513,-0.355996,-1.83787,-0.252119,0.803698,-1.95808,-0.69567,0.715975,-0.245041,1.23426,-0.947189,-1.98599,-0.175334,0.466201,2.23338,1.02865,0.0784425,-0.805989,2.62096,-0.430084,-0.723823,1.08583,-0.113179,0.661921,0.575829,1.11077,0.208984,1.66412,-0.0883333,1.15729,1.19436,-0.507627,1.39014,-2.20996,0.416854,-1.19662,0.112641,1.08795,1.87122,0.811668,-0.00826501,-0.0513632,-0.239973,0.919553,0.91882,-1.68104,0.593219,0.418493,1.72696,-1.44395,-1.13283,0.881127,0.51869,0.685304,-0.340348,0.207119,-0.36475,-0.416803,0.472036,-0.632062,0.500076,0.694463,0.303917,-0.489013,-0.32621,0.552679,-0.0643387,-0.0425682,-0.693536,1.73425,-0.623299,-0.947882,0.344371,0.967979,0.827787,0.656011,0.44404,0.754814,0.296034,-0.999826,-0.797969,2.7965,-0.833789,-1.53304,-0.923321,0.770567,-1.07482,0.206021,1.55702,0.47676,-1.07987,0.225887,-1.30411,-0.944422,1.31847,0.219738,0.320975,-1.81786,0.197924,-1.21521,-1.13331,0.129546,0.332946,-1.65761,0.935494,0.258928,-1.32287,0.740911,-0.549051,-1.37044,1.53724,1.16194,0.0620894,0.185677,-2.00366,-0.847578,-0.602715,-0.360947,0.828,-0.486294,0.619463,-0.0345472,-0.824583,-1.78484,1.77875,1.25374,0.195377,1.30813,-0.708053,1.12467,-1.75353,0.845109,0.845422,1.09741,-0.06188,0.654915,0.11267,-0.471608,-0.988915,0.474519,-0.0619421,-0.79437,-0.895685,0.323465,-0.752053,2.05573,0.805743,-0.24009,-0.905558,-0.43819,1.11808,0.316493,0.572137,-0.839951,-0.178835,0.563723,-0.400973,-1.88965,1.15975,-0.583575,-1.60042,0.761213,-0.21383,0.238734,-0.97439,1.12232,1.09556,1.09244,-0.867488,0.584889,0.941109,-0.0720845,1.04968,1.27429,-0.88862,-0.374187,-0.117712,-0.0630557,-2.20445,-1.01714,-0.828248,-0.432035,-0.513745,1.26869,0.893703,0.941465,0.256606,0.104893,2.70267,0.6279,2.33886,-0.620376,0.23768,0.169531,-0.276278,0.401687,-1.01772,-0.99192,-0.0871202,-0.274775,-1.48551,-1.09339,0.597759,1.23062,-2.30047,0.889088,-0.594616,-0.713657,0.923568,0.445048,-0.642891,-2.18551,-1.76916,1.41218,-0.655753,-1.37474,-0.324595,1.85148,1.34985,1.32064,-0.18559,-1.98402,-1.4219,-0.140221,0.42533,-0.328923,0.679758,-1.08605,1.27963,0.155857,0.0606152,-0.0731126,0.265348,-2.01714,0.182233,0.329376,0.102905,-0.478602,0.109304,1.02423,1.22387,-1.12062,1.29081,0.161995,-0.706087,-0.563128,-1.86854,0.429215,0.16649,0.186149,-1.02741,-0.394933,-1.01157,0.372713,2.21942,-0.670264,0.10724,-1.27892,1.08691,0.811491,0.345805,0.708612,0.838575,1.23247,-0.326203,0.482059,1.10637,-0.44022,0.567606,0.0905858,-0.0480561,-0.917564,-0.0788283,-0.0162964,-1.24231,-0.190771,-0.724622,1.48858,0.875138,0.893168,-1.3996,0.184451,-0.40993,0.165215,-0.610772,3.42037,1.21723,-0.265549,-0.192488,1.83043,0.357562,-0.447873,-0.576443,0.369976,-1.26173,0.491998,1.39137,-0.150339,2.20966,-0.0330229,-0.458283,-0.590458,-1.35607,1.39749,-0.610286,-0.456876,-0.805642,-1.18696,-0.437123,1.15255,0.175525,-0.997156,-0.60849,-0.758966,0.825724,-0.857111,-0.471582,0.826255,-1.48262,-0.338828,1.02664,-0.425436,-1.46545,0.402469,-0.348602,-1.23434,-1.00873,-0.569938,-0.625576,1.22027,1.15922,-0.75772,-0.0311969,-1.30244,0.402862,0.362752,-1.0723,0.623064,-0.21443,-1.28856,-1.98524,-0.0599889,-0.902894,-0.0024993,-1.05787,1.55198,0.00600265,-0.280045,0.949394,-0.521407,0.0484223,0.304482,-0.397599,0.946343,-1.5458,0.330945,-0.840946,1.3316,-0.667566,0.837399,0.014014,-0.96063,0.80271,1.34236,0.653007,-0.0631424,1.16855,-0.414057,0.507856,-1.13216,-0.507807,-2.05913,1.73424,-0.341858,1.10424,0.558087,-0.191971,-0.325978,0.0783602,0.280429,0.283187,1.16486,-0.403758,1.17042,0.581071,-0.398792,0.766438,-0.187566,-0.128892,0.433457,-1.61112,0.536553,-0.820698,0.424262,0.194484,1.6442,1.94801,0.0798932,-0.583534,0.499774,1.02801,-1.13126,-1.27341,0.756585,1.69651,-0.232031,-0.175151,0.831758,1.01394,-0.279961,1.12129,0.646934,0.394755,0.603088,-0.162922,0.96477,-1.22962,0.109003,-1.73027,0.724795,-0.566441,-0.622417,1.1507,-1.12896,0.938838,0.0800109,1.16222,-0.262334,0.769063,-0.513962,-1.22266,0.305159,0.769004,0.0146881,-0.67362,-0.706892,0.659282,0.926748,0.430606,1.2408,1.13393,0.859901,-0.970017,0.544315,0.214942,-0.823929,-1.1664,-0.563652,0.122314,0.379532,-1.19526,-0.244775,0.136067,1.3884,-0.774259,1.19903,-0.657861,-0.88313,-1.65623,-0.528289,0.405897,-0.128309,-0.0373574,-1.21852,-1.2392,0.0660214,-0.801645,-0.994291,-0.305457,-0.248027,0.416855,1.13539,2.05833,-0.0694486,-1.02655,-0.0926766,-1.12696,0.538327,0.964299,-1.00416,-0.641982,-0.464221,1.00692,0.448827,0.595715,0.652174,0.114185,-1.41588,-0.30888,-0.289766,0.0831766,1.00811,0.885956,1.41598,-1.13671,-0.38886,0.952141,-0.316666,1.80881,-0.421132,-0.535861,0.982046,0.0731802,-1.03289,-0.52547,-0.937135,1.4345,-2.83455,-0.579642,-0.163691,-0.607177,1.58279,-0.484974,-1.0905,-0.495455,0.577861,-0.242134,0.56678,0.134352,0.0838926,-1.60191,1.38816,-2.76193,0.586,-0.126638,0.212819,0.069855,0.237048,-1.3845,-0.419537,-2.30536,-1.33537,0.117865,-0.358245,1.36269,1.08109,1.18763,0.548854,1.0368,-0.436605,-2.13356,0.649694,0.481417,-0.1538,0.762286,-0.39805,0.0559096,0.812817,1.05677,0.828654,-1.22436,-0.521079,1.04961,-1.12903,-0.881175,0.627348,-1.91023,-1.98899,-2.00233,0.0420989,0.86329,-0.811345,-0.486962,-0.739168,-1.14525,0.99375,-1.71087,0.152683,-0.876526,0.169333,-1.72637,-1.03372,-1.95381,-1.20062,-0.57925,0.505462,0.00462036,-0.840891,0.63153,-1.5714,-1.85769,0.0130834,1.0525,-1.29728,0.147343,-0.93967,-0.693524,-0.420431,-0.489221,1.26485,0.794257,0.543754,0.266142,0.519618,-0.0597489,1.01967,0.37786,1.33815,0.380857,0.657237,1.20713,0.558657,0.939983,0.770154,0.187625,-1.26439,1.59483,1.19426,-0.897844,0.854615,-2.19295,-0.278149,-0.821752,-0.423724,1.04671,1.19556,0.190502,1.18081,0.10269,0.0402247,0.69223,0.050643,-2.38798,1.26477,0.273969,-1.99406,-1.0388,-0.0853119,1.06575,-2.25755,1.00604,-0.569479,-0.164562,-0.794023,0.464254,-0.0588094,-0.15218,0.704714,0.560381,-1.59258,-0.432195,0.618658,0.635579,-0.417758,-3.45791,-0.512291,2.31858,0.355007,0.748241,-0.912362,-0.179132,1.51545,0.535583,1.30895,0.491626,-0.213213,-0.854072,-0.113386,0.663024,-0.0758907,-0.364851,-2.08508,0.935835,-2.10839,0.590892,-1.2141,-0.873012,0.803515,2.14363,0.704787,-0.35521,0.0444488,-0.955518,-1.24548,-0.526959,-0.146256,-0.0894214,-0.463491,0.580353,0.47818,-0.650948,0.302255,0.137741,-1.67958,-0.388327,0.626002,1.39053,2.74518,-0.15251,-1.24508,-0.10378,-0.6733,0.705078,-1.51508,0.490599,0.799718,-0.789071,-0.900326,1.23737,0.407746,0.335117,0.690235,0.630523,-1.52199,1.18913,0.103205,0.991893,-0.70433],[-1.21264,1.09901,-1.61133,-0.678583,0.11993,-2.3117,0.245932,0.79536,0.559325,-3.01319,-0.295072,0.392164,-2.09227,-0.200329,1.42867,-0.648285,-0.789544,-0.69559,-0.610407,0.152046,-0.446927,1.44398,0.181785,0.599258,-0.249844,1.85995,0.327549,-1.84672,-1.099,0.35024,-1.29986,0.201765,-0.127193,0.469965,-1.13825,0.396404,-0.104095,0.971768,0.384827,-0.447971,-1.01028,0.688701,0.145393,0.21359,0.798088,0.202208,-1.65325,0.269804,-0.708225,0.425896,1.29153,-0.264043,0.163641,-0.468141,-2.85011,-0.532933,-0.156034,-0.859525,1.45542,-1.56611,-0.543489,1.87563,-0.639932,-0.968182,-0.959252,-0.486749,1.13007,-0.386831,0.577472,0.315449,0.88702,1.63643,-1.86257,0.457131,0.855732,0.438089,0.23715,1.00146,-1.06779,1.55568,0.115864,-1.10266,-0.909536,0.388046,1.37123,1.10777,-0.0696827,-2.51347,-0.536215,-1.16333,-1.65272,-0.555219,2.01608,0.554711,1.71128,-0.354007,-0.424816,-2.31787,-1.18933,-0.732868,0.416453,-1.03445,0.837705,-2.09875,0.283959,-1.5587,1.19607,1.58072,0.575264,2.16392,-0.137294,0.705729,0.248169,-1.09109,-2.20759,-1.54594,0.323765,-1.53267,1.2197,0.69784,0.321167,0.231685,0.664052,-0.583323,-0.800646,0.125173,0.136067,-0.545105,1.33582,-0.917345,0.956908,0.227814,0.662576,0.525299,-0.0256646,-0.505689,-0.924787,0.269561,-0.121772,0.544669,0.587576,1.50944,-0.325675,0.517678,0.244847,1.47419,-0.787748,0.122467,-0.0324843,-0.555733,-0.467011,-0.223438,0.6723,-0.902052,-1.92423,0.534039,0.992302,-0.331862,0.842771,-1.02213,-0.867139,1.61908,-0.7406,-0.161895,-1.187,1.11802,-0.217812,-0.227497,1.39437,-0.280557,0.580911,-0.659066,1.44748,-0.967533,-0.0796345,0.23333,-1.76717,0.259266,-1.36939,-1.69377,0.0882602,0.280694,2.45221,0.256187,0.707638,-0.5683,-1.39363,-1.28647,0.526697,-0.236955,0.71457,1.2462,-0.736141,1.00349,-0.221838,-1.57682,0.653318,-1.6871,-1.09345,0.00914162,-0.73673,-1.29625,-0.418586,-0.50591,-0.232405,-0.266121,-0.962082,0.526089,0.412169,-0.240109,-0.69194,0.99509,-0.435572,0.910668,0.96674,1.14996,-1.01781,0.606864,2.16358,0.508524,0.127483,-2.053,-0.258838,1.84785,0.0550124,-0.741272,0.454824,1.20946,-1.11966,-1.71415,0.725777,-0.0593578,0.554573,0.0160799,1.48383,-1.26695,0.00982914,0.233737,0.031976,1.09995,-0.41041,-0.377027,-1.24383,-0.699967,1.14389,0.785565,0.396809,1.0046,0.738778,-2.51821,-0.00186149,0.489294,0.678219,0.22351,-1.13668,1.77339,-0.509074,0.747199,-0.696457,0.0127699,-0.96985,0.290207,1.60443,0.877098,1.82401,0.712062,0.562005,-1.87395,0.468882,0.411288,0.342106,0.655012,-1.43621,-0.276083,2.07778,-0.559619,0.090323,1.00553,-1.88163,0.470385,-0.642743,0.0177028,-1.53301,0.392063,0.72413,0.309561,-0.590675,-0.881472,-0.107925,2.29397,-1.32003,-0.0902374,-0.186552,1.42641,-1.35972,0.690319,-1.81095,0.222355,0.388983,0.974441,1.49974,-1.28263,-0.854467,-1.66401,-1.27195,1.3093,-0.963624,0.431573,0.426618,-1.09162,-1.08965,-0.921867,-0.416177,-0.499692,-0.427615,-0.130906,0.828435,0.70407,-1.25395,-0.933404,0.539361,1.34797,0.0813255,1.24008,-0.614086,-0.453316,-0.246881,-0.918973,0.0627379,1.0066,-1.88755,-0.769293,-0.307211,0.149979,-1.10591,0.368723,-1.19945,-0.223019,0.721037,0.0685858,-0.487876,1.8751,2.76587,0.39498,-1.80058,-0.449875,-0.268123,0.467986,-0.873341,-1.46533,-0.690868,-1.32319,0.971314,0.546984,-1.22631,-0.509945,1.73211,1.74173,-0.250844,-1.39002,1.95861,-0.0551942,-1.06372,0.445917,0.0253436,-1.35497,-1.26413,-0.503294,-1.69325,0.332929,0.426831,-0.577205,1.59429,0.573688,-0.289537,-0.633573,-0.785391,0.803732,1.23483,1.80737,-1.93675,0.325777,1.4847,-0.52211,-0.352762,0.374034,-0.9501,1.10091,2.35314,0.747113,-0.584542,-0.839649,-0.626907,-0.505483,1.13807,0.54014,0.0168951,-0.00282816,0.812667,0.530553,0.0716629,0.67764,-0.381626,-0.750119,-0.778955,0.842941,0.394531,-1.51307,-0.0333115,0.398157,0.0514512,1.05382,0.903735,0.665863,0.39514,0.886013,0.533977,-0.464508,0.641359,-0.600102,0.0122611,0.491983,-0.217076,-0.241041,0.384626,0.325206,-0.365174,-1.14844,0.265403,-0.0279958,-0.110279,0.927177,-0.332465,-0.41449,0.354121,-0.727612,-0.936299,1.41739,0.19772,0.902319,0.253013,0.947122,-0.506427,0.881286,0.626505,1.14189,-0.270097,0.0922386,-0.917939,0.532696,0.748573,-1.56801,-0.071106,-0.143104,0.835104,0.78539,0.431653,-0.138242,-0.510078,0.938715,0.417777,0.788202,-1.26801,0.0281193,-0.559444,0.56539,1.07711,-0.677271,-1.04633,-0.536724,-1.53327,1.37609,-1.96988,0.155429,0.564695,1.08114,-0.340419,-0.0487584,0.642585,1.15203,-0.139029,0.341614,-0.656996,0.848848,0.118507,-0.176722,2.84582,0.815171,0.845555,-0.102223,-1.48024,-0.609166,-0.292853,-1.23378,-0.243502,0.315033,0.354156,0.739697,1.0353,-2.24274,1.00404,-0.175846,1.89273,-1.16075,-1.89803,0.50083,1.14797,-0.208003,0.525616,-2.12427,-0.603381,0.736247,1.7943,0.0535427,0.914913,0.960418,-0.841853,1.61585,0.780913,-1.02957,0.824429,1.02989,-1.01706,-1.24544,0.329718,0.0615037,-1.46567,-1.91173,-2.50218,0.542427,-1.03002,-1.34895,-0.584222,-0.733049,-0.193245,-0.822958,0.656959,0.0823326,-0.209458,-0.343452,-2.27206,0.657752,-1.18773,-0.461443,-1.075,-1.24176,1.77282,1.56705,0.496217,0.822575,-0.161159,-0.505796,1.14779,1.28835,-0.207596,0.801406,1.21038,-0.145201,-1.79178,-0.754596,0.56837,-1.33562,1.03122,-0.477021,1.15615,0.000177757,0.508387,0.363949,-0.271191,-0.17502,0.00491962,1.40134,-0.0898149,0.690419,-1.56071,1.38379,0.0106158,-1.8175,-0.586052,0.837783,0.493328,1.09411,0.245846,-0.876199,0.327462,-1.00168,-0.0999333,-0.182642,-0.561019,1.05862,1.18733,0.211393,0.0493974,-1.1014,-1.62305,0.279548,1.09002,0.032665,1.16519,-1.10367,0.585007,-1.5829,0.186085,-0.638497,-0.176216,0.741219,0.533989,1.52743,0.602687,0.466409,-0.146595,-0.427292,-0.594188,1.05318,-0.113314,-0.576796,0.055741,0.0808156,-0.634637,-0.570794,-1.03501,1.30451,-0.681276,-1.52502,0.0310421,-0.823825,-0.194386,-1.81846,-0.653412,0.354374,-1.12117,1.19244,1.38033,-0.708934,2.42096,0.265604,-1.0903,-0.797828,-0.53302,-1.4171,-0.662404,1.91202,-0.413144,1.70938,-0.329282,-0.264108,-0.607312,-0.946449,-0.309638,-1.3285,-0.348488,1.22145,-0.864993,-1.21614,0.752237,0.456174,1.06593,-0.940067,-0.281382,0.00745444,-1.70578,-1.07947,0.035808,-0.838582,-2.34892,-0.784133,0.284083,-0.145174,1.82488,1.00389,1.22213,-0.751294,-1.0852,-0.291346,-1.07126,-0.0700712,-0.314086,0.923794,-0.31551,1.05947,1.49072,0.921408,1.37987,-0.110763,-0.429751,-1.28905,-0.582226,0.0283117,0.959006,1.18005,1.16259,2.01819,0.793735,-1.05699,-0.291983,-0.055614,0.0447719,0.518261,0.222166,0.0240037,-1.63527,1.40166,-0.517646,-0.568561,-0.23578,0.686392,0.772528,-1.72075,-2.37315,-0.190481,-0.0837098,1.46262,1.62341,0.200122,0.942975,-0.34014,-0.741286,-1.49216,0.0608068,0.15976,-1.39822,0.391889,-0.299213,-0.326328,1.24072,-0.88544,-0.881261,-0.43375,0.238677,-0.946457,1.22573,-0.444518,-1.09212,0.0452151,-0.849274,1.7188,-1.65855,-0.304307,-1.39821,1.4563,-0.186292,-0.446949,-1.87594,0.628158,-0.756392,0.799848,-1.33953,-0.315885,1.19582,0.0504512,-0.381886,1.15436,-0.373792,0.671829,0.894804,0.269354,-0.383159,-0.810322,1.31079,0.23868,-0.371499,0.446966,-0.207025,-1.0737,-1.06948,-0.771843,-0.293201,0.88543,-1.15662,0.0627879,-0.248711,-0.300774,0.579472,-0.191665,-0.368802,0.175356,-0.498731,-0.782086,0.211882,0.90029,0.364511,-0.842123,-0.11651,0.626574],[0.971297,0.554978,0.33106,1.50603,2.92023,0.822326,-0.897522,0.977512,-1.4474,-0.184186,2.40085,-0.723767,-0.878166,1.49591,0.672706,0.937471,-0.966063,0.380026,-1.06184,0.956367,0.776595,0.32477,0.190572,0.155811,0.853789,3.11476,0.969603,0.0363684,-2.04719,0.166745,0.232444,0.5169,-0.862634,0.0318993,-0.728364,0.859705,1.11464,1.07992,0.00378114,-1.37175,-2.09668,1.70072,0.988167,-0.0393419,-1.46997,-1.03702,-0.471166,0.411265,0.25918,-0.713307,-0.408658,-1.98751,1.58305,-0.473681,0.448413,-0.442486,-1.21629,0.608093,-0.434776,-0.67904,-0.627409,1.21871,-1.25112,-1.73117,-1.14972,0.921946,-0.757319,0.802872,-0.0443474,-0.53342,0.625377,-0.0489935,-0.233052,-1.04313,-1.06437,0.722986,-0.514554,-0.914847,0.671865,1.29375,-0.755352,0.0647243,1.33525,1.11119,-1.73106,-0.657798,-0.381495,-2.09559,1.47026,-0.702842,0.316379,0.260867,0.015718,-0.3847,0.662254,-0.562649,-0.88635,0.111142,0.189186,-0.14336,-1.03975,-0.537897,0.393571,0.835044,0.37353,1.84803,-0.816236,1.26025,0.585952,0.924901,0.281129,2.77135,0.555886,0.646252,-1.71143,-0.807238,-0.647302,1.07478,0.889334,-1.13885,0.32002,1.36179,0.921108,0.43849,-0.166522,1.88981,0.125454,-0.176957,0.143107,-0.541426,1.39885,-0.696588,-0.0584847,-0.24478,0.232786,0.867283,-0.274796,-0.890751,-0.16726,-0.553521,-0.470977,-0.526223,-0.158477,-1.91093,-0.0707125,0.603438,-0.0835797,-0.376747,-1.44413,1.0149,1.41851,0.613064,-1.27008,-0.892641,-1.72565,0.503136,-0.17149,-0.856898,-0.406735,0.0473306,-0.333132,0.0543187,-0.807687,-1.51109,1.30411,-0.628081,-0.633832,-0.933733,0.176806,0.151933,0.50679,0.357133,0.343797,0.367106,0.542836,-0.552605,0.0231611,0.185914,0.109565,0.129132,1.31532,0.576952,1.06395,-1.00741,2.00069,-0.701299,0.364687,-1.10372,1.11197,0.558759,1.34245,-1.08964,-1.09837,1.18918,0.358844,1.8317,1.69555,-0.993747,0.536838,1.66101,-1.55177,-2.15881,1.05925,1.63522,-1.06413,-1.13582,0.204314,1.26524,-1.2147,1.48993,1.07958,0.358815,-2.56174,-0.948566,0.734355,-0.048186,0.524157,-0.216038,0.186028,0.769853,0.123274,-0.403547,-0.79093,1.40239,0.219822,1.07559,-0.536272,-0.947537,1.12894,-0.178143,-0.847469,-1.1752,-0.121673,-0.104983,-0.820904,0.446057,-2.88094,0.156882,-0.795802,-3.04004,-1.01125,0.329959,0.365355,-0.91148,1.34091,0.617443,0.675415,1.10604,0.133089,-0.834966,-1.43269,1.27968,-0.392501,-0.830933,0.103955,0.188827,0.935062,-0.465219,-0.580436,1.66296,1.37166,-0.820279,-0.355502,-0.264082,0.212394,-1.30172,-0.660015,-0.3737,-0.887062,1.92078,1.45758,-1.02934,-0.608437,-1.613,-1.63782,-0.575027,-0.857357,0.00751871,1.61068,-0.395302,-0.21175,-0.613179,-0.350103,-0.953353,-0.046297,0.767304,-0.491233,-0.749883,-0.518744,-0.0740408,-0.922744,-1.89428,1.32237,1.36178,1.8649,-0.123794,0.512096,2.40126,-1.73175,0.684486,0.372609,-0.914682,1.37174,-1.01949,1.55378,2.97996,0.463142,1.05639,0.0286548,-0.154422,-0.901428,0.262624,-0.392544,0.309711,1.39729,-0.939008,0.853778,-1.20702,-0.629864,-0.1552,-0.360298,-0.871148,0.180593,1.00668,-0.31331,-0.12424,0.890734,-0.0669695,0.263121,0.569654,0.347305,-0.902856,-0.809461,-1.65592,-0.278928,-0.525818,0.67598,-2.2664,-0.771449,0.833804,1.76188,0.467269,-0.0847441,-0.430617,0.252796,-0.0113691,-0.90223,-0.983099,1.16362,-1.07012,0.375114,-1.99326,0.186056,-0.792209,-1.12915,0.970554,0.869274,1.04136,1.19118,-0.782173,0.467857,-0.96409,-0.321387,-1.0934,1.10631,0.312634,0.447826,-1.97759,0.122782,-0.60975,0.758256,-0.60866,0.783088,0.433772,0.374355,0.701901,-0.934158,1.27827,1.37801,0.478737,0.941455,-1.14056,-0.652376,1.46082,0.36351,0.708125,2.38173,-0.813423,-0.0153608,-1.16023,-0.539905,-1.13411,-0.700719,0.4719,1.50754,-1.01829,0.0229037,-1.19221,0.855001,2.35439,-0.397599,1.2126,-0.819642,0.306039,0.649936,3.06783,-0.00253178,1.53048,1.80845,0.424457,-2.08672,-0.0398293,-0.483842,1.13833,1.49294,1.075,1.33059,0.814865,0.346608,0.0681492,-0.70724,-0.340598,0.329385,1.34737,-0.0149086,-0.890389,0.0259533,-1.57276,1.55619,-0.0732036,1.22659,-0.217582,-0.154033,-0.56048,-0.165761,-0.509509,0.179432,-2.06643,0.510799,-1.1946,0.905409,-1.13794,-0.421586,-0.58939,-1.62878,0.211039,0.750743,-2.10462,-0.415557,-0.699622,-0.070199,0.804098,0.196348,-1.55466,0.934539,-0.377191,2.61308,0.428277,-1.23937,0.0126641,-0.680008,0.215401,0.974758,2.39607,-1.82503,-0.711225,-0.0942204,0.524276,-0.554174,0.181592,-0.8219,1.70491,-0.269934,0.0956657,-0.995431,0.793378,1.17507,0.172612,0.242586,-0.518514,0.705514,-0.503394,-0.724507,-0.946994,-0.0114827,1.11325,-1.94561,-0.0353009,-0.942153,-1.45577,0.497171,-0.836497,0.626262,-0.460284,-0.689308,1.10465,0.212367,-1.9732,-1.30735,0.36468,-0.955998,0.152112,-0.0141131,-0.320496,0.196516,0.321295,0.108944,-0.589551,-0.237353,-0.439823,-0.299305,-0.722335,0.946173,1.23395,-1.8421,-1.4371,-0.459516,-1.08226,-0.0881449,0.405311,0.596563,-0.353764,-1.40212,-1.13887,0.0412078,-0.515105,-0.220934,0.16431,-0.511928,0.834903,-0.27052,-0.743342,0.913864,0.186656,-0.40904,-1.6571,0.0495801,-0.668163,-0.773925,0.462195,0.809795,-0.879331,-0.152968,0.285683,-0.343088,0.411703,0.142944,-3.38666e-05,-0.285091,0.306079,0.173957,0.400107,0.862366,-2.04689,0.650905,-0.382056,-0.40937,1.00978,0.457529,-0.480738,-0.245457,-1.206,-0.761402,0.481162,-0.155742,-0.208063,0.886263,-0.80231,1.13115,-0.679878,-1.23161,-1.64414,0.881616,0.718826,1.12215,1.60707,0.0925423,-0.520741,1.68145,1.89169,-1.33126,0.284908,-0.924084,-1.04197,-0.117489,-1.04746,-0.791928,1.431,0.329178,-0.0292789,-0.260184,-0.459854,-0.178959,0.986922,0.835698,-0.647692,-1.55498,-0.721234,1.00098,1.92476,0.583656,0.0498461,0.399331,-1.84768,0.314315,0.895962,0.0902692,-0.551042,-0.990602,0.148248,-0.292984,0.407986,0.660483,-1.85794,-0.61192,1.95809,-0.929178,0.181067,-0.680948,-2.19687,-0.341455,0.886063,0.77983,-0.914904,-0.786412,1.54296,-2.39583,0.0537328,-0.153572,0.408911,-0.198285,0.586701,-0.842777,-0.605477,-0.530382,-0.897515,2.04618,-1.43781,-0.225537,-0.695128,0.826551,0.729588,0.935007,0.531975,1.37042,-1.72691,1.38462,-1.96605,0.489664,0.0924104,-0.345517,-0.652539,0.953298,-1.418,0.518766,-0.234229,-0.756994,-0.242772,0.824445,-0.207071,-0.288563,0.496622,0.1639,-0.0971793,-0.36602,-0.861139,-0.398185,-2.1588,0.983029,-0.399,0.890336,-1.03304,-0.295953,0.16836,-1.80967,-0.764062,-1.08569,0.113656,0.0793226,0.897398,1.04142,-0.719186,-0.0239478,1.83654,0.109236,-0.382961,0.599765,0.40765,-0.92342,-0.45453,0.559892,0.42555,-0.828487,-1.37178,1.67824,0.729987,-0.171678,0.384401,0.151561,0.383763,2.03429,1.03589,0.0582994,1.09651,1.06616,0.944215,0.950056,0.935392,0.302229,-0.974938,0.940615,-0.578966,0.34381,1.35003,-0.680858,0.130427,-1.03279,-0.267175,1.25049,-0.877833,-0.407077,0.638817,0.079594,-1.72486,0.2545,-0.586456,0.309525,1.62011,-1.46872,2.2044,1.19101,-1.43585,-1.30741,1.68292,1.08006,-0.793476,1.04094,-0.306964,0.590315,-0.806117,0.863731,2.01651,-0.00282707,-0.355034,-0.79926,0.943598,-1.8796,0.657927,-0.503112,-1.07144,-0.947884,1.38065,1.10205,-2.0397,1.1899,0.328005,0.76647,0.0456387,0.287832,-0.313104,1.88255,1.73124,2.26103,-1.42621,-0.939909,-1.05853,0.538943,0.426197,1.64003,2.01447,-0.565049,0.16035,-0.176746,1.59217,1.16015,-0.783715,1.19904,-0.605736,-1.23151,1.42085,-1.26875,-1.00849,-1.00074,1.39187],[0.748642,0.318773,0.524229,1.03552,1.35103,1.81784,-0.610391,0.473478,1.02576,0.000702105,-0.379871,1.00026,0.323729,-0.384133,-1.70534,-0.414233,-0.301746,1.64951,-0.503106,-0.575515,-0.0671934,-1.31871,-0.21362,1.40972,-0.745582,1.12536,2.07092,-0.522038,2.12089,0.940783,0.418092,-0.99932,-1.24981,0.554846,-0.162423,1.59997,-1.58568,1.7679,2.35429,0.131465,0.775404,-0.976118,-0.293773,-0.471815,1.6579,1.11839,-1.77167,1.18457,-0.370081,-0.0772562,-0.493712,-0.368075,0.388022,-0.440478,-2.09575,-0.247523,-0.332596,1.19217,0.239747,-0.741208,0.465689,1.86772,0.24677,0.473766,0.791788,-0.200882,2.39307,-0.837788,-1.16413,-0.667103,1.10811,0.321668,0.381328,0.574265,-1.13075,1.0817,-0.887079,0.154212,-0.276852,0.574143,-0.675808,-0.0799659,-1.20566,0.487874,0.146335,1.23781,-0.248511,-0.13245,0.119381,0.133092,0.285295,-0.0787898,-1.74463,0.363586,0.141054,1.15154,-0.285872,1.24659,1.14519,-1.61295,-0.831528,1.3001,-1.14878,0.723212,-0.182486,-0.564543,0.263042,-1.5883,-0.866573,1.52869,0.101911,-1.41617,-0.129673,0.552182,-1.1223,-1.21582,1.05302,-0.403564,0.286477,0.371069,0.667516,-0.437533,-0.756678,-0.282018,-0.668294,-0.0910477,-1.12545,-0.634518,-1.5079,-0.1191,0.790688,0.787603,0.102877,-1.53764,0.873612,-0.334489,0.647629,-0.793957,-0.530237,-0.897625,0.132357,-0.64832,-0.615413,2.89813,1.20632,-0.268757,-0.0579061,0.271355,1.42741,-1.28608,1.3968,-0.214129,-0.345178,-1.69591,0.0247619,-0.426239,1.03517,-0.15812,0.297594,-0.175911,0.177134,0.0804482,-0.49527,0.777929,0.022681,-0.693972,1.1769,-0.643679,-1.49294,-1.03554,0.84834,0.0992902,-0.156656,-0.623009,0.520421,-2.21177,1.362,1.31111,-0.261874,-1.08342,1.07095,1.37098,0.547635,-0.513731,-1.00074,0.0743498,0.356827,0.398041,-0.95693,0.72472,0.617767,-1.62863,-0.838625,-1.00566,-0.4515,2.7031,0.387459,-0.64008,-0.528945,1.33809,1.79309,-1.36411,0.481004,0.777478,1.23323,-0.330403,0.502724,0.346766,0.868076,0.5521,-0.21789,-0.217821,-0.326182,0.425565,-0.334107,-0.883292,-1.5805,-1.08019,-0.7964,0.740311,0.936184,-0.91936,-0.172765,-0.220246,0.150104,0.294953,-0.732806,2.55199,0.988836,-1.03905,0.000942973,-1.02836,0.105969,-1.00156,-1.19451,0.474324,1.10371,1.86653,-0.313026,0.901116,-2.00843,1.67822,0.645707,-3.14227,-1.21795,-1.36651,-1.08752,-0.469807,1.13385,-0.667738,-0.0290558,0.248943,0.7915,-0.494549,0.691061,0.578438,-0.547596,-1.25519,-0.524678,1.08651,0.471074,0.13468,0.412008,-1.22417,-0.823777,1.01002,0.437142,0.591361,-0.799401,-0.226032,-0.213368,-0.0816539,-1.8465,-0.374496,0.635219,1.04714,-0.179881,-0.956589,0.657928,1.07238,-0.0738163,-2.02922,0.521047,-0.646368,0.272162,-0.124177,-0.00772845,-0.167854,-0.181849,0.659303,1.70698,-0.937056,-0.520548,-0.269724,-0.615067,-0.0232251,1.55331,-1.38203,-0.572949,-0.547418,-0.344815,1.44579,-0.0785213,-0.935167,-0.00156929,-0.423362,-0.712964,1.95909,-0.541987,-0.848246,0.447204,2.30274,-0.150131,-1.26857,-0.28925,-0.905947,0.0567375,0.175223,0.360136,0.524768,-0.715815,0.281693,1.45837,-0.244486,-0.0314125,-1.05453,-1.50785,1.39339,0.595352,2.32302,-0.217534,0.582666,1.30601,-0.383093,0.663202,-0.975887,-1.3395,1.11323,-0.427154,0.620688,2.36302,-0.190913,0.784544,0.265497,1.7398,-0.171052,0.87732,0.911469,-0.014077,-0.404774,0.418253,-1.50608,1.03139,1.3313,1.91667,-1.15425,0.711127,0.841713,1.3901,1.92043,-1.39317,-0.170633,0.472426,-0.0718978,0.377353,-0.979645,0.323669,0.359908,0.0523024,0.676075,0.722038,0.18614,-0.988166,-0.339739,-1.69186,-1.43307,0.0883746,1.41843,-1.02701,0.618166,0.280543,-0.271615,-0.0747841,-1.24655,-0.229226,-0.792756,0.429231,0.213844,0.628622,-1.16748,-1.47922,0.0758516,1.8927,0.890251,-0.643735,-2.34182,-1.95622,-0.615019,1.01873,1.06624,-0.281679,0.176226,1.83762,-0.458875,-0.121135,0.0774174,-1.20889,2.51813,0.901686,-2.00889,0.389945,0.195214,0.408447,-0.953205,-1.46406,0.272547,-1.53724,-0.271751,-0.230021,-1.47701,1.56208,0.0951453,2.49497,-2.94562,-1.18164,1.19541,-1.09922,0.849563,-0.0656779,1.92792,1.30375,0.225985,0.35673,1.30051,0.445741,0.236039,1.59133,-0.658136,0.673573,0.479658,0.292667,2.00855,-0.734355,-0.42304,-0.374997,-0.875736,0.302568,-0.466574,2.48663,-0.330258,1.89024,-0.103063,0.457738,-1.83483,0.928749,-0.700329,0.857716,-1.34589,1.1449,1.66222,-0.0120662,0.279589,-0.961698,-0.0241243,-0.518369,-0.757272,-0.843017,1.06531,-1.02406,-0.660979,-0.75287,0.491789,0.369497,-0.47603,1.87827,-0.12652,0.0457359,-0.0177535,-0.221441,0.447087,0.620853,-0.847713,0.500536,0.961172,1.01067,-0.803813,-1.02473,-0.735467,1.36442,-0.0470034,0.443224,-0.139673,0.64749,0.204546,1.19919,0.70722,-0.547761,-0.0801835,-0.386375,-0.410765,0.865209,0.211157,-1.99296,-0.374558,0.347357,0.399201,-0.476937,0.290448,-0.199859,0.0796761,0.863632,0.324044,-0.114959,-0.694425,1.15017,-1.9121,1.71989,0.362659,0.881832,-0.280782,-0.961561,-0.590819,0.687395,0.592406,0.981524,1.08464,-0.388747,-0.896428,-0.0554311,-0.402286,-2.15687,-0.283443,-0.749377,-1.05672,0.303235,-0.232815,-1.32306,-1.20892,0.507221,-0.286262,-1.75057,0.00847346,-0.217392,-0.365182,-0.711031,-0.819022,0.274794,0.862062,1.15279,0.338825,1.19064,-0.009259,0.109826,1.54847,0.635992,-1.23633,-0.635518,-1.59436,-0.235768,-0.192735,1.16601,-1.4614,2.23762,-1.96622,0.695668,1.44093,0.396219,0.909706,-0.527669,0.466703,-0.432549,-1.02816,-0.9931,-0.90867,0.585087,-1.26398,-0.765259,-1.12679,0.484557,0.854037,0.102176,-0.368181,1.26012,-0.979878,-1.21874,0.277147,0.184722,-0.269061,0.355336,0.405946,-0.324829,-2.14708,0.672995,-0.410047,-0.198099,-1.68954,-0.96714,-0.60891,-0.0540369,-0.319975,-1.1954,-0.735913,1.13714,0.2384,1.06226,-0.43907,1.69266,1.13817,0.781167,-1.36472,0.997776,-0.533892,1.56401,0.239414,-2.04335,-0.689752,0.634797,0.160892,0.580432,-0.251561,-0.586728,1.2676,-0.70368,-1.25327,1.19571,0.776624,0.487754,0.326589,-1.0613,-0.572066,-1.00024,-0.0743303,-0.382753,-0.126711,1.34978,0.635768,0.354869,-2.24637,0.302422,-0.299422,1.56294,-0.608068,0.289278,-0.351283,-1.49195,0.304369,2.78631,0.748838,1.16385,0.913749,-0.575926,-0.460242,0.349959,-1.52362,0.0591504,-0.0593838,2.41414,-0.564492,-0.79978,0.85193,-0.0891297,-1.01428,0.228703,0.543812,0.799946,0.254779,0.501154,1.07863,0.829693,0.316174,0.136679,1.274,-0.0911757,-0.267748,-1.30174,-0.495563,0.3185,-0.121256,0.386008,-0.243143,-0.993265,0.069216,-1.52831,-0.571432,0.0432313,1.05213,0.482455,-0.566615,-0.00080288,-1.14306,0.728919,0.371344,-0.776011,-0.453069,-0.0731689,-0.154593,-0.686567,0.672454,0.981113,-0.431582,-0.0989555,0.815599,-0.514394,0.703413,-0.876535,-0.0189516,0.72923,2.04076,0.814144,-0.220639,0.697055,-1.33172,-0.477866,1.79147,1.69037,-1.53362,-0.707797,-1.08347,0.60679,0.0951983,0.513364,0.0811344,-2.11268,-0.105682,-1.12184,0.38696,1.00953,-1.0141,-0.453546,2.19022,0.774753,-2.84205,-0.040116,1.598,0.372736,-0.271604,0.366007,2.22647,3.28984,-1.18421,-1.05651,1.23206,2.31387,-0.956673,-1.37095,0.188437,0.934269,0.870259,0.55874,1.21348,0.44408,-1.97421,0.243386,1.3994,0.665458,-0.414119,-0.00898051,0.990297,-0.555405,-0.533072,0.210407,0.782585,-0.547652,1.91849,-1.14098,0.0609865,-0.464445,-0.137649,-0.0162466,0.951538,-2.37017,1.33787,0.0236129,0.00854473,-2.4476,-1.53596,1.17984,-1.57429,1.84369,-0.165394,1.58877,-1.93006,-0.43053,-0.39025],[-1.55131,1.32118,-1.13321,0.0608724,2.14101,1.25057,-1.70429,-0.381477,-0.717938,1.07182,1.00416,-0.600668,2.07504,-0.319156,-0.0526165,0.98163,1.39674,2.13112,-0.842447,-0.949599,-0.0360481,-0.317751,-0.866364,0.0567289,-1.05699,0.0959473,-0.0878062,0.475586,1.62429,1.40156,-0.316419,-1.55168,1.03984,0.380764,1.10382,-0.00344369,-0.524783,-0.460868,0.150409,1.26507,0.0306491,1.59569,0.733505,0.414189,0.621199,0.54386,0.513978,-0.955176,-0.58989,-0.254026,0.261571,-3.4522,1.14491,-0.203569,-0.933489,-0.403601,-0.583191,0.917493,2.94575,-1.10858,-0.772192,-0.735083,0.286939,-0.935709,-1.45385,0.145838,-0.0641773,0.470197,-1.86027,1.31309,-0.346161,-0.288466,0.979011,-0.476306,-2.58206,-0.290958,0.103781,-0.13309,1.59371,-0.354656,0.229429,-0.842357,-0.671738,-0.190077,-0.252084,1.79291,2.14657,-1.04378,1.39258,-0.0487367,0.646219,0.240234,0.674752,0.774592,0.379713,1.1913,0.545598,0.0361461,-0.5975,-2.91463,-1.08373,-0.128263,0.924094,-0.803726,-1.34978,-0.39924,1.39894,-1.65531,-0.335958,-0.255672,-1.4839,0.750947,-1.31808,0.0266087,0.68558,-0.625297,0.695519,0.452187,0.468801,-0.0617637,-0.757247,0.805873,-0.904527,-1.44907,-0.688042,-0.712197,-0.49842,-0.315212,0.743839,-0.0522324,0.559026,-0.491233,-1.40297,-2.44332,0.395713,-0.652197,0.329831,0.79284,1.59538,0.933125,0.577088,-0.218343,-1.35981,0.958854,0.0840558,0.100798,0.487588,0.640424,0.286111,-1.3698,-2.07402,0.833057,0.566255,-0.365571,0.732461,0.459669,0.203156,0.417793,0.0891442,0.234149,0.143627,0.316945,0.397645,0.283236,-1.467,1.22761,-0.571383,-1.21911,-2.00871,-0.614156,-0.451128,-0.856185,1.39898,0.153366,-0.43721,1.04931,-0.166231,-0.926937,-1.28168,0.0776527,0.661227,-1.33953,0.300688,0.66301,-0.458369,-0.433859,0.169527,0.412249,-1.99356,0.992866,-1.08798,-1.04798,-0.716665,1.01381,-0.00808073,1.37454,1.11055,0.036377,3.14813,-1.33684,-0.467982,0.595014,1.26399,-0.40174,-0.26577,0.927379,-0.0263726,-1.0443,-0.62074,0.0924654,-0.833307,0.532359,1.44286,0.590997,0.629678,0.344763,0.212895,-0.978276,0.170356,-0.924716,0.583668,-1.24771,-0.306966,0.938222,-0.10245,0.496953,-1.06784,-0.316515,-0.889986,-2.03959,0.0751356,-0.691193,-0.359817,1.04418,1.10697,-0.642614,-0.631593,-0.0400212,-0.109729,-0.458641,2.2258,0.0632999,-0.623534,-0.0331197,-1.12687,0.650644,0.281798,-0.749869,-0.178616,-0.04133,0.00216329,1.21519,-0.0328948,0.148649,0.107512,0.439777,-0.694716,0.0698844,0.366026,0.270049,-0.0331757,-0.0184653,-1.24589,0.586905,0.012587,-1.62625,1.23537,2.10707,1.20384,0.468599,0.948393,-0.85192,-0.303194,-0.140078,-0.351887,0.0279315,-0.585993,-0.749987,-0.536295,-1.03374,1.6568,-0.838442,-0.782223,-0.676158,-0.0904686,-0.153338,-2.21298,-0.849511,0.787592,-0.161978,-1.19087,0.642344,-0.485953,-1.70688,1.01491,-0.494891,-0.200252,0.215347,-0.604631,1.1805,-2.39764,0.312101,1.62033,-0.960237,-0.5171,0.449868,-0.783128,-1.32588,-0.218124,-0.573165,0.324823,-1.06926,0.274328,0.418091,-1.39058,-1.31183,0.000531573,0.0056206,1.66765,0.602018,-0.61568,1.21169,0.498328,0.928831,-1.03392,0.548435,0.88465,0.567588,-0.852255,-0.92292,-0.604284,-0.247581,-0.836085,-0.807555,-0.879543,-0.666044,1.0167,-0.388849,-0.483641,1.26412,-0.897885,-0.432801,-0.496646,-0.723173,-0.238502,-0.517934,-0.876674,1.46058,-0.901411,-0.429063,0.155541,1.10951,-0.493118,2.40185,-0.344723,-1.07133,-0.176191,-0.168588,0.597406,-0.380068,0.963646,1.3418,0.56377,1.8503,0.912566,-1.56782,0.818175,-1.19706,0.61918,-0.672611,-0.0836298,1.36045,-1.28239,-1.61678,1.80009,0.388741,0.326483,-0.0558884,-0.335168,-1.07298,-1.60457,-0.975627,-0.992462,0.25295,-0.896812,-0.919337,-0.337483,0.513723,-0.00939799,0.233804,-0.661793,-0.391134,-0.144608,-0.329123,1.04835,0.0501766,-0.224571,0.411333,1.42524,-0.177954,-0.201501,0.282645,0.051181,0.477879,1.08921,-0.100162,1.26654,-0.241801,-0.272546,0.870846,-0.678398,0.724936,0.687213,0.00254548,-1.92638,0.944709,-0.337769,-1.99243,-0.304094,1.24319,-0.852903,-0.66162,-1.68139,-0.171896,-3.04153,0.904604,-0.189477,-1.20937,0.192305,1.476,-0.630684,-2.30965,-0.706399,-0.680151,-0.409773,0.216322,-1.68529,1.321,1.1099,1.03217,0.926307,0.379406,-0.692665,0.584906,-1.24021,-0.207855,0.26465,-0.930928,-0.257584,-0.395692,0.789668,1.89894,-0.744158,-0.990254,0.167474,-1.93223,0.372862,-0.553545,2.26541,0.887894,-0.871086,1.16925,1.9845,1.19141,-0.0352613,-0.795047,-0.28928,0.840587,0.433014,-1.50576,1.0819,2.06634,0.726115,0.155401,0.842459,-1.50533,1.50847,0.123629,-1.50928,0.532473,0.140172,-0.841158,0.0262509,-1.00554,-0.00204356,-0.330875,1.74349,1.04487,-1.55239,-0.0813956,0.679088,-0.109143,-0.460191,-0.763774,-1.90935,-1.30322,-0.197667,-1.02847,1.27866,1.97403,0.476468,-0.382539,0.150426,0.897831,0.893561,-0.166887,-0.959221,1.16543,-0.668435,-1.8944,0.738892,-1.25295,-0.0919519,-2.12762,1.94447,0.263593,-1.06738,-0.456376,0.137097,0.863552,0.546763,-0.00335241,-1.7419,0.233567,0.273062,0.57909,-0.456818,0.269805,1.01186,-0.32432,0.679789,-0.913062,-0.0839536,-0.061159,0.435309,0.0894101,1.20405,-0.886769,-0.440987,0.433329,0.979015,0.990475,0.397286,-0.717836,-0.384416,-1.14687,-0.0411028,0.322518,0.0820242,-1.22379,2.60802,0.502809,-0.0129733,0.103197,-0.903095,-1.24444,1.76543,-0.0880041,1.77459,0.702341,-0.840982,1.22614,1.96131,1.20776,0.441408,-1.2359,-1.31328,2.01699,-1.071,-1.73382,-0.513377,2.00687,-0.289708,0.031984,-0.369696,0.303354,0.618942,0.865017,-0.583751,-2.84525,0.175889,1.48007,-0.257009,-1.56208,0.432972,-1.54973,0.347781,-1.6304,0.559471,-0.899908,-2.39987,0.380646,0.439413,-1.06813,0.251111,0.321658,0.485582,-0.72705,-0.0507932,0.391287,-1.64539,1.13375,-0.705193,-0.581879,0.964143,1.64264,-0.967235,-0.17785,-1.19035,-0.106714,-1.05199,-1.66985,0.942167,0.012744,-0.757323,-1.91893,-0.276654,1.0442,1.01475,-0.146486,-1.21361,0.966784,0.843788,-0.884693,1.16958,0.26534,0.86705,0.451205,0.474801,1.19742,0.921973,-3.35167,-0.790889,1.44328,0.841586,-1.3133,1.06884,0.576182,-1.77993,-1.29292,-0.877768,-0.227627,-0.862257,-1.70684,-0.743227,0.448785,-0.733965,-0.539292,-0.285824,0.926497,1.42942,0.720831,1.04677,-1.49536,0.646932,1.88017,1.78051,-0.086626,0.0769834,0.330365,-1.16081,1.1616,-0.64877,0.386321,-0.749822,-0.0347639,-0.432242,0.301823,-1.12781,-1.06027,0.309966,-1.42721,-1.7267,0.708209,-0.931533,-0.359978,1.6959,-0.163194,0.476633,0.370447,-0.755621,-0.452873,1.36828,0.874694,0.114673,0.686755,-0.102635,-0.0724144,-0.191828,-0.238744,0.94222,-1.1035,-1.0189,-0.492175,-0.75624,0.64521,-0.196833,0.892578,0.476959,0.658431,-1.91382,-0.404082,0.659886,0.538082,-1.50068,2.18883,0.687659,-1.27389,-0.0367976,1.68406,-1.05601,-1.06485,0.813881,-1.14324,1.24952,-0.13019,-0.478577,-0.318629,1.06319,-0.908422,0.667136,1.45469,0.282647,0.193115,-0.918897,0.201287,0.843071,1.51985,0.724508,0.566182,0.0756249,-2.21896,0.116242,1.23898,-0.122884,-0.397217,-0.224238,-0.519331,-0.239651,1.55119,1.93101,0.119098,-1.66526,-0.788827,-0.0513624,-1.15495,-0.0872867,-1.32686,-0.680941,-0.367205,-0.826182,-0.00278968,0.62318,-0.0936958,-0.469028,-0.835943,0.134536,0.952384,0.683978,1.17069,0.858308,0.0728057,-0.336885,0.065939,-0.462908,1.12141,-1.00193,0.207166,-0.302524,-0.8046,-0.740288,-0.823818,-0.0744631,-1.63521,-0.628357,-0.490619,-1.551,1.11052,-0.786218,-1.2373,-0.560433,-0.64573,0.290343,1.98661],[-0.546337,-0.529076,-0.810474,0.453516,-0.0712086,1.3001,-1.5321,0.229613,1.26653,0.743848,1.38158,-0.624234,-0.210544,-1.11806,0.196315,-0.640491,0.361293,-0.230828,-0.694497,-1.50281,0.337515,1.78928,-0.325261,-0.553902,0.859585,0.235631,-0.667611,-0.223209,-2.11769,0.376146,2.40428,-0.779128,0.461698,-1.95017,-0.883731,1.15484,0.0562878,0.960304,0.157304,-0.1986,-0.136103,2.77973,-0.737814,0.181589,2.46013,-0.636281,1.29554,-2.2574,0.114954,2.04159,0.908851,-1.06947,-0.0859561,-0.49401,0.0928467,0.994195,-1.30257,-0.536605,0.0559329,0.149957,1.54998,-0.235466,0.114468,-0.812401,-0.865325,0.506499,0.828517,0.0339673,-1.31402,-0.502843,-1.0646,-0.699202,3.35982,0.0959357,-1.17158,-0.431595,1.00205,-0.627107,0.12894,-0.13966,-1.17715,0.440621,-0.436151,-0.457039,0.693909,-1.37816,-1.00461,0.848684,0.7685,-1.20699,0.38624,-0.565141,0.280717,-0.252478,0.674773,0.878137,2.11741,-0.199461,-1.07253,0.908924,-0.552827,1.57409,-0.652136,2.08124,1.07665,-0.0913156,0.189767,0.302988,0.789446,0.15329,0.1404,0.311573,1.08834,2.13714,-0.58489,0.0287171,0.650279,-0.563659,-0.864489,-0.709174,-0.282136,0.913824,-0.498474,0.504398,-0.226343,-1.78277,-0.515669,0.531303,-0.956972,-0.989984,0.569323,-0.157731,0.255594,0.0680084,-0.501067,-1.30231,0.1479,-0.0203733,1.09415,0.419839,0.00341268,-0.663768,-0.69592,1.81515,0.629642,-0.344444,0.814557,0.856034,-0.0967517,-0.541029,0.319129,-0.955911,-1.10412,-0.756621,1.15219,0.542772,-0.415573,2.92123,-0.127213,1.34752,0.465779,0.761634,-0.414132,-1.28855,1.00862,-1.83392,-0.624475,-0.151564,-0.881329,-1.25315,0.96156,0.348127,0.620308,0.177394,0.323261,1.78487,-0.668913,0.422336,0.356984,1.24887,0.346738,0.593626,-0.335956,-0.272871,-1.48227,0.818471,-1.53555,1.24849,0.932576,0.34224,-1.475,1.24933,-0.187609,0.993277,0.963842,2.59551,-0.373384,-0.811066,0.385248,-0.846032,-0.316796,0.272647,0.0846654,1.03031,-0.938248,1.38194,0.0972656,-0.284245,-0.468017,1.29088,-1.36866,1.19452,0.0506467,-0.60643,-0.366986,0.177246,1.48382,-0.884583,0.313532,-0.197756,-1.64582,-1.56195,0.114365,-0.134877,-0.0686577,-0.284358,0.677042,0.725498,0.554955,-0.137846,-0.0725475,0.0417235,0.224523,1.21575,0.190766,-0.685091,-0.712174,-0.0996209,0.986438,0.297641,0.694282,-0.982624,-1.68222,-0.372922,0.1295,0.00194235,0.889277,0.0558255,-0.299815,1.35566,-0.782364,-0.430135,0.767335,-0.98182,0.520035,0.495238,1.01341,-0.138447,-1.74317,1.9004,0.456166,-0.540733,-0.284036,-0.0536178,-0.939643,-2.16121,-0.301519,0.315864,-0.627175,-0.309926,0.745839,-0.928018,1.44682,-1.0199,-0.776383,-0.582167,-0.210243,-0.882405,-1.65989,0.832022,0.911844,-0.221028,-0.372315,0.344405,0.0657455,0.302329,-0.00251028,-0.722865,0.364902,-0.728674,-1.15388,-0.32798,1.1351,0.622469,-0.586942,2.0518,-0.861217,-0.79999,-0.259675,1.34117,-0.3325,-1.54962,0.0945898,0.300587,1.87085,0.609819,1.90679,0.218575,-1.21053,-0.951347,1.22265,-1.7931,0.401799,1.78846,1.03692,2.36246,0.324553,0.3745,0.303716,-1.05872,-0.474877,-1.9196,-0.360657,-1.88265,0.203247,2.23966,1.41398,-1.13811,-1.48842,-1.36068,0.600148,-2.59009,-0.623916,1.48579,0.305642,0.400164,-0.982559,0.456018,1.18006,1.54855,2.5556,0.856031,0.304096,-1.20657,0.330479,-2.6212,-0.499695,-0.383584,-1.15061,0.100802,-0.0788807,-1.32592,-1.27016,-0.0917343,-0.450948,0.0728238,0.670912,-0.291958,0.828207,1.21885,-0.153862,0.297321,0.198359,-0.872384,0.821279,1.1803,1.26084,0.182302,0.536729,0.31335,0.0592796,-0.646471,0.842293,0.389638,-0.644895,-0.810888,-0.316354,0.874969,0.91002,-2.30958,-0.284693,1.10675,0.676771,0.126374,-2.36292,1.17722,-0.638985,0.747996,0.131115,-0.0905519,1.49708,-1.19532,-0.563661,-0.967142,-0.533758,-0.67395,2.43687,1.15925,-0.277322,-0.788407,0.961282,1.56273,-0.906696,0.0085637,1.24408,1.07427,1.23518,-0.531157,0.488507,-0.993335,0.0280734,-0.343098,-0.415717,-0.831062,1.21848,-0.554643,-1.0476,-0.252645,1.07488,0.474399,-1.05172,0.73171,-0.47773,0.0694913,-0.367637,1.90672,-3.77636,-1.3649,1.76813,0.692927,0.0930163,0.759281,-1.93052,1.66551,0.973897,-1.1633,0.310741,-0.461496,-1.1733,0.925956,-0.160917,1.46206,-0.304064,-0.404938,0.883693,-0.257304,-0.732065,0.837494,0.229695,-0.55685,0.662854,1.12522,0.59394,-0.345487,-1.3298,-2.08949,-0.126195,0.344152,0.193496,0.068442,2.5742,-0.134793,-1.27128,-0.424887,1.47304,-0.178757,-0.863337,-2.12358,-1.02235,-1.2469,1.8717,-0.957336,2.3785,-1.55313,-0.347445,-1.85423,2.4454,2.1917,-0.421108,0.21909,1.06812,1.49884,0.979121,0.436022,-0.349565,-0.637433,1.13378,-0.666776,0.30296,1.4932,0.847964,0.039285,0.155668,1.10545,-1.32853,0.964385,-0.851623,-1.04632,-0.182132,0.765779,-1.13272,-0.26671,-2.22872,1.93453,-0.542889,-0.411417,-1.15393,0.407744,0.183507,-0.0583627,-1.18544,1.44936,1.3548,0.486523,0.718361,-0.0434461,-0.0319487,0.22044,-0.494379,-0.0723188,1.70726,0.458653,0.690906,-1.63057,0.365952,1.10075,-1.14687,-0.482785,0.0522526,-0.334962,-1.11634,-0.970249,-0.139071,1.13324,-2.46521,1.2068,-0.400046,-0.711955,-0.52044,0.49516,0.201279,0.314493,-0.600599,-0.546304,-0.551138,1.0824,0.224579,1.3979,0.0926641,-0.217514,1.92045,-0.0875556,0.14662,1.39381,0.559044,-1.19663,-0.0619586,-0.702701,1.55734,0.0844247,1.88332,0.130769,-1.11502,0.057079,-1.12123,0.50863,-0.662119,0.394569,-0.986967,0.189333,1.02862,0.759138,1.78958,-0.486564,-0.171733,1.50081,-0.336889,-0.0706185,-0.254516,1.05458,-0.181056,-0.886668,0.110998,-1.11343,-1.69808,1.31925,1.03883,0.403219,-0.207293,0.301322,-0.334423,0.550995,-0.04926,0.483991,0.807527,1.29378,-1.05032,0.828549,-1.25535,1.10802,-0.0937761,-1.04619,1.05127,1.72865,1.36775,0.871628,-1.52585,0.0489942,0.750784,-2.09921,-0.110247,-0.0687214,0.291384,-1.94566,1.63927,-0.229982,0.193863,-0.248621,0.889388,1.31767,0.021824,0.0757066,0.228475,0.839004,0.483957,-1.20058,-1.38517,1.18101,1.25611,1.18855,-1.28072,-0.375947,-0.00204183,1.76222,-0.302527,1.11093,-1.0995,0.582087,0.0729292,-0.602606,0.401989,0.780051,1.84613,-0.405124,1.29037,-0.231728,-0.324924,-1.35236,0.116089,1.5209,-0.0392462,0.229368,-0.826484,0.803632,0.512721,0.198602,0.599042,0.632926,0.301741,-0.746792,-0.885811,-0.343582,-1.81662,-0.260814,-0.627431,-2.19241,-0.689258,0.501363,1.06891,2.22827,-1.97604,-1.7708,0.864369,2.18354,0.516853,-3.11513,-0.498459,-0.773966,1.84437,1.19896,-0.541099,0.43737,0.274369,1.34142,0.980607,0.586526,0.511425,0.714423,-0.00722792,1.62185,-0.216341,-1.30185,-0.0248133,-0.738668,1.46705,-0.464028,1.50245,-1.71633,-1.38658,0.193984,-0.491146,1.31467,0.109971,-4.05326,0.119221,-1.22991,-1.66187,-1.19304,0.0459605,-0.45181,0.445785,1.18879,-0.712555,-0.0513164,1.12489,1.46742,0.914065,1.23318,-0.0320699,-1.09335,1.59323,-1.96029,1.11605,-0.394047,-0.167184,-0.768095,0.0524281,-0.140774,1.25852,0.0195875,0.896179,0.527954,1.45117,1.13522,0.259625,-0.198641,0.202492,-2.7981,-0.521916,-0.720133,0.195364,-0.235792,0.855473,-0.200484,-0.219382,-0.74193,0.895473,1.16526,-0.185517,0.119423,1.45519,-1.59288,-0.106637,-1.5321,0.426239,0.954676,-0.35611,-0.0176991,-0.113933,1.97696,0.817033,-0.246399,-0.266224,-0.0690053,1.09128,1.00316,-0.678803,1.29052,-0.382426,0.847523,0.141154,-0.881711,-0.00571373,1.14481,-1.34875,-0.493906,1.89903,0.291607,0.905614,0.149601,-1.28352,0.318631,-0.224941,-0.926628],[0.88685,2.31562,-0.553772,-1.87754,0.789833,0.408854,-0.101203,-1.25561,0.270151,-0.801565,1.50207,0.126264,1.11771,-1.82355,0.985764,-0.171258,1.20739,0.586873,-0.434019,-0.578149,-0.388583,1.60651,-0.981998,-0.610712,1.39525,1.00628,0.723855,-0.57303,1.54194,-0.62898,1.01351,-0.22816,0.407736,0.803952,-0.35147,0.8867,-0.731659,-0.524178,-1.79471,0.61039,1.48394,0.0541885,-0.479761,0.677706,1.02088,0.924196,-0.253145,-0.636521,0.376151,1.06272,-2.28851,0.851887,0.791861,-1.44642,0.833631,1.83617,-1.57857,-0.433836,-2.23609,-0.067314,0.216772,-1.64755,0.425296,-0.735344,-0.319786,1.19792,-0.571972,-0.236697,0.207058,-0.0548966,1.71041,0.0700605,1.17087,-0.253024,-0.524283,0.0365885,-1.22974,-0.554964,2.04499,-1.09062,-1.07521,0.2484,1.64664,0.877912,-0.250629,-0.0282053,-0.417219,-1.42598,-1.16962,1.63864,-0.875031,-1.73199,-0.977607,0.6334,-0.384208,-0.249271,-1.19224,0.798554,-1.62281,1.31279,-0.842287,-0.970677,-0.728513,1.56704,-1.17488,-0.000825242,-0.81999,1.33916,-0.0926523,-1.91233,1.51461,-1.38558,0.0679752,1.00858,0.43371,2.35274,-1.60574,-0.822012,0.0105225,-0.380584,-2.1302,0.465586,0.689599,0.640455,-0.619939,-1.79116,0.521793,2.7691,-0.786385,-0.699046,1.24004,1.02908,-1.11937,-1.12192,-0.2641,-0.233936,-0.211125,0.164579,0.615016,-0.037739,-0.811676,-1.0911,-0.274185,-0.0510956,-2.33287,-1.78707,-0.348439,-0.810642,-0.208443,0.178289,-0.891213,-2.26359,-0.156743,0.827698,0.133329,-1.41408,-1.0786,0.965123,-0.186079,-0.529794,0.21397,0.342248,-0.227615,0.895709,-0.171461,-1.40796,-0.0785702,-0.653444,-0.178406,0.341428,0.190881,-0.288502,0.230688,1.60228,-1.22627,-0.839565,0.0279214,-1.072,0.333425,-0.990097,-1.89545,-0.195701,0.37685,1.16006,0.471417,-0.921777,0.44922,0.677736,0.220634,0.361894,-0.836014,0.0689591,-0.369852,0.748413,0.740562,-0.380305,2.54922,-0.585003,0.823731,-0.0168656,0.843379,0.0423861,0.387796,-0.842904,0.567906,-0.688216,-1.03842,0.152755,-0.414634,-0.370564,0.482481,0.196371,-0.419497,0.47518,0.762469,1.99206,-1.5191,0.500499,-0.256811,1.75311,-0.64694,-1.89907,0.108196,-0.920227,0.131496,0.790441,-0.364165,-1.61892,-0.994502,0.0292504,0.1153,-0.661629,-0.266935,-1.22912,-0.19859,-0.117683,0.841467,0.956749,0.0709984,0.170989,-0.483196,0.854105,-1.48698,-0.362937,-0.146988,-1.19591,0.336749,1.98799,0.728282,0.793011,-0.664805,-1.62604,-2.32153,0.730908,-1.04553,0.883146,1.60031,-1.28189,-1.83058,0.570112,0.0168531,-1.92045,0.63134,-0.336898,-1.10042,-0.123008,-0.785598,0.104737,0.838381,2.0316,0.159906,0.986304,0.349446,-0.0485924,0.885761,-0.802939,0.167066,-0.521098,1.73118,-0.190678,0.493727,1.72919,-0.732491,0.709893,0.130884,-1.43706,-0.159018,0.564071,0.132591,-1.23058,0.264549,-0.0636541,-1.27077,2.2842,-1.04321,0.690531,1.18824,-1.37214,2.51224,-1.39973,-0.142725,0.171526,-0.469879,1.07333,1.73052,0.718747,0.878319,-0.270636,0.764205,0.366478,0.518154,-0.832316,0.970317,-1.06504,-0.666935,0.141629,-0.0743594,-1.32796,0.613868,1.62078,0.414062,0.216278,0.274031,-1.23876,-1.05383,0.471506,0.235613,-0.43884,0.21086,1.47253,-0.112613,-0.149501,-1.50771,-0.445109,0.457936,0.00261879,-0.117566,-0.000259288,-0.378182,-0.36977,0.159536,0.299428,0.556858,-0.331102,-1.24291,-0.249142,-1.26934,-0.115839,1.54441,0.504382,-1.3455,-0.56664,-1.99017,-2.01287,-0.280052,-0.460947,0.320478,-0.687114,1.73027,1.38179,-0.705502,-0.52638,-0.754659,0.696309,-1.04229,-0.98181,-2.73758,-0.36471,0.668183,0.450809,0.2665,0.343275,-1.96342,-0.170695,1.41326,1.7722,0.176514,0.395306,0.329437,-0.820129,-0.329252,0.184161,0.355297,0.495577,0.191887,-0.317994,1.65238,1.85291,-0.0517024,0.28008,-1.41292,-0.520861,0.59746,0.434598,0.949035,-0.263176,-0.618937,0.438652,-0.456524,1.24852,-1.59185,0.605637,-0.168982,1.19405,0.343077,1.03603,1.60066,-1.03244,0.325849,0.896921,-0.280779,-0.154673,-1.96588,-2.63564,-0.587224,-0.0500786,-0.235151,-0.385006,0.454866,-0.652205,0.183952,0.340301,0.754556,-0.359006,1.06927,-0.892309,0.0690528,-0.484169,-0.814593,0.928237,-0.0279743,0.219653,0.902921,1.05993,-1.06632,0.655451,0.622352,-2.22817,1.83084,-0.452333,-0.203573,0.571773,-0.782767,1.08072,0.767227,-0.151758,0.362338,0.272695,-0.299925,0.442786,-1.04292,0.676789,0.655332,-0.336119,0.889864,-1.30775,0.495159,-1.96178,-0.749321,1.59938,-0.97617,0.2615,-1.56308,0.0927798,0.552203,0.509463,-2.01923,1.54631,-0.462733,1.60094,-0.348933,-0.758892,-0.926476,0.991605,-1.78804,-0.405784,0.613919,0.879816,0.278564,-0.286531,0.547229,0.145256,0.827563,0.0732268,-1.00763,-0.142459,0.682037,0.379352,-0.245724,-1.11799,-0.983704,0.151654,0.00375361,0.113332,1.14549,1.75562,-1.08226,-0.037327,0.416714,-0.397259,0.597092,0.971826,0.344962,-0.121209,0.18687,0.753222,1.62203,-0.255486,-1.11112,2.12664,0.669352,0.193206,0.824856,0.39374,-0.897259,-0.355618,-0.636629,-0.490821,-0.72194,-0.691637,0.0101762,-0.458839,-1.00834,-1.61195,0.464539,-0.15974,-0.376383,1.27022,0.30229,0.252871,-2.50156,-1.04147,-1.29905,2.48716,-0.410799,-0.396491,2.66641,1.78147,1.3222,1.75878,-0.903043,1.50245,1.46813,-0.262321,-0.483292,1.04239,0.735252,0.319229,0.532684,1.32627,-1.18539,0.0267275,1.13565,-0.975629,1.06089,1.36978,-1.41858,-1.0146,0.28938,-0.761621,-0.413205,1.64163,0.757256,0.336058,0.0809471,0.0621754,-1.35204,0.466125,0.341684,-0.343826,-0.208732,-2.10813,0.613521,-1.29012,1.14691,-1.40145,-1.09734,0.689555,0.735916,-0.0417736,-0.265573,-2.79878,0.031601,0.636206,-2.6962,-0.882367,-0.191373,0.079812,0.0306567,0.447875,-0.651863,0.39822,0.183687,-1.11065,1.15748,1.51779,0.693373,0.546395,0.273299,0.76489,-0.62425,-0.890074,-1.86216,0.584276,1.10629,1.81692,0.14166,-0.328787,1.13465,1.08898,-0.566094,-0.0568552,0.357946,0.263992,1.85573,0.730829,0.615359,-0.220387,-0.418211,-0.417188,1.76655,-0.864332,2.27902,1.1851,-0.680067,-0.166184,-0.668804,-0.0839118,0.708976,1.42846,-1.86097,0.47581,-0.461208,0.679203,-0.330734,0.313002,0.22216,0.432683,-1.2713,1.0604,0.878884,0.658787,-0.392261,1.01351,-1.11836,0.338523,-0.216851,0.242316,0.506427,-0.838765,1.11027,-1.46568,0.100561,0.135123,0.747834,-1.60844,0.013557,1.37215,1.50695,-0.623785,0.0279229,0.973138,-0.220528,0.418403,0.899428,-1.21019,-0.529403,-0.451705,-1.09504,-1.28344,-0.133207,0.285034,-0.076191,0.00817457,-0.43896,-0.476045,0.920384,0.741236,0.956335,2.17134,-1.55486,2.14267,0.692745,0.16787,0.770415,-0.352761,1.82227,-1.22109,2.22616,-2.12006,-1.15398,0.0440295,1.28013,-1.12376,-2.08951,-1.2236,-0.0563747,-0.857349,0.560792,-0.0535182,-0.326345,-0.435822,-1.11317,-0.438,-0.448931,-0.568926,-0.691075,0.578873,-0.438209,1.87603,-1.20141,-1.32573,-0.337961,-0.831387,-0.284939,0.250449,0.443643,-0.018989,0.392923,0.322823,-0.522596,-0.964223,-0.906575,-0.0527722,-0.530106,-0.358613,1.46453,-0.0931402,-0.0460715,1.08519,-0.945088,0.573263,0.320065,0.627627,0.648703,1.3054,-1.08127,-0.147091,-0.368006,0.602238,2.24133,0.844493,0.763326,-0.601261,-0.669387,-0.637607,-0.943913,0.987955,1.23565,0.369881,0.315365,-2.03998,0.823409,-0.743141,-1.30037,-0.198809,0.601935,-1.50238,0.39924,2.30358,0.080207,0.882928,1.22441,-0.746161,-0.518894,0.746169,0.0404512,-1.86359,-0.953033,-0.909407,0.0806792,0.183384,1.78188,1.17976,-1.53538,0.315969,0.279387,2.55016,-0.288544,0.118157,-1.29005,-1.42548,-0.292545,-0.187343],[-0.147127,1.50371,-0.865523,-0.650088,0.523524,0.222669,1.77756,0.0158208,1.35334,1.07156,-1.3697,-1.05778,0.713174,-0.631215,0.12717,-2.09714,-0.0799886,-0.425045,0.251474,0.146328,-0.405658,-0.219713,0.230888,0.393891,0.872913,-0.476459,0.0672618,0.605797,-0.265319,-0.035353,0.388368,2.80121,-0.202306,2.30481,-1.01067,0.0393607,-1.80449,0.256164,2.26966,0.715643,-0.137584,-2.18633,2.21009,0.956322,0.758681,0.954413,-1.33547,-0.664308,1.51532,1.03635,0.203107,-1.01247,1.05133,2.21251,-0.135166,0.017679,1.30676,-1.5911,1.33851,1.00734,0.202157,0.414439,0.849877,-2.20287,-0.357047,-0.126339,0.643858,-0.984422,-0.210225,-0.121947,-0.292431,-1.66543,0.198858,0.430675,0.336081,-0.489583,1.54365,1.36308,-0.150129,-0.463666,-0.782151,2.47936,-0.0936473,-0.147275,-0.576395,-0.607514,1.21572,-0.148611,2.00269,2.14646,0.361781,1.06868,-0.875663,-0.777267,-0.295791,-0.865965,-0.0570177,0.152321,-1.45437,-1.75515,0.158168,0.991575,-0.17363,-0.834238,-0.488719,-0.510812,1.16974,-1.10909,1.08979,-0.633905,0.823707,-2.20148,-0.255135,0.0523643,-1.29706,-0.584584,1.05554,-0.668446,-1.8265,1.97569,0.364016,0.294077,-0.089308,-2.50082,0.173967,-0.903664,0.0513343,-0.305852,-1.07226,-0.543607,-1.36611,0.907771,-0.136273,1.56556,-0.613266,-0.575478,-0.107765,-0.200039,-0.51074,-2.38036,0.736885,-0.790988,0.437588,-1.27131,-1.49012,-0.688094,0.469056,1.06432,-0.337075,0.192654,1.44976,0.420929,0.557443,1.92318,1.12807,-1.07173,-0.14274,1.61799,-0.686861,1.5725,-0.680967,-1.57398,-0.0530566,-1.47186,-0.599312,0.984716,0.503793,-1.43066,-0.619844,1.28069,-0.96251,0.71037,-1.10843,0.48587,-2.50582,-1.05643,-1.12254,1.72375,-0.937995,-0.856361,-2.44546,0.27229,1.22699,1.90562,-0.331862,1.09643,0.146362,-0.057741,2.2435,0.738255,-0.795158,-0.980597,0.714517,1.99651,-0.321893,1.77654,0.457401,1.963,-0.664835,1.38022,1.48347,0.612253,-0.12554,-0.0352271,1.11391,1.27984,-0.0818459,0.0537827,-1.43215,-0.142811,1.80607,-0.309245,-0.128553,-0.267386,-1.18428,-0.0262971,-0.310368,0.0800694,0.397169,1.17113,-0.391309,1.31045,-0.139478,0.90856,0.424473,1.17212,-0.0683102,-0.27755,-0.506345,1.02491,-0.701491,0.92802,-0.658206,-2.15884,0.41541,-1.29009,0.915236,-1.08718,0.264163,-0.0872418,-0.473407,0.859381,-0.0341736,1.23385,-0.122307,-0.101166,-0.181198,0.700561,-0.246253,0.0699664,-0.732569,-0.744545,0.789156,-0.533599,-2.27477,0.272132,0.728622,-0.312223,1.20524,0.73601,-0.324693,1.31042,1.71056,-1.47663,0.106829,-0.758009,-0.288355,-0.509773,0.182903,1.39678,0.260725,-1.12239,-0.382148,1.64489,1.18836,1.37006,-0.0229799,0.0418918,0.880013,0.569869,-1.88671,0.806557,-0.81057,0.132161,0.947101,-1.36542,1.13323,-0.590992,1.50672,-0.789179,-0.508907,-1.0364,-0.135463,0.0670623,-0.536854,-0.0244816,-0.0521756,0.154443,1.34023,-1.10401,-0.596783,-1.38549,-0.522855,1.37993,1.01905,-1.81877,-0.481647,-0.839971,-1.90352,0.413858,-0.0618398,1.51701,0.331894,0.551916,-1.79896,-0.367979,-0.230083,-0.46923,-1.57568,0.433572,-0.273039,0.144394,-0.242279,-0.505372,-1.72089,-0.0937832,0.226453,1.73174,-0.351212,-2.69945,-0.53731,-1.54336,1.39655,1.41868,-1.26051,1.2111,0.724946,0.731997,0.522739,0.840231,0.0677877,-1.38178,-0.546655,-1.66704,0.401388,-0.528921,-0.838445,-0.365553,-0.135835,-1.97645,0.953095,-0.0453796,-0.489669,-2.04087,-0.486444,-0.636117,-0.339519,-1.85041,-1.31114,-0.223954,-0.243396,0.368683,-0.457657,-0.55804,0.94852,1.75276,-0.0169388,-0.326789,-0.774116,-0.264928,-1.56572,0.793732,0.887048,-0.238808,0.323788,0.454248,0.636646,-2.94339,1.40308,0.16644,1.10853,-0.098773,0.912677,-0.408064,-1.96339,-0.105291,0.541972,-0.68175,-1.3495,-0.308088,1.04661,-0.723473,-0.187608,-0.809322,0.971586,0.691883,1.12253,0.458377,-0.624287,1.06957,1.4281,1.0336,0.366068,0.922404,0.883718,1.9727,0.0441642,0.889847,0.707607,1.42225,-0.837056,-0.948553,0.941509,0.477385,-0.109062,-0.338068,-0.426716,-2.44747,0.419856,-0.60775,0.47053,-0.976408,-0.246236,0.101963,0.537689,0.16617,0.792831,0.271432,0.0421208,0.825569,0.855759,-0.201224,0.0472454,0.00205464,1.13691,-0.580093,-0.335073,2.79865,-0.354327,-0.831242,-0.775488,-0.531169,-1.48268,-0.289526,0.115254,-1.62147,0.101059,-1.18058,-1.80751,0.745933,-0.840006,0.0382993,-0.677157,1.48077,-0.700748,-0.482488,0.252675,0.796772,0.000903264,0.275077,0.390851,0.538843,0.378194,0.0384399,0.186437,3.23745,-0.689985,-1.04995,-1.25958,2.57101,0.255001,-0.532507,-0.836665,1.22776,-0.920059,0.103037,-0.954739,0.540617,-1.82394,0.985331,-0.273182,-0.828604,0.45572,-0.846047,-0.667101,0.990949,-0.177988,-1.33772,1.6844,-0.688562,-0.112798,0.0849699,-0.0761178,0.518454,1.08259,-0.676251,-1.0961,0.486445,0.00913631,0.462591,-0.940744,0.81101,-0.944861,1.71865,-1.04891,0.225569,-0.52394,-1.00226,0.446131,0.418187,-0.0667921,-0.295378,0.30946,-3.18254,-1.10836,0.125102,0.0465293,1.22489,0.917107,-2.76921,0.463871,1.01958,-0.476478,1.31095,-0.0740435,0.547444,1.62087,-0.36837,-0.71778,-0.190804,-0.312376,0.00893453,0.745701,-0.958869,1.53864,-0.0364389,-1.58354,0.865862,0.0388211,-0.171453,1.04112,-1.22612,-0.92478,-0.529456,0.269214,-1.15131,1.51242,-0.280721,0.108607,0.608781,1.05631,0.470811,0.790684,-0.24504,-0.10001,1.08194,-0.401209,-0.63019,-0.541181,-0.655528,-0.0442287,1.47685,-1.17107,0.824301,-0.411538,0.46937,0.0360584,-0.13928,2.78854,1.08201,-0.935393,-0.605656,-1.47204,-1.93054,0.434665,-0.642832,0.190597,-0.109145,-1.15227,1.188,-0.858497,-0.0459942,0.486137,0.684199,-0.286416,-1.16573,-0.0986994,0.567345,0.497261,-0.00683473,-0.9049,-1.10385,0.377661,-0.261815,1.03662,0.0190753,1.69231,2.11589,-0.111745,0.836993,1.58995,1.00055,-0.807378,-0.370074,-0.444796,0.156744,-0.686637,-0.484921,-1.66994,0.518247,0.854971,1.0754,-1.14211,-1.30851,1.71464,-0.903851,-0.650212,0.798876,-0.653067,-0.877916,-0.548527,0.595157,-0.583318,-2.18728,-0.919008,0.507329,-1.41072,0.368497,-2.18047,-0.740229,-2.18296,1.12607,0.692229,-1.14272,0.324228,2.31718,-0.585442,-2.16557,0.115278,1.91285,-1.30643,-2.03103,-0.730673,-1.29363,-2.17972,-0.052927,1.15292,-1.20702,1.48558,0.367971,0.648832,-0.404938,-1.38489,-0.78031,-0.231918,0.79821,-1.50154,1.38807,-0.452637,0.311023,-0.706898,0.196995,1.02695,0.277583,0.223828,0.583272,-0.48514,-0.916605,2.20103,-0.80084,1.95942,-0.0280929,-0.414268,-0.633147,0.489662,1.11561,2.15533,-1.46495,-0.328523,1.05403,0.734263,0.937618,-0.736766,1.17252,0.322519,0.601177,-0.882184,-1.38656,0.952103,-0.13644,-1.17726,0.175275,0.0226714,-0.198271,-0.847823,-0.710899,1.10861,-1.26286,1.08734,-0.361028,-0.448731,-0.639825,-1.22871,-1.12845,-1.23683,0.171679,-1.18308,0.453799,0.304017,-0.158136,0.823781,-0.400355,-0.262143,-0.0328547,-0.133224,0.230001,-1.13226,0.482634,-0.845484,2.11768,0.674704,1.76424,1.22658,-1.18918,-0.346176,1.17117,-0.605877,0.925637,0.0837211,-0.252212,0.33707,0.520745,-1.02637,1.14679,-0.588278,0.976778,1.4463,-0.208379,0.327647,0.860903,-0.96074,2.45273,-0.313926,-0.728703,-1.16326,0.760331,-0.0876747,-0.271233,-0.0401638,0.978709,0.302084,0.574353,0.724109,-1.97293,1.08503,-0.404508,1.94267,-0.902455,0.102441,1.43329,-1.45195,-1.27475,-1.46983,-0.724882,0.626771,-2.31649,-1.83196,1.35918,0.0835385,-0.949465,-2.26209,0.396369,-0.507322,-0.396335,-0.524234,0.261663,1.82112,0.854931,0.616356,0.0557689,-0.834542,0.721315,-0.76746,-1.72215],[0.972778,0.00615843,-1.96989,1.28763,0.924152,0.128239,-1.2131,0.204094,0.916617,-0.737508,0.220433,0.211479,-1.70172,0.296764,0.582642,-1.36401,0.349743,0.0924262,0.649634,-0.870307,0.492763,-0.166628,0.388408,-0.579768,-0.901452,2.47018,-1.63293,-1.37524,0.101169,0.692915,-1.93809,0.747092,0.965778,1.26491,-0.0244965,-1.03883,1.21004,-0.100746,0.755586,-0.612909,-2.23326,1.40214,1.00579,-0.768797,-0.0492826,0.548429,2.69557,0.435542,-0.942151,-0.914944,-0.999297,-1.42995,0.427231,0.666448,0.917109,0.0398219,0.819232,0.363915,-0.0192869,0.909538,-1.00588,0.593327,1.99286,1.69628,-1.09141,-0.195402,0.0477756,0.0108,1.14817,1.28814,-0.94154,0.694114,-0.372497,-0.250551,0.777972,1.6369,1.69162,-0.588619,-0.0167627,0.609953,0.979483,0.71104,0.529093,-0.907527,-0.00885536,-0.806113,0.989599,0.666047,-0.182727,1.58781,-0.674682,-0.0654084,-0.524782,0.0775055,0.0208634,1.09382,-1.67842,0.275889,0.409299,0.406671,1.28595,-0.619384,0.835854,1.56678,1.51236,-0.458389,-0.812081,0.37827,0.145365,-1.12355,1.01454,0.905525,-0.538944,0.37748,2.00404,-0.873074,1.53309,1.2771,0.105244,-0.457848,3.02033,-1.9926,-0.0993111,-1.22777,-0.665538,-1.02264,-0.809774,1.56446,-0.1329,2.39781,-0.392236,-2.95641,-0.403796,-2.5119,0.0947055,-0.644656,1.00682,-0.736753,1.37329,0.0455839,0.407902,0.127506,0.592158,-0.18552,-0.54308,1.11182,0.412919,0.600775,0.916633,-0.718665,0.677377,-0.98939,-0.399723,-0.986082,-0.905588,-0.0860827,-0.479714,-0.865335,1.00968,-0.668261,-1.26907,-0.760792,-0.791681,-1.112,1.02999,-0.20828,-0.21778,0.407061,1.99662,0.89908,-0.220127,-1.18913,-1.14251,-1.59486,0.197089,-0.845921,-1.12682,0.19576,0.424963,-0.375846,0.434664,-0.380641,0.0719142,0.022218,0.844736,-0.043329,-1.37049,-0.825329,0.525207,-0.128653,-2.30489,0.447756,0.251055,-0.838541,-0.179335,-1.47924,-0.508817,-1.19507,0.312614,0.983141,-0.759005,0.133306,-0.147488,-0.251141,0.489064,0.433069,1.87981,-0.053644,1.62875,1.01816,1.22719,0.282542,0.808735,-0.366797,0.90124,0.192727,0.0517787,-0.199194,0.97038,-1.18375,-0.0221102,0.860349,2.7853,-0.148513,0.0541781,1.63419,0.366739,0.0570624,-0.413386,0.926168,-0.763144,0.955048,0.373584,-1.15439,-0.732475,1.2416,1.69043,-0.389076,0.104081,0.508805,-0.502553,-0.618972,1.36256,0.944726,0.378126,-0.628611,-1.41648,1.8287,1.24513,-0.51711,-0.747786,-0.211027,1.516,-1.09054,0.51484,0.405012,-0.190962,-0.753362,0.607028,-0.187521,-0.434116,0.541276,-0.585419,0.093877,0.284736,1.31953,2.84452,-0.393269,0.833021,0.731884,1.10528,0.919523,-0.272362,1.4729,0.470318,-0.0772637,-0.485096,-1.3888,-0.254214,0.897246,0.742328,-1.29226,0.396458,0.558708,0.351991,-0.492094,-0.895944,-1.29035,-1.42351,0.242801,-1.74202,-0.201392,-1.76166,0.0101456,1.67805,0.93512,0.0138475,-0.467074,0.799546,2.09086,-1.15376,0.698541,-0.0714597,-0.848655,0.476708,-0.751925,0.369034,-0.630569,-0.0541592,-2.02627,-0.470345,0.167144,-0.0499864,0.372372,0.0324439,0.668372,1.42512,-0.260696,0.772557,-0.112811,1.71391,1.39941,1.51269,0.551111,1.30173,0.0354493,0.277651,-0.0785991,-0.0149696,1.00249,-1.39356,-0.47182,-0.72301,0.0850826,0.0981155,2.01441,0.786582,1.38846,0.564258,0.627382,-0.214109,-3.06896,0.746663,-0.412928,-0.556587,-0.627022,0.236394,-2.08691,0.687983,-0.662932,0.275086,-0.168861,-0.277105,0.162856,0.631082,-0.359297,0.921105,0.34698,2.16294,0.674026,1.40868,0.264034,-0.269747,-1.82024,-0.687997,0.903286,-0.232533,-1.49977,1.57728,2.19815,-1.54665,-2.03149,-1.59793,0.654511,1.13018,-0.513907,-1.10585,-0.591001,0.733592,-1.04183,0.636156,-0.181094,0.482473,-1.05976,0.256023,-0.790881,1.09547,0.898129,1.33313,-0.177667,0.123831,-1.8315,0.429008,0.391726,0.563464,-2.60216,1.00507,-1.02656,-0.0184004,-1.0398,-0.0360266,-0.350109,0.25742,0.373651,0.328619,1.54109,-0.333454,0.422977,0.512844,-0.00233683,0.132117,-2.48425,0.324898,-0.394754,-1.36255,-0.851268,-0.585151,1.48041,-1.06093,0.88948,1.91548,-0.8031,-0.289905,0.658161,-0.698091,-1.13315,1.06034,0.392943,0.00244074,-0.223825,0.959688,-0.870163,0.209809,-0.3886,1.14752,0.458809,-1.12726,-2.14221,-1.36982,1.24837,-0.581708,1.19127,-1.07447,-0.339067,0.931453,0.769073,0.480048,1.25829,-1.13742,-0.283779,-0.684488,-0.535023,1.69866,0.718221,-0.135071,-0.488778,1.94674,0.0231993,-0.138621,0.162266,0.0754193,1.22422,-0.520677,-1.56577,-0.440237,0.0159485,0.97859,-0.623767,-1.28815,-1.14547,0.719238,1.12196,1.79283,-1.90189,-0.741078,2.59792,-0.585524,0.280716,0.454702,1.01674,-0.431838,1.64893,0.715981,-0.872288,0.461458,-0.543769,1.74054,-2.42698,-1.08212,-1.81443,0.68236,-1.51403,0.130865,-1.43712,1.50592,1.14355,-2.06851,0.711797,0.623731,0.567866,-0.797172,-0.260017,-0.249286,0.690468,0.0346983,0.473458,0.445762,-0.504783,-1.46581,1.40933,-0.816717,-0.229156,0.243314,0.0600162,1.80519,0.259498,-0.111307,-0.308135,-1.6485,-0.692923,0.176037,0.00661951,0.972343,1.58636,0.178641,0.382183,0.840978,0.6392,0.88893,0.592932,-0.223565,-0.415712,0.945946,0.718369,-2.14787,-0.380595,1.16065,1.15636,0.571075,-0.163357,1.45265,0.770607,-0.968829,0.272057,-0.603812,-0.793386,0.208039,-0.422431,-0.491969,-1.53053,1.75307,0.670916,-1.72089,-0.3658,1.8898,-0.490665,-0.20606,-0.331391,0.0657195,0.360751,-0.736239,-0.705624,-1.46968,-1.16799,-0.914044,0.569504,0.568156,0.836739,0.57478,-0.0832375,-1.50941,0.307071,1.30697,-0.511038,-0.399722,-0.0956886,0.017057,1.94949,1.10416,0.191806,0.0915121,0.246047,0.618983,0.117358,-1.03389,0.0466867,-0.239093,1.55423,-0.539489,-0.216681,1.63369,-0.453255,-1.12957,-0.19152,-0.687252,1.85421,0.903016,0.930236,0.451791,1.91767,0.944421,0.0363359,0.119943,0.227361,0.168808,-1.15389,0.346684,0.789208,0.16453,0.0675229,1.94994,0.739164,0.290756,-0.401205,-0.107609,-1.18516,0.0135781,-0.397519,0.264633,0.542946,-0.810178,-0.761104,1.66227,-0.920418,0.203225,0.00506815,-0.959972,-0.103719,0.888914,-1.19265,-0.710343,0.197766,-0.20898,-0.0884622,-1.01351,0.140102,-1.0232,0.879789,-0.609754,-1.43875,0.256617,1.11967,0.845154,-0.319162,0.385127,1.73563,0.0365988,1.36682,-0.912606,2.15774,-0.267561,0.990531,-0.871973,-0.149398,-0.620429,1.60536,0.836211,0.575577,-0.91337,-0.80779,0.25281,-1.35068,-1.3383,-0.0539768,0.474418,-2.07036,0.498305,-0.667823,-1.16168,-0.0622616,1.60985,-0.946692,0.240326,0.97559,-0.635758,-0.470733,-0.572091,-0.0627448,0.458337,-1.0517,1.4786,-0.605762,2.36887,-0.419219,-0.290842,-0.382788,0.922558,0.127718,0.17532,-0.82032,0.39824,0.88727,0.23551,1.16037,1.46901,0.748472,-0.735542,-0.567004,0.042254,-0.151261,0.105819,0.121618,0.686497,-1.31047,-2.81797,-0.269811,1.5182,-1.88748,-0.474071,-1.61003,0.676436,0.112071,-1.00243,-1.96418,-0.713555,-1.24082,0.109223,0.853941,1.84365,-0.598062,-0.138961,0.749641,-1.634,0.115324,0.459114,-0.670398,-0.49755,-0.58296,1.34645,-0.330575,0.226472,-1.05159,0.586942,0.195154,0.0354038,-0.272518,0.615924,0.447839,-1.22988,-0.00540759,0.275889,-0.535014,-0.445548,-1.96826,-0.154979,0.376972,0.54352,-2.5584,-0.598155,0.281738,-0.235606,0.18093,-0.0797841,0.798539,0.171947,-1.16584,-2.3412,-0.784527,-0.454828,-0.801623,-0.955072,1.59046,1.46094,1.42747,1.17596,-1.11161,-2.27937,-0.382158,0.397448,0.532483,0.81145,-0.976921,-1.55456,1.16694,-0.410289,-0.243155,0.105782,1.17806,0.319823,0.310238,-0.598878,0.0805942,-0.394477,-1.36479],[0.213553,-2.26964,-0.922378,0.914233,-0.633467,1.96889,-3.6012,-0.541661,-0.898541,-1.47133,-0.298965,0.851293,-1.13772,-0.179682,0.42123,1.03522,-0.0938207,0.0906534,0.787631,1.27723,0.577131,0.576984,-1.45747,0.966613,-0.887246,-0.45925,-1.06063,0.0312793,0.973853,-0.513949,2.26508,0.792801,-1.64743,1.37188,-0.959522,-0.97754,-1.30163,1.01165,0.0559809,-1.05079,0.00638537,-0.840191,-0.284934,-0.62332,-1.03827,-0.556587,-0.654782,-1.69776,-1.00721,0.891222,-0.558104,-0.188132,-0.419722,-0.133131,-0.277017,1.62414,0.82529,-0.533918,0.086893,1.26621,-1.03543,0.218723,-0.117967,0.580533,0.273464,-1.48811,0.304365,-0.361106,0.748833,-1.02901,2.04813,-0.372949,0.415878,0.550434,0.77362,3.13756,-1.3496,0.60742,-1.29257,0.328714,-0.512183,1.35465,-0.227199,-1.20876,1.62639,0.261068,0.628347,0.180736,0.649299,-1.22047,-1.2459,0.995951,-2.19246,-0.58526,-0.64535,0.0819903,0.22717,-0.968138,1.95232,-0.599047,-1.95677,0.146414,-0.388215,1.09637,-0.699632,0.923264,-1.1959,-0.510682,0.647536,-1.35013,-0.681584,-1.26246,-1.20962,-2.26243,-0.0488901,-0.64189,-0.570369,-0.577208,-0.528194,-0.377239,0.260302,-2.52652,1.03752,0.764677,-1.33355,0.999276,-0.301139,0.304412,-0.00779888,-3.10025,-0.176614,-0.322143,0.955409,0.413219,1.19026,-0.310014,-1.12245,-0.0793215,-0.811032,0.0194615,0.970606,1.24255,1.94453,0.301981,0.0406273,-0.170112,0.0860437,-0.533065,-1.02661,0.809531,-0.645009,0.240046,-0.751859,-1.05023,-0.356247,-0.0407855,-0.0389111,0.0664426,-0.607323,1.02507,-0.11729,-2.03507,0.921584,0.382388,1.44643,0.645166,0.261627,0.0548676,-0.815017,-3.90472,1.56338,0.242452,-0.539435,-0.232589,-0.855958,-1.35908,-0.0226242,2.89968,-0.261459,0.313161,0.496418,0.648212,0.943989,0.56095,0.56154,1.94813,1.22545,0.915378,-0.271497,-0.230279,0.155641,-1.10013,0.527356,-0.372197,-1.21858,0.719563,-0.377221,0.465212,-0.826489,-0.676103,-0.373833,0.702695,-0.671385,-1.36018,0.148037,0.0128355,1.05072,-0.054346,1.50397,0.320979,-1.08265,0.696381,0.0505351,-1.58346,-0.522664,-0.163872,0.943957,-0.874071,-0.814886,0.484459,0.650483,-0.352955,-0.231334,0.572075,0.584698,-1.62837,-0.459473,0.219688,1.467,-0.777617,-0.246737,1.20295,-1.18101,-0.585255,0.111866,-0.561872,-0.905383,-1.95041,0.0836433,0.0388272,-1.18966,-1.00581,-0.905429,0.690986,-0.2672,-0.313532,0.0854734,-0.0909323,0.970609,2.01925,1.42506,1.23741,-1.40696,-0.0433611,-0.56286,-0.887085,-0.397037,-0.11611,-0.804631,0.29489,0.0744516,1.87511,-0.387209,0.0176756,0.593816,0.121432,-0.529889,1.12386,-0.390244,1.23768,-1.30775,-1.67095,0.172756,-0.442952,-0.324803,0.278488,0.830897,-0.323466,0.00691341,-0.652389,-1.42023,-0.819777,0.645309,0.0611626,0.665011,1.10761,-1.62404,-0.157262,-0.886002,1.64927,0.90733,0.823105,0.0646507,1.02147,0.404134,0.989035,-1.17253,0.650168,1.35483,-0.469987,-0.517269,0.967764,-1.22752,-0.0719108,-0.0337413,0.277466,-2.4736,-1.17255,-0.00816199,0.845142,-0.419688,-0.759822,-0.703198,0.836921,0.0351517,0.907604,0.21,0.820497,-0.348707,1.85829,2.08173,-1.43994,-1.05433,0.481264,0.212162,-1.28012,-1.23075,0.571645,-0.942217,-0.572265,0.123691,0.847918,-1.11033,-0.487794,0.437992,0.876739,1.89911,0.0510167,0.057861,0.0947628,-0.136478,2.10388,-1.50598,-0.340185,-0.554096,-0.888716,0.75034,2.07737,0.915627,-0.152211,-1.57014,-1.13363,-1.42002,0.37613,1.13833,0.724825,0.198406,0.688858,-1.88107,1.49483,0.469344,1.35693,0.409074,-0.899948,-1.68848,0.782246,-0.591818,-1.58499,0.571529,0.735618,-0.302293,0.418358,-0.416394,0.69048,0.878188,1.49619,0.188494,-0.327546,-0.711103,0.692262,-0.585851,-0.571068,-1.14505,1.4265,-0.0480786,0.127405,-0.540703,-0.306731,-1.00559,-0.228152,0.0106585,0.933331,0.0354864,-1.64322,-1.26013,1.81403,0.868374,-0.725379,1.05901,0.208297,0.399141,-0.241262,-0.696552,-0.390537,-1.33088,1.09936,-0.649455,-0.263274,-0.24531,-0.609635,-0.623776,0.980864,-0.914661,1.14171,1.78151,-0.062958,-0.0777373,0.642885,-1.10554,-0.220808,0.0921949,-1.62037,-1.09769,-0.0866293,1.47532,-2.28173,0.576198,0.334433,0.964698,-2.09994,-0.196163,-0.901703,0.333125,1.11189,0.897296,-0.543931,0.941552,0.00353715,-0.187791,0.766157,-0.14464,0.721383,0.32911,-0.241911,-0.439402,0.0129682,-0.232641,-0.575348,-0.0900619,1.31055,-0.114085,-0.93888,1.85743,1.53769,-0.203881,-1.3331,0.976249,0.668704,0.198728,-0.344887,-0.429347,0.54285,0.355796,1.44348,-1.35289,-0.0927167,0.471105,1.32425,-1.48961,-0.480193,-0.424265,0.0612952,0.238674,0.295343,-0.280133,0.559697,0.8685,0.219151,1.56886,-0.29506,0.720556,0.216843,0.167893,-0.324136,-0.772289,-0.329251,0.355075,2.21708,0.845402,1.62411,0.815799,0.512271,-1.47407,-1.39163,-1.59201,-0.278826,0.549362,-1.49746,-1.53956,0.385396,0.804426,0.928343,0.70375,-0.647564,-0.944794,-1.42712,0.435232,0.203416,-0.344311,-0.773585,-0.481708,0.192878,0.0310577,-0.020705,-2.13212,-1.62954,-0.149003,0.539686,-1.17587,0.649518,-0.645712,-0.00320525,0.341171,0.0736298,0.106184,1.09768,-0.843256,0.130862,-0.033241,-0.227021,1.1357,-1.36357,-2.021,0.57216,-0.825638,-0.880825,0.191063,-0.392727,-0.196929,0.487311,0.0457462,0.412762,0.175606,-1.11622,0.0700344,0.45128,0.610771,0.293651,-0.956783,0.127667,-0.0799051,0.689248,-0.0722396,0.640976,0.391851,0.506744,-0.497536,-1.37521,-1.40953,0.491779,0.142884,0.263579,0.470933,-1.8903,-1.7951,1.64079,-0.547918,0.738708,-0.816022,0.141146,-0.178863,0.422609,-0.425704,-0.429294,-2.09279,-0.0505496,-0.402919,1.52475,1.87677,-0.485407,0.38251,0.529753,-1.21608,0.0587374,-0.610402,-0.97298,0.774139,0.298418,-0.682047,-0.277248,-0.901902,-0.20539,0.478002,0.913482,-0.0461094,0.452715,1.13218,0.49946,0.0322593,-0.681456,0.795727,0.173075,-1.3861,-0.591831,-1.0335,-0.574001,0.713549,-1.48479,0.83764,0.169326,-0.64797,0.847904,-0.665093,0.244496,0.178641,0.334429,1.41332,-0.0741192,-0.494372,1.90012,-0.222725,2.71715,0.0975674,-1.52567,-1.7211,1.61768,-1.18936,0.0241902,1.96416,-1.13886,1.57482,-0.324585,-0.102093,-0.898766,-1.73147,0.0694352,0.304601,-0.647674,-0.406075,-0.262643,0.245647,0.460432,-1.47997,-1.6347,0.166614,0.122582,-1.13694,0.492668,0.276476,0.657019,1.45089,-0.137822,-1.44073,-0.576396,0.464924,1.4076,1.23271,-1.19204,0.0332428,-1.5082,1.11498,-0.98515,0.69006,1.53232,-0.82723,-0.0710429,1.58809,0.564575,-0.98802,-0.0320399,-0.433956,1.49151,0.371689,-0.00565537,0.762689,0.213676,0.712172,0.538198,0.0648166,0.616455,0.176177,0.00680588,0.0856873,-0.521637,-0.749556,-0.808378,-1.52926,1.56042,0.467224,-0.261177,0.24718,0.0439317,0.422723,0.59865,1.45434,1.94452,0.3567,-1.1416,-0.440953,1.49027,-0.513765,-0.371505,1.19956,0.686613,-0.810378,1.92972,1.16507,-1.1086,0.103102,0.350342,0.0897904,-1.18503,-0.461857,-0.64165,1.50353,0.647427,-1.04594,1.08477,-0.491666,0.278036,0.400696,-0.437091,0.284557,-0.0621784,0.15248,0.284889,0.478411,0.806741,-1.17026,0.185855,-1.48523,-0.0358304,0.0196535,1.0186,-1.5248,-1.11896,0.542363,1.47317,-0.253327,0.535503,-0.291049,-1.21687,-0.206553,-0.365481,0.52569,-1.25948,-1.84226,0.591865,-0.450387,-1.16691,0.815889,1.27202,-0.557951,0.393519,1.1087,0.685165,0.536326,2.49361,0.568975,-1.75959,1.12125,-0.794866,-0.316906,-0.169256,-0.330444,-0.505483,-0.637176,-0.695989,-1.64592,-0.524731,-0.740281,0.165128,1.03566,0.715126,0.387743,-0.0986593,-0.181239,1.68076,-0.198488,-0.76693,0.400285,0.860182,0.145693,-0.975604],[-2.18675,-0.783082,-0.192125,0.552004,-0.0503809,0.234101,-0.118356,0.079785,0.0237261,1.40608,1.87998,-0.965008,-0.334534,-0.386326,0.145553,0.16445,-0.00549314,1.05335,0.550976,0.527787,1.60682,-0.499317,-0.0746271,-0.107895,-0.0698627,-0.559834,-0.840178,0.141688,-0.788384,0.450099,1.73822,0.826273,0.581482,1.59664,-1.87265,0.684817,0.544007,1.87012,1.1117,2.78849,1.30438,-0.0808445,0.916852,-0.918438,1.00685,-0.550143,-1.53915,-0.533356,-0.886602,-1.29585,-0.525171,0.597206,-0.840859,1.27085,0.319007,-0.494796,0.428893,1.06935,0.368518,1.39737,-1.11538,0.703985,0.0447855,-1.2992,2.38757,-0.115687,-0.0285802,-1.23865,0.0592432,1.30693,0.978116,-0.800794,-0.82214,2.50103,-0.678665,-0.105204,-0.340867,1.76025,0.333609,-0.0461152,0.137384,-0.0604025,-2.33542,-0.118704,0.192299,-0.107994,0.477418,0.747157,-2.01362,-0.823766,-1.10472,1.19048,-1.16575,-1.49471,0.824871,0.535843,-0.255947,-0.671554,-0.412337,-1.17003,-1.31907,-1.61466,-1.07443,0.243079,-0.404737,0.0196818,-0.165675,0.701625,0.0705606,-2.36678,0.15524,0.707534,2.59028,-0.459298,0.754487,-0.0275757,1.23287,-1.30896,0.376537,-1.91494,-0.701185,-1.67624,-0.176343,-0.278502,-1.23194,1.06592,0.282338,-1.22988,-1.14631,-0.939772,-0.694138,-0.53213,1.13772,0.00719776,-0.285416,0.653669,0.132269,0.437091,-0.79916,0.734098,1.34847,-0.914579,0.883159,0.468209,0.944422,0.723972,1.50968,0.813017,-1.45167,0.760632,-0.36492,0.232554,-1.07069,0.518654,0.594743,0.374517,-0.866598,-0.18423,1.64148,0.119491,-0.30952,-0.167058,0.66872,-1.5042,-1.23136,-0.353231,0.248909,-0.946834,1.52514,-1.54757,-0.925343,0.575913,0.152076,1.47102,0.228062,-0.60336,-0.701731,0.546491,-0.894838,2.24256,0.933977,0.913529,-0.251068,-0.475428,-0.482255,0.35902,-1.09996,1.70079,-1.52766,-0.491726,0.0900116,0.618969,0.705971,0.938469,-1.07988,0.280354,1.1633,-0.539631,-0.25076,-0.49532,1.71767,2.05083,-0.110224,-0.964216,1.11894,-0.382026,0.888327,-0.00574381,0.734749,2.80473,-1.97674,1.02863,0.438752,0.535249,-0.356531,1.57252,0.60093,-0.523088,0.057249,0.127995,0.367028,-0.0436903,-0.83803,-0.593169,-1.04262,0.274323,0.571459,-1.8566,-1.5262,-1.14874,-0.715807,-0.439693,1.23388,-0.73831,1.48687,1.66946,-0.276729,0.720124,0.0711949,0.657971,-0.155743,1.22811,0.8104,1.38878,-0.664115,0.784855,0.13549,0.391154,0.460831,0.843663,1.77543,-0.0673039,0.130232,-0.647098,0.0205282,-0.0955731,-1.29198,-0.659649,-0.143153,-1.33551,0.400027,-1.08152,1.61699,-0.882652,1.43395,1.38242,1.26143,0.0409306,1.00367,1.099,1.19128,0.497723,-0.579508,0.367178,-0.137768,-0.798334,1.29644,-0.746106,0.308222,1.03114,0.438984,0.457818,2.31281,-0.887864,-0.894029,0.300833,-0.454769,-0.0224761,-1.74887,-0.461627,0.297688,-1.33264,1.33157,-0.0295912,0.885421,0.0739694,-0.263081,0.602022,1.35493,-0.992138,-0.0398178,-0.664902,-1.65976,1.89208,1.12353,0.119826,0.74221,0.821546,-0.726357,2.91571,-0.983183,-0.921156,1.27867,1.51809,-0.526688,0.905528,0.410269,-1.04237,-0.0440056,-0.299859,0.108354,-2.35028,-1.50179,0.843966,-0.0497999,0.507288,-0.171893,1.2819,0.250481,-0.427336,1.11051,0.497449,1.35614,1.96679,-1.61671,-1.09865,0.42937,-1.21507,0.800713,-0.659651,0.820112,-1.2911,0.245444,1.29448,-1.16352,0.294179,-0.7807,1.11403,0.62687,-1.04234,1.43916,2.61898,0.372499,1.85015,0.86499,-0.912577,0.31726,0.0224054,0.308969,-0.0642916,-0.611758,-0.953075,-0.502945,-2.03695,1.53552,0.697945,0.981724,0.516747,-0.121743,-2.32351,0.193402,0.157728,0.858064,2.29687,0.446053,0.0301385,-1.22233,-0.254666,0.880835,-0.368289,-1.20447,-0.40497,-0.119876,0.572346,0.0762683,-1.25535,-1.13282,-0.39043,-1.24975,-0.326138,-1.0872,2.54604,-0.565159,-1.58458,-0.97862,0.246794,-1.83793,-1.73215,0.601831,0.916877,-1.27931,1.39134,-1.56229,0.48435,1.01128,-2.31532,0.0682711,-0.137566,0.506152,-0.569064,0.0100264,0.556326,1.48328,1.08883,-0.934122,0.206396,-0.463324,-0.0741581,-0.655361,-0.92407,0.72154,-0.910089,0.848327,1.65955,2.15313,0.737579,-1.09365,0.355807,-0.785893,-0.446575,0.478368,-0.268037,-0.115242,-2.03901,0.639532,1.51018,-0.82629,1.01244,2.09682,-1.0578,0.292656,1.63427,1.36804,-0.347385,0.119051,-0.91726,-0.126761,-0.613727,1.7706,0.889034,-0.578545,-0.0533162,-0.273945,-1.16731,0.205976,0.0770891,1.76573,0.139652,0.682253,-0.539121,1.20425,-0.978771,1.38985,0.390667,-0.57754,-0.0025621,-0.725296,-0.389261,-0.0687529,-0.364771,-0.629305,0.178336,-1.55291,0.383621,-0.682303,-0.58726,-1.24897,-1.19321,0.44571,0.767603,0.48532,-0.499685,0.663077,0.564413,0.565028,0.826203,-0.528152,-0.612534,0.992661,-0.907976,0.802005,-0.638502,1.09002,0.0680569,-0.796446,-1.65837,1.23526,0.608658,-0.487312,0.233217,2.43106,0.0461257,-0.42114,0.344759,1.1306,-0.857063,-0.768891,-0.186004,1.83755,0.0809571,-1.00635,0.662055,-1.66943,-1.59399,1.16692,-0.73856,0.231252,1.56666,0.0972619,-0.672612,1.63372,-1.0858,-1.95506,-0.197205,-1.2294,0.647694,1.53295,-0.147753,-0.0775208,0.472171,2.47236,1.45726,-0.533886,-1.13733,-0.221941,0.618795,-0.372126,0.0788848,-0.0375881,-1.34863,0.752849,-0.296794,0.176349,-0.119917,0.771312,-0.0283866,0.670376,2.06119,-0.22969,-1.3376,0.765172,0.949505,1.09797,0.359954,-0.0228572,-1.03555,0.0633874,-0.133954,-2.14735,0.398847,-0.912447,1.04158,0.960457,-0.164351,0.191911,-0.941564,0.460068,-0.811637,-0.304996,0.860475,0.63493,-0.627933,-0.945781,1.9833,0.108498,1.01061,-0.420951,0.119578,-1.05632,0.48071,-0.152811,-1.59402,0.754137,0.637201,0.244837,0.659764,0.158348,-0.97551,-0.644128,-1.03572,1.3785,0.904787,-0.223907,0.244768,0.0332195,1.30857,-0.504179,0.230532,1.17444,0.660149,-1.6153,-1.31953,1.84568,0.378397,2.57453,0.29752,-1.42877,0.792502,0.698004,1.45735,-0.511592,1.11728,0.509914,0.290163,-0.25719,1.1025,-2.875,0.0707196,0.268374,-0.523184,-0.82893,-0.398796,0.150518,0.0608942,0.622619,0.208203,-1.9033,-0.231677,-1.8685,-0.789513,-1.15111,-0.834076,0.514613,-0.769662,-0.971647,0.232927,1.30946,0.938783,-0.62697,-1.73866,-0.190223,1.77243,0.755369,-0.956231,-0.573389,-0.114264,0.547768,-1.71663,1.29761,-0.28389,0.289973,-0.875432,0.281693,-1.56526,0.464871,-1.47876,1.06305,0.942204,-0.0863634,0.661908,0.358464,-0.71058,-0.642645,1.44841,0.79423,-2.8024,-1.15731,-0.0856389,0.789775,0.818672,0.135628,-0.680451,-0.320852,1.5026,-0.00834898,-1.19066,0.838047,-0.706258,1.7311,-0.751407,2.06772,1.28559,0.670514,0.920971,0.201426,1.03243,-0.162413,0.012955,-0.677979,1.23578,0.617856,1.23798,-1.35176,-0.55034,-1.68505,-1.11447,-0.625097,0.930404,1.10808,-1.80554,-2.5057,1.67262,-1.43192,-0.387151,0.51241,0.6265,-0.681697,-0.205848,0.646815,-0.707939,-0.247604,1.73704,-1.95192,0.264702,-1.30874,0.610301,0.513784,-0.0933377,-1.17426,-1.56294,0.199643,-0.227095,-0.642022,0.863698,-0.927145,0.199859,-0.0823452,-1.36002,-0.834206,0.517754,-2.05741,-1.52216,0.294547,-0.649313,-1.08393,0.807294,2.28289,0.990946,0.880895,0.95108,0.941264,-0.676962,0.50084,1.28517,-0.358487,1.08302,0.540119,-1.61547,-0.207872,-0.400901,2.51079,-1.01396,1.45089,-0.500705,0.851134,1.1777,1.11851,1.03845,-0.748076,-1.83263,0.449546,-1.35285,-0.0710404,-0.323208,-0.310727,-1.36921,-1.61496,1.17788,0.204354,-0.131195,-0.317811,-0.790043,-1.28799,0.483353,0.524084,0.382789,1.68763,0.100889,1.56803,-0.063353,0.137607,1.13028,-1.05093,1.27088],[-0.77743,-1.64167,-0.716769,1.27685,1.75558,-0.345095,1.09359,-0.671588,-0.422463,0.62149,1.59664,-0.634943,-0.881759,0.0779754,-2.85174,0.429186,0.0816421,-1.02717,1.73754,-1.24987,0.746942,-1.18091,-0.617897,1.09497,-1.68413,-0.196194,0.187124,-0.180164,1.31191,0.373801,-0.0410624,-2.2293,1.70829,0.234921,0.695333,-0.639198,1.14243,0.223978,-0.890351,-0.887892,1.28861,1.70738,-1.27378,-0.163117,0.249944,1.33165,-1.70146,-1.20714,1.66821,-0.50384,0.281946,-1.79297,-0.268976,0.198129,0.901803,-0.411299,-1.85296,-1.44441,-0.313928,1.37681,-0.806166,0.616429,-2.22654,0.366442,0.0517787,0.61327,0.689389,-0.318791,-0.226783,-0.544049,1.0923,-0.503206,0.335853,0.398595,-1.06134,-1.43422,1.57481,-0.838445,0.596542,-0.148544,-0.599683,-0.00849977,-0.0318132,-1.7549,-1.11323,-0.637471,-1.23024,0.346412,0.433578,-0.11296,0.361232,0.000929331,-0.00625225,1.2199,0.194999,1.23657,-0.469904,-0.023606,0.705938,0.596913,0.7612,1.07746,0.0594499,1.68777,0.505218,1.01585,0.583219,1.25664,-0.801668,0.641126,-1.44251,1.87001,-0.767751,-0.0148716,-0.762335,-0.806013,-0.196752,-0.323115,1.17378,0.722269,0.0959558,-0.209576,0.442624,0.173808,-1.03415,0.618708,1.42392,0.609163,0.240409,-0.184056,-0.247345,1.87337,-1.11888,0.127669,0.161971,-0.114003,-1.34144,-1.55032,-1.56984,0.464926,-0.335685,0.463994,0.123179,0.294602,0.506494,0.0451969,0.685068,0.015677,0.25728,0.733623,-0.237816,0.608495,-0.725058,-1.38598,-0.107365,-1.40469,-0.483257,0.308005,-0.15694,0.926942,0.0598261,-1.17712,-1.56374,-1.40562,0.887127,-0.568169,-0.711893,0.612908,0.595397,0.0923329,0.27375,1.76077,-0.0889952,0.284305,1.02852,-0.0315882,-1.63939,-0.361664,0.0230429,0.744827,0.959167,0.408719,-1.47608,0.771084,-0.324993,-0.13423,1.90357,0.692333,1.68283,1.21766,-0.337137,0.242157,-0.0840583,0.56397,-0.136291,0.0857249,0.0321204,1.05542,0.578706,-2.04275,0.0426492,0.267511,-0.25901,-0.463142,-2.49416,-0.0146715,-1.44838,-1.58773,-0.228949,0.0645688,0.869915,0.033469,-0.25956,0.882581,0.813946,-0.416358,0.0649395,-1.04616,0.724341,0.0188767,-1.03022,0.00961716,0.619,0.155274,-0.138438,-0.17797,-0.280817,0.0350252,-1.00465,-1.04949,-0.159177,0.139019,-1.00864,-0.699566,1.38664,-1.32654,-0.851573,0.658959,-0.957435,-0.711392,-0.430417,0.548988,1.49105,-1.23474,0.0992459,-1.9497,0.520087,0.413017,0.669389,0.650041,-0.337454,1.03337,0.579593,-0.0698448,0.208309,-0.297211,0.695689,-0.322565,1.02787,1.68723,0.610154,-1.50875,-0.164104,-1.19022,-1.1087,-0.0961057,1.33243,0.760121,1.35159,0.0434647,-1.18522,0.744015,2.33652,-1.07968,1.71033,0.219976,-0.841485,-2.39988,-1.19613,-0.387731,1.55793,1.06017,0.350602,0.807032,-0.429637,-0.713869,0.356219,-1.8178,1.8144,-1.39613,1.72671,0.834184,-0.523775,1.16916,-0.371292,-1.79889,-0.954066,-0.0710019,0.861475,0.993764,0.962969,0.626027,1.33243,-0.010024,0.65303,0.32454,-0.100799,0.8068,0.103707,1.23011,0.740079,-0.131166,-0.513144,1.9389,0.359641,0.219113,2.28229,0.523356,0.000148611,-0.687219,-0.225803,0.259875,-0.595287,-0.179504,0.0733349,0.658859,1.97278,-0.40645,-1.16463,0.543564,1.18817,-0.294159,1.90306,-0.0159626,1.64869,-0.881526,-1.44133,-0.139581,-0.706609,0.0992047,-0.0694173,0.300734,-0.431575,2.13376,-1.03344,-0.752273,0.588349,0.204485,1.31186,1.02155,-0.0505813,0.259699,0.62054,0.160244,-0.057388,0.31127,-0.431309,0.131209,0.988253,0.958943,-1.43717,0.0307423,-1.30652,-1.82071,0.547413,1.10808,0.90573,1.9115,-0.250494,-1.15104,1.47132,0.212307,-1.24179,-0.130322,1.32254,-1.2154,-0.597088,-0.60874,0.487188,-0.797675,1.31808,-0.119215,1.24118,0.761422,1.10102,-0.843073,-0.605368,2.09293,1.0089,-0.362293,-0.0778387,-1.48349,0.10066,1.91758,0.329695,-0.938992,1.02165,1.1223,-0.871246,-0.183516,2.21817,-1.17893,0.454309,1.19564,-0.18878,0.286417,-0.625113,-0.966392,0.908844,1.80248,-1.48571,-1.59151,-0.357909,-0.838431,2.63709,-0.0858764,1.25262,-1.83854,0.849494,1.08086,-0.461688,0.357116,0.183487,-0.839147,-0.626887,0.223923,0.394117,-1.2477,-0.850652,0.736683,-0.911533,0.710321,-1.21323,-1.56524,-0.291889,0.95115,0.324998,-1.44709,0.733775,0.144563,1.73355,-0.908874,0.879027,1.14025,-0.738515,-1.22067,-1.29838,0.0574946,0.89837,0.205105,-1.01599,1.26331,-0.851155,-0.436231,-1.3855,-1.51533,-0.501127,-1.88733,0.828227,1.92807,-0.759433,-0.82016,0.18771,0.0890933,-0.205426,-1.39455,-0.549613,0.744806,0.993419,-0.416988,-1.97332,-0.170996,-0.126366,-0.0773038,-1.20101,-0.899141,0.852399,-0.597038,-0.536098,0.60247,-0.955536,-0.701178,-0.0374669,-0.0620171,0.17595,-0.9208,-0.66763,-2.23263,0.0463248,-1.95719,1.1343,0.1713,0.14126,-1.43074,-0.224158,-1.39191,-0.767864,1.54357,1.09737,-0.30225,-0.329828,-1.65207,0.154438,-0.193129,0.106448,0.0708963,-0.932078,1.14754,0.600377,-0.917047,0.803068,0.616593,-0.0560244,1.30658,0.576134,-0.484638,-2.01359,-0.682001,-1.98989,0.142236,-0.0738975,-0.645532,0.332088,-1.66933,0.105564,-1.57018,-1.30365,-0.723492,0.316917,0.610224,-0.945142,0.304368,0.370438,1.73295,-0.651476,-0.411667,-1.08548,-0.555189,-0.108964,0.668004,-0.711499,0.594626,-0.595565,0.620224,-0.991724,0.08299,-1.20134,0.129566,-0.421002,1.43124,0.154031,1.6408,0.778248,0.2522,0.892653,0.0652172,0.265575,0.00196307,-1.39399,-1.29147,0.334877,-0.296409,1.6367,0.95259,1.19468,-0.29775,-0.349578,-0.748538,1.07839,-0.177991,-0.223317,1.41554,0.825903,1.25626,0.863201,0.32953,-0.915462,-0.533859,-0.49773,-0.231956,0.797736,0.373173,0.478847,2.10268,0.361277,1.84082,-1.11211,-0.882291,1.35549,0.679857,0.316421,0.116375,-0.0607567,-2.55539,-0.0418979,-1.58966,0.36396,2.86833,-0.0356494,2.232,-0.979722,1.39798,0.696,1.55778,1.32312,0.0380987,0.301006,-1.30248,0.645704,0.796805,0.977097,-0.776274,1.2185,-1.37233,-1.85652,0.0998052,1.55837,1.46257,0.123833,0.129086,-0.961631,0.479039,0.451274,2.06042,0.31074,0.190479,2.26219,-0.220147,-1.12472,-0.472597,0.0752378,-0.595224,-0.512829,1.97829,-1.26376,-0.537154,0.0675703,0.993926,0.737537,2.3319,-0.367559,-0.254009,-1.27357,-0.265372,0.69222,1.06214,-0.316685,-0.0914104,-0.628909,0.61895,-0.259377,0.535953,0.903672,-1.56273,0.277757,0.392303,-0.978897,0.29203,-0.0968707,0.172646,1.28212,1.23262,-0.76762,2.3902,2.33129,0.0646641,-0.12242,0.662005,2.32105,-1.16079,1.30679,-0.202721,-0.931361,0.0387342,-0.949702,-0.362124,-0.872422,0.827879,0.997888,-0.96469,-0.106256,0.386384,-0.311627,-2.16483,-1.2948,0.541728,0.832443,-1.52843,0.57941,0.297818,-0.797365,-1.80267,-0.904904,-1.78119,0.0602885,0.671672,-1.3288,1.73503,-0.425986,-0.239993,0.116885,0.826667,0.367875,0.480081,1.03362,-0.0286765,-0.0961683,1.72049,-0.276449,-0.810624,0.391122,1.19339,-0.600113,0.191309,0.844138,-0.225721,-1.26946,0.942186,0.1265,-0.349559,0.168959,0.258435,0.531556,0.0643832,0.178835,-0.276257,-0.0234511,0.233587,0.0431143,0.330186,0.445404,-1.36018,0.0841762,-0.329345,-0.78973,1.41575,1.6065,1.29629,1.38018,-0.380602,0.0804904,-0.435425,-2.71488,-0.543785,0.760849,0.249466,1.33168,-1.37849,-0.0781054,1.85277,-1.24447,0.727082,-1.29166,0.545932,1.53238,-1.62784,-0.699995,1.46827,-1.24758,0.173375,-1.23949,1.63216,0.414106,-0.251871,0.788153,-0.487652,-0.8892,-0.297717,-0.882801,-0.935376,0.401492,-0.75391,1.05439,0.0701027,0.394427,0.850889,-0.473776,-0.378458,0.949547,-0.352126,-0.518585,0.0794919,-1.29218,-0.800287],[0.626168,1.17288,-0.167668,-1.63834,-0.616385,1.2161,1.58613,-0.664067,-0.0214711,-2.57978,-0.476256,0.960343,0.584168,-0.357514,-0.520121,-0.581537,-0.570543,0.254184,-0.629584,-1.51801,0.302771,0.571005,1.04009,0.830511,-0.152534,2.16627,0.265604,-0.393835,0.242479,-0.854197,0.117019,0.732776,-0.342545,0.289433,2.53791,1.48645,-1.78805,0.284356,0.32438,0.170809,-0.683242,-0.253577,0.81158,0.319993,-0.832134,-1.26663,0.360871,0.78377,-0.0770817,-0.918063,-0.326193,0.151786,1.19979,0.288189,0.61912,-0.637027,0.409557,0.20521,-0.489104,0.745548,-0.0484461,-1.88409,0.39474,-0.866675,0.105726,0.0743283,-0.816443,1.65492,1.0924,-0.925585,-0.826552,0.179044,1.48976,-2.52448,-0.33169,1.07967,-1.43214,-0.319084,1.28934,0.906564,-0.0552688,0.0682071,0.714104,-1.39984,0.813174,-0.68092,-0.0139288,1.12253,1.61876,-0.956996,0.21153,1.03757,1.29315,-0.211088,0.861147,-0.272987,0.0539316,0.402995,-0.184242,-0.154876,-0.478634,-1.21682,-0.963183,-0.185945,0.366734,0.725953,-0.0570979,0.467677,0.112854,0.140857,-0.0972786,-0.511401,-0.457797,0.459967,0.523215,-0.186804,0.235203,2.04508,0.268771,-1.51099,-0.243783,-0.172434,-0.437052,-0.0104064,1.03741,0.368358,1.56339,1.27537,0.99001,-0.860662,-1.55129,-0.585266,-0.24088,-3.19134,-0.0993703,-0.205613,-1.43717,-0.860423,-0.0300156,1.87546,0.211319,0.635445,0.509547,0.788768,-0.356434,2.07088,0.0466789,-0.481309,0.85738,-0.42263,-0.542379,-0.337776,0.817012,-0.360601,-0.775619,0.436196,-0.148168,0.436353,-0.589099,1.12678,1.08094,0.075154,0.025768,-2.4645,-1.64903,1.09979,0.168996,-0.269035,-0.828282,0.593482,-0.040357,-0.958468,0.398338,-1.13782,-0.821763,-0.883938,0.143943,1.31673,-0.937268,-1.52345,-1.79891,0.825,1.6428,1.60745,0.122805,0.495741,0.0791086,0.245404,1.41786,-0.533257,-0.193832,-1.19174,-0.35506,0.058104,1.45115,-0.649079,-1.17816,0.0397398,0.0243843,-0.362034,-1.05461,-0.821362,0.0319954,0.533605,1.50385,-0.805444,1.09272,-0.0722616,-0.826213,-0.451502,1.00477,-0.973748,0.397689,-0.156558,0.149514,0.949093,-0.143398,0.793584,-1.43293,1.80058,-1.56949,0.434134,-0.270511,-0.205523,-0.353556,-0.0469487,0.578165,0.285662,0.151546,0.324951,0.478633,-0.954521,-1.25929,1.30332,1.03941,-0.0707873,-0.291105,-1.33995,0.742351,0.0939258,-0.337494,-0.287808,-0.124915,0.941549,1.90097,0.787708,-0.0319843,-0.546887,-0.0924085,1.12839,1.1057,-1.33885,0.905528,-0.938769,0.0239884,1.26828,1.36152,0.461371,0.174543,2.29174,-1.57263,-0.103149,-0.676107,0.00441947,0.895954,-0.441522,0.442349,1.65365,-0.288443,-0.560579,1.48333,-0.778037,0.0763511,-0.6384,-0.710291,-1.34803,-0.262368,1.12086,0.580787,0.307219,-0.201172,-2.06622,0.228363,0.449642,-1.12947,1.23775,-0.639172,-0.992954,0.22223,1.56323,-1.84949,1.71355,0.366693,-0.974033,0.526891,0.27427,1.19934,2.23066,0.0244985,-0.461914,0.383431,0.339388,1.35359,0.606272,0.988621,-1.77911,0.866728,0.00829324,1.96227,0.450382,0.348898,0.331493,-0.840203,-0.460726,-0.308772,-0.684615,-0.685438,-1.43693,-0.286129,0.44548,-1.00242,-1.41949,-1.43731,1.5665,-0.42733,-1.24762,0.307499,-1.0082,-2.1141,-0.463927,2.08252,-0.501359,1.15501,1.59269,-2.84782,1.66496,0.0278267,0.896211,-1.49765,-0.897801,-1.68544,-0.234688,1.75292,1.20093,0.895421,1.01413,0.142544,0.779183,-0.273514,-0.145069,0.857655,1.58134,-0.677182,0.261139,-0.12246,1.23201,-0.202477,-1.09194,0.220874,-0.302808,-0.321075,-0.326535,-1.00697,-1.12499,-0.262962,0.892425,-0.19327,-0.0790786,-1.50586,1.17327,-1.65149,0.590503,0.0845034,0.98154,0.345259,-0.234783,-0.864497,1.03961,-1.05895,0.803951,-0.509752,-0.312826,0.132241,-0.0540233,-0.06713,-0.959475,-0.101634,0.882431,-0.260003,-1.71117,0.574826,-0.0247441,-0.43514,0.16542,-0.0416941,0.532582,0.370605,-0.0411488,-2.17016,-0.734919,-0.268765,0.393723,-0.287413,-0.572741,1.73937,-1.44057,2.59099,1.50572,-1.53463,-0.995608,-0.893768,0.559648,0.3984,-0.0491404,-0.283103,0.0133367,0.183479,0.515395,-0.459079,-0.525705,0.628215,0.695086,0.61893,-0.574514,1.31674,-0.042778,-0.30465,0.587692,1.09857,-0.286302,-0.723482,1.57008,0.556694,-0.262033,-0.841021,-0.490468,0.275304,0.0706904,0.420673,0.254462,-2.18046,0.181466,1.27151,-1.35574,0.129863,0.206821,1.13324,-0.0873601,-0.132428,0.38524,0.352148,0.598325,-2.31953,-0.862838,-0.273318,1.67361,-0.160826,-2.9582,0.466402,-0.23136,0.74537,-0.0585259,-1.87784,-1.17628,-0.311571,-0.27358,1.38035,-0.321597,-0.507836,0.692155,-0.28307,-0.665196,-0.951331,-0.296499,-1.27119,0.159489,-1.20076,1.1232,-1.39914,-0.276455,-0.560642,-1.28801,0.675744,-0.470743,0.973998,0.261934,-0.135488,-0.46488,-0.761204,-0.255538,-0.695398,-0.335055,-1.27355,-0.115486,0.455122,-0.788335,0.195023,0.0188676,-0.251202,1.56526,-0.640829,2.20403,-0.801615,0.847768,-0.534872,1.81233,0.155175,0.201843,0.00401629,-0.370919,-0.319633,-0.745467,0.165755,0.157851,1.78509,-1.47626,-1.47366,-2.7459,1.16455,-0.483202,0.317199,1.61539,0.209201,0.0345369,-0.893552,-0.635709,-1.68554,-0.0893906,-0.986008,-0.22896,-0.126168,-0.266402,-0.979281,-0.892677,0.0242151,-0.335649,0.864083,-2.00843,-0.0334808,0.511093,-1.16024,0.0828307,2.5403,0.781674,0.137999,-0.374209,-0.845483,-0.443825,-1.33519,0.127299,-0.17876,1.08175,0.149883,0.327626,-0.484878,-0.544554,1.23286,0.99224,0.704849,-0.101775,0.824113,-0.844119,-0.981249,-1.01705,0.0333018,-0.979743,1.0401,1.21685,0.138551,-0.0166066,1.31573,0.514093,-1.58756,-0.782468,-1.14683,-0.577802,0.47974,-2.06801,0.79537,0.702481,0.437326,-1.86014,0.650715,0.419164,-0.6574,0.57873,-0.494608,-0.109443,-0.971126,-1.90197,-0.409172,-1.03444,0.435996,-0.0740554,0.819429,-2.4396,0.603069,-0.00505636,0.264991,1.11959,-1.03312,1.09928,-0.160302,0.391404,-0.184019,-0.701674,-0.944409,0.871352,-1.19469,-1.66962,0.132491,-0.953579,0.292542,1.27447,0.76593,1.14441,0.691555,-0.393846,-1.69073,1.6567,-0.357861,-0.0991686,0.228718,1.25175,0.0658512,-0.0660714,-0.962002,0.513239,-1.78165,0.898625,-1.48439,-0.419791,-0.65131,-0.0384496,-0.838128,0.827586,0.103248,-1.24949,1.2564,-0.955437,1.2325,0.927938,-0.829219,-1.05313,1.00717,-0.0248405,1.79775,-1.26085,0.0929187,-0.647264,-1.23572,-0.434045,-1.08362,0.747749,1.41409,-0.0771257,0.224498,-0.462048,2.56512,-0.73256,-0.437576,-1.35336,-0.216802,-0.11059,0.45354,-0.0168484,-0.672891,-0.594254,0.82002,-0.502724,-0.911775,-0.789443,1.46345,-0.724955,-0.127261,-0.695443,-0.328961,-1.87306,1.74561,-1.20147,-0.491261,-1.79375,1.07705,0.269949,0.0348994,0.160306,-0.43966,-0.116929,-0.786766,0.784395,1.25927,-0.869332,-0.639296,2.34513,0.944321,-0.33387,-1.15272,-1.19741,0.132592,-0.432716,-0.889667,0.292863,-0.1419,-0.0619969,0.629252,-1.94789,0.956714,-0.459133,-0.504806,0.0528817,-1.2299,