{"learning_rate":0.1,"epochs":10,"layers": [{"weights":[[0.738927,1.10198,-0.168755,-0.788209,1.19504,0.179606,-0.919909,0.864797,-1.20511,0.836539,-0.889155,0.794307,-0.591304,1.63158,0.696672,-0.392656,0.0393527,-0.340926,-0.240324,0.173066,0.829684,-0.680933,-0.709963,0.16984,-0.566146,-0.773592,0.995443,-0.963444,0.0637901,0.706129,-1.13774,-0.901371,-0.0497319,-0.139814,-0.570649,0.73838,2.41626,0.611878,0.899802,-0.552843,-0.579364,-0.213467,0.0134793,-0.844425,-0.731256,0.953035,2.20749,0.0279348,-0.25471,-0.0470478,-0.288436,-0.631786,1.79178,0.907355,-0.498191,0.603437,-0.0415052,-1.42551,-1.29171,-0.32337,-1.79022,-0.600369,0.40453,-0.678947,-1.27489,-0.29574,0.79356,2.21636,-0.0737533,1.65055,-1.03098,-0.431359,-1.15973,0.353753,-0.549126,-1.15263,-0.327646,-0.866394,-0.623288,-0.963175,0.190593,-0.651973,1.0443,-0.250426,-0.682319,-0.240205,0.905888,-1.55628,0.0349257,0.894682,-0.791354,1.58599,0.246081,-0.994519,-0.516076,0.0499755,-2.29576,0.275662,0.332552,-1.54738,-1.10002,-1.03235,0.772059,1.79004,0.599693,-0.626712,0.617306,-0.452482,-1.22888,0.168084,0.157023,0.416038,0.73767,0.45598,0.595741,1.709,0.786566,0.857816,1.42193,0.324987,1.15732,1.59865,0.667444,-0.0458592,-0.686515,-0.648309,0.168494,-0.366535,0.646146,-0.333253,1.38129,-1.08218,0.460523,-0.11146,0.473008,1.3675,1.28608,0.825085,1.50189,-1.73602,0.980247,0.246277,0.434251,-0.801731,0.0905806,-0.456955,2.9556,-1.82477,-1.17873,1.54574,0.113994,-0.942958,-1.66979,-1.65161,-1.16393,-0.28994,0.381285,0.790451,-1.45402,-1.39259,0.586502,-0.454766,0.591904,0.191741,0.972546,-0.856658,0.270499,-0.808758,-0.400511,-1.11592,0.0884505,-0.423984,-0.286935,-0.157307,0.370632,-0.649163,0.929825,-0.415505,-0.0417015,0.740201,-2.03898,0.180828,-0.680355,-0.375562,0.70154,0.57548,-1.64787,-1.20176,1.48395,0.0256029,0.0406464,0.542456,-0.572978,1.39458,0.181892,1.46768,-0.165456,-0.540403,0.704676,-0.822231,1.38081,-0.905217,0.200319,0.30051,0.432049,-0.143959,0.0913779,-0.940724,-0.785488,-0.292082,-0.453102,1.47374,0.0903126,0.769632,-2.71382,1.35913,-0.444689,-1.47034,-0.356367,0.410429,-0.709405,-1.03324,0.0458268,0.488098,1.14183,-0.293,-0.392872,0.180667,-0.140036,-0.535417,0.729267,0.936806,0.429797,1.60077,0.619955,-0.466535,1.07438,-0.138525,1.35927,-0.287862,-0.156251,-0.670173,0.298121,-0.455185,1.82911,-0.818491,-0.695126,-0.0672963,-0.117878,-1.42773,-0.101977,-1.01079,-1.5219,-0.16028,-1.31514,1.60773,-0.714499,0.780193,-0.726492,-0.653544,1.11104,0.828185,-0.805804,-1.42164,-1.14484,0.637531,0.810065,0.1838,0.0746422,-1.32617,0.539726,0.697645,0.638086,-0.944414,-1.27489,-0.457866,1.29997,1.02127,2.66416,-0.434586,-1.23432,-0.99059,-1.10438,-0.220106,-0.650327,-1.53701,1.428,-1.56802,0.104308,0.498199,0.0987628,1.13133,0.370527,0.36103,0.615968,-0.664741,0.923783,-0.75625,0.338983,2.3929,-0.820046,-0.141161,0.102747,-1.26445,-0.195568,0.059645,-0.858311,-0.652924,-0.0129783,1.12625,-0.176414,1.20961,0.162225,-1.96442,-0.37975,0.364427,0.648994,0.505719,0.747649,1.26263,0.909347,-0.619343,0.760308,-0.766008,0.241623,-0.459783,0.313899,1.54492,2.08463,0.370773,0.383277,-0.603016,0.00595841,0.30926,0.176457,-0.430445,-1.02675,-0.304301,-1.73696,-0.128015,-0.717312,1.72015,-1.21147,0.249255,0.957917,-0.155688,-0.808462,-1.6486,-0.227549,0.135961,-0.320833,2.29259,0.945106,0.791099,1.35033,0.389372,1.62594,-0.350459,-0.757295,-0.55642,-0.259831,0.0722137,-0.263802,0.634018,-0.191241,1.00566,0.0727093,1.62273,0.148684,-0.53829,0.950743,0.334315,0.778946,2.15609,0.825429,0.500127,-0.213596,1.96427,1.39978,-0.302034,-0.0897091,1.36894,-0.742952,-0.0310729,-0.917854,0.629882,0.573395,-0.468544,0.0677383,-0.208458,0.357259,0.531402,1.25011,1.04403,-0.0475586,0.91518,0.0526575,-1.27914,-1.2528,-0.0245044,1.22471,0.97458,0.330002,2.05937,1.08818,-0.214369,0.459159,-1.08506,0.775026,0.777063,0.754008,-0.31008,0.0298455,-0.0176877,-1.76443,-0.217678,0.906887,0.718913,-0.00984052,-0.471231,0.33468,-1.02977,-0.16193,0.0438567,0.510334,1.23123,0.373582,-0.331521,-1.00904,-0.636293,0.438435,0.546735,-1.08093,0.609855,0.307222,-0.313297,-1.75018,-1.10816,-0.287875,2.16133,-0.849786,1.18771,1.59782,-0.152151,-1.98921,-0.234369,-0.148329,0.113028,1.10201,0.568116,0.574091,-0.962773,-0.864838,-0.55628,0.523233,-0.337775,-0.634252,0.938337,-0.881082,-0.0668056,-0.547507,-0.786953,-1.4118,0.681144,0.0103423,0.962773,-1.14407,0.408613,-2.1112,-0.580741,-0.904261,-0.713295,-0.7205,1.88904,-0.253327,1.85569,-1.99161,2.21178,-0.711006,-0.228159,-0.092908,0.0639759,-0.528041,1.24333,-0.429464,1.74005,-0.508697,0.252704,0.0174648,-0.0798491,0.0151465,-0.473122,-0.45757,0.483767,-0.218364,0.795613,0.213057,2.45597,-0.802434,0.89935,-0.624458,-0.340349,0.21375,0.114107,1.55109,-0.267809,0.286804,-1.88434,0.178445,0.267049,-0.509306,-0.771077,0.115043,-0.137532,-0.442857,-0.450335,0.862247,-1.53658,0.933972,0.0976226,-0.0847038,-0.0753157,-0.0723447,-0.761113,0.303347,-1.75987,-0.0720436,0.597609,-0.0810765,-0.784599,-0.946807,-0.237884,-0.540994,0.181698,0.365224,-2.52826,-0.57948,-0.936394,0.461512,0.0605912,1.984,-0.934977,-1.46385,1.29196,0.55133,0.0337108,1.80576,0.286213,3.1874,0.843835,1.33993,-0.351833,1.18244,-0.0372148,-0.729274,0.86153,0.705857,-1.51254,0.0291586,1.10537,-0.671229,1.59371,-0.246032,2.21465,-0.327061,-2.09463,0.329504,0.19339,-1.04099,-0.610206,1.34413,1.65454,-1.3403,0.217904,0.136155,-1.34318,1.30981,0.0259908,1.4547,-0.592013,-1.53934,0.5549,0.0171259,0.0273258,0.0142861,0.544329,-0.0699289,-1.46793,-0.156045,0.994079,1.99578,-0.57344,0.526464,-1.78762,-0.409535,1.16483,0.732388,0.560482,-1.10679,0.384971,0.81819,1.05385,0.630499,-0.176111,-0.993929,1.234,0.0636302,-1.07617,-0.350288,-0.076104,2.77171,-1.01308,1.4011,-1.64763,-1.71669,0.218884,0.592043,-0.978438,1.27649,-1.26585,1.12028,-0.598726,0.148005,0.594015,0.886135,-0.00267129,1.20685,-0.570685,0.374493,0.580772,-0.602123,0.44018,-0.794275,0.35735,-0.0295052,0.629362,-0.0104452,-0.00333596,-1.46529,0.531816,-0.683104,-0.0718738,0.682245,-1.26922,-0.201682,-0.143204,0.392011,-0.910816,0.473877,-0.524551,-1.02658,-1.50611,0.555058,-0.091808,0.825321,-0.583238,-0.448229,0.01114,-0.556282,0.051852,1.18919,1.37135,3.40111,-1.148,0.640268,0.111775,0.130946,-0.393842,-0.319562,0.599255,-1.21754,2.58035,0.324793,2.04296,-0.9073,0.891305,-0.801954,0.146113,-0.228456,-0.729305,0.6876,-0.696003,-0.0131085,0.528465,-0.928522,-0.28216,-0.0267813,-1.71143,1.23826,-0.749754,1.30177,0.088084,1.59176,2.30729,0.497752,0.353628,-1.12213,-0.243644,1.31568,0.616679,-0.347575,1.01847,-1.78048,0.257254,-0.102807,-0.590749,1.16262,0.133472,-0.465129,-0.414072,-1.86612,0.148574,-1.97049,-1.26445,-1.00236,1.23291,-0.46606,0.480222,0.636377,0.0908792,-0.524122,-0.633314,0.938096,-1.85915,0.113506,-1.2224,-2.08119,-0.165012,1.43287,2.19037,2.49058,0.30475,0.91387,-0.973225,-0.47462,-0.746609,-0.938137,0.201016,1.49181,-2.08646,-2.50726,-1.56424,-1.0564,0.349008,-2.09995,1.49826,-1.03465,0.567725,-0.0699602,-0.731594,0.500862,-1.0735,-0.315096,-0.0171475,1.84848,-0.175593,1.32897,-1.06083,0.191339,-0.776699,1.23133,1.01947,-1.4468,-1.46324,-0.511302,-1.20485,1.55582,-0.906751,-1.33957,0.873306,-0.569953,-0.674896,0.0672519,-1.42626,-0.383997,-0.264354,-1.94178,0.916323,-0.884253,0.546985,1.67374,1.99616,-0.517258,0.0742537],[-0.600312,0.110491,-0.220547,0.538386,0.0990839,-1.31482,-1.34199,-1.01922,0.158345,0.454154,-1.01877,0.348458,-0.772717,2.10013,0.138486,1.19037,-0.596617,1.34735,-0.647036,1.08116,1.2552,0.24555,0.829027,-0.205601,1.35585,-3.38446,0.72229,0.258195,-0.199102,1.30246,1.93848,-0.0507141,-0.927675,0.285865,-1.16365,-0.301769,-0.869627,0.608578,0.870154,-1.23274,-1.34052,-2.20343,-0.348317,-1.4519,-0.918761,0.942523,0.369688,0.0195484,0.0140933,0.836585,-0.990783,-0.162043,-1.15784,1.19987,0.696429,-0.72527,-0.0790813,0.527575,0.763325,-1.30763,-1.24618,0.555368,0.216003,-1.1156,-0.388571,1.13544,0.746862,0.929195,-0.0869902,1.08042,-0.645427,-0.208565,-0.191035,-0.0305533,1.61396,-1.82648,0.19335,-0.350723,-0.376973,1.61954,-0.660843,-2.1124,0.989372,-0.29361,-1.4431,0.231336,-1.43652,-0.304261,-0.347608,0.103579,-0.500386,0.944814,-1.50032,-0.295806,1.56001,0.38057,0.560507,0.0804973,-0.187684,-0.724196,-1.27539,-0.00961299,1.86297,0.265337,-1.0917,-0.411864,-1.06366,-0.878978,-0.862642,-0.329644,-0.910437,-0.662407,1.29481,-0.823811,-1.68915,-0.4295,0.58061,-1.48237,-0.729358,-0.420181,-0.0176827,0.292033,0.0347144,0.186841,-0.495344,0.0512667,-0.772533,-1.69007,1.09413,0.126062,-0.0952972,0.511465,-0.0466927,0.237267,2.5027,-0.368038,0.249194,-0.276066,-1.4071,-1.22776,-1.56286,-1.81867,-0.466703,1.38434,0.947306,0.345245,-0.6222,0.686172,-0.542914,-0.787661,0.481037,-1.19475,0.889633,0.865769,-1.53894,1.83016,0.924929,-0.719526,-0.803715,1.9506,-1.17463,-0.194303,1.14125,-0.715935,0.403565,0.0116943,0.807131,-1.09311,-0.163072,1.3438,-0.757848,-0.731891,-0.918814,0.881965,-0.938044,1.9362,0.511753,-0.000748345,-0.0753983,-0.0515633,0.533274,-1.87089,1.16092,0.250389,0.0247283,-0.489754,-0.0337646,0.700904,-0.13991,0.57883,-0.114,-0.148727,-1.46651,-0.0845309,1.3113,-0.667137,-3.91288,0.516686,0.198832,0.555791,0.538944,-0.646979,0.804202,1.86946,0.848789,0.0740771,1.87991,0.793864,0.357459,-0.267657,-0.641968,-0.837941,-0.331758,-0.458455,0.339567,2.55885,0.534252,-0.126533,0.807957,0.788736,-0.564401,-0.190653,0.900701,-0.395969,-1.28363,1.93158,0.0685243,0.255264,-0.63789,0.507798,0.320327,1.22513,0.184242,-0.224247,-0.994068,2.46187,-0.0793623,-0.194142,-1.78767,-0.82535,-1.13105,0.449862,1.00183,0.596408,-1.40627,-0.966384,0.59799,0.672309,-1.46842,0.0339222,-0.527551,1.01896,-0.874637,0.971688,0.683277,-2.74564,1.62071,-0.267834,0.620944,0.372552,-0.309982,1.2783,-0.889285,-0.606571,0.269837,1.00514,0.389207,-2.00315,0.709395,-0.148145,-0.572462,1.45478,-0.649571,0.192946,-1.55463,0.709219,-0.739354,-0.461732,2.09844,-1.70347,-0.711645,-0.112546,1.21863,-2.17307,-1.59797,0.093944,0.0813197,-0.198482,0.281506,-0.50498,-0.638236,1.17131,0.662313,0.232166,-0.360548,-1.75845,-0.495326,0.140467,-1.91318,0.450172,-0.426474,0.185781,0.0891835,-1.28494,-1.37791,0.565504,-0.635474,-0.421047,-0.276937,1.1421,-0.339085,-0.762925,2.19214,-0.553603,-2.68918,-0.0474563,0.743833,-0.0176819,-1.19069,-0.255761,2.24715,0.215547,-1.25289,0.129935,-1.76271,-0.818918,-1.3958,-0.320037,0.109712,-0.859483,0.651125,-0.246562,1.18062,2.09063,-0.0239539,-0.655865,-0.527185,0.682761,-0.381294,0.90549,-0.41533,0.351485,-0.655254,-0.904842,-1.17721,0.440715,-0.532526,0.214441,1.20285,0.284061,-0.596217,0.528672,-0.15837,-0.171347,-0.0365765,-0.991114,0.776102,-1.55112,0.00726864,-0.903254,0.0983854,-1.23514,-0.117412,1.41696,-0.797951,-0.350377,-0.162953,-1.03046,0.43337,-0.793705,0.230932,-1.59664,0.283726,1.06542,-0.624256,1.86703,1.89295,-1.91809,-0.327287,0.012748,-0.38216,-0.253417,-2.98024,1.49011,0.0831857,0.186989,0.163435,1.02032,-0.188365,1.94262,0.358776,0.478054,-0.448554,0.723002,1.56713,-1.81116,0.630855,-1.51158,0.358055,0.448787,-1.30218,-1.5207,0.333812,0.694641,0.416562,-0.0487019,1.41536,0.0974988,-0.955618,-0.214204,-1.69093,-0.155959,0.577517,-0.594338,0.217678,0.972715,-0.0447881,-0.23754,-1.25405,-1.78184,-0.0557679,-0.844158,0.425125,-0.399849,-0.164364,0.425736,-0.891164,1.51379,1.23496,1.09314,-1.03599,-2.19262,0.289338,-1.05408,0.499154,-0.766992,0.114373,-0.562037,-0.519143,0.768363,0.895327,1.79861,2.49325,-0.658622,-0.468021,-1.10748,0.924415,0.906254,-0.721011,-1.18587,0.402534,-0.658155,0.91302,-0.593846,2.35336,-1.10347,-0.793143,0.408067,-0.592586,-0.448936,-0.345335,-0.305951,0.324127,-0.239064,-0.250646,1.11767,0.637573,-1.84317,0.541055,-0.757155,1.68634,-1.07859,-1.41889,-0.96237,0.419049,-0.84257,1.25079,-1.32331,1.03919,1.58722,-0.60993,0.695309,-0.224683,0.834133,1.52364,0.39874,1.41004,0.582906,-0.352146,-1.7948,0.32828,0.928255,-0.452633,1.3423,-0.141727,-0.615389,-0.302646,0.112666,0.861469,0.836057,0.939232,0.147935,-0.85871,0.187752,1.12354,-0.811784,-0.00719025,-2.42524,-1.41189,0.656725,1.01423,0.106188,0.644839,-0.0562381,0.904595,0.484183,-0.975082,1.9193,-0.474594,-0.82706,-0.158132,0.608216,-2.81285,-0.839133,0.796324,-1.6642,0.138833,-0.211158,-0.332153,1.50348,-1.19632,1.80116,0.990917,-0.132416,0.0185121,0.242124,0.474374,0.808614,1.58131,1.07758,1.15489,-0.6884,0.268118,-1.16512,-0.755753,-0.920378,-0.163637,0.69833,0.564552,0.620493,-2.08722,1.04291,0.201811,-0.08461,-0.486473,-0.0273182,1.07204,1.94621,-0.251299,-0.349338,1.47154,-1.52676,0.647854,1.30319,0.744519,-1.37442,-0.327556,-0.751245,-1.17874,-1.31972,0.548667,-0.912913,2.2135,-0.591535,-0.283184,-0.476333,-1.40195,-0.14029,1.09921,-2.02374,1.69079,-0.498008,-0.301981,0.927773,-0.33151,1.24617,0.15702,1.34895,0.133496,0.343892,0.286358,0.478306,-0.779807,2.1927,-0.477676,0.852913,-0.347325,2.80533,-1.37625,0.175689,-1.27759,-1.29868,-0.29771,-1.06023,-0.306846,0.644718,1.18389,-2.0093,0.32628,-0.0861794,0.77549,0.616596,0.18922,1.13016,-1.44168,-0.373867,1.43711,-1.03672,-0.648442,0.41122,0.585274,-2.82589,-0.0910867,1.76591,0.761572,1.54453,-0.649031,1.27123,-0.67774,-0.52051,0.25666,-0.782869,-2.84339,-1.71902,-0.261935,-1.28135,-0.569265,-0.21629,-0.888302,0.11851,-1.42315,-0.404681,0.193153,1.27086,-0.88294,0.78033,0.325154,-0.0502448,-0.656361,-0.0430261,0.203761,0.228825,1.29908,-1.56296,-0.645723,-0.149095,-0.509895,1.43408,1.1874,-1.20592,2.61304,-0.327159,-0.692135,0.282913,0.241207,0.741185,-0.0890369,0.723982,-0.770119,-0.67024,-0.269169,0.878678,-2.48604,0.416649,1.04914,-0.653844,0.810838,-0.675069,0.187613,0.384246,-0.425672,-0.497922,-2.61515,0.400238,0.776603,-2.26021,0.13593,0.510049,0.310861,0.301343,-0.902387,-1.11523,0.765328,-1.58208,-0.628747,-0.103565,-1.03257,-0.300456,0.93321,-1.10554,-1.80062,0.560336,-0.464096,-0.158921,0.977427,0.688861,0.649444,-1.61918,1.20925,-0.178266,-0.564771,1.22624,1.12188,0.680732,1.40464,-0.562662,-0.454911,-0.462393,0.444448,-0.155064,0.262935,2.11896,0.206096,-0.805413,2.30993,-1.02234,-1.11174,-0.0344822,-0.198645,-0.509807,-0.356615,1.21473,0.319291,-1.84627,-0.17825,-1.61046,0.614624,-0.826866,0.667421,0.22681,-0.358366,0.262121,0.41574,0.691974,-0.287128,1.04538,2.99902,0.217779,-1.38921,0.244862,-0.242244,0.943179,0.408688,1.21119,1.15569,-0.870221,0.167613,-0.0707639,-0.862562,1.23639,0.846345,0.370268,0.117517,-1.67295,0.751219,-1.96827,-0.81453,0.189784,0.105814,1.70722,-1.14315,0.503304,-1.15859,0.170142,-1.08467,0.154561,2.56922,0.220863,-0.517011,-0.572117,0.582945,-1.14944,1.11662,-1.09599],[-1.81925,-1.1605,0.0909006,-1.63632,0.561232,-1.56357,0.431492,-0.228258,0.459217,0.130013,-0.596519,-0.859387,-1.09101,2.09617,0.850622,-0.835418,0.930678,0.961693,0.705542,-0.0418487,-0.95303,0.848154,0.292727,-0.292247,1.52917,1.6018,-0.972048,-0.0310976,1.31907,-1.68838,0.248675,1.16182,-0.0617244,-2.08109,-0.8965,1.39558,0.566549,0.225022,0.133828,2.04974,1.73448,0.981222,-2.78465,0.395363,-1.11008,-0.0242804,-0.751565,-1.05278,-0.483711,-0.574218,-0.12377,0.855744,1.52,0.706984,0.154982,0.322761,-0.563635,0.449135,1.23058,0.00841272,0.149895,-0.394857,-1.52724,-0.0855936,-0.0562911,-0.734363,1.26523,-0.0166877,0.0868012,0.826109,-1.25998,2.16315,0.3925,0.0524647,1.9891,-0.919734,-1.03098,0.71502,1.35855,0.855952,0.622897,-2.78526,0.419237,0.169648,-1.31799,0.270064,1.65347,0.893043,0.0847521,0.290872,1.16767,1.6165,0.529067,-0.0682182,-0.41022,-1.31194,-0.590407,0.00357446,-0.306317,0.295255,1.63982,0.604907,0.435588,0.491393,-0.9798,-1.45344,-0.427618,1.65088,0.315029,-0.358931,-0.549616,-0.24234,0.858043,1.23091,1.03681,0.157515,1.02716,0.294013,1.00093,-0.218911,-0.164308,0.00335918,2.78749,-0.0423089,-0.976145,0.0745123,1.57962,0.738733,0.416992,-0.490211,1.337,-1.23504,0.102941,0.74716,-0.817436,-0.633,-1.27465,-0.59571,0.899712,1.56978,1.13676,-1.32743,-0.682317,0.709285,0.678481,1.19669,-0.052886,-0.0147454,0.262371,0.130636,0.245338,1.17287,1.1669,1.04364,-0.38574,0.576417,-0.497788,1.90049,-0.739105,0.232622,-2.27129,0.81233,0.0955261,1.30231,-0.356959,-0.449116,-1.1975,-1.37628,1.36663,0.272461,-0.492773,2.35456,0.264104,-0.25785,-0.353889,0.449678,0.242755,1.79867,0.876317,1.58004,-0.912132,-1.03502,-0.495452,-0.841845,-0.32707,-1.44847,0.508216,1.19077,-0.840218,-0.0896671,0.563169,-2.25263,-0.137717,-1.15535,0.594855,0.591761,0.790202,-0.768743,2.69877,-0.296789,-1.05221,-0.238187,-0.71674,1.77147,-0.783047,0.306194,0.661404,-1.05882,-1.05421,-0.577092,-0.764758,-0.854888,1.26866,-0.0487074,0.696704,-0.735324,-0.664263,0.363737,-0.852035,1.81556,-0.320548,1.43062,0.262836,-0.508471,-0.225246,0.499974,-0.46534,-0.727713,-0.609245,1.01374,-2.47537,-1.00671,-1.47425,-0.467608,-0.317061,-0.413808,-0.392321,0.0212105,0.117647,2.09411,-0.110637,-0.595387,-0.859502,-0.176072,-0.628005,-1.11619,-1.90517,0.120843,1.28358,1.06174,-0.6755,0.77651,-0.442999,1.79231,-0.422635,0.298442,0.742506,0.0488458,-0.742974,-0.878389,-0.397673,1.11614,0.572431,-0.0230766,-2.06514,-0.834767,-0.629349,0.0171034,1.87188,-0.350518,-0.689269,0.726106,1.26651,-0.812896,0.483997,0.879034,-0.529802,0.294118,-0.319981,-0.827052,-2.49114,-0.0132695,-1.34017,-1.61565,1.67699,2.24756,-1.06418,1.65268,-0.287975,-0.149792,-0.869911,-0.178978,1.38911,1.67852,0.826578,0.157085,-1.16616,-0.333889,0.934714,-0.644255,-0.299614,1.29614,-0.548414,0.888852,-0.329777,-1.54684,0.019705,0.951621,1.11546,-0.41512,-1.50521,0.486143,1.64881,-0.804672,0.0812239,0.484781,-0.87601,1.2274,0.322746,0.356521,-1.70566,-0.0237744,-0.527288,-2.04261,1.05513,0.746632,0.0545301,1.57223,0.654925,2.19577,1.64881,-0.717484,0.16954,-0.454321,1.03187,-0.0863551,0.0907995,-1.95578,0.205501,2.05304,2.37861,0.644955,0.80367,-0.864038,-1.16648,0.370885,-2.22673,1.27264,-1.97614,-1.69708,0.413862,0.394219,0.120626,-1.58141,-1.46337,0.0295703,-0.536774,1.21189,0.720627,2.16551,0.558678,-2.01059,0.408121,-1.84955,0.288042,0.33836,-1.40743,-1.3553,-0.324825,-0.709984,-0.426136,0.250758,-1.45655,-0.452028,1.21434,0.550723,-0.866401,0.787905,-0.0271032,0.249661,-0.813751,1.46966,0.461825,-0.573004,-1.13454,-2.47716,-0.892086,0.165194,-0.216022,0.999267,-0.49107,-0.857253,-1.28271,1.36911,0.250836,3.27743,-0.266443,-1.39033,0.945641,-0.569291,-0.79492,-0.620786,0.751923,-0.630738,-1.04567,-1.68706,-0.441486,1.13293,1.70153,-0.665042,0.858825,-0.566673,-1.11874,-1.79144,0.657599,1.44659,0.0928299,0.33769,-0.943214,0.445184,-0.110856,0.380386,-0.166122,-0.228629,-0.450089,-0.667106,-0.980797,-0.389912,0.385319,0.947237,-0.31718,-0.507622,-0.846683,0.525283,-0.622581,-1.03285,-0.485908,0.803761,-0.207559,-1.42305,-0.0756969,-1.55843,-0.522945,-0.744089,0.845918,-0.281079,0.199657,0.757765,0.330483,-0.43701,0.672845,0.300324,-1.1065,-1.63538,-0.212128,-0.466494,1.11826,-0.759398,0.276613,-0.940928,-0.480463,0.797025,0.537862,0.0182575,-1.77431,1.09396,-1.04006,-0.850444,-0.212697,0.650502,0.725472,-0.159172,-0.215996,-1.43998,1.61773,-0.617496,1.09975,-0.450159,-1.78187,1.8231,1.23506,0.292411,0.77413,-0.493782,-1.11191,0.277915,2.14236,0.71065,-0.00605121,0.962184,-0.842038,-1.93725,0.313825,1.22128,0.0879661,-0.786,0.856198,0.248652,-0.284835,0.666371,0.1361,-0.137129,-1.15729,-0.894084,-0.204816,-0.250585,0.368303,0.0641052,1.17091,-0.463621,0.308501,0.295629,0.2841,-0.233886,0.17046,-0.175261,-0.375601,-0.157647,-0.317435,0.571998,1.13194,0.649448,0.861692,0.189451,-0.242974,0.646058,-3.17429,-1.47852,0.699117,1.63421,0.060193,0.0551899,-0.379282,0.757855,0.456099,-0.0243022,-0.217036,-1.27268,1.41992,1.07087,0.0368741,0.213855,-0.954491,-1.30328,-1.76379,0.906145,0.714834,-0.94358,-2.244,-0.884876,-0.627521,1.41767,-0.406111,1.57064,-0.247257,-0.223507,1.06253,0.348482,-0.308868,1.22871,-0.717187,1.1232,0.55864,1.27917,-0.441808,-0.937709,-0.153813,1.02402,-0.471619,2.8032,-0.9436,-0.577836,-1.72791,-0.53116,1.23266,0.36759,-0.595287,0.38677,-0.638263,0.535636,-1.08191,-1.36205,-1.03164,-0.586587,-0.343311,-0.364321,-0.831023,-2.10953,1.03508,0.876752,1.15071,-1.17541,-0.580808,-0.827585,0.734782,-1.11571,-2.02007,0.0405607,-0.332572,-1.31468,-0.68255,1.00646,0.559291,1.48314,1.15263,-0.13789,0.1187,-1.38222,-1.52652,-0.235446,-0.17815,-1.40809,-0.143372,-1.68221,0.919791,-0.289476,-0.624039,0.169389,0.500284,0.238087,-0.424473,-0.0448204,0.596794,0.482224,-2.61437,-0.30682,-0.260391,-0.184178,-0.431712,-0.178952,-0.181717,-0.470171,2.03011,0.561314,-0.940697,1.22363,-0.570096,1.84058,-0.0477825,0.864714,1.78755,0.0493854,1.56731,0.389057,0.320972,-0.751254,0.751402,-0.981255,-0.0879961,0.12094,-2.13975,0.730125,-0.342663,-1.14341,0.634116,-0.254419,0.291764,0.184007,-0.267114,-0.693143,-1.81354,0.298484,-0.0495971,1.08568,-0.231557,-1.60991,0.252136,0.0611085,0.843127,0.801269,-0.474653,-0.0386763,-0.0268358,-1.68529,0.305758,0.387588,-0.346464,-0.155266,1.72247,2.88212,-1.556,-1.93013,-0.0606596,0.363749,-0.741884,-1.30132,0.602603,-1.29967,-1.05784,-0.571828,-0.701338,1.93737,1.74477,-1.98174,-0.374819,-1.71408,-2.16159,0.792475,-0.62059,1.48065,2.11366,-0.543259,0.158462,1.59907,-0.827797,0.0981919,0.283476,-0.898483,1.49348,1.22839,-0.106576,0.486882,0.8849,0.565698,-0.998812,0.72727,0.638273,0.629717,-0.860758,0.263049,-1.73451,-0.516491,1.24129,-0.0148633,0.615214,1.41192,-1.7258,-0.991393,-0.740036,1.58856,0.134538,0.276571,0.626646,-2.49754,1.18147,0.164629,-1.26954,0.880214,0.521209,-1.09847,-0.546372,-0.281758,0.952196,-0.926443,-0.975308,-0.714744,-0.2849,0.857548,0.900705,-1.60102,-0.137592,-0.307474,-0.994674,-0.53815,1.26285,1.02401,1.29039,0.236365,0.195212,1.27385,0.425315,0.337946,-1.70771,0.830183,0.194196,0.0566094,-1.33499,0.538275,-0.480313,-1.1997,1.80407,0.165124,-2.05607,2.46246,0.970052,0.361124,0.532027,1.16294,-0.967478,1.58701,-0.830484,1.20098,-0.208195,-0.480898],[-0.310992,0.78084,0.884606,0.25142,0.44147,0.0229181,0.537866,-1.51398,-0.616356,0.307775,-1.04639,0.741815,-0.784978,0.900555,-0.846936,-0.587429,0.468899,0.130758,2.19072,-0.441784,0.255761,2.04002,-0.103052,1.72394,-0.400841,-0.403559,0.826948,1.22607,0.38608,0.825892,0.251512,-0.0478834,1.26451,0.333847,-1.6096,0.607996,0.685515,-0.241774,-0.55072,-0.396648,-1.88238,0.907708,-1.90245,0.813765,0.157394,-0.0222918,0.130335,1.02286,-0.669949,-0.295151,0.693664,3.01782,-0.43032,0.198267,-0.406594,1.29163,1.38006,-0.0300969,-0.217515,-1.08348,-0.260039,-0.445296,-0.632756,0.778844,1.24699,0.871742,0.939368,1.66519,0.661176,-0.932695,2.25755,-0.178475,0.687515,0.418825,-0.636023,1.76577,-1.39837,-0.802199,0.973237,0.597562,-2.11957,-1.61113,0.516291,0.695068,-0.667152,-0.976903,0.888519,-0.868531,-0.647991,1.0915,1.69957,0.680483,-0.111305,-0.222279,-0.781911,1.5227,-0.510998,0.367453,1.27931,0.477598,0.608537,-0.944456,0.394667,0.998662,-0.0208534,-0.65103,0.423641,-0.763766,-0.52882,-0.345078,1.32112,0.35724,-0.422763,0.204672,-0.62429,-0.21188,-1.29943,-0.294059,0.935617,0.449541,0.189754,-0.397721,0.0276356,-0.50455,-0.405764,0.58879,0.389302,-1.14166,0.312232,-3.05409,-1.54121,1.48509,-0.914735,0.667922,-0.873718,1.56448,-0.336839,-0.358356,-0.156335,-2.11828,-0.217016,0.433821,-1.42761,0.537807,0.562408,1.09743,-1.19398,1.46247,0.832765,-2.27813,-0.363826,-0.0951553,-0.188296,-0.340665,-0.831116,1.69754,0.659859,-0.493526,-0.745813,0.193151,1.06908,2.31587,-0.998528,-1.30566,2.1476,-0.757539,1.73349,-0.573638,0.459579,0.757678,0.294273,-0.100186,1.27479,0.0775859,0.0648068,1.60143,0.684312,-1.42881,0.207823,0.566565,-1.26591,-0.988905,-0.74419,0.466901,-1.05087,-0.203858,-0.662648,0.181543,1.07563,-2.50025,-0.118132,0.675427,1.0324,-1.02481,-0.624655,1.63311,0.220517,0.299709,-0.192989,0.210772,-1.29286,1.01083,0.591721,1.67497,1.56373,0.431461,0.572677,0.113638,-0.502855,1.10679,1.20225,0.636375,-2.02405,-0.455116,0.55684,-1.06314,1.44448,0.123117,0.00231161,0.182507,-1.90366,1.51373,-3.06653,-1.30026,-1.25882,0.181998,-0.540794,0.649625,-0.505794,-0.516866,1.19718,-2.33042,1.2964,1.04213,0.00828356,0.236922,0.650601,1.04482,1.72397,2.26998,0.353148,0.176576,-1.23112,0.0315197,-0.269064,0.49626,-1.21493,-0.810676,0.638451,-0.0867258,0.748342,-0.179846,0.803791,2.2738,0.0246474,-0.394427,-0.261538,-1.61809,-0.966392,-0.0800859,-0.626132,1.91778,-1.7839,1.50181,1.03574,1.96022,-0.936471,-0.0526237,0.735687,-0.13247,-0.505809,0.199578,0.560424,0.842121,0.0880848,1.51573,0.0508177,0.743448,-1.89739,-0.63607,0.0712659,2.52477,0.308308,-1.78308,-0.808869,-1.65208,-0.657272,0.768424,0.780301,-1.09987,-0.482682,-0.449471,-0.311837,0.0550605,-1.61325,-0.117258,0.513429,-0.854073,-0.81732,-2.22755,-0.337932,0.260303,-0.0815387,-0.304472,0.812764,-0.651094,0.510344,1.62675,-0.166284,-0.271155,0.930339,1.46274,0.85415,0.305763,-1.52191,-0.202448,-1.30553,-0.637472,0.399193,0.0849037,-0.317804,1.68357,0.373748,1.5246,0.575542,-0.409738,-0.149421,0.247713,-0.85895,1.35944,1.34949,-0.381325,-0.0697378,-0.912312,0.784665,-1.25972,-1.66843,-0.815452,-0.127606,1.90283,0.790676,1.79241,-1.39299,1.26484,-1.74856,0.84803,0.112281,-1.40462,-0.684385,-1.35798,-0.822653,0.15949,-0.215725,-2.87121,1.87272,1.62632,0.0634612,-0.741628,0.850411,-0.620175,-0.286729,-1.49701,-2.89441,1.39008,1.38545,0.15703,-1.9139,1.07902,-0.0359533,-0.611671,0.86528,-0.176805,-0.0901755,-0.223215,-0.363427,-0.404445,0.539348,-0.16636,0.953527,-1.02972,0.155646,-1.60966,0.42337,-1.51924,2.07379,0.0257241,-0.848758,0.138163,0.616527,0.234245,0.818491,-0.132335,-0.21335,-2.53394,0.603714,-1.91413,-1.29415,-1.82955,-1.24903,-1.06767,-2.53918,0.60054,0.903217,0.454338,0.406129,-0.255177,0.348166,0.691225,-1.73443,0.915642,0.0250725,2.12541,-0.163546,1.0539,-0.997348,-0.0393395,0.116799,-2.62337,0.889571,0.676743,-0.634567,-1.88484,1.65078,0.203792,-0.980188,0.154689,1.90267,-0.819885,0.712871,-0.870361,0.812173,0.0611196,-0.546751,-1.02698,-0.303043,0.694911,-0.62859,0.864518,-0.363204,-1.24829,1.27198,0.12824,-0.012439,0.37383,-0.603334,0.577648,-0.215909,-0.564667,-1.1111,0.0643674,1.51744,-0.374707,1.39819,0.0716004,1.64055,1.96937,-0.170414,0.260018,0.623705,-1.14047,0.253625,-0.131484,2.43109,1.46615,-0.920228,-0.964489,-0.0244333,-1.17858,-0.142205,-1.32042,-0.913747,-1.40109,-0.463068,0.236819,0.173432,1.13564,-0.852839,-1.00749,-0.197948,1.86232,-0.93958,0.983989,1.11032,-1.01846,0.0885861,1.10306,-1.71164,0.285099,-0.00012807,1.47681,0.967193,1.0759,-1.34373,0.185258,-0.231238,-0.197541,0.218768,1.61727,1.21499,0.395463,-0.284316,0.143568,0.49406,-0.390751,0.0832276,1.6047,-0.783044,0.99601,-1.12949,-1.59947,0.685953,0.406719,-0.79588,-1.7379,-1.77524,1.00139,-1.11159,0.427717,-0.415063,-0.841518,0.947388,2.10721,-0.370008,-1.35439,1.31779,0.0317737,0.335164,-1.30293,-0.230249,-1.31884,-0.172238,-0.110238,-0.703121,0.0733112,-0.842595,-1.8579,-0.123089,0.0599967,-0.816594,0.260458,-0.0242191,-1.03906,-0.661803,1.13413,0.433734,-0.715764,1.29815,0.176996,-0.590353,2.09696,1.19604,-1.12513,-0.166417,-0.684556,-0.773495,0.784019,-1.45089,-0.000312064,-0.576882,-1.26078,2.00994,-0.463217,1.21508,-0.597453,0.0623821,-0.918194,-0.406955,-1.53175,-0.535482,-0.768432,1.08048,0.485185,1.1131,0.47113,-0.999636,-0.595629,0.660267,-0.294786,1.12135,-0.787505,1.68648,-1.12391,-0.685586,-1.93705,1.66341,-0.438573,1.15382,0.447345,1.07996,-0.715115,-0.0363916,0.999298,1.69812,0.188968,-0.701956,0.837332,-1.40789,-0.328082,0.105555,-2.76347,1.09124,0.971031,-0.67597,0.286385,-0.491867,0.0428636,-0.811018,-0.208803,0.0922952,-1.57066,0.131089,1.25449,-1.69926,-0.674127,-0.315422,1.9228,-1.75146,1.55899,0.814955,-0.692769,0.0368859,-0.823869,0.169143,-1.31136,-0.90421,1.95347,-0.676311,0.106665,-0.515672,-1.14156,0.828802,0.585863,-0.192228,-0.92831,-0.149275,-0.709203,-0.324229,-0.219261,0.359454,-0.842104,0.943687,1.22369,0.823825,-1.46222,2.12135,-0.19031,-1.09356,0.0585932,-1.15033,0.948608,-0.260837,-2.21463,1.79818,-0.872934,-0.419087,0.351059,-0.583399,-1.12604,0.455497,-0.689515,-0.751743,-1.23294,-0.626006,0.255102,1.14724,-0.835603,-0.0701028,0.301703,0.745457,-1.26539,0.00924503,-1.4234,-1.62652,0.70376,0.125787,-1.32415,1.30114,-0.176577,2.44385,-1.4291,-1.06566,0.54197,1.24559,1.45953,0.124267,-0.492328,-0.043493,0.367732,0.771593,0.0291906,-0.0116463,1.07999,-0.641961,0.0359051,0.653697,0.0850378,-0.761879,-0.333423,-0.951071,0.446147,-1.47555,-1.06916,0.166899,-0.154961,0.4398,-0.0375973,0.666066,-2.07079,0.407234,0.235521,-0.114182,-1.19547,-0.839426,1.20198,0.120333,0.357811,-0.560266,-2.2455,0.26631,-1.54455,0.567595,-0.11069,0.61828,0.0186704,-0.716962,-0.58154,1.00907,-0.648917,-0.582783,-1.28354,-1.02263,0.17172,0.0496947,1.09854,1.55609,-1.50841,0.343187,-0.0024212,-0.868273,0.96553,0.629401,-1.57056,-0.673803,-0.152907,2.13821,-0.590148,1.12212,-0.968514,-1.54072,-1.82421,-0.118655,1.33453,0.415022,-0.589967,0.570608,-0.932608,0.28223,-0.984868,-0.734256,-0.413876,0.083514,0.326306,-0.0794727,-0.183915,0.531119,-2.50085,-0.0562573,-0.455769,0.972038,-1.47792,-0.287574,-0.125036,-0.836648,-1.24624,-0.249237,0.833775,0.835559,-0.176485,1.02407,0.0350074,-0.391174,-0.557225,0.705277,-2.35178],[0.637292,1.8373,-0.986007,0.130842,0.852195,-0.414264,0.338539,0.759351,-2.34425,-0.000712812,0.119672,-0.499109,0.412015,-0.292293,-0.664099,-0.325094,-0.0807292,-0.440374,-0.203392,0.258331,-0.0441494,0.0112379,0.777948,-0.599814,-0.51033,0.072681,0.680971,0.243279,0.63311,0.373964,-1.17792,-0.141872,-2.51164,-0.33103,-0.184361,1.17959,-0.737726,0.616314,0.113532,-0.49147,-0.836821,0.919022,0.0318455,0.559319,-0.721978,-0.480131,-1.19241,-1.22005,0.712479,0.410673,1.29861,-2.13396,1.37285,-0.491316,0.557015,0.685644,0.980039,1.4656,0.825561,1.07397,1.24298,1.29659,0.199686,0.413575,0.628226,-0.602831,-1.7333,0.723411,-1.20143,1.56509,-1.34965,0.238708,0.337131,-1.00592,1.11142,0.348174,0.568776,0.653423,0.418957,0.238278,-1.50285,-0.795773,0.681137,0.954175,-0.0517008,-0.319369,0.153695,1.03621,-0.196043,-0.543457,0.712755,-1.17026,0.0971361,0.843544,1.11398,-1.15794,-1.00037,0.258446,-0.256099,1.40104,-2.11241,0.897186,0.0963335,1.18354,-0.165935,-1.39473,1.13823,0.34745,0.468223,-0.514873,-1.20655,-1.26551,-0.995948,0.06362,0.672836,1.50411,0.145778,1.19121,-0.571872,0.288866,-0.530585,-0.388352,0.692317,-0.78834,0.963463,-0.587287,0.293896,0.307464,1.60675,0.787609,-0.586053,-0.565486,0.928001,-0.364411,0.391877,-0.718605,-0.0633973,0.273753,-0.153063,0.49348,-1.13992,0.333276,2.02756,0.617965,1.23053,-0.265868,-1.35363,0.187216,-0.537525,0.258185,1.32349,0.293608,0.134703,1.39649,-0.907117,-0.978277,1.38572,-0.146293,-0.291863,0.117787,0.544665,1.36401,1.21062,-0.401138,-1.99392,0.286508,-0.188648,0.365757,0.50037,-0.466833,1.24826,1.81066,-1.17391,0.678143,-0.163242,0.890504,-0.960649,-0.229472,-0.566376,-1.16637,-0.781337,-0.727673,1.11192,-0.105386,-0.924766,0.981534,1.50635,1.12425,-0.221009,0.482672,1.5547,0.435573,-2.45211,1.2986,0.429566,-0.908317,0.345834,1.78352,1.04607,-0.138707,-1.2306,0.143526,0.00945324,-1.1686,-0.199701,-0.440253,0.651162,0.0355084,0.868804,1.35181,0.617491,-0.312747,0.136368,-1.29646,0.262895,-0.00828769,1.16046,0.541788,-1.39019,0.962537,-0.911912,-0.125646,-1.94779,-0.593704,-0.550496,1.32589,0.0218454,-0.0186648,-0.375188,-0.0786698,-0.46604,-0.269386,0.598966,-0.371374,-0.0992672,0.771748,-2.07837,-0.876054,-0.422696,1.6894,-0.818934,0.890634,-0.894859,0.432313,-0.245769,0.327708,1.63905,-0.889426,-0.649005,0.212042,-0.512988,-0.49081,-0.171542,-0.0788505,0.689185,-0.0941167,0.940667,0.562961,0.194096,-1.00626,-0.232857,0.499161,-0.562172,0.728664,0.454621,0.0607607,0.688357,-0.362917,0.485287,-1.22057,-0.900398,1.2048,-1.35019,1.16239,-0.153026,-0.714181,1.41098,-0.143667,1.27021,-1.06631,0.996025,-0.845882,1.05639,-0.564888,-0.300221,1.04556,0.0427441,-0.534881,1.54554,0.0217693,0.695417,-0.406155,0.942233,-1.8894,-0.441746,1.18709,0.0535593,0.954069,0.0418932,1.19093,-0.471957,0.784107,0.890749,-1.78727,-0.356494,-0.648417,-1.23338,-1.1623,-0.43456,-0.707359,-0.976397,1.32201,-1.49711,-1.15106,-1.72478,-1.45999,0.183182,-2.3058,-1.02253,-0.332295,0.71617,-0.300526,0.693009,-0.285744,-0.448104,-0.328761,1.65776,1.29891,1.20485,-0.311196,-0.291887,1.32171,-0.868803,0.536168,-0.582013,-1.41898,0.511579,0.553651,0.558479,0.219751,0.707804,1.22236,-1.10116,1.47059,-0.371841,-1.47333,-1.04812,0.305031,0.293122,-1.01256,0.65621,1.2548,-0.815528,0.361431,0.607359,0.441928,-0.23622,-0.964228,0.279423,1.23393,1.14008,-0.533536,-0.703487,0.93454,-1.12107,1.45912,0.20976,-0.819863,0.366867,-0.895768,-1.74185,-0.0920701,0.927605,0.234748,0.468005,0.559071,-2.31109,-1.01295,1.52871,-0.723427,-0.0218104,-0.441817,-0.935956,0.929239,0.61181,-1.18106,1.13637,0.174569,-1.19064,-0.505809,0.627528,1.98354,-0.241372,-0.62861,0.129963,0.755604,0.65494,0.903145,-0.0391309,1.8048,-0.837578,-0.367272,0.368773,-0.989081,1.11015,0.594449,-1.08054,-0.0110205,-0.561908,0.0272562,-0.608742,0.817711,-0.991965,0.0171929,1.27001,0.807328,0.412475,-1.55247,0.431851,1.26267,1.05051,0.538177,0.296518,0.318637,-0.421805,-1.37084,0.356314,0.161543,-0.0795862,0.144119,-2.09599,2.14519,-0.369949,-1.27212,1.07851,-0.751425,0.346074,-0.394572,1.12592,-2.18646,0.63504,0.516469,0.179996,-1.29609,1.15059,1.26521,1.20964,-0.453045,-0.697245,-0.549697,-0.877953,-0.44099,-1.49307,0.974568,-0.43551,-0.0294009,-0.810296,0.218626,-0.418917,1.51267,0.4617,1.09528,1.22952,0.0500767,0.524861,0.768067,0.950617,-0.832138,-2.36409,0.282912,0.371526,1.4545,0.618833,1.81392,0.769242,-1.35582,-0.656593,-0.156249,-0.823856,-2.06917,-0.345713,0.230772,-0.533908,0.278132,-0.632715,-0.605742,-0.646824,-1.45443,2.09083,-0.360831,0.324816,-0.747478,-0.167402,1.24178,-0.979961,-2.05675,-1.47462,-0.272972,-0.944559,1.67674,0.577421,-0.204832,0.325109,-0.388432,-0.0532719,-1.54353,1.2062,-0.766608,-0.786038,0.697325,0.44806,-1.00985,0.107976,-0.0545206,-0.840009,-0.0973692,-0.911203,0.296057,-0.104126,0.574786,1.52207,-1.47438,1.15683,0.440491,0.317141,1.98553,-0.183892,0.539056,-0.475029,-0.589718,-3.07308,0.496825,1.00076,-1.92149,0.398839,-1.0813,-0.570137,-0.109153,0.168878,1.5061,1.22776,0.636951,1.44711,1.46865,1.51509,1.05042,-0.0222461,0.719052,0.532416,-2.29195,-0.549232,-0.764774,2.31944,0.331744,1.30245,0.250499,-0.531534,-0.801534,-0.289796,0.390437,0.428737,0.914329,-0.818063,0.21581,-1.00839,-0.495745,0.839981,0.218125,0.0715294,0.300143,-0.256628,1.4981,0.792499,0.61104,0.570535,-0.0661155,0.269282,-0.976837,-0.332937,0.109119,0.582717,1.09128,1.23582,1.32544,1.50193,-1.32402,-1.54221,-0.654764,2.33946,-0.389152,-0.0302719,0.148002,0.639425,2.68938,0.358063,-1.32513,1.3034,0.149121,1.42831,1.3492,0.184973,-0.192074,1.0049,-1.38767,0.842391,-0.760442,-0.631242,2.21483,0.134793,0.576248,1.44426,0.448228,1.10244,0.291974,-0.516164,1.21242,-0.21156,0.611689,-1.60887,0.878284,0.967133,0.657256,-0.114924,-0.267374,-0.292337,0.793811,0.403693,-0.53483,0.0620281,-0.857276,-0.126271,-0.68379,0.68417,-1.26573,-0.147419,2.4771,1.79284,-1.97236,-0.294189,0.0476495,0.12373,-2.21543,-0.919373,1.50798,0.748521,-0.33834,-0.731211,-1.18266,0.7293,-0.790205,-0.0500126,0.802458,1.07324,-0.409913,-0.791147,0.522723,-0.274218,1.23823,-0.663121,-0.317928,-0.265086,1.43528,0.258638,-0.700441,0.856597,2.00235,0.531581,1.00497,0.779691,-1.23132,0.117483,1.03766,-1.25101,-0.793112,-0.284934,1.86633,0.0516392,-1.77841,-0.401638,-0.183147,0.0748067,1.05752,-0.973206,1.19412,-0.775053,1.29424,0.321297,-0.506087,-0.356029,0.251851,-0.448254,-2.58931,-0.379082,-1.11562,0.704298,1.29006,0.367767,0.0569692,-1.06323,0.465786,-0.17963,-1.46222,0.331443,0.115003,-0.439011,0.579749,0.0443755,1.09132,-0.671211,-0.411535,-1.34133,-0.927036,-0.2002,-1.06594,-0.588393,2.60433,-1.20243,-0.593818,-0.0201735,1.77029,0.738182,-1.99926,-0.524497,-2.10438,-0.0794487,0.0722214,1.4223,0.135684,1.52797,-0.0582597,-1.0777,-1.53219,-1.98143,-0.390985,0.731158,-0.224343,1.78908,-0.556418,-3.04489,0.208679,1.57898,-0.125368,1.87984,0.579143,-0.658433,0.689101,2.21342,0.744469,1.14261,-0.611682,0.319976,2.22236,-0.104921,-2.16956,-0.195387,0.618406,-0.154085,-1.38411,-0.909236,2.07637,-0.619765,-0.862065,-0.345479,-0.618565,-0.445999,-0.0606879,0.92244,-1.01628,-0.173659,1.06734,0.41406,-1.04629,-0.419271,0.51638,1.02219,0.801703,-0.640939,-0.10187,-0.66364,-1.53642,-1.13934,0.291875,1.27338,0.474525],[-0.734776,-0.329744,0.786671,-0.15973,-0.153231,-1.3078,1.97646,0.425887,-0.60073,-0.145426,0.133663,0.555815,-1.09136,1.50529,0.877805,0.495294,-0.473793,-0.503517,-0.660189,-0.516104,1.51486,0.752614,-1.97662,-1.22843,-0.816974,-1.97096,0.396945,-0.994438,-1.60395,-0.0206211,-0.364716,0.40158,1.57765,0.547393,0.0303221,-1.9298,0.341222,-1.33703,-0.119976,1.15871,1.78541,-1.01099,-1.14421,-0.237225,-1.62869,-1.6866,-0.110654,-1.38681,-1.19317,-0.238528,-0.82128,-0.000166946,-1.03932,0.204302,0.797246,1.62259,-0.294975,1.10802,1.20454,-0.483371,-0.607537,0.841665,0.651112,-1.16838,0.121498,1.28841,0.244597,-1.24006,0.13255,0.333498,0.486557,1.12855,-1.51044,-0.28989,1.60863,0.792277,0.412749,-0.901001,0.208643,0.667214,1.48269,-0.836594,-0.838838,-0.896885,-0.216498,0.22839,0.523969,-0.0122313,2.60606,3.296,-0.340087,-0.0178258,-1.84544,0.105692,0.0512937,-0.0173268,0.35262,-1.76653,0.794899,-2.45536,-0.298088,0.486119,-1.08591,-1.00592,0.803022,1.24623,1.02471,-0.706567,0.0107402,1.43161,-0.661246,-0.383582,0.0447746,0.162933,-0.880666,1.08491,0.206636,0.183744,0.608683,-0.35988,-0.179009,0.867775,0.536803,-0.0321799,-1.41738,0.632699,1.51732,0.844712,-0.011174,-0.923787,-2.5377,0.396626,-0.288927,-0.925584,-0.51371,-1.95338,2.13103,0.450623,1.74396,-1.40725,-1.22417,-0.65991,-1.32262,0.620854,0.37174,-1.47177,0.476579,-0.579161,0.149777,0.479112,-0.333954,0.566772,0.619984,-1.7024,0.314501,0.364055,1.14252,-0.549839,2.72995,-1.17746,0.776128,0.748576,0.389326,0.202245,1.94017,-0.0449422,0.313959,-0.171932,-1.29307,-0.594074,0.069816,0.344605,0.561483,1.73987,-1.05545,-1.02013,-0.337425,0.162501,-0.673181,-0.114979,0.787914,0.0228389,-0.98414,-1.48086,-0.0588184,1.74953,-1.03584,-1.07813,-1.65811,-1.01315,0.111167,0.973879,-0.254975,0.847598,1.1986,-0.810164,1.20591,-0.718666,0.884028,0.615016,0.466342,-0.940779,0.768518,0.0339003,1.00704,0.51643,-0.990977,1.08537,0.170338,-1.04411,-0.630123,1.19859,0.190587,0.654097,0.460142,-1.0459,0.524689,-0.227176,2.28334,0.207937,-0.118834,0.91008,-0.517034,-0.747198,2.10735,-1.79513,1.27337,0.00210089,-2.2485,0.930283,0.423338,-0.463766,0.19816,-0.230035,-0.531423,0.309988,0.110536,-0.23619,-0.149353,1.97904,1.19148,-0.199767,0.522792,1.35473,2.29787,0.378329,-1.08025,-1.33016,0.428861,2.3769,0.691295,0.687447,-0.100692,-0.356866,0.876827,-0.515692,0.96259,-1.33173,-1.16714,-1.61614,0.122324,-0.0231994,1.4235,0.400631,-0.830729,-1.89477,-1.83271,0.5583,0.0748611,-0.862343,-0.231089,0.252567,-1.01475,-1.38693,-1.98448,0.129871,-0.93008,1.27305,0.917385,-0.533257,0.855138,0.562742,-0.498222,-0.763175,0.487949,-2.26798,-1.63765,0.566662,-0.337195,1.66428,-0.0742947,1.66725,0.0643471,0.954853,1.22887,1.56975,-0.774093,-0.530046,0.753375,-0.817954,1.967,0.734428,-0.650024,-1.36832,-0.45015,-0.451781,0.981143,-0.36044,-1.32416,0.0215263,-0.219006,-0.67684,-0.714821,1.01427,-1.05647,-1.68088,0.691385,0.184805,0.87284,-0.440451,0.0854724,-1.14148,-0.117349,-0.862455,0.73695,0.362662,0.946584,-0.307112,-0.251861,-0.852389,-0.0338555,0.601076,1.41574,-0.704996,-1.15112,1.85422,-2.5137,0.623976,-0.155811,-0.0154227,-0.244518,1.36411,0.0264375,0.70373,-1.5689,0.569617,-0.190099,0.210371,-0.672122,-0.705658,-1.07844,-0.962253,1.15357,1.56766,1.61498,-0.26471,-0.102246,-0.177253,0.654675,-0.646541,0.773799,0.296667,-0.173227,-0.721615,-1.00506,-1.67484,0.397129,0.376489,-0.168696,-0.215318,-1.00061,1.46953,-0.4512,1.42421,-1.46817,0.0696644,-0.222821,0.357071,-0.24952,0.914635,-0.582021,0.740656,-0.858427,-0.949131,1.59817,0.156308,0.444718,1.09876,-0.321473,0.782848,0.161277,-1.06182,-0.401536,0.132562,0.561691,-0.260284,0.435529,-0.92397,-0.12677,0.842653,0.749223,-0.675132,0.00423588,-0.936739,-1.26653,0.459267,1.35321,0.000352805,1.81839,1.69374,-0.184105,1.38435,-0.784836,1.02489,-0.0417911,1.19113,0.568153,-0.442004,-0.0741695,0.504715,-0.17859,2.40668,-0.282222,-0.498126,1.67018,0.664191,-0.434309,0.19705,1.08902,1.84513,0.946087,0.41896,1.2272,0.289005,3.03932,-0.130305,0.309994,-0.87172,-0.704691,-0.822788,1.58016,0.536195,-2.49553,0.11087,0.976256,1.98679,1.53858,-0.49703,-0.389716,-1.76404,0.143645,-0.779608,1.77184,-2.6878,-0.0826106,0.342515,0.679764,-0.100089,0.292114,-1.30103,-0.612234,-0.286222,-1.43582,-0.138707,1.03844,-1.04114,1.53543,-0.317506,0.226928,-0.256416,-0.500052,-0.868418,0.998694,1.99916,0.114384,-0.405605,-0.289694,1.42875,-1.62266,0.174282,-0.0825857,1.21801,-1.73321,-1.97442,1.68396,1.12553,0.0820674,-1.80584,-0.98889,-1.20182,0.16322,-0.568292,-0.672356,-1.48856,1.47896,-0.0907325,-0.650909,0.969045,1.04695,-0.349738,0.471872,-2.3197,-0.314586,-0.00719899,0.402294,0.83598,-0.922848,-0.116258,-2.59329,-0.669415,-0.299863,1.59793,-0.346123,-0.0610756,-0.390493,-0.595811,-2.51051,0.118712,-1.6583,-1.02231,0.205466,-0.545966,-1.09888,-1.26022,-0.373411,-1.34424,-1.3571,1.22868,-1.20451,0.746972,-0.0860942,1.60075,-0.553803,0.389383,-0.573706,-2.09618,-0.126421,1.32177,-1.51248,0.467044,-1.55949,-1.43528,-0.756535,0.317298,0.690075,0.0631326,-1.5831,1.50993,0.998395,0.52619,-0.593621,-0.196935,0.762663,1.04102,-0.54087,-1.35568,0.00669488,1.12801,-1.76805,0.207212,1.59081,-0.407272,1.99115,0.419699,-0.798899,-0.535434,0.476818,1.31927,1.71473,1.00002,0.592518,1.59191,1.01159,1.53491,-0.15731,0.963694,-0.104051,0.893817,0.0607968,0.512561,-0.855905,0.195864,1.65914,0.853108,0.312023,-0.730715,1.84217,-0.0802249,0.286683,0.179435,-0.165557,0.433545,0.15064,2.81928,1.70555,-1.01234,0.619405,-1.47607,-0.775893,0.159905,-1.04779,0.691075,-0.7223,0.339073,0.305716,-1.26673,0.0208844,-0.0478281,0.285908,-0.521083,1.10147,1.09609,-1.03774,-0.647988,1.08887,-0.577021,-1.3984,-0.181184,1.9657,-0.569738,0.056613,-0.141799,-0.269609,-2.4268,-1.85008,-0.436658,-0.725474,1.92471,0.544995,0.0940199,1.04159,1.31552,0.46316,-1.05525,0.349865,0.310496,-1.29934,-1.06063,0.359046,-1.5575,-0.663618,1.46104,-0.444525,0.75756,-1.89365,0.33883,-0.530542,-0.401475,-0.0798227,1.7617,2.58433,-0.807987,-1.09869,-0.0966783,0.360094,0.0598145,0.569879,1.69087,-0.566196,2.27821,1.05482,-1.44935,-0.551441,-1.44429,1.54081,0.635328,-1.05787,1.6342,-0.776031,-0.519755,0.584095,-1.09344,-1.17441,0.819582,0.398405,0.93231,-0.438062,1.97943,0.272486,-0.240764,-0.731206,-0.993106,0.184459,-0.552247,-1.49332,1.30236,0.37479,0.319003,0.495951,0.23143,0.372165,1.21567,-0.543049,1.38849,-0.0305447,0.214686,-1.15187,1.14088,0.509065,-1.78227,0.534885,-0.48524,-2.91411,0.980277,1.07402,0.429286,0.0763377,-0.270034,-0.421049,0.222416,-0.746924,1.40458,-0.968104,-2.5384,-0.44852,0.740653,-1.22075,0.933462,2.8537,-0.843846,-1.73627,-2.66533,0.741007,1.88993,-0.396154,-2.10062,0.171246,-0.113029,0.803563,-0.600855,1.19405,-1.02798,0.789639,0.378227,0.735655,1.48941,1.99748,0.810505,-0.770117,0.383409,-1.59323,1.25181,-1.80576,-0.596758,-0.750233,1.71166,-0.164793,1.24156,0.589783,-0.172695,-0.722417,-0.513689,0.971309,0.82191,0.394328,-1.00467,-0.208135,1.24448,0.779657,0.472867,-0.309604,-0.458367,-0.401955,-1.14307,0.931587,0.307224,-1.47957,-1.42429,-0.506135,-0.812622,0.310215,-0.381752,-0.563932,-2.21297,0.715979,1.41126,-0.391099,0.350402,0.0391939,-0.812826,-0.661598,-2.55008,-1.58027,-1.88916],[-1.82926,0.0779304,-0.300998,-0.560593,0.731141,-1.25812,-0.937592,-0.866877,-1.33708,1.58594,-1.14253,1.47313,1.12365,1.21959,2.255,0.224892,-0.898517,1.64938,-0.0193962,0.323897,0.0847902,1.30591,-0.894318,0.708254,0.161719,-1.85158,1.32386,-0.577365,0.58931,-0.424631,0.60505,0.00261595,0.298263,-0.153496,-1.54068,-1.74212,-1.93062,1.45387,0.287471,-1.6494,-0.463387,-0.523762,-0.922062,1.41632,-1.49216,-0.857182,1.54307,-0.233896,0.318826,-0.952766,0.0130887,-0.187847,-0.468623,0.518174,-1.12847,0.62287,0.492415,-1.52992,-1.07796,1.23735,-0.724402,-0.430522,0.0230167,0.220228,-1.01149,0.600857,0.714724,-2.34726,1.00847,0.342188,-1.2939,0.0685705,-0.390282,-1.20326,-0.597846,0.154314,-0.408585,-0.558142,-0.856423,0.0809788,0.247507,-2.02836,1.33796,-0.282788,0.396074,2.34709,-2.86958,-0.377526,0.228627,0.0885327,0.79973,-0.748719,0.485041,-0.0717805,1.44014,1.0101,-0.191692,0.961451,-1.37968,1.8078,0.583437,0.214382,0.142184,0.80007,-0.365869,1.23214,-1.26557,-0.188197,-1.01323,-0.980384,-2.11588,0.52592,0.737488,-1.00185,0.289069,-0.201664,-0.376434,-1.51146,1.01708,-0.139356,-0.563057,0.236324,-0.458006,-0.647959,-0.360342,-0.935603,1.05447,0.525926,0.896312,-0.284222,0.348527,-0.985724,-1.53975,-0.387582,-0.105956,-2.31154,-0.188349,-0.542877,1.11422,0.74503,-1.2272,0.760134,2.23546,-2.37273,0.655479,0.294871,-0.320755,-0.51339,0.413714,-0.553884,-3.02715,-0.978926,1.69022,1.75834,1.38343,1.10424,1.37827,0.775983,-0.822193,-0.752748,0.88113,-1.10873,-0.565624,0.073967,0.241526,1.3519,-0.820639,0.708038,-1.61834,0.803682,-0.681571,0.729812,-0.665126,-0.173901,0.822476,1.03141,-0.480251,-0.631281,-0.128645,-1.20813,-0.730236,0.496417,0.838778,-1.28151,0.219344,-0.233069,2.24427,0.843841,2.27849,0.790233,0.393041,-0.238507,1.03665,0.760604,0.0897616,-0.0483684,0.241414,1.22794,-1.82135,0.737831,-0.352279,-0.510869,0.368794,-2.48655,0.564789,0.0872123,-0.247436,-0.191282,0.810922,0.617807,1.11445,-1.10029,-0.210461,1.20797,1.05337,-0.344252,1.35185,0.242086,0.386191,-0.884069,0.734797,0.399865,0.73525,-0.0616861,-2.33538,-1.24813,0.341297,-0.400391,-0.406446,0.610844,-0.842778,-0.784844,0.344199,1.36754,1.14384,-1.57721,-0.491858,0.125131,-1.21911,-1.06228,-0.297043,-2.13021,0.303978,0.370616,-1.11487,0.541192,-0.236925,1.17067,-0.216981,0.796422,0.879058,-0.136134,-2.61832,-0.0272414,-1.50829,1.10506,-0.483269,0.1327,0.274594,-0.507105,0.0662915,1.00822,0.153238,-0.967337,-2.01994,-0.388387,-0.58059,0.361186,0.496816,-0.658833,0.63586,0.448992,-0.894266,0.511937,-0.384721,1.03832,-1.3509,-0.463032,1.4716,-0.0506258,-0.0505085,1.05069,0.434219,0.533778,0.670775,-0.560486,0.516238,-0.0221808,1.36044,2.35145,-0.145399,-1.95881,0.203557,-1.04476,-0.347293,0.0716876,0.248578,0.292073,-1.22856,1.27617,2.13366,0.593498,-0.598012,-0.931021,0.453606,-0.171936,-1.10443,-1.13666,0.0480224,-0.328883,-0.989785,-1.06289,0.384916,0.823559,1.04468,-1.11193,-1.67495,1.43475,-0.147755,0.194024,-0.977247,-0.147862,-1.05922,0.364564,0.415968,-0.930043,0.694033,0.157363,-0.988735,0.782843,-3.91232,-1.88072,-2.21035,-1.12238,0.378496,0.640664,-0.426412,1.03053,0.458911,1.79444,-1.44481,0.042246,0.275857,-2.46517,1.16673,-1.30081,1.35129,-0.441314,-0.733163,1.0777,1.39642,-0.526828,0.738949,-1.53731,-1.19879,0.551434,-0.746,-0.884266,-0.607838,-0.851451,1.07934,0.0332597,0.147833,0.141571,0.121281,0.899176,1.64632,-1.52273,1.35853,0.888408,-0.132079,-0.862967,-0.474001,1.20208,-1.07435,-0.277014,-2.30031,-0.131363,-0.119397,-0.333935,-0.669315,2.74595,-0.576547,-0.385856,0.750118,-0.442979,0.093699,0.581752,-0.177854,-1.19065,0.242557,1.12875,0.174176,1.0696,0.923493,-1.66381,-0.943329,-0.864742,1.44318,-0.398599,0.881996,-0.788475,-0.456585,0.578911,-1.02934,1.95456,-1.38762,0.494268,-0.803064,0.918087,0.0732587,-0.717148,0.583755,1.01008,-1.13693,-2.26202,1.2625,-1.96214,0.234369,0.376193,0.999794,0.389849,-0.102324,0.2426,-1.35416,0.0874706,-0.548312,0.171323,-2.37457,-1.35604,1.29215,1.59373,0.336138,-1.66384,0.576611,0.569753,0.739149,-0.369115,1.50976,0.420346,1.22522,-0.0143838,-0.665762,1.44332,0.838177,-0.0436376,0.664082,1.64,0.145831,-0.389362,0.281307,-0.225452,-0.698885,0.726314,-1.10695,0.922795,-0.509298,-1.45466,0.234243,1.89155,-0.169385,1.11113,0.400997,-0.668173,1.61625,-0.024478,-1.34263,0.48226,-0.721812,-1.976,-1.3503,0.382046,-0.474816,0.455366,-0.679452,-1.5704,-0.0167982,1.18628,-0.0389956,0.615521,2.50641,-0.854304,-0.518539,-1.78112,0.421293,-0.9161,0.470984,-0.103637,-0.17117,-0.124142,-0.209151,2.2816,0.146727,-0.579225,0.859632,0.858233,1.28242,-1.10243,1.06188,1.72327,0.464486,1.61652,-0.291639,-0.619009,0.0700855,-1.98168,-0.990585,-0.20592,-1.31929,1.17076,-0.747426,-1.08542,0.0922273,0.577243,1.43878,1.06655,0.692422,0.0636201,0.967899,-0.337043,-0.39124,1.89481,0.324591,0.247561,-0.946734,1.35204,0.638594,-0.494394,-1.55556,0.330925,-0.656806,-0.843469,0.857126,0.297254,-0.384807,-0.37371,-1.84901,-0.5646,-1.1199,0.782566,-0.0832084,2.32375,-0.795421,1.60626,-0.465449,-0.726854,0.0585963,-1.19364,0.606037,0.662975,-0.68491,-2.1477,0.343359,-1.69717,1.00704,-0.246029,1.27429,0.359434,0.839149,1.01043,-0.271478,0.534499,0.00931847,3.31932,0.473612,-0.900557,0.572604,-0.793261,1.34485,-0.0970893,-0.692192,1.28859,-0.57199,-2.26049,0.77882,0.317525,1.60492,0.291436,0.35119,-0.192385,-0.579466,0.661697,0.585585,-0.114465,-1.50699,-1.01846,-2.43664,0.427162,0.185924,-0.322535,-0.103539,0.550863,1.16979,1.44674,1.9738,-0.671405,-0.949042,0.299066,0.488118,0.572898,0.166693,0.512831,-0.0868834,-0.786923,0.134219,0.783514,0.594016,0.583344,0.990568,1.73972,-0.304236,0.17025,0.602097,-1.12632,0.254476,1.81014,0.227012,2.21145,-0.597188,-0.549403,-0.783329,-0.574805,-1.12122,1.58563,-0.252858,0.156042,-0.0485912,-0.705845,0.606137,-0.00711494,0.671719,0.297751,1.92481,-1.31204,0.752721,-0.674798,-0.0639059,-0.298347,1.01585,0.129979,0.0167101,1.76368,0.704311,0.879055,1.62342,-1.707,0.180217,-0.00766983,-1.52785,-1.33641,-2.43976,0.158261,-1.62986,0.329063,-0.732802,-0.930924,0.401335,-1.13577,0.556053,1.69717,0.0909021,2.2018,-0.82336,-0.773044,0.0342817,-0.357575,-0.987272,1.45618,0.227545,0.604277,0.0637389,0.680063,-1.60189,-0.595209,0.478476,-0.343551,0.709877,1.50029,-0.987047,1.64725,-0.733717,-1.86791,-0.199937,-0.140181,0.526557,-0.691341,0.298542,0.639214,-0.883498,1.33249,-1.42064,0.0322119,-0.0298849,-0.366068,-0.530699,0.851921,0.974858,0.0491396,0.799363,0.929419,-0.470173,-1.48714,0.80032,0.35134,-0.639866,-2.27732,0.837173,-0.0399554,-0.55559,-0.266381,-0.209466,0.374999,-0.144643,1.88517,0.120338,-0.0126679,0.474349,0.449366,-0.0297649,-1.19022,-0.58622,-0.671086,0.321757,0.464817,0.150823,-0.144148,0.119274,2.62863,-0.480976,0.363293,0.265157,0.470132,1.87911,-1.11337,-0.357479,0.987108,1.744,-0.984521,0.518042,0.699775,-0.602523,0.429537,-0.256788,-0.734745,0.769732,-0.155077,0.568356,-1.3285,0.438121,-1.37367,-0.54989,-1.33468,-0.153631,-1.92491,-0.300887,0.412077,1.37693,-0.0695091,-0.563097,-0.845951,-1.49025,-0.40068,-0.895715,3.08412,-0.618335,-1.62781,1.09385,0.950321,-0.643931,-0.162878,-0.771507,-0.394179,1.50533,0.184127,0.0300109,-0.664526,-1.16934,-0.213774,-0.068472,0.926104,1.10474,-0.376729,1.44492,1.69369],[-0.812919,-2.0521,0.589907,0.323643,0.66543,1.13721,-1.28025,-1.37243,-0.721989,0.423295,0.185907,-0.989239,0.446428,1.19266,0.233865,1.21762,0.32067,-1.23923,-0.563163,-0.743989,1.28001,-0.0377825,-0.119628,2.64283,-1.55245,0.968254,1.18893,0.885362,-1.59781,0.462365,-2.29353,3.35228,-0.156347,0.662145,-0.769959,0.0435837,-0.162685,0.783069,-0.108766,1.58634,-0.664278,-1.33721,0.670793,0.519748,1.50809,-1.55425,0.151654,0.229287,-1.87843,1.6748,-0.563416,0.542708,2.13842,0.46068,0.462728,-0.235669,0.170799,1.23962,-1.86284,0.948722,-1.49556,1.18813,-0.333848,-0.72195,2.68981,0.960804,-0.68163,0.400812,-0.0441144,1.48218,-1.34586,-0.710165,-1.67859,1.52277,-1.79173,-0.0143651,0.627119,0.934568,-0.35951,0.240055,-0.557169,-0.601283,0.524387,1.3553,-1.16997,-1.18619,0.656402,-0.898153,-0.400144,0.809994,-0.868367,-0.134378,-0.26425,-0.778471,-0.589708,-1.51048,-0.559275,-0.33652,-0.205558,2.12112,-0.000612797,0.400233,0.287775,1.05671,0.450822,1.57677,0.149049,-0.0894221,0.952278,-0.333381,0.295827,-1.62953,1.80493,0.479145,-1.14764,-0.443581,-0.0212605,-0.985916,-0.630599,-0.719166,1.04608,0.298961,0.396718,-1.07456,-0.386343,0.475945,-0.828637,-1.59965,0.340558,-0.454252,-0.488443,0.468488,0.142897,0.534546,-2.22,0.762919,-0.138722,-0.456122,0.091062,1.04764,0.744819,0.678925,-0.900975,0.654529,-0.341359,0.606768,-0.596569,1.19661,-1.34215,-1.79595,0.326096,-0.845432,1.53445,-0.123002,1.63233,0.743728,0.413253,-0.451143,-0.250563,-0.760969,-1.39412,-0.212562,-0.398568,-0.80867,0.550145,0.12009,0.291239,-0.573493,0.683298,0.246697,-1.23056,-0.846108,0.292798,-0.7663,-1.06079,-1.40387,-0.413134,0.556935,0.820246,-1.41313,0.108623,-0.458625,1.44753,1.40412,0.225743,0.765671,0.115413,-0.887635,0.895032,0.963286,0.141849,-0.434935,0.323673,-0.444774,0.510027,0.216586,-1.26061,1.3462,0.331009,0.288184,1.04849,-0.883978,0.27061,-0.203047,0.475385,-0.103734,-1.17525,0.332373,0.120543,0.00701646,0.258677,-1.43417,-0.308982,-1.10957,0.7,-0.0727416,-1.77592,0.511819,-1.08735,0.0155891,1.25772,0.0992323,1.24951,1.38488,-2.08951,-1.82269,-0.662384,-1.35125,2.57958,-1.58299,0.543786,-0.0711708,-1.93414,0.125182,-0.482802,0.76724,-1.42286,1.33886,-1.07894,0.0981077,-1.34626,0.300563,0.242052,-0.877035,1.14515,-0.781768,0.40892,-0.19619,0.106254,-0.234661,1.37799,-0.381069,-0.322228,-0.490323,-0.170074,-0.951473,0.573921,0.678425,-0.200153,-0.945638,-0.0315775,0.102159,3.2662,-0.0829234,-0.41241,1.25753,-0.359228,-0.894915,-2.00955,-0.858536,0.946397,-1.01426,0.447476,-0.101604,1.26367,0.423719,1.23602,0.641298,-1.19428,0.722233,-0.000826336,-0.476553,-1.40451,1.20582,-1.42496,0.358481,0.0790904,-1.00492,-0.262032,-0.250917,-0.0723847,-1.12778,-1.5384,1.01316,-1.44425,0.352165,-0.548218,0.0549053,0.392653,2.17855,-0.767392,0.35247,0.528267,1.28968,-2.01405,0.567564,-1.00658,-1.02957,-0.531907,-0.858589,-0.616238,0.55135,-1.18626,-1.55964,-0.195814,1.23988,1.29874,-0.426766,0.444744,-0.299608,-0.398651,2.78166,0.41117,0.673464,-0.802042,0.0580924,-0.606354,-0.925791,0.0883824,-0.744459,0.630853,-0.219472,0.280376,-0.272891,-2.53895,-0.327984,-1.88984,0.313642,0.773877,0.132691,-0.202855,-0.904569,0.904785,0.829649,0.299867,-1.50149,-0.911886,-2.12618,-0.19808,-1.55398,-0.679103,0.281621,1.17175,-1.60556,-0.288114,0.505742,-0.672351,1.02539,-1.30436,1.6737,0.464828,0.564133,0.550096,-0.761741,-0.844957,0.210875,0.00838632,0.988218,1.77386,-1.57303,-0.935963,-0.866439,1.2697,1.61564,-0.138204,-0.608971,0.484024,0.0860401,1.45101,1.58153,0.107039,-1.19249,0.564995,1.11101,0.630362,0.0863283,2.52468,0.702588,-1.34769,-1.65771,0.317049,1.27,-0.338668,-1.25471,-0.497295,1.35904,0.942007,-0.701293,-2.802,1.44281,1.31365,0.562097,-1.22083,-0.723921,1.54504,0.791187,1.74222,-0.000329585,0.560188,-0.226937,-0.034006,0.846404,0.141241,-0.716426,0.84542,-0.370321,-0.0438672,-0.252482,-0.745994,-1.00574,-0.73551,0.169121,-0.194767,0.751168,-0.47128,-0.200736,-1.37468,-0.734556,-0.0465023,0.85804,-1.03497,-0.0950193,-0.421132,-0.129464,1.84363,1.14549,0.377607,0.304647,0.0469358,1.24571,0.844287,1.0759,-0.380527,-0.972283,0.249035,-1.66997,-1.0429,0.43351,0.540784,2.20782,0.718183,-1.04967,1.07611,-0.114115,-2.10665,-1.14968,1.7677,-0.162794,0.249996,-0.282291,-2.18356,0.970789,-0.326095,1.51234,-0.741715,0.287686,-0.185606,1.33058,0.200685,-1.15122,0.730748,-0.599823,0.0804511,0.677175,-1.0404,-0.0249424,-0.186742,-0.498151,-0.520535,0.0453921,-0.144779,1.01476,0.901276,-1.25096,-0.917073,-0.15,0.549549,0.2964,0.203324,0.33236,0.777727,0.41837,0.531087,0.0744125,-0.0751181,-0.26625,-0.706068,1.46524,1.37321,-1.48944,0.488026,-1.10265,0.638675,-0.288158,-0.296006,-0.935284,-1.1584,-0.262879,0.0361397,1.86202,-0.36132,0.207818,-0.315869,1.12359,-0.068022,-1.035,-0.484575,-1.64689,-0.231661,-0.104702,-0.0230475,-1.29482,-0.209651,0.854198,-0.227704,0.181951,1.50808,-0.570964,1.3538,-0.946648,-0.521556,-3.06837,-0.34655,0.960288,1.49645,0.456063,-0.859366,-2.17189,1.13588,1.19502,0.975423,0.27033,-0.208633,0.235515,1.93705,-2.03072,0.196419,1.83104,1.37401,-0.565246,-1.06983,0.0980426,-0.759061,0.491652,-1.3689,0.847913,-0.701782,0.647669,0.338613,0.568518,0.507014,2.82103,-1.8127,0.912285,1.56652,-0.136159,0.484721,0.564667,1.21336,-1.99852,-0.0103716,0.0544262,0.30347,1.1786,-0.4371,0.649704,0.187338,-0.0610257,-2.836,0.738541,0.42528,-0.00348926,-1.0631,-1.79806,1.21622,0.491319,0.896254,-0.111426,-0.43316,-0.194781,0.621041,-0.557577,-0.208648,0.839493,0.703172,-1.18757,-2.56479,-0.0751353,0.652503,-0.19872,1.00786,0.0112441,-0.768056,0.205251,1.08443,-0.418733,-0.319969,-1.5302,2.45654,-0.698887,-0.539823,-0.44517,0.0238264,0.329999,0.294126,1.89729,0.447031,0.610108,-2.15543,-0.673083,-0.212204,-0.269252,-1.22181,-0.833815,-1.7039,-1.34417,0.657419,1.35046,0.761866,0.631897,-0.209086,-1.42764,0.570686,0.452892,-0.693924,1.92452,0.192926,1.36612,0.239997,-1.17407,1.02831,-1.95232,0.244377,-0.970217,-0.879861,-1.04025,-0.889865,-1.27757,0.158183,-0.0215542,-0.076391,-0.458609,-1.05372,1.11848,0.341109,-1.81622,0.566126,-1.75603,-0.5178,1.00005,1.08668,0.417731,-1.49139,0.602134,-0.461188,0.19923,-1.17616,-2.1525,-1.1312,-0.000883401,-0.630202,0.307758,0.879035,-0.641446,0.55973,-0.215968,0.421339,-0.938602,1.01447,1.05498,-0.103781,1.5253,0.43113,-0.143273,-1.22868,-1.57737,1.34485,-0.83673,-0.527824,0.638135,-0.474988,-0.338839,0.213081,0.194647,-1.47058,2.06053,-0.184115,1.36987,0.581014,-1.013,0.20317,-0.331586,0.56826,1.4553,-0.302178,-0.860215,-1.53281,1.30664,-2.66591,-0.915012,-0.42341,-0.771517,0.305805,-1.56278,-0.558543,0.920932,-0.156122,-0.468478,0.960265,-1.74726,-0.416772,-0.170894,-0.0282126,-1.02348,0.757358,0.105456,0.52732,1.18514,1.23416,-1.40199,-0.246553,-0.034572,0.699867,-0.0344647,-0.344048,2.21701,-0.844041,0.0685852,-1.15452,0.620268,1.40795,0.102392,-1.20923,-0.384713,0.278775,0.100073,-1.29685,-0.828611,0.594943,2.28114,1.78666,1.25482,-1.27668,-1.13498,-0.689962,0.172524,-0.642359,1.40311,1.47039,-0.106154,0.128253,0.403095,-1.77078,-1.11528,1.54983,-1.4217,-0.131163,0.209305,1.19254,0.225875,1.77021,-1.94793,0.578136,-0.132833,-0.264461,-0.844163,-0.371081,-0.174184,0.516592,-0.55953,-0.726134,-0.891,1.36799,0.604607],[0.343791,-1.24004,-0.471043,-0.000762386,0.931698,-1.21181,1.16491,0.493648,-1.59884,-0.162214,0.0381948,0.480325,0.258103,0.558232,-1.27989,0.926967,-0.42932,-0.0192815,0.529033,-0.491805,0.564271,-0.0905054,2.01827,1.57386,-1.79384,1.60773,-1.19169,-0.7528,-0.320213,0.698223,0.894559,-0.632216,1.05221,-0.898943,2.40538,-1.02969,0.893971,-0.290929,1.53675,-0.199866,1.64862,-0.186207,-0.77658,-0.944985,-0.382071,-1.45106,0.571558,0.259584,-0.427914,0.865696,0.316606,1.41018,-0.645453,-1.05071,0.633262,0.660976,2.23442,0.233028,-2.21541,0.718116,-1.11873,-1.50091,0.0401921,0.857082,-0.80933,-2.24539,1.08348,0.230837,-1.92823,0.0377179,0.805505,0.456792,0.440098,1.60635,-0.505374,0.0549467,0.807421,-2.46993,1.25963,1.55695,1.01526,1.19161,2.03491,0.0069584,0.456523,0.853878,0.538696,-0.357106,-0.305063,-0.140225,0.0510718,0.40481,0.736965,-0.923932,-0.0868612,-0.492047,-1.48947,-0.625923,1.12858,-1.61755,1.68216,-0.042073,-0.0798574,0.241661,-1.68873,0.626531,0.844327,0.935406,-0.13797,0.564878,-0.899682,1.92761,-0.0438903,-0.73288,0.823909,-2.4776,-1.2552,0.0208389,-1.05858,0.478115,1.32571,-0.466058,-1.2962,0.730685,-2.01688,-1.59985,-0.173052,-0.447615,-0.771238,0.068796,1.5679,0.408839,-1.56086,1.34181,0.586412,-0.287866,0.660783,1.38578,-0.666927,-0.910702,0.577484,-0.452926,0.549796,0.956346,0.357195,-1.28287,0.633813,-0.165786,-0.234384,-1.89178,-0.361172,-0.13804,0.585148,-0.851701,1.35373,-0.929302,2.0807,0.585946,0.32173,1.41887,-0.117361,-1.38051,0.230544,1.07598,0.955624,0.356228,-0.740698,0.913612,0.164446,1.24833,-0.544974,0.893219,-1.75535,-0.681301,-0.563371,-0.233306,0.158788,0.159466,-0.29279,1.25872,0.580392,1.00099,1.37862,0.147213,-1.22955,0.205137,-0.592211,0.569554,0.519781,-0.00872451,0.319989,0.433418,-0.100652,-1.13072,0.049303,-0.567245,0.829145,0.0948997,-1.34037,-0.289172,-1.21745,-0.219826,-1.07703,-0.00983129,-1.02107,0.246395,0.0242153,-0.890441,-1.90219,0.620484,-1.35016,0.0145545,0.155572,-0.300464,-1.41242,-0.34271,-0.0979141,0.76316,-0.0461122,0.66114,0.292055,-0.50198,0.290297,-0.293955,-0.162673,0.212855,0.709393,0.511808,-0.206368,0.492763,0.138346,0.705968,0.756689,1.84939,-0.596729,0.57164,0.00974611,-0.201994,0.272535,-1.29962,-1.61155,0.799981,-0.880649,-0.565864,0.732423,-0.351256,-0.625261,0.0530587,0.0578514,-0.464505,-0.0267909,-2.02729,2.2337,-1.35434,0.516261,-0.066386,1.23857,1.00085,0.182912,-0.458662,-0.247098,0.20037,-1.04059,-0.0918458,-0.2281,0.578582,1.37147,-0.570273,0.664816,1.89357,0.487328,0.480251,1.87562,-1.36058,-0.0167412,-1.0941,0.845099,0.803724,-0.473055,0.252264,0.626459,-0.105327,-1.95911,0.534695,0.67432,1.65951,0.873258,-1.54975,-2.24779,0.338043,0.842454,-0.0654902,-0.769751,-0.55263,-1.02628,0.13671,0.189975,0.435412,0.65264,0.104512,1.64179,-0.225682,0.312302,-0.756323,0.239329,1.41641,0.853377,-1.72386,0.221691,0.398302,0.836277,-0.790653,1.19261,0.502664,-0.752585,0.107693,-0.20398,-0.428487,-0.895727,0.419166,1.26372,0.554358,-2.04658,0.0188228,-0.25164,0.0728991,-0.586125,0.696096,1.0056,0.904061,-0.868359,1.62685,-1.45157,-0.850015,-0.690385,-0.47418,0.321206,0.651215,-0.884585,0.681571,-0.261271,0.501833,0.794197,0.0521741,0.868461,-2.09621,-0.804364,-0.825609,1.17434,0.939361,0.0706622,-0.312245,0.165962,0.022908,-0.591352,-0.768734,-0.0178519,0.452477,-0.922406,-2.46921,-0.64776,0.361684,-0.618276,1.05474,0.0173263,0.420466,0.574366,0.666428,0.594209,1.34129,-0.211301,-0.905081,-0.323388,-0.920435,-1.52465,0.454402,1.37089,0.943002,-0.28333,0.705707,0.0620966,-0.483005,0.0492987,1.69845,-0.736667,2.0025,1.26949,-0.317803,-0.657599,-0.126941,-0.192199,1.27789,2.22773,1.1507,1.76434,-0.53446,0.351295,-0.124953,-0.581735,0.127479,-0.399067,0.190094,-0.82547,0.1045,-0.212241,0.044372,-0.303747,-0.634029,1.58223,0.00110901,1.4457,-1.99414,-0.621724,-0.078982,0.909908,0.151906,-0.655041,2.35169,0.200894,-0.514607,0.0248603,2.70258,0.616998,-0.310084,0.484313,-0.218487,0.666106,0.20905,0.622499,-1.04698,0.519899,-1.03756,-1.49257,0.827624,-0.317896,1.50515,0.0192418,1.64671,-1.86498,0.487936,0.687236,1.84956,0.126463,-0.214946,1.0988,0.270171,1.41638,0.16345,-0.0732314,-2.24087,-0.290173,0.107226,0.243525,1.89731,0.566146,-3.07278,0.464001,-1.72383,0.489212,-0.6468,-0.346835,1.92476,0.937361,0.486709,-0.428738,-0.00763688,0.142715,-0.710545,0.863842,-0.794814,0.655959,1.49378,-0.327238,-2.36851,0.217341,0.501717,-0.466925,-1.39535,0.26027,0.801516,0.397366,-0.952043,0.548131,-1.10969,-0.0867954,0.350273,-0.796745,-0.803206,1.25533,-1.82197,0.634777,-0.223561,-0.983131,-0.408048,-0.693122,0.643291,-0.618212,0.423414,0.206227,2.32925,-0.834573,0.0401363,0.662881,1.47913,-0.0428219,1.26895,0.626746,0.32603,1.37212,-1.23298,0.0744462,0.158057,-0.888934,-0.592728,-1.43101,-0.42239,-1.87414,-1.19311,0.460104,0.90569,-1.0114,-0.729786,-0.60913,0.739182,-0.809268,-0.135378,1.62742,1.14984,-0.590507,0.55383,0.0564597,0.326073,0.542794,0.522833,-0.427209,-1.11631,-1.13432,1.20904,1.49585,1.14069,-0.344537,-0.313364,1.12024,0.646124,-0.24459,1.36396,-0.310254,-0.0260017,-1.14851,-1.02327,1.25276,-0.668899,0.0856078,-0.542483,1.08906,-1.89073,1.67288,1.29071,0.102029,-0.626522,1.00779,1.16516,0.611982,0.0347047,0.4059,-0.344469,1.24653,-0.844871,-0.234594,-1.7147,0.789659,-0.316641,0.421312,1.2131,-0.805249,-0.201801,-0.0247584,-0.382678,-0.410765,-0.435883,1.46436,0.658795,-1.42772,0.228965,0.22191,-0.136976,0.454635,0.520315,0.134061,-1.4298,0.630917,-0.238016,1.43305,-0.394394,0.194957,-0.608127,1.47704,0.59842,-1.30761,-0.405949,0.760254,-0.489205,0.0811996,0.31271,2.24596,-0.360138,-0.981755,1.38473,0.739368,-0.770357,-0.124785,0.158146,0.0621541,-1.29459,-0.466796,0.0734364,0.822887,-1.1156,-0.694872,1.39325,-0.259955,0.252714,-1.43653,-0.643459,0.272637,-1.5522,0.41731,0.718384,0.133582,-0.206411,-1.25676,-0.378288,0.0371115,-1.04238,0.0429297,0.379136,0.601734,1.27503,-0.077725,-0.157939,0.7624,-0.0513513,-0.377042,0.804445,0.170197,0.315411,-0.571677,-1.51307,-0.919317,1.67157,0.300239,-2.09952,0.504505,1.73715,-1.50404,1.86665,0.688278,-0.954609,-0.634082,-0.146673,-0.838241,0.670009,0.793169,-0.380623,1.01207,-1.66739,0.865556,-0.0974811,-0.573549,-1.89268,0.357653,-0.122491,-0.296093,1.69139,-0.166957,-1.48724,0.706525,1.464,-1.0874,0.353703,-0.369767,-0.379923,0.720586,0.441502,-0.25934,-0.468603,2.1845,0.798098,-0.395758,-2.361,0.616565,-2.25179,-0.0457742,-1.39845,0.286194,-0.524033,0.200191,-0.503688,-2.46422,-0.330082,-0.00405524,-0.41266,-0.252349,-1.41369,-1.62317,0.0937542,0.0150787,0.296771,0.439387,0.218299,-0.516444,1.92767,0.623935,1.35057,0.451904,-1.15032,-1.01436,0.117314,-0.163813,-0.407567,-0.845031,-1.12724,-1.06314,1.27361,0.713956,0.343335,0.977598,-0.135028,-0.934891,1.54626,0.727313,1.6636,-1.89559,0.279082,-1.813,-0.429166,0.846781,1.24182,0.496378,-0.0930386,-0.844572,1.5194,0.11774,0.559304,-0.124298,-0.666836,0.154517,-2.12048,-0.845892,-0.228191,-0.597479,0.336336,1.72744,0.0405135,0.415873,0.00954664,0.734578,-0.408201,-2.00847,-0.313643,0.30087,-0.513161,-0.0477799,0.0084294,1.48092,-0.0438421,-0.260134,-0.381679,-1.73413,0.537074,-0.384938,1.07143,-1.29851,1.75499,1.55607,-0.357484,0.971509,-0.450828,1.00789,-1.24838,2.31092,-0.0667346,0.32038,-0.82686],[1.24761,0.466029,-0.0317722,0.654715,0.704871,-1.75162,-0.329134,-1.11354,-0.212621,-0.244011,-1.70487,-1.38646,-0.707793,1.11529,0.332903,-0.760802,1.22896,0.651312,0.939166,0.33604,-0.556218,-0.276677,-0.361451,0.764304,0.807688,1.70512,0.0149892,-1.06697,0.0757727,-0.726758,-0.371944,-0.00975808,0.633378,0.920415,1.64295,-2.15681,-0.343765,-0.929131,0.720969,0.391142,-0.198572,-0.525361,0.808725,-1.2463,-1.12813,0.403005,1.06018,0.364627,1.44499,0.482499,-2.3252,-1.04275,0.0362425,1.78632,-0.157358,1.13285,-0.288888,-0.0665246,1.28633,-1.07821,-0.038739,0.82712,0.152063,0.184339,0.0953616,0.895339,-1.40343,-1.95838,0.920242,0.655134,1.06765,-1.42326,0.250931,2.08065,-1.33794,0.751791,-0.308312,-0.829683,-0.811467,-0.640276,1.07428,1.62451,1.70735,0.840265,-1.03481,-0.968872,-0.25463,0.948001,0.456142,0.156813,1.22993,-0.52752,0.669031,1.01626,0.613877,0.859832,1.38345,1.33452,0.0635046,0.89095,1.46959,0.63845,0.512249,0.463899,-0.308735,-0.239369,0.193345,-0.30401,-1.27133,-1.21806,-0.417687,-1.18078,1.02391,0.453308,1.97713,-0.904448,1.12131,0.011938,-1.00713,1.18392,0.0941708,0.0674196,0.0850305,1.54771,-0.206747,-0.465014,0.698033,-0.88526,-0.587318,-0.513837,0.667765,-0.11202,-0.544759,-0.167695,0.758672,1.53812,-0.695281,-0.523439,-0.390541,1.13028,-0.739039,-0.383408,-1.31233,-1.58932,0.257338,0.974273,2.52322,-1.66653,-0.454939,0.263933,-0.627243,-0.702773,0.154142,-1.77481,0.294444,1.1256,-0.22798,1.19323,0.445418,0.357692,1.78068,0.122405,0.986761,-0.341732,-1.2764,-1.33929,0.531273,0.105394,0.364851,0.331198,-0.524117,-3.26055,-1.83773,-1.09598,1.12306,1.09341,1.04382,0.517314,1.02178,0.0656979,-1.52962,0.920154,1.31554,-1.4959,0.524766,0.191285,-0.707979,0.943427,-0.0765447,0.953489,0.189959,0.950652,-0.220766,-0.686289,0.691771,0.634631,0.8679,2.19286,-1.16934,0.229027,-1.57973,0.707915,-0.262104,0.602435,-0.273366,-1.702,1.07422,0.99524,-0.913884,-0.170035,0.436049,-0.0140648,0.850084,0.485061,-1.02011,0.513576,-0.193339,0.692583,-0.168857,1.50942,0.0371559,0.166978,-2.82668,-0.178004,-1.19516,-0.114155,1.19737,0.373998,-0.107793,0.657464,0.849985,-1.30062,1.05444,-0.32036,-0.571047,0.318151,0.0375206,1.908,0.364863,-0.0876985,-1.68765,-0.755248,0.873951,-0.825385,1.01419,0.693368,0.491911,1.44688,-1.61932,0.764706,-0.936833,-3.47286,-0.116349,0.188202,0.262304,-0.536204,-0.41198,-0.102288,0.724012,-0.823065,1.65031,-1.94617,-0.5217,-0.480603,-0.747551,0.767115,1.1468,3.20356,2.15645,1.93879,0.940519,-0.039095,0.25125,-0.46746,-1.07335,0.824854,0.136827,0.104232,1.14897,-0.296674,-0.336825,-0.866396,0.0932738,-0.932342,-0.317963,0.60017,1.02618,-0.259673,2.44808,0.693032,-1.4981,0.468127,2.4563,2.17903,0.127101,1.65935,0.175552,0.279843,0.5918,-0.857233,-0.0970157,0.262174,-0.262824,-2.47261,1.00853,0.477205,0.191521,0.561641,-0.493992,-1.74495,0.938788,0.233929,2.05085,0.96854,0.670679,-1.01322,-0.82466,0.722401,0.537976,0.791275,-1.78948,-0.467357,-1.30493,-1.19798,0.252975,-1.01894,0.950964,2.11189,1.39312,-1.83253,-0.77543,0.146661,-0.264541,0.291046,-1.78181,0.865164,-1.71659,-0.0203549,-0.784115,-0.134848,-0.76967,-2.1796,2.23643,1.16674,0.873444,-0.676137,-0.824828,0.258924,1.75243,-0.439281,1.26961,1.25707,0.327475,0.774767,1.0086,-1.44869,0.289732,1.73126,0.32652,2.51555,-1.15254,-0.981453,1.10693,0.59051,-0.564644,-0.211618,-0.971014,0.888602,1.13422,0.286941,-0.257953,0.24677,-2.24965,1.19897,-0.959833,1.5751,-0.0685907,-0.372619,0.2182,0.916892,0.163322,-1.83586,0.540735,-0.0683151,2.20322,-0.577523,-0.479335,-0.297274,-0.888068,-0.0957152,0.0729522,1.32221,-0.648734,-0.599546,0.176977,1.86869,1.10092,0.141711,-0.439402,1.19589,-0.473916,1.43644,0.228004,-0.0168744,-0.939589,0.727463,2.44399,-1.95037,-0.0368612,2.59521,1.50751,-0.790429,-1.41801,0.264888,0.33473,1.04215,1.66667,0.796613,1.18088,1.62155,-2.39875,-2.32522,-1.03184,1.30133,-0.112003,-0.800607,0.995956,1.42051,1.7259,2.52798,-1.76265,-0.0726408,0.339384,-0.14097,-0.153184,-0.809827,1.02111,0.570799,-0.0750768,-0.51569,0.263718,-0.549674,0.193234,0.742552,1.034,0.581901,0.582346,-0.295522,-0.0429673,0.582698,-0.220466,-1.92826,0.607032,0.611023,-1.44548,1.07046,0.313502,-2.06414,-0.479373,0.223708,0.303697,1.23521,-0.279981,0.603004,0.561263,-0.410107,-0.388112,-1.06898,1.05774,0.0567242,-0.153935,-0.808671,0.205699,-1.70694,0.520622,0.422347,-0.0908297,-0.22875,-1.15227,-1.64172,0.850869,0.134739,-0.238011,1.5128,0.763171,1.20428,-1.53256,-0.378455,1.36197,-0.0495286,1.86448,0.930486,1.51996,-0.115522,-0.374375,-0.821062,-0.339598,0.254294,0.316514,1.98469,0.357279,0.92745,-0.276051,-0.234091,0.332928,0.157963,-0.991076,0.195449,1.94992,-0.0237413,-0.772078,1.3083,-0.525717,0.486042,0.09383,0.122205,-0.583602,-2.33048,0.3109,-0.972635,0.509919,-0.559837,-0.540025,-1.95172,-0.52348,0.616773,0.0840419,0.805002,0.116372,-1.50118,-1.63282,-1.9203,-0.569076,0.163437,-0.982913,-1.16858,-0.455476,0.76772,-0.260215,0.0223419,0.405942,0.0992055,0.345466,0.141638,0.488818,-0.124077,-0.487447,1.67478,1.3284,-0.645001,1.58608,-1.05859,-0.470878,2.53007,1.69802,0.732868,-0.066901,0.0701154,-0.136088,1.77495,-0.115436,0.560434,0.204476,-0.904911,-1.00385,-0.334114,-0.868033,-0.623303,1.8654,0.804445,1.44494,-0.724208,0.313452,-0.951805,-0.208481,-0.469492,-1.51133,-0.268687,-1.47332,-0.382276,-0.240594,0.383738,0.0871685,-0.175227,-0.905846,-0.731363,-0.441323,-0.296372,0.710289,-0.231046,-2.10368,0.643477,0.728025,1.11788,-0.745354,2.1336,-0.332522,0.277475,-0.973591,1.73897,0.83262,-0.782998,1.70634,-0.809585,0.813008,1.13696,-1.06059,2.0389,0.891086,-0.0770055,-0.530037,1.5024,2.0255,0.939387,0.145799,-0.408727,-0.5107,-1.08146,0.0498271,-1.31674,0.879322,0.0495078,0.910451,-0.252038,-1.08817,0.156111,-0.46817,0.0914651,1.48036,-1.10026,-0.823674,-0.479549,-1.07689,-1.04781,-0.203431,-0.26753,-0.673947,-1.05087,-0.488049,0.227907,0.0570582,0.315563,0.0854363,0.621291,0.952393,1.43467,0.956865,0.000532555,-0.025974,0.528402,-0.655099,-0.00226904,0.437019,0.221772,0.0758119,0.398276,-0.96066,0.824646,1.0592,-1.11391,-0.65815,0.773932,-0.966098,1.22377,-0.352621,-1.24349,-0.894906,-1.79255,-0.25585,-0.571749,1.15844,0.542775,-1.13561,-0.306708,-1.36965,0.312684,0.0732275,0.827074,-1.77886,-0.316868,-1.1995,0.31664,0.481776,0.562215,0.0424828,2.04735,0.980282,1.58165,-0.480267,0.167246,0.287789,0.231812,0.886604,-1.29691,-1.71472,-0.334019,0.253791,-0.0012509,0.160453,0.627467,1.01742,0.302434,-1.05443,-0.0677459,0.800582,0.0446572,-1.01923,1.18559,-0.233454,-1.69526,-0.462192,-0.0423357,-0.288829,0.104191,-0.57226,-1.17768,0.581738,0.152536,-1.50631,0.637313,0.521878,-0.517121,-0.270472,1.62215,-0.883329,0.63745,-0.317954,-1.88149,-1.38402,-0.677837,0.48068,1.6124,-0.292468,-1.92868,-1.64212,1.10656,0.636529,-0.333043,0.500575,0.650625,-0.222377,0.249753,-0.214162,1.40913,-0.343376,-1.24589,-0.647461,0.12711,-1.23446,2.61151,-0.925707,0.00724967,0.131101,1.17863,0.311275,1.35387,0.479152,-0.0137938,-0.00465564,-0.594854,-0.189699,0.196388,-1.65448,-0.0196801,0.0590614,0.434029,2.63695,-0.477608,0.587932,-1.34427,0.245564,-2.24706,-0.148941,-0.294346,1.70565,2.25039,0.118157,0.328266,-0.462745,1.18539,0.0679345,0.0133674,-0.697266,1.5235],[0.218403,0.852922,-0.214782,-0.579383,-0.515722,-0.19259,-0.618527,-1.67037,0.366558,-0.465247,-0.0950353,0.0356171,-0.28203,-0.518081,-0.650667,-1.81584,-1.10033,1.01417,0.109296,-0.657953,-0.883779,1.31004,0.151444,-0.0388338,-0.183033,-0.0486188,0.648857,-0.94294,-1.19498,0.0951104,-0.0465687,-0.430578,-2.37158,0.187405,-1.48627,-1.84805,-1.1626,0.144478,-0.0511976,-0.357413,0.331402,-0.503703,1.5519,-0.437946,1.02848,0.497478,0.638123,-1.04632,-1.17754,-0.201406,-0.557917,0.176587,-0.0171355,-0.703763,-1.68765,0.729106,-1.0136,-0.889672,-0.165448,0.229087,-1.61935,0.945468,-0.292741,-0.39171,0.524559,1.81917,-0.300488,-1.69345,0.544615,-1.05078,-0.085568,-0.107228,1.16029,-0.377898,1.1829,-0.416125,-0.853897,-1.20496,-0.185962,-0.667246,-0.00390361,-1.3973,-1.65819,-1.4148,-0.66495,-2.56837,-0.696833,-2.00092,-0.64318,0.162009,-0.765703,-0.427631,0.623747,-0.35286,-0.999854,-0.316233,-2.73485,-0.117186,-0.194163,-0.404938,2.78008,0.0652589,-1.07494,-0.402931,-0.527617,-0.696416,-0.120315,-0.0219153,1.39219,1.23032,3.17574,-0.379096,0.45794,0.395436,0.0255512,1.29087,-1.14316,-1.20355,1.16538,-1.05287,-0.730685,0.811649,-0.147223,-0.236112,-0.865895,0.405499,0.869373,0.242115,-0.00647331,-0.216736,-1.88909,0.301862,-0.392507,0.486236,1.18188,-0.737624,0.700537,2.16208,0.425277,-1.30601,-0.359439,-0.21522,0.154617,0.235168,1.16703,0.452937,-0.225171,-0.801015,-0.554675,-1.28758,-1.01487,0.228039,0.330872,-0.690063,-1.06477,-1.23888,1.10675,0.963876,0.0743035,-0.222262,-0.780192,-2.47685,1.25368,-0.601686,0.498961,1.53225,0.848364,2.71361,-1.99943,1.13868,-0.95019,0.260671,-0.00772645,-2.17534,0.483661,0.359581,-0.0396536,-0.0560387,-1.59748,1.17548,0.503442,1.32272,0.425913,0.0604793,0.102779,-1.4713,0.501497,0.0179493,-0.618908,-1.49384,-1.26571,-0.24935,-2.07077,0.152972,-0.575176,0.0312405,0.849784,-0.721259,-0.345085,0.286524,-0.270799,-1.01293,0.177931,0.342188,-1.15676,-1.11362,-1.0687,-2.46405,0.0719019,0.465861,0.474826,-0.421807,-0.583929,-0.247957,-0.411711,-1.19668,0.335762,-1.40645,-2.5303,-1.77092,0.0858134,-0.0104059,-1.54335,-0.418962,0.418262,-0.243955,-0.458964,0.134187,-0.77357,-0.181999,0.988989,0.726695,1.62408,1.22619,-0.284582,0.85099,-0.0463665,-1.29687,-0.95611,-0.576079,0.317261,-1.00434,0.934062,-2.91484,-0.0480897,2.11721,-1.04159,1.31186,0.363659,0.158633,1.06992,0.340424,-0.377301,0.758582,0.393401,-0.590443,0.243171,-0.157087,1.29834,-1.33922,-1.02355,-0.790794,-0.948564,0.860708,1.08651,1.96234,-0.80518,0.164381,-1.81603,0.328885,0.694637,-0.486947,0.0270088,-0.124662,-0.0160873,-0.713786,-0.398692,0.765959,1.89369,-0.486532,2.07647,-0.87011,0.29994,-1.03682,1.16098,-0.00393104,-0.413064,0.220948,0.827123,-0.01654,0.504691,0.811455,-2.05617,-0.295881,0.871905,-0.489966,1.15513,-0.415233,1.59816,0.423709,0.599909,-0.694977,-0.369474,-0.845519,0.385135,-1.41387,-0.378612,-0.850583,0.00175559,-0.207625,-0.743196,1.54517,0.549727,3.08655,-0.108688,-0.583984,0.430867,0.0624706,0.106984,1.93184,-0.254404,0.306158,0.068072,-1.23211,-1.53868,-0.0282251,0.160091,0.101172,-1.3515,-0.641264,1.75379,-1.48208,-0.972342,1.98894,0.629561,1.86758,0.389486,0.508394,-0.240155,-0.662814,-2.2146,-0.167675,0.671902,0.291395,0.820648,0.740996,0.500798,-0.776026,0.0172832,0.940676,-0.230963,0.0911844,-1.34305,-1.80662,-0.421199,0.177751,0.600056,1.71756,-0.516259,-0.0807963,0.119751,-0.557549,0.941955,0.374207,-1.29411,-1.06101,-0.0865771,0.902287,-1.2858,1.16073,-0.583985,1.09196,-1.17441,0.863431,-1.13656,0.612939,1.63329,2.04108,-0.938038,-1.33817,0.973845,-0.340222,1.15003,0.824482,-0.151495,-0.267032,0.0613319,0.539655,-0.94103,1.31861,-1.06712,-0.505819,-0.839118,-0.149433,0.721917,1.07265,-0.748328,0.457384,-0.36096,0.953769,-1.40582,-1.68896,-0.69754,0.318881,-0.187348,-1.20271,-0.623399,0.240591,0.965619,0.361883,0.775989,-0.211961,0.561954,0.159682,0.994825,0.832437,-1.22264,-0.80261,0.353985,-0.907429,-1.25401,0.0497675,-0.410732,1.37393,-0.570594,-0.780118,-1.43495,-0.970542,-1.81869,-1.85896,-1.02204,0.313682,0.198186,1.12764,-0.295716,0.98065,-0.152871,1.99984,0.0787039,-0.0460209,-0.631654,-1.41399,0.679007,0.429327,0.0655379,0.790797,-0.309538,-0.560576,-0.306351,0.680061,0.00998319,-1.53562,-1.06237,0.347681,-0.42862,0.0279875,-0.549676,1.13446,-0.728449,-1.12694,0.0646971,0.192388,0.806507,0.070562,-0.816938,1.00765,0.517509,-0.955609,-0.217484,-0.339445,0.614708,-1.83782,0.805057,0.964174,-1.47102,-0.817941,2.08867,0.956629,-1.95235,0.492149,1.38316,-0.261569,-0.243438,-1.42803,-2.01085,2.86807,0.131792,0.851471,0.0722491,0.48266,-0.324457,2.0452,-1.97469,-0.110226,-0.230616,-0.463682,-1.17217,0.319471,-1.42097,-0.961197,-0.418153,-0.435669,1.0517,-1.35982,2.2477,-1.13295,-0.747774,-0.258935,-0.313648,0.232122,1.1752,-0.451371,0.584803,0.512091,-2.49614,-1.76974,0.207891,0.947469,0.496865,0.496719,-0.876652,-0.191043,-0.0334542,-0.979657,0.0911346,-1.59284,0.735932,-0.293124,-2.37322,-0.135579,-0.988498,0.454258,-3.05034,0.4188,-0.525856,-0.202176,-0.925552,0.808213,0.0213637,-2.42048,1.47779,-1.21401,-0.702039,1.92945,0.201325,0.465844,0.594877,1.61346,0.0797375,-0.332222,-0.298487,-0.529671,-0.442949,0.425754,-0.420001,-0.997546,-2.08947,1.62277,0.749349,-0.581319,0.909195,-0.575202,-0.0630161,-0.665908,-0.747881,0.189844,-0.180892,1.2096,1.65636,-0.163441,0.267544,0.210995,1.45358,-0.503926,-1.17702,-0.539925,-0.306534,-0.926658,-1.47753,-0.732082,0.137637,0.4952,0.479709,1.28021,1.48785,0.688735,-0.132908,-1.51169,-0.245898,0.791894,-0.444518,-0.347995,0.997177,-0.724403,-0.94801,0.251681,1.76114,0.767908,1.34179,0.580702,-0.329747,0.313853,1.68297,0.696092,-2.89466,-1.93792,0.726871,-0.712846,1.57089,0.784391,1.4861,-0.71596,-0.840235,0.745087,-0.36499,0.0455643,0.604145,0.84183,-0.936832,-0.565963,-0.276487,-1.73102,0.766599,1.24672,0.0451999,0.18433,-0.364488,-0.561854,0.214294,-0.341533,-1.06261,2.32501,-0.848132,0.834302,-1.02057,-0.470092,1.47014,0.290668,1.493,0.231714,-0.857038,-1.10219,-0.866616,1.53945,0.690429,1.15263,1.6835,-0.044445,-0.747809,0.248702,1.11905,-0.230014,0.83114,0.578452,-0.705237,2.15099,0.991364,0.385672,0.17003,1.82707,-0.0472577,-0.0662,-1.03052,0.63716,-1.77612,0.862706,1.61919,0.718813,-0.133969,0.944831,0.709601,1.90757,1.57357,-1.06272,0.0773109,-1.00751,-0.168799,-0.00237417,0.453764,-0.176091,0.344472,-1.04807,-1.67023,0.123572,2.20723,-0.569378,-1.02005,-0.758971,1.56515,-0.211167,-0.10311,0.0133025,-0.222378,-0.106003,-1.06451,-1.9139,-1.12636,-0.664878,1.21726,0.484621,0.379914,-0.543,0.261375,-0.270967,-1.14783,-1.35734,-1.04219,0.449083,-1.66616,0.670013,1.95827,-0.481689,1.2789,1.37976,-0.471858,-1.06187,0.4142,0.87517,0.644394,0.455201,0.462071,-0.0249924,0.972156,0.676593,1.28987,-0.0110795,0.124703,-0.946182,-0.133782,1.88683,-0.703828,-1.24563,-0.100041,-1.15793,0.385793,0.794901,-0.64027,-1.07507,1.05025,-0.976383,0.88975,-0.721817,-0.0357633,-1.02179,-0.236261,0.895376,-0.100652,-0.122458,-0.288932,-0.0956602,0.00643889,0.361442,-1.43617,-0.675513,2.04055,0.354338,0.629197,-0.438613,1.03849,1.53766,-0.348155,-0.902435,0.611347,0.63731,1.11687,-0.60546,0.915304,0.290065,-0.645353,2.92808,-0.523761,0.0547575,-0.0873774,-0.823177,-0.185774,-0.464863,1.66931,0.513231,-0.0350795,-0.929463,-1.4432,-1.16555,-0.563559,-0.115109],[0.276845,0.449392,1.5109,-1.02782,1.09469,1.414,-0.79742,0.205526,0.310059,1.71988,0.796122,0.795955,2.17317,-0.281537,0.510247,-1.7726,-0.85399,0.446711,0.646238,0.171891,1.19052,-0.0225457,0.461159,0.0173961,0.231521,-0.962473,1.28901,-1.73012,-0.572315,-0.306445,-1.79262,1.12756,-0.373992,-1.6635,-0.0439274,-1.67813,1.73187,-0.839127,-0.0879595,-1.85938,0.282488,-1.07666,0.974903,0.418133,0.830028,-0.616381,-1.9883,0.940417,-2.32595,0.404126,1.16872,0.704663,-0.200458,1.21142,0.764858,0.302152,-1.59004,0.391961,2.09647,1.07854,0.547735,0.698118,-0.906966,-0.336835,-1.20495,-0.12273,-0.449562,0.157138,-0.113455,-1.44176,0.260049,0.36532,-1.59693,-0.428013,-0.35021,1.44858,1.9758,-0.432684,1.50286,0.196692,0.248327,0.896918,0.616855,-2.39445,-0.897801,0.183681,0.435787,0.396525,-1.79355,-0.182659,2.21047,0.195787,0.843269,-0.1026,-2.88068,1.49412,-0.739005,-0.476334,-0.90495,-0.584179,-1.23356,-0.223264,0.822242,0.893765,0.259837,1.48354,0.6797,0.235467,-0.526083,1.51348,-0.964208,-0.141448,0.882779,1.55992,-2.06591,-0.908295,-1.00162,-0.0558039,0.138964,0.0299704,0.450069,-0.47906,0.126181,-1.89851,0.67804,-0.581464,-0.691164,-1.39397,-1.55506,0.632412,0.977917,-0.3369,-0.653277,-0.00820006,0.715408,-0.694594,-1.26908,-0.1697,-1.37507,-0.887253,0.834533,-0.771057,1.51422,-0.889725,-0.318418,0.656396,-0.474733,1.04311,-0.384923,-0.357625,0.462419,0.717248,-0.147571,-1.10178,-0.70038,2.56687,2.01478,-0.0663383,0.506765,0.7691,-0.321081,-0.209602,0.559824,1.52816,-0.0729209,-0.444546,0.511395,0.799999,1.38092,-0.819858,-1.95268,-0.206405,-2.00599,1.45441,-0.99204,-0.293353,-0.118961,-1.30142,0.779945,0.521394,-1.40804,-1.98446,-0.763656,0.432407,0.525292,-0.127716,-1.16004,0.329083,0.482127,0.154784,0.0943959,-1.00625,0.160597,0.137389,0.64788,0.708745,-2.10786,-1.8044,0.307002,1.25702,0.825974,2.23998,-1.17319,-0.574591,0.102688,0.505296,-0.967432,-0.102534,1.34163,0.104777,-0.251453,-0.0420058,1.12619,1.82286,-0.253932,0.173407,0.479726,-0.769271,0.490903,0.578184,1.35987,1.25011,0.114383,-0.666492,1.68624,1.32312,0.937024,-0.0445712,-0.330986,1.88749,0.631041,-1.55058,0.774948,0.167095,1.27014,0.119551,-0.0188715,-0.410258,0.277677,-1.30734,0.384124,0.157178,-0.182225,1.3524,1.12639,0.852631,0.283523,-1.03104,-0.44338,-0.180913,0.227463,-0.0702911,1.26987,0.433829,-0.158835,-0.24463,2.14907,1.34593,-0.102879,-0.354417,-0.413917,-0.307477,-0.473978,0.444622,0.527416,-1.15522,0.0725928,1.61139,0.0558851,-0.78975,0.843041,1.3433,0.154333,0.367913,0.173173,1.05924,0.237473,1.34388,-0.0988558,-1.42008,-1.42985,-0.558315,-0.285441,0.522355,-0.218236,-0.0205651,1.69131,0.415614,-0.447887,0.94868,-0.084759,-0.964991,-1.91877,-0.765627,1.1382,-0.390069,-0.372455,3.07709,1.1855,1.56982,0.528144,-0.109406,-0.99173,1.19135,-0.273978,-0.0688218,0.258858,0.327463,0.0833123,0.339938,-0.13029,-0.231531,-0.173056,-0.181174,-0.310188,0.239125,-0.0985356,0.837202,0.0477265,-0.943773,-0.23385,2.03239,1.64304,-0.0151206,0.582907,0.234136,0.855754,1.03232,-0.420121,-0.539535,0.286934,-0.311114,0.497371,-1.12601,-1.55606,-0.536619,0.500114,-0.629584,-0.136238,-0.178415,0.22987,-0.651386,-0.399366,1.9704,-1.98944,-0.0767446,-1.78761,-0.784344,1.26488,1.45294,-0.507826,-1.20321,-0.674028,0.191424,-0.608621,-0.129275,-0.479208,-0.243549,-0.00636595,0.519081,-1.62086,-0.471691,-0.751217,-0.404506,0.381136,-0.145233,0.662084,2.01563,-1.1919,-0.503985,-0.433496,-0.410444,-0.781985,2.29358,1.40909,0.535079,-0.816877,-0.748177,-2.27502,1.08079,-1.77704,-0.856332,1.43873,-0.508877,-0.507094,0.849932,0.675349,1.05835,0.166363,-0.677773,-1.49276,1.41629,0.476554,1.06852,-1.06798,-0.680946,-0.824099,0.208105,-0.486137,0.484994,-2.41554,-2.52885,1.45024,0.793363,-0.832824,-0.871423,1.00558,-1.39371,-1.36599,0.323299,-1.51108,-0.0362889,-1.13619,0.339755,0.822173,1.73623,1.05455,-0.334533,0.484901,-0.92733,-0.16691,0.555511,-3.64021,-1.11744,0.0424139,0.485892,-0.152679,1.44231,-1.44124,0.637313,-0.0798553,-0.820786,0.124141,0.454646,-1.80106,-0.128585,-1.56492,0.798174,0.594679,-0.295451,1.70977,-0.612489,-0.300785,0.569806,-0.287447,-0.852872,0.236253,1.51407,-0.310636,1.75445,0.57099,-0.846725,0.381322,0.841197,1.13983,-1.05219,-0.857588,0.688426,0.745623,-0.372557,1.03932,-1.98727,2.2581,-0.353375,0.620298,0.514113,-1.38938,-0.247665,-1.11251,-0.0220518,0.0048236,-0.868127,0.925339,0.0840823,-0.991671,0.387341,0.944347,1.34721,0.852546,0.828499,-0.566706,-0.198375,-0.472297,0.717907,1.83265,0.418245,-1.16306,1.90022,1.53104,0.891489,-0.148804,-1.0931,0.564914,0.870489,-0.295313,0.292218,-0.553792,-0.353878,-1.60917,0.709375,0.0515647,-1.0558,0.548539,-1.18725,0.718427,0.186599,0.715697,-0.521277,0.905053,-0.864964,0.344599,0.809451,-0.442025,-1.12472,-0.459993,-0.441648,-0.251824,-0.562042,0.88005,-2.27642,0.652037,0.860492,-1.53446,0.19073,0.947233,-1.09993,-0.85408,-0.269198,0.266234,-1.14678,0.18409,-0.750077,-0.785265,-1.3736,-0.427955,0.0913975,0.986647,-0.280559,-1.90846,-0.0400156,1.69284,0.330894,0.529347,-0.122481,0.575663,0.0856829,1.80787,-1.9286,-1.20008,-0.301832,0.667216,0.687534,1.54725,0.309557,-0.245102,0.582495,0.182339,-0.570321,-1.6135,-0.760395,1.01705,0.521542,-0.688275,0.707029,0.63777,1.16789,-0.417377,-1.39053,1.11699,0.741392,0.70437,1.64684,0.699256,0.976096,0.201934,-0.177254,1.15685,-1.09107,-1.62272,2.11642,-0.504641,-0.734367,0.0724043,0.523635,0.258323,-0.647077,-1.28543,0.744363,0.748777,-0.814332,-1.59336,-0.0767371,-0.541086,0.708975,-0.0460983,0.952362,0.828323,-0.392582,-0.219171,-0.530975,0.00752362,0.609797,0.415772,0.690075,-0.415938,-0.386072,0.972041,0.0698945,1.08174,-0.567063,1.24268,1.09711,0.680785,-1.54234,0.715555,0.954546,0.904705,-0.385246,0.436772,0.870174,0.533025,-1.03902,0.342016,-1.56092,1.66573,0.391942,0.61048,2.28816,1.10658,-0.71274,-0.37105,-1.45731,1.17091,-1.40363,0.0913094,-1.02433,0.130783,0.810641,0.173389,0.196563,-0.214677,-1.19522,-0.378411,-0.146232,0.750365,-0.227527,-0.451788,0.767962,-1.52702,0.0284823,0.611285,0.320325,0.966807,0.966771,0.226588,0.351447,-1.35244,-0.101844,-0.140267,1.31306,-0.754961,1.00507,1.44778,0.197936,0.202673,0.314533,0.729891,0.914157,-1.48688,1.1978,-0.657102,-0.357113,-0.234396,0.393759,0.850668,0.379021,-0.857853,-1.22293,1.29872,-1.22362,-0.191156,-0.522619,1.34998,0.747161,0.666513,-1.91967,-0.266445,0.902608,-1.01564,-1.50849,0.346154,0.749024,-0.698978,-1.44221,0.788874,1.50491,-0.68937,-0.685785,-0.790536,-2.15364,1.10232,-0.0570163,-0.777383,0.337507,-0.407729,-0.464623,0.677252,-2.29083,-0.456861,0.758522,-0.569637,-0.247434,1.65097,-0.447141,-0.672581,-0.224721,-0.510752,-0.838002,-1.40676,2.12763,-1.95984,-0.332161,-0.361901,0.201796,1.28381,-0.334067,0.988831,-0.790713,-2.06916,-1.61375,0.239732,1.39183,-0.184041,0.895969,0.265827,-0.440677,-0.296062,0.170559,1.583,2.04433,1.80031,0.702754,-0.508168,-1.01123,-1.11929,-0.0421811,-1.62504,0.69428,-0.353098,-0.0346822,-2.20797,-1.37036,-0.171538,-0.11071,-0.681884,-1.08869,-0.0705494,0.871069,0.300583,0.196656,-0.3831,-1.06075,0.688046,0.178784,-1.55372,1.16208,-0.627899,1.12565,0.268729,-0.141509,0.299183,0.948451,-0.719985,-0.798787,-0.511619,0.605944,0.0510005,0.331885,1.15806,-0.471743,-1.56104,-1.15357,0.51305,-0.207309],[0.177764,0.491069,1.11292,0.826371,-0.291902,-0.437263,0.854646,-0.726167,0.784421,0.509388,-1.62224,-0.235542,-0.460928,-0.32372,-1.50459,-0.233067,0.0795443,0.646776,-0.687577,-0.988941,1.62871,0.332268,-0.443023,1.02108,0.476186,-0.508582,-0.623411,-0.83313,-0.45319,-1.29822,0.370797,0.274678,0.509574,-0.111783,0.21318,2.76465,-0.834526,-0.718565,-0.113163,1.01537,0.75357,-0.75833,1.07634,-1.55909,-2.12842,1.54217,1.237,-1.19846,2.02283,-0.931087,0.344327,-0.014975,-0.285023,0.298849,0.162133,-2.51554,0.211894,-0.554795,0.530383,-1.76482,0.527757,0.0468428,1.20141,-0.0765218,1.22921,0.602982,1.32227,-2.26663,0.127368,-0.13719,-1.11107,0.923266,-0.67799,-0.552749,0.02174,-1.24435,0.668653,1.09143,-0.206094,0.38573,1.33993,1.67413,-0.889584,-0.230354,0.097754,-0.793628,-0.117214,1.28294,-0.0407123,1.90826,-0.319184,1.37712,-0.840798,0.0779964,-0.594325,1.11022,0.570124,-0.829214,-0.436944,0.984782,0.887695,-0.265828,1.27542,0.482578,1.69149,-1.21286,-1.48552,-1.11709,1.67523,-0.448694,-0.350654,0.489802,0.00602971,1.30366,0.52853,0.40975,-4.03242,-0.759871,-1.08245,0.957417,1.45762,-0.232521,0.98197,-1.34705,-0.365347,1.06633,0.467594,2.09768,-0.818323,0.214866,-0.464517,-0.0338413,-0.446225,1.79282,-0.747542,1.91529,-0.319616,0.604902,0.608202,0.561758,-0.0695414,-0.494338,1.4286,-0.00817909,-0.308796,0.029212,0.218165,-1.19936,-2.10908,0.263076,0.0611651,0.271945,-0.274909,0.372139,2.11035,-0.374862,-0.0244452,-1.37812,-0.425522,-0.00795443,0.130613,-0.362884,0.511046,-0.568452,0.386976,0.723228,-2.47695,-1.25281,-0.29098,-0.372528,-0.318913,0.108162,0.884236,0.263752,0.307601,0.796815,0.0333663,-0.278544,-0.450954,-0.375254,-1.15016,1.95527,-1.45623,0.73502,-1.61428,-0.483857,-0.804774,1.81846,-0.350501,2.59142,0.423565,0.352751,-0.281645,0.437423,1.01546,-0.0930429,1.03368,0.766064,0.359427,0.851013,1.2786,-0.200487,1.30437,-1.1978,-1.63859,1.71645,-0.848304,1.16871,1.05125,0.669844,-1.49677,-1.584,0.912448,0.264506,-0.422959,0.97145,-0.288144,0.209532,0.0666874,0.704175,-2.18181,-0.310647,1.45,0.0894124,-1.80863,1.38073,0.0817733,1.43781,0.403114,-0.981775,-0.330514,-1.58995,1.66931,1.70825,0.19826,0.249505,1.09017,0.688599,1.91988,0.836699,-2.34573,0.284707,-1.00526,1.85981,-0.709398,0.0572399,0.906031,-0.0043256,0.0862067,-0.715064,-0.996628,-1.09469,-0.114446,1.44775,1.86852,-0.0239979,0.927649,-1.32766,1.33275,0.513738,0.196346,1.40838,0.435082,-0.0208116,0.478424,0.717409,-1.69598,0.34164,1.66636,1.80567,-1.28079,-0.807485,-0.29962,-0.621269,-1.35703,-0.314979,0.381805,-1.689,-0.110911,0.435572,1.00195,0.396204,1.38455,0.98229,0.478766,1.40215,0.453118,0.701147,0.569369,-1.37774,0.681198,-0.544542,0.891654,-0.685409,-0.37772,-0.157164,-1.02233,0.540491,-1.16626,0.719427,-0.26991,0.262723,0.446219,1.6566,1.30037,0.197372,-0.586351,0.182016,-0.820328,0.118161,-0.622317,1.02267,0.456665,-0.35643,-1.3865,-0.417226,0.864869,0.688684,1.23718,0.226889,-0.57948,0.58198,-3.21198,0.506795,-0.507441,-0.647777,-1.08873,1.35836,-0.052389,0.226736,-0.279552,-0.144177,1.27304,-0.409795,1.40473,0.0862754,-0.918704,2.24495,0.890613,-0.302894,0.70406,-0.160784,1.45284,2.06435,-0.793563,-2.06537,-1.1127,-2.03894,-1.67407,0.324125,-0.920038,-2.00483,-1.53895,-1.27274,-1.12549,0.105589,0.0433217,0.552025,1.77947,-0.586896,1.9286,-0.743452,-0.238311,0.179365,1.74791,-0.735755,1.65999,1.07421,-0.0987948,-0.399816,-0.716236,2.24012,1.26067,0.527698,0.979338,1.27285,0.95768,-1.96563,-1.74407,-0.0905857,-1.59883,-0.88757,-0.410787,1.67838,-1.4504,0.994061,-0.376564,-0.826082,1.22471,-1.08648,-0.0763523,-0.530928,-0.0367929,0.0154691,0.726539,-1.24364,-1.78661,-0.0118831,-0.785237,-1.01674,-1.48271,0.408319,-1.94625,1.50817,-0.548238,-0.746096,-1.09932,0.722513,2.6126,1.17118,0.377253,-2.55013,2.01351,0.762401,0.510557,-0.503244,1.33002,-2.37738,-0.135544,-1.142,0.28689,-0.0753022,-2.15511,-0.345113,1.50959,-0.141773,-0.827812,-0.528724,-0.315121,-1.06717,-0.679945,-0.789975,-0.435743,0.942408,0.670633,-0.75225,-0.942833,-1.43993,-0.332821,0.0705645,0.224671,0.480812,1.11311,0.355956,1.30313,-1.05035,-0.970827,-0.692599,0.695963,2.60791,0.430857,-1.45578,-0.457905,1.01624,2.33173,1.1656,0.982111,0.0197128,-0.862565,0.168879,0.0183133,-0.384752,-0.953574,-0.128837,0.0917748,-1.56579,-1.33992,0.450625,1.75124,0.903382,-0.0404398,1.14576,-0.774207,1.01481,-2.24417,-0.59049,0.370775,-0.18002,1.68446,-0.308921,1.53458,0.540914,0.985475,-1.02852,0.260865,3.44321,-0.634098,0.330959,-1.10511,1.65983,-0.179658,1.14204,-0.722881,0.390569,0.809787,-1.37216,0.668886,0.870249,0.326822,0.198448,-0.104488,-0.636461,0.885859,0.0594816,0.574154,-0.21754,0.482984,1.11748,-0.16871,-1.79561,0.472914,0.501225,-1.27713,0.657518,-1.0097,0.868754,3.57743,-0.270197,-0.250013,1.28007,-0.564642,-1.37362,-0.188597,0.204046,0.774767,1.2701,0.822212,-0.00284925,2.16363,-0.569676,-0.314223,2.10898,0.361881,0.702248,2.84481,-1.16726,-0.00621249,-0.561239,-1.00953,-1.38091,0.266669,-0.0602152,1.64094,0.415935,0.931218,1.18865,-0.361827,-1.6006,-0.696894,-1.67138,0.425938,-0.730677,1.2691,-1.05346,0.857809,-0.59322,0.94317,0.765109,-0.0670659,0.336047,0.72538,-0.204809,-0.146175,1.41582,-0.258506,0.325212,0.568354,-0.421393,0.293232,1.50709,0.56132,2.52362,1.40656,-0.409216,-0.882693,0.945015,-0.475463,0.236355,1.19025,2.00682,-1.28256,-0.501254,1.12256,-0.196379,1.37841,-0.232292,1.90984,-0.692338,-0.452699,1.0519,-1.55733,-0.551197,-0.397154,-0.306464,-1.21922,-1.08877,-0.583263,0.952241,-1.28831,-0.952341,1.25868,0.545827,0.422732,1.23163,0.0189281,-1.19562,-1.51314,2.01545,0.449683,-1.82978,0.865459,-1.32159,-0.00400455,0.051599,0.349514,-0.275162,-0.0678704,-0.442535,-0.73357,-0.30483,0.701148,0.772044,0.688919,0.458625,-0.162023,1.84796,0.347635,-0.259852,-0.0324989,0.281989,-0.0391791,0.723481,-0.72766,-0.796738,-1.58399,-1.11573,0.248764,-1.06982,0.747616,-0.511034,-0.683108,-0.723657,-1.4201,1.30831,0.125994,-0.0772268,0.438661,-0.827825,-0.325636,0.684922,0.562116,-0.228263,-2.54873,-1.18323,0.0211824,0.0143515,-0.243058,-2.64747,0.531311,0.475852,0.6365,-0.404426,0.315352,0.0602813,0.132401,1.01606,0.513084,-0.405218,0.706197,-0.626393,-0.457659,-0.438507,1.39701,1.41731,-0.00207778,-0.301911,-1.55929,-0.0104212,-0.157707,0.314379,0.761741,0.0298678,-2.53911,-0.131712,1.30364,-0.543265,0.740981,1.32041,0.501161,0.680995,1.68679,0.262158,-0.0251797,0.932619,-2.35777,0.81114,-0.606767,1.71066,1.96608,0.361174,0.803061,0.287606,-0.190468,-0.762143,0.0662303,0.308531,-0.664505,-1.18557,-0.634396,-0.225126,0.562884,0.158121,2.41551,-0.0915349,-0.0853346,1.53928,-0.192045,-1.55486,-0.644125,-1.16697,-0.384619,-0.311841,-0.0414044,0.858682,0.744,0.342964,0.5238,-0.758328,1.11059,1.012,-1.34274,-0.097726,0.0189958,-1.51178,-0.406654,-1.10469,-0.0587312,0.289775,1.26347,0.664882,-0.69081,0.915051,1.46819,-0.43276,0.407403,-0.71682,-3.02128,0.209133,-2.54889,-0.165968,1.23808,-0.158813,-0.559609,0.605239,0.0310702,1.14419,0.588705,0.347323,1.40328,-1.66212,-0.0588848,0.293475,-0.354242,-0.454171,0.340794,-0.497321,1.27601,0.0855661,-0.175514,-1.16142,0.899451,-0.0206171,1.00353,0.691863,0.109212,0.755953,-0.449568,0.172302,-1.41429,1.39147,0.527748,0.0965646,-1.25911,1.77445],[0.699608,-0.0385449,-0.236915,0.119652,1.10102,-0.386492,0.767573,-0.520191,0.632424,1.19045,0.334864,-2.36521,1.14603,0.237399,0.11421,-2.23712,-0.779571,-0.776198,-0.0634881,0.807977,0.30065,0.44978,-0.132327,0.687926,0.384323,-2.49419,2.55369,-0.831259,0.689032,-1.0346,0.421574,-0.39203,-0.72771,-0.709891,0.857772,0.308709,0.778732,0.433351,-1.47051,-1.65633,0.110214,0.81765,1.93424,-0.0452662,-0.0958015,0.872764,1.08164,0.0834996,0.287741,-1.34935,-1.55183,-0.418822,-0.643407,-1.04815,0.454729,1.29619,-1.03404,1.75355,-1.00943,-1.29453,-0.421538,0.176702,0.95475,0.334268,-0.381694,-0.811327,0.463019,-1.76293,0.118315,-1.06617,-0.0687142,0.160625,-0.608891,-0.433036,0.979875,-0.10944,1.57391,-0.479605,0.878289,0.485621,1.86789,0.156554,1.51782,2.05894,1.09247,-0.0252522,-0.249314,1.1571,-1.16496,-0.427159,0.597582,0.222441,-0.0852633,0.323443,-1.14295,0.0647021,-0.141142,0.0270998,-0.87981,-0.40643,-0.474342,1.74979,-1.56544,-0.0540211,0.898117,1.39657,-0.480762,0.320022,0.410422,0.805978,-1.11305,-0.0328021,-0.103912,0.0286983,-1.71397,-0.707572,2.04499,-0.170137,-0.544318,0.946378,-0.993613,-0.112131,-1.01861,-0.48684,-1.39451,1.58942,1.37559,1.32838,-1.18196,-1.87065,1.14748,-0.867783,1.16954,-0.131443,0.809365,0.182324,0.729747,0.443686,0.578663,0.0638418,0.408658,-0.000950388,0.449037,0.263388,1.60872,0.220939,-1.43885,-0.946415,0.395937,1.48759,0.458042,-0.253233,0.263108,-0.260077,-1.07261,-0.135576,0.0636555,-0.207516,-1.38427,-1.39749,-0.451748,1.23335,0.0467914,1.45768,-0.294297,-1.08308,2.11463,0.764582,2.81741,-1.0099,0.43832,-2.99351,-0.275796,-0.365622,-0.391204,1.40285,-1.24718,-0.170465,0.543383,1.33096,-1.64582,1.14626,0.770279,-0.377874,1.2397,-1.30522,0.447866,0.169934,0.521456,-2.51472,0.26506,1.22558,0.504723,-0.823456,0.592023,-1.78085,1.8725,0.338023,-0.0135173,1.00053,-0.0401553,-1.24016,-0.558476,-0.0851832,-0.32681,-0.854373,-1.43841,-0.727885,-1.48935,-0.315447,-0.622291,-0.478592,-0.835003,0.240983,-0.843118,-2.19317,0.0452194,1.18507,1.01323,-0.304492,-0.529991,-1.69767,0.0330722,0.0834805,0.829257,2.42915,0.15908,0.311082,-1.37501,1.29257,0.285884,-2.08382,1.18989,-1.97159,1.64536,-0.856947,1.38824,-0.830453,0.155737,-1.75222,-0.968825,1.83375,0.298305,0.268894,-0.0399112,0.834979,1.87746,0.148342,0.252776,-0.824685,-0.602901,0.203497,0.455687,-0.574382,-0.179756,0.699915,0.227648,-0.986682,-1.54222,-0.459724,0.0421212,0.582067,-0.18564,1.03603,-1.46687,-0.563035,1.1305,-0.91669,-1.44344,0.956812,0.639645,0.571908,-0.680066,1.38392,-0.679784,0.297241,0.367065,1.05865,0.996764,-0.725017,0.889931,-0.245026,0.237714,2.78959,-1.88677,0.330021,0.304923,-2.10159,-0.654479,0.135068,-0.00308552,-0.512817,0.511737,-0.597396,0.452742,-0.606094,-0.873689,1.64131,0.0223553,0.47881,-0.319344,-1.05797,1.2724,1.0207,0.281342,-0.792669,-0.589846,-0.437052,1.50752,2.00879,2.02082,0.450664,0.478445,1.26421,0.290309,-0.135337,0.583406,-0.973356,-1.65827,-0.742349,-0.511386,-1.12371,-1.04624,-1.29511,-0.979496,-0.572167,0.852888,-0.10424,-0.720296,-1.15722,-0.665076,-2.12911,0.433478,-0.689254,1.00706,0.197763,-1.26656,-0.586242,0.458615,2.74448,0.305113,-1.00547,-1.71285,0.706157,-0.994556,0.316289,0.105209,-0.84954,0.920581,-0.0469227,-0.789069,-0.16492,0.105326,-0.239158,1.01761,-0.147709,0.121983,1.04597,-0.457049,0.210368,0.408437,1.01884,0.898048,-0.938379,-1.21479,1.4103,0.969708,1.35413,-0.653129,-0.593494,-1.76344,-0.290742,1.88929,1.08375,-0.832311,0.979114,-0.0927759,-1.09927,-0.0563308,-1.54209,-0.101169,0.548656,0.999574,-0.171356,0.710319,-1.98543,0.860148,-0.216215,2.11352,0.209179,-0.873815,-0.825667,-1.31814,-1.17487,-1.85163,1.07399,-0.787941,-0.406676,-1.04479,-0.348659,0.472328,-0.5436,-0.354129,-0.764533,1.81673,0.292564,1.63406,-0.345257,0.428282,-1.41013,0.571129,0.633535,2.41328,0.193512,-1.2356,0.146593,-1.51233,1.62047,1.0974,1.21162,1.01222,-0.237821,-1.30491,-0.31286,1.74715,-0.293028,0.131491,0.0171136,-0.144508,-1.07611,-0.393173,-0.163635,-0.236258,-0.835895,1.44209,-1.27421,-0.73592,0.600795,0.345827,1.70558,-0.71867,-0.90497,1.75107,1.16901,-0.16717,-0.853904,-1.27211,-0.0833638,-2.14575,0.600481,0.957002,0.365425,1.64293,0.121988,-0.69219,2.09144,1.50971,0.945628,1.71007,-1.22896,-0.0228465,0.413803,-0.0741375,1.08911,1.62367,0.425563,0.343846,0.56078,-1.90143,-0.834695,-1.78386,0.126828,-1.44236,0.965356,-1.4076,-1.38662,1.13393,0.21024,0.243625,-0.976645,1.82244,-2.05235,1.07967,1.11861,-0.465152,0.722297,1.1685,-0.53131,0.55903,0.499752,0.0461192,-0.0769885,0.0629514,-0.66345,0.398156,0.538734,-0.807334,-0.379792,-1.33926,-0.311266,-0.0322178,-1.25043,-0.707351,-0.389384,-0.349234,-1.33372,-0.997469,-1.00095,-0.439132,-0.243033,-0.873236,0.0989652,-0.789429,0.374268,-0.597123,-0.475184,0.163683,-1.25098,1.12203,1.01473,0.146254,-3.11974,0.6166,0.202955,0.550411,-0.492788,-0.533908,0.251747,0.697557,0.348099,1.80877,-1.02962,-0.463246,-0.348268,-0.965991,0.285887,1.01658,0.420494,-1.64364,-0.697522,0.526372,-0.732334,-1.68597,0.208661,-0.136345,1.16652,1.87665,0.255723,1.21367,0.755247,-1.28746,-0.97652,-0.194967,-0.435903,0.499777,1.39137,1.48282,-0.801675,0.469922,0.532086,-0.0222567,-0.478086,0.641711,1.16628,0.127182,-1.81523,-0.209526,1.71577,0.458324,0.593164,4.74956,-0.0829031,-0.94487,0.471834,-0.41846,0.680603,1.59439,0.264174,1.03042,-1.35722,-1.276,0.500824,1.30402,1.49231,0.221911,0.676656,-0.000506882,-3.08182,-1.10587,-0.728561,1.02869,1.36425,0.419884,-0.106145,-1.11454,0.505131,-0.3694,-1.02416,0.364178,-0.945334,0.811678,0.224163,-0.574949,0.433431,1.03802,0.447485,-0.596284,-0.35882,0.667719,1.60116,2.54789,-1.97496,-2.05643,0.931908,-0.16511,-1.01523,-0.0335072,0.496785,-0.134838,-0.140335,-0.552494,-0.970961,0.0723458,-1.2343,0.941987,1.17463,0.338041,-1.03024,-0.382314,0.0908498,1.71994,1.02135,1.43737,0.0741813,1.69372,-0.239116,-1.84243,1.44694,-0.0555654,-0.604806,0.316457,0.734322,-1.09205,-0.670603,0.639178,-1.38912,1.99452,-0.359802,-0.687849,-1.72212,0.190059,-0.0910338,-1.38497,-0.456581,0.748951,1.47929,1.57075,0.0382622,-0.488988,0.652224,-0.359226,-1.74647,0.874357,-0.328572,-1.71157,0.784278,0.0746798,-1.25472,-0.103463,-2.09434,-1.13877,1.52402,0.684684,1.82378,0.315054,0.348425,-0.338901,0.13211,-1.45589,-0.505738,0.7443,-1.15852,-0.402721,-2.02291,0.493243,0.383063,-1.35941,0.219847,-0.387817,-0.0979984,-0.0169558,-0.0301428,0.354074,0.44891,0.411577,0.876885,1.0685,-0.111166,-1.13128,-0.518803,-0.886161,-0.118476,-1.274,0.792851,-0.109856,0.864314,-0.707106,0.17679,0.0902894,-0.316532,-1.61035,0.676351,0.00298363,-0.078003,-0.00711946,-0.513461,-2.34975,0.556479,